FANN_FLO_2.1
num_layers=3
learning_rate=0.700000
connection_rate=1.000000
network_type=0
learning_momentum=0.000000
training_algorithm=2
train_error_function=1
train_stop_function=1
cascade_output_change_fraction=0.010000
quickprop_decay=-0.000100
quickprop_mu=1.750000
rprop_increase_factor=1.200000
rprop_decrease_factor=0.500000
rprop_delta_min=0.000000
rprop_delta_max=50.000000
rprop_delta_zero=0.100000
cascade_output_stagnation_epochs=12
cascade_candidate_change_fraction=0.010000
cascade_candidate_stagnation_epochs=12
cascade_max_out_epochs=150
cascade_min_out_epochs=50
cascade_max_cand_epochs=150
cascade_min_cand_epochs=50
cascade_num_candidate_groups=2
bit_fail_limit=1.00000000000000005551e-01
cascade_candidate_limit=1.00000000000000000000e+03
cascade_weight_multiplier=4.00000000000000022204e-01
cascade_activation_functions_count=10
cascade_activation_functions=3 5 7 8 10 11 14 15 16 17 
cascade_activation_steepnesses_count=4
cascade_activation_steepnesses=2.50000000000000000000e-01 5.00000000000000000000e-01 7.50000000000000000000e-01 1.00000000000000000000e+00 
layer_sizes=31 11 2 
scale_included=0
neurons (num_inputs, activation_function, activation_steepness)=(0, 0, 0.00000000000000000000e+00) (0, 0, 0.00000000000000000000e+00) (0, 0, 0.00000000000000000000e+00) (0, 0, 0.00000000000000000000e+00) (0, 0, 0.00000000000000000000e+00) (0, 0, 0.00000000000000000000e+00) (0, 0, 0.00000000000000000000e+00) (0, 0, 0.00000000000000000000e+00) (0, 0, 0.00000000000000000000e+00) (0, 0, 0.00000000000000000000e+00) (0, 0, 0.00000000000000000000e+00) (0, 0, 0.00000000000000000000e+00) (0, 0, 0.00000000000000000000e+00) (0, 0, 0.00000000000000000000e+00) (0, 0, 0.00000000000000000000e+00) (0, 0, 0.00000000000000000000e+00) (0, 0, 0.00000000000000000000e+00) (0, 0, 0.00000000000000000000e+00) (0, 0, 0.00000000000000000000e+00) (0, 0, 0.00000000000000000000e+00) (0, 0, 0.00000000000000000000e+00) (0, 0, 0.00000000000000000000e+00) (0, 0, 0.00000000000000000000e+00) (0, 0, 0.00000000000000000000e+00) (0, 0, 0.00000000000000000000e+00) (0, 0, 0.00000000000000000000e+00) (0, 0, 0.00000000000000000000e+00) (0, 0, 0.00000000000000000000e+00) (0, 0, 0.00000000000000000000e+00) (0, 0, 0.00000000000000000000e+00) (0, 0, 0.00000000000000000000e+00) (31, 6, 5.00000000000000000000e-01) (31, 6, 5.00000000000000000000e-01) (31, 6, 5.00000000000000000000e-01) (31, 6, 5.00000000000000000000e-01) (31, 6, 5.00000000000000000000e-01) (31, 6, 5.00000000000000000000e-01) (31, 6, 5.00000000000000000000e-01) (31, 6, 5.00000000000000000000e-01) (31, 6, 5.00000000000000000000e-01) (31, 6, 5.00000000000000000000e-01) (0, 6, 0.00000000000000000000e+00) (11, 6, 5.00000000000000000000e-01) (0, 6, 0.00000000000000000000e+00) 
connections (connected_to_neuron, weight)=(0, -6.42058579018288000384e+00) (1, -9.88609078951151187820e-02) (2, -1.62401828594476889400e-02) (3, -2.34555933304102133541e-02) (4, -2.31406423874170492916e-02) (5, 3.73832444663315804911e-02) (6, 6.08437111536408559154e-01) (7, 2.18022419332235678491e-01) (8, 1.34020527393061383847e+00) (9, 2.23027431138106302377e-01) (10, 3.32462460465975551127e-01) (11, 9.06476893139623096651e-01) (12, 5.27850429937880560871e-01) (13, 5.96510800373059368873e-01) (14, 5.01129093604314124200e-01) (15, -2.96776029514708161727e-01) (16, 1.66664069912336981760e-01) (17, 1.28524646117355167974e+00) (18, 1.27302038917769833049e+00) (19, 6.60416423145102071679e-02) (20, 1.66732529714738120230e-01) (21, 3.09752470775032762162e-01) (22, -1.65676415671971832833e-01) (23, 1.21037070308882133141e+00) (24, 2.70987957536083512444e-01) (25, 7.99161725480276419198e-01) (26, 1.12705589862202235074e-01) (27, 4.18412432093668518185e-01) (28, 3.06677523962472706187e-02) (29, 4.97521190419282360873e-02) (30, -7.77147206789263050863e-02) (0, 4.27821217550617571845e+00) (1, 4.16614813860941013424e-01) (2, 2.91753957178878975398e-01) (3, 3.58124261852789005367e-01) (4, 3.66545802113103946773e-01) (5, 2.89493881974484001951e-01) (6, 2.19534859785277136623e+00) (7, -1.05096457174721491512e+00) (8, 7.40357445304443295697e+00) (9, -5.97051888812830555686e-01) (10, 1.74846891158139894351e-01) (11, -1.02073833591729368209e+00) (12, -5.03458521396648484014e-01) (13, 3.78918848518567008554e+00) (14, 7.29919228109640361168e+00) (15, -7.74461761658331804270e-01) (16, 7.23047512331286590381e+00) (17, 3.68820236290769987164e-01) (18, -9.12050267284936100332e-01) (19, -2.34653160191720111527e-01) (20, 8.46911930976258081616e-03) (21, -2.44732618352616060342e-02) (22, 8.31868032425363695959e-02) (23, -2.21652588922357507428e-01) (24, -1.27834717944222381325e-01) (25, 2.08131342735176055880e-01) (26, -8.44223234353389806461e-02) (27, -1.34445610089582945346e-01) (28, -5.97008523557180814656e-01) (29, 6.73662480569345578640e-02) (30, -1.84745519997832757797e-01) (0, 2.69455220411370603983e+01) (1, 4.03437816522705328115e-01) (2, 2.96166502855407964834e-01) (3, 3.75033975563633215078e-01) (4, 3.16776399485456716665e-01) (5, -4.59351621176827484838e-01) (6, -4.37038778796923654824e+00) (7, -2.48915041514185331195e+00) (8, -1.40273376408253191983e+00) (9, -4.69576281717612176170e-01) (10, -6.15814056570440637728e-01) (11, -4.45470686206092980619e-01) (12, -8.11421454421722643247e-01) (13, -9.96815077410434402516e-01) (14, -3.69401357924301843028e+00) (15, -5.35629169587741649217e-01) (16, -1.06525494962827238510e+00) (17, -9.23106256375043177087e-01) (18, 1.31986515861263753457e-01) (19, 1.71400382672805273732e-01) (20, 1.60613741391839759398e-01) (21, -2.15119172210540909873e+00) (22, -8.46030054424333544105e-01) (23, 1.77007942888464664399e-02) (24, 1.18893022038988527278e+00) (25, 8.24443734761611535244e-02) (26, -4.95397475337669201956e-01) (27, 1.63509532527782941447e-01) (28, -4.50058314367846978854e+00) (29, -1.34897168023519919977e-01) (30, 4.92697682759004107478e-01) (0, 4.13467233701330538764e+00) (1, 3.51535926461059522463e-01) (2, 3.93603148758251142336e-01) (3, 3.88271557986576032473e-01) (4, 4.01298197805721235110e-01) (5, 2.43758880410458150800e-01) (6, 2.22314947077471503079e+00) (7, -1.87996321900588281295e+00) (8, 7.35515957449724133710e+00) (9, -5.01843094934275257835e-01) (10, 9.65278050437710505305e-02) (11, -9.71557835707962280658e-01) (12, -5.55328262301381325727e-01) (13, 4.52741586868815737432e+00) (14, 7.22953520122093440392e+00) (15, 1.03899143399768911777e+00) (16, 7.28240440347472350879e+00) (17, 4.73370925749617033063e-01) (18, -7.98115131980008163382e-01) (19, -1.01620950020497452515e-01) (20, 1.05308461576083672862e-01) (21, 8.29327285269057384864e-02) (22, 2.33375301441522298163e-01) (23, -2.94908619601106591901e-01) (24, 1.54494166225615445209e-02) (25, 1.93369894828681915255e-01) (26, -1.65192301898988758158e-01) (27, -1.80429036362451999942e-01) (28, -5.08446746531719617757e-01) (29, 4.40210905528528040342e-02) (30, -2.16483994962928250061e-01) (0, 1.04815651949751265093e+00) (1, -5.29159847596364918410e-02) (2, -1.65254808456478594070e-03) (3, -1.77265647748189973665e-02) (4, 7.98916649123949246247e-02) (5, 9.37350330758465050129e-03) (6, 4.36762537396545164059e-02) (7, 1.44877381166075236418e-01) (8, -9.56725616063612838147e-02) (9, -6.80904816472494844870e-02) (10, -4.76097445571387056784e-02) (11, -1.69756838715572211385e+00) (12, -1.32077065310274122112e+00) (13, 6.22033944124731064118e-02) (14, -3.30510821589302672407e-02) (15, -1.06958036015396218410e-01) (16, -9.78997574476346554828e-02) (17, -4.92032185812215971943e-01) (18, -1.09026534043556266873e+00) (19, -2.99891385974172919315e-01) (20, -7.54012629782427556968e-01) (21, -7.95767048527469378350e-01) (22, 2.71752435391507396467e-01) (23, -2.20533498079022310945e-03) (24, -1.10757442458493571280e+00) (25, -2.95891608221582613769e-01) (26, -7.17271228088470547135e-01) (27, -1.67217311014890596121e-01) (28, -2.74316850864693151379e-01) (29, -4.83272634753451169054e-01) (30, 3.76412477394861139102e-02) (0, 2.84316264445524735649e+00) (1, 3.04550618994929744865e-01) (2, 1.68246151078441125160e-01) (3, 2.50803218353488455161e-01) (4, 2.70074607003428945884e-01) (5, -7.15110197842011297009e-02) (6, -1.88116649365921473347e+00) (7, -1.17573273987736981461e+00) (8, -1.27889800348794246965e+00) (9, -7.19092662446623620554e-01) (10, -4.01391821519288649611e-01) (11, -6.25053355250313247282e-01) (12, -6.13308856043770278532e-01) (13, -4.37820220630727163780e+00) (14, -2.14246853061943776098e+00) (15, -9.47788501211180856032e-01) (16, -1.44774548295848548563e+00) (17, -8.27059968556948410523e-01) (18, -3.22244220125610214556e-01) (19, 4.47551571451691720949e-03) (20, 2.55354270450972198336e-01) (21, -2.05925875018100647262e-02) (22, -3.95087417390134754136e-01) (23, -3.55571715378833053123e+00) (24, 4.64779812083302434900e-01) (25, -3.20446743647543608180e-02) (26, 2.61837128873591562517e-01) (27, -2.44820913923290250924e-01) (28, -7.03501290940960588571e-01) (29, -1.04528333072755419408e+00) (30, 4.51542399643194147796e-01) (0, 2.25455154944582325527e+00) (1, 2.39462582891316194678e-01) (2, 2.50574781124920653586e-01) (3, 1.70019088809818974539e-01) (4, 1.48544399564594975516e-01) (5, 3.15989359968613728324e-02) (6, -1.84894940084715342365e+00) (7, -2.73071960190884643893e+00) (8, -3.02598838376239704928e+01) (9, -7.59656919103175787278e-01) (10, -6.06896785506312985703e-01) (11, -7.37023239735319579680e-01) (12, -3.50937250012691992485e-01) (13, -5.90342367315411031825e+00) (14, -2.86556118196194065106e+00) (15, -1.05327748977636903582e+00) (16, -6.33848978495916348663e+00) (17, -7.28637094254234840562e-01) (18, -2.51442750852759744351e-01) (19, 3.45265022804279314572e-02) (20, 3.26770618669889878483e-01) (21, -2.18135163979920276844e-01) (22, 1.34305854572749328035e+00) (23, -3.55633129024577376853e+00) (24, 4.72579547318316528504e-01) (25, 5.17282701485076851222e-02) (26, 3.19905927473973061836e-01) (27, 2.76950925008768888969e-01) (28, 1.57517243125583772390e+00) (29, 5.79382045226900954660e-01) (30, 6.11658677707864195661e-01) (0, 3.01165349389057679375e+00) (1, 3.53494064081408931877e-01) (2, 1.72610351014831048255e-01) (3, 1.83605388868548852210e-01) (4, 1.64236457217433434730e-01) (5, 5.28793364584555433683e-02) (6, -1.82633679187794184529e+00) (7, -1.16174666644301693985e+00) (8, -9.20544761971419212010e-01) (9, -7.01623695902949151559e-01) (10, -1.80283578445383591005e-01) (11, -6.95020774159386123259e-01) (12, -6.34455034289314712126e-01) (13, -4.43120284270606390464e+00) (14, -1.97676094242363697973e+00) (15, -1.06839425308324376118e+00) (16, -1.11129674427650493307e+00) (17, -6.43494629808178841834e-01) (18, -1.59323881683636314754e-01) (19, 5.75324636014607412871e-02) (20, 6.47300110696545638600e-02) (21, 2.13574388523294148023e-03) (22, -2.18609589854140362597e-01) (23, -3.50954966837239501487e+00) (24, 5.97088205800114568689e-01) (25, 8.21364679356129806509e-02) (26, 2.79572021539931436784e-01) (27, -2.83593571436908720163e-01) (28, -9.90494005311465475216e-01) (29, -1.04754924600217425024e+00) (30, 3.88340923754703526427e-01) (0, -6.27126408135467006133e+00) (1, -2.47335169143945883541e-02) (2, -1.19136124444750052254e-01) (3, -1.51171456617859079063e-01) (4, -2.14898470468790243892e-02) (5, -1.00246026087257175674e-01) (6, 5.75601076642418996165e-01) (7, 6.26634484092141286204e-01) (8, 1.23201990440923392356e+00) (9, 3.13089988876935010342e-01) (10, 2.93734014697619449930e-01) (11, 7.80262037082217863038e-01) (12, 5.89469140330697194408e-01) (13, 7.13758434009057252112e-01) (14, 3.30729902879202619648e-01) (15, -4.28557905601896882430e-01) (16, 2.24935492894552863108e-01) (17, 1.29232618167068302739e+00) (18, 1.24673079202403491728e+00) (19, -1.48788688739482852230e-02) (20, 2.65536754763707083526e-01) (21, 2.30660929305935624711e-01) (22, -3.15100025143962361729e-03) (23, 1.30666939397412673607e+00) (24, 1.70183319418531597833e-01) (25, 2.09893481665481079768e-01) (26, -4.72373649164689879409e-02) (27, 3.27044866998243977108e-01) (28, 5.88868562094186365208e-02) (29, 1.37568670369633605510e-01) (30, -1.13857449901700810702e-01) (0, 4.25575298144203539863e+00) (1, 3.93842073976833295657e-01) (2, 3.67998610138732862307e-01) (3, 4.23232543170291852785e-01) (4, 3.45423857569534253908e-01) (5, 2.12825954768921438154e-01) (6, 2.21233753093916662991e+00) (7, -1.07629849804727739659e+00) (8, 7.41872115557243283490e+00) (9, -6.05138458420088398704e-01) (10, 2.35795374804055879459e-01) (11, -9.72520011136829620746e-01) (12, -6.98269383313353753095e-01) (13, 4.52056608800940828985e+00) (14, 7.26206934976500750878e+00) (15, 1.05723054843121611057e+00) (16, 7.26694266059676330372e+00) (17, 3.38777029181795474866e-01) (18, -9.37824567383355289785e-01) (19, -1.88469749159758698243e-01) (20, 7.55012744603501123608e-03) (21, 7.06608772257125011818e-02) (22, -1.11773047218158422256e-01) (23, -1.26272886175489262861e-01) (24, -1.33505213275509793114e-01) (25, 2.15695842709426849337e-01) (26, -1.48985575467142139505e-01) (27, -2.31483670516294981478e-01) (28, -5.61224916044468336018e-01) (29, 9.06195399022562131375e-02) (30, -3.17926305922028917816e-01) (31, 4.05346519430832108455e-01) (32, 4.22711033950183168173e-01) (33, -1.84400918867083013497e-01) (34, 4.72259339521262422323e-01) (35, -3.85265906728547574689e-02) (36, -2.27176798090166776056e-01) (37, -3.18825252909999357076e-01) (38, -2.23063727423376823022e-01) (39, 4.10594410380081376033e-01) (40, 4.57013529370162263632e-01) (41, 3.26630060205790884176e-01) 
