FANN_FLO_2.1
num_layers=3
learning_rate=0.700000
connection_rate=1.000000
network_type=0
learning_momentum=0.000000
training_algorithm=2
train_error_function=1
train_stop_function=1
cascade_output_change_fraction=0.010000
quickprop_decay=-0.000100
quickprop_mu=1.750000
rprop_increase_factor=1.200000
rprop_decrease_factor=0.500000
rprop_delta_min=0.000000
rprop_delta_max=50.000000
rprop_delta_zero=0.100000
cascade_output_stagnation_epochs=12
cascade_candidate_change_fraction=0.010000
cascade_candidate_stagnation_epochs=12
cascade_max_out_epochs=150
cascade_min_out_epochs=50
cascade_max_cand_epochs=150
cascade_min_cand_epochs=50
cascade_num_candidate_groups=2
bit_fail_limit=1.00000000000000005551e-01
cascade_candidate_limit=1.00000000000000000000e+03
cascade_weight_multiplier=4.00000000000000022204e-01
cascade_activation_functions_count=10
cascade_activation_functions=3 5 7 8 10 11 14 15 16 17 
cascade_activation_steepnesses_count=4
cascade_activation_steepnesses=2.50000000000000000000e-01 5.00000000000000000000e-01 7.50000000000000000000e-01 1.00000000000000000000e+00 
layer_sizes=31 11 2 
scale_included=0
neurons (num_inputs, activation_function, activation_steepness)=(0, 0, 0.00000000000000000000e+00) (0, 0, 0.00000000000000000000e+00) (0, 0, 0.00000000000000000000e+00) (0, 0, 0.00000000000000000000e+00) (0, 0, 0.00000000000000000000e+00) (0, 0, 0.00000000000000000000e+00) (0, 0, 0.00000000000000000000e+00) (0, 0, 0.00000000000000000000e+00) (0, 0, 0.00000000000000000000e+00) (0, 0, 0.00000000000000000000e+00) (0, 0, 0.00000000000000000000e+00) (0, 0, 0.00000000000000000000e+00) (0, 0, 0.00000000000000000000e+00) (0, 0, 0.00000000000000000000e+00) (0, 0, 0.00000000000000000000e+00) (0, 0, 0.00000000000000000000e+00) (0, 0, 0.00000000000000000000e+00) (0, 0, 0.00000000000000000000e+00) (0, 0, 0.00000000000000000000e+00) (0, 0, 0.00000000000000000000e+00) (0, 0, 0.00000000000000000000e+00) (0, 0, 0.00000000000000000000e+00) (0, 0, 0.00000000000000000000e+00) (0, 0, 0.00000000000000000000e+00) (0, 0, 0.00000000000000000000e+00) (0, 0, 0.00000000000000000000e+00) (0, 0, 0.00000000000000000000e+00) (0, 0, 0.00000000000000000000e+00) (0, 0, 0.00000000000000000000e+00) (0, 0, 0.00000000000000000000e+00) (0, 0, 0.00000000000000000000e+00) (31, 6, 5.00000000000000000000e-01) (31, 6, 5.00000000000000000000e-01) (31, 6, 5.00000000000000000000e-01) (31, 6, 5.00000000000000000000e-01) (31, 6, 5.00000000000000000000e-01) (31, 6, 5.00000000000000000000e-01) (31, 6, 5.00000000000000000000e-01) (31, 6, 5.00000000000000000000e-01) (31, 6, 5.00000000000000000000e-01) (31, 6, 5.00000000000000000000e-01) (0, 6, 0.00000000000000000000e+00) (11, 6, 5.00000000000000000000e-01) (0, 6, 0.00000000000000000000e+00) 
connections (connected_to_neuron, weight)=(0, 3.27133135591783430485e+00) (1, 2.80467951962240558128e-01) (2, 1.76541002759226073326e-01) (3, 3.65092905530222278099e-01) (4, 2.56278613874204863610e-01) (5, -5.93105751348788068356e-02) (6, -1.82907212019383802470e+00) (7, -1.46017100689021162019e+00) (8, -2.32730274732263264781e+00) (9, -8.76581758484358042338e-01) (10, -4.22084632474470311525e-01) (11, -8.06556680001977777117e-01) (12, -7.31762968697313165300e-01) (13, -5.73438969101588114086e+00) (14, -1.71574315275141064951e+00) (15, -7.48159600203553987186e-01) (16, -1.69180197200512583144e+00) (17, -1.03037362277441202352e+00) (18, -1.18674283400398483668e-01) (19, -7.38203921899460713263e-02) (20, 2.48879251709791637914e-01) (21, -1.27603165036459020865e-01) (22, 1.24611174332791230235e-01) (23, -4.58401677275618357754e+00) (24, 7.15956998751808293413e-01) (25, -4.52173640162951973043e-02) (26, 2.86857365764023486410e-01) (27, -1.10858052399308959490e-01) (28, -7.40859257337039722735e-01) (29, -7.63772795256561054522e-01) (30, 5.29543378525142993674e-01) (0, 5.18957403276742468279e+00) (1, 3.49966325812410883334e-01) (2, 4.25318301670622400668e-01) (3, 2.93531724267077021029e-01) (4, 2.31656313889097992265e-01) (5, 2.10019834287954371144e-01) (6, 2.84350895304779172079e+00) (7, -8.56633046440425038881e-01) (8, 5.10691928643666503973e+00) (9, -5.39053432236019758328e-01) (10, 1.90517084259464314355e-01) (11, -1.10351590411738653685e+00) (12, -8.74151526097187603348e-01) (13, 5.27711829063404458395e+00) (14, 3.10007804354027394211e+00) (15, 3.56600893806501284544e-01) (16, 4.01998248306299199584e+00) (17, 2.85016287515375887907e-01) (18, -6.69685446872020695430e-01) (19, -1.93374045074398870359e-01) (20, -2.20296316025920951853e-02) (21, -6.82845802810065349853e-02) (22, 1.03788574139129341489e-01) (23, 7.83608126457591563918e-02) (24, -3.26277243445203035677e-01) (25, 2.58111292955556015372e-01) (26, -2.18397414473382373012e-01) (27, -2.21739469694738233763e-01) (28, -6.18841321410354083810e-01) (29, -5.12405283999774807668e-01) (30, -3.27518471105176400826e-01) (0, -7.29786681797278014017e+00) (1, 3.42954410499521616246e-03) (2, -6.59312783341985120256e-02) (3, -1.51037211583195191134e-01) (4, 5.00973774379679086949e-03) (5, 2.30017195102200200374e-01) (6, 4.75504751689042159946e-01) (7, -2.76924869141817298068e-01) (8, 1.16655563595932654231e+00) (9, 2.00793717824549855511e-01) (10, 4.12978938076056734108e-01) (11, 8.87750027063642810354e-01) (12, 8.56468462678943942556e-01) (13, 6.54401299965213234522e-01) (14, 6.29334771600267517400e-01) (15, -2.06767844489557095500e-01) (16, 3.46856807461390859171e-01) (17, 1.28548501538519222009e+00) (18, 7.41937505754942550062e-01) (19, -4.39573265317267647401e-02) (20, 2.29874652464865325552e-01) (21, 2.77169617024345782408e-01) (22, 2.77995083024499683999e-02) (23, 8.36735527189874095377e-01) (24, 9.13924160341077929104e-01) (25, 2.38373408372396428101e-01) (26, 8.56023309302265944520e-02) (27, 3.30122437086989406474e-01) (28, 3.98321801411396669845e-01) (29, 3.19626108896959165717e-02) (30, -9.13141130310732573871e-02) (0, 5.28320819859088430803e+00) (1, 3.55196372621130518343e-01) (2, 3.05253484301638178255e-01) (3, 4.26513583414625696566e-01) (4, 3.41095314376425318148e-01) (5, 2.00155124016595881153e-01) (6, 2.86979841236571431295e+00) (7, -9.59714906088652730531e-01) (8, 5.04577685672722964227e+00) (9, -6.28534841875139860257e-01) (10, 2.80641080398037090493e-01) (11, -1.09961955593899984862e+00) (12, -8.04669426832327450150e-01) (13, 5.26814560112465279929e+00) (14, 3.09173220117882374680e+00) (15, 3.41715095709844485228e-01) (16, 4.12385816482091804858e+00) (17, 3.02090201924059664762e-01) (18, -7.32028634502197239620e-01) (19, -1.54180794835503454099e-01) (20, -7.22254969356722897889e-02) (21, -4.34451045300833921248e-02) (22, 1.80460524658214271909e-01) (23, 5.45817109759707957961e-02) (24, -2.30635503778741091097e-01) (25, 2.94151602772154852072e-01) (26, -1.01471750227300178127e-01) (27, -2.06934063362722242552e-01) (28, -6.19536326469596332345e-01) (29, -4.68689002347324357167e-01) (30, -3.45783420426923226998e-01) (0, 3.29463998695053961185e+00) (1, 2.07853699394949187340e-01) (2, 3.51216765412577014427e-01) (3, 2.30361623981483659707e-01) (4, 3.18872900971659045677e-01) (5, 1.02695065431470181072e-01) (6, -1.30790213025762969146e+00) (7, -1.41738837239352233333e+00) (8, -2.18791737119705853587e+00) (9, -8.29623557850832193949e-01) (10, -2.83451299327898198488e-01) (11, -7.46958442725900506609e-01) (12, -7.40588293173078393572e-01) (13, -5.45262917187235540695e+00) (14, -1.74177170763799016306e+00) (15, -8.15202122335950796206e-01) (16, -1.71054381629185137115e+00) (17, -1.00166631221704660604e+00) (18, -2.11149503961426038279e-01) (19, -5.89791187629365026845e-02) (20, 4.37323436927765263338e-01) (21, -6.05988271296215852413e-02) (22, 1.18285579251938721690e-01) (23, -4.62828745211085124112e+00) (24, 7.62535290013930611153e-01) (25, -9.36130573184497383199e-02) (26, 2.73800342477204028402e-01) (27, -1.01425609913022796160e-01) (28, -5.86053582188075905535e-01) (29, -9.51027654584831627638e-01) (30, 3.68476853840713991506e-01) (0, 2.25756510927550912982e+00) (1, 9.39538998891677190617e-02) (2, 3.87842281152571757841e-02) (3, 1.36771418004211275932e-01) (4, 3.82381899644698222684e-02) (5, -1.44411919866023030767e-01) (6, -3.41684365974052384196e-01) (7, -2.04612741575820850093e-01) (8, -2.13927894838775445319e-02) (9, -2.33600449309530611153e-02) (10, -2.30900047960765214539e-02) (11, -9.76775420419353945789e-01) (12, -5.79286805763366108302e-01) (13, -1.00785261547271631777e+00) (14, -8.53503020232054709915e-01) (15, 5.09643257901528576315e-02) (16, -7.91967658256439444031e-01) (17, -7.47272757743744131531e-01) (18, -3.62767409943844265641e+00) (19, 7.07053116250061786108e-02) (20, 1.30950894637091613815e-01) (21, -8.04199942446931215212e-02) (22, -4.10265140465844058149e-01) (23, -2.49504996762585917747e-01) (24, 3.73729873969767589781e-01) (25, -1.87337361107334482435e-01) (26, -3.51997206284518526775e-01) (27, 1.60660064806776692325e-01) (28, 8.09212847555827896606e-01) (29, 8.86001631790894195184e-01) (30, 8.85083196275959632748e-02) (0, 5.15473718543232450884e+00) (1, 3.81042377107214502718e-01) (2, 2.87795458935570291903e-01) (3, 3.75029207222532801058e-01) (4, 3.89347762816023401644e-01) (5, 2.43354055978847433339e-01) (6, 2.97736313362220927914e+00) (7, -1.92645439221807190933e+00) (8, 5.07213593054496048040e+00) (9, -5.42151398549381879910e-01) (10, 9.10911723560829805768e-02) (11, -6.06455198414698304354e-01) (12, -7.38718918041130323537e-01) (13, 5.30886710700500863425e+00) (14, 2.94972163160637501633e+00) (15, 3.45304830144925967161e-01) (16, 3.98921966535235394957e+00) (17, 2.78097663471911227262e-01) (18, -6.68102496518398258907e-01) (19, -1.39977767944748754392e-01) (20, -2.91136063812442863474e-02) (21, -6.53859261824662474361e-02) (22, 4.07790773608796980332e-02) (23, 5.31630767544703786154e-03) (24, -2.07575599203393079684e-01) (25, 2.43044933763423065542e-01) (26, -1.70920973805276404933e-01) (27, -2.07733197736387098509e-01) (28, -6.83783219398673480782e-01) (29, -3.91994551074836827809e-01) (30, -2.57934071643430185006e-01) (0, 1.59463655630710441358e+01) (1, 3.92635485895593328021e-01) (2, 3.03849431493003530047e-01) (3, 2.68400682874639195941e-01) (4, 3.51907125481088323138e-01) (5, -2.00808867183128791911e-01) (6, -3.34852332244559658392e+00) (7, -1.99751938365857473201e+00) (8, -1.27418848295386211156e+00) (9, -1.77567757037083051586e-01) (10, -2.84285097685257392985e-01) (11, -1.14927007008344639338e+00) (12, -1.03020611155778873957e+00) (13, -8.18202054294421832203e-01) (14, -3.16865007979603596766e+00) (15, -4.79147796532970293715e-01) (16, -1.01599666293328039224e+00) (17, -1.00010830105752712704e+00) (18, -1.44206131372801971136e-01) (19, 1.64719413749819687531e-01) (20, 4.46153360025955264545e-02) (21, -6.61729484020617708673e-01) (22, 2.51435433789905848911e-01) (23, 1.06459709476196873190e+00) (24, 1.46528448675849154448e+00) (25, 6.23239355700088704104e-02) (26, -1.05957674421335745762e+00) (27, 5.12368589628121262614e-01) (28, 6.12807653617372938282e-02) (29, -1.71565407689614302100e+00) (30, 4.78533665580617328938e-01) (0, -7.26756016578447905374e+00) (1, -3.67716281276326412142e-02) (2, -1.75937591653447487905e-02) (3, -1.72615434096394015917e-01) (4, -1.41694462911425123064e-01) (5, 1.58708418365940850947e-01) (6, 5.99351442790831412388e-01) (7, 1.94090333429396438847e-01) (8, 1.15769935432118109553e+00) (9, 2.94155915104479970257e-01) (10, 2.78215559426106817664e-01) (11, 8.14360094550405699820e-01) (12, 8.45205110791479419241e-01) (13, 7.15628426947945817105e-01) (14, 3.16520974006823274660e-01) (15, -8.01377543124979635492e-02) (16, 2.22657981902994267509e-01) (17, 1.38526144216213431548e+00) (18, 7.96901008865785964730e-01) (19, 2.06364166069683552251e-02) (20, 1.71036424854678847929e-01) (21, 1.89584339168949511656e-01) (22, -1.93247471461297989914e-02) (23, 1.27461227536871724020e+00) (24, -1.39367898269255885424e-01) (25, 2.36310670430654484742e-01) (26, 8.35393620204861464540e-02) (27, 4.24544647094895366557e-01) (28, 4.32899387168175386886e-01) (29, 2.89391492235902686447e-02) (30, -1.01835671711605596501e-01) (0, 1.08945101040050085217e+00) (1, 8.92302419483618075580e-02) (2, 7.69879471003965532017e-02) (3, 1.02234146320815497133e-01) (4, 1.28424989753957163874e-01) (5, 2.02718293512509084575e-01) (6, -5.55492597531556331347e-01) (7, -5.25993789715194193235e+00) (8, -8.86471270423222890145e+00) (9, -2.56352777383611785122e-01) (10, -2.24372134003674283953e-01) (11, -2.70708710558667485502e-02) (12, 2.60508944921123253291e-01) (13, -5.74963763575832231822e+00) (14, -7.93233560897386968946e+00) (15, -5.73498872217230837300e-01) (16, -7.23720007207909699076e+00) (17, 7.11750995159869725981e-01) (18, -2.81294152200643687856e-01) (19, 2.45282413435393698009e-02) (20, 3.51474316635259464991e-01) (21, -3.18560153598693648891e-02) (22, 8.19860418798398882245e-01) (23, -5.39172958490690046318e+00) (24, 6.98299417420681356461e-02) (25, -1.15567491887928086580e-01) (26, 9.92946197879416736498e-01) (27, 1.63602195008850821722e-02) (28, 2.73304555113946245903e-01) (29, -7.57676253138931943276e-01) (30, 3.77237749483438356002e-01) (31, -1.94235993393664041484e-01) (32, 4.85943588589473118855e-01) (33, 4.48995659921646694812e-01) (34, 4.58429436360640873982e-01) (35, -2.61044008501772617503e-01) (36, -1.16323471736268727744e-02) (37, 4.79060175989909520222e-01) (38, -2.71591647604105757008e-01) (39, 4.27090716969680539439e-01) (40, -2.68224149760981522839e-01) (41, 3.53047618124606166212e-01) 
