FANN_FLO_2.1
num_layers=3
learning_rate=0.700000
connection_rate=1.000000
network_type=0
learning_momentum=0.000000
training_algorithm=2
train_error_function=1
train_stop_function=1
cascade_output_change_fraction=0.010000
quickprop_decay=-0.000100
quickprop_mu=1.750000
rprop_increase_factor=1.200000
rprop_decrease_factor=0.500000
rprop_delta_min=0.000000
rprop_delta_max=50.000000
rprop_delta_zero=0.100000
cascade_output_stagnation_epochs=12
cascade_candidate_change_fraction=0.010000
cascade_candidate_stagnation_epochs=12
cascade_max_out_epochs=150
cascade_min_out_epochs=50
cascade_max_cand_epochs=150
cascade_min_cand_epochs=50
cascade_num_candidate_groups=2
bit_fail_limit=1.00000000000000005551e-01
cascade_candidate_limit=1.00000000000000000000e+03
cascade_weight_multiplier=4.00000000000000022204e-01
cascade_activation_functions_count=10
cascade_activation_functions=3 5 7 8 10 11 14 15 16 17 
cascade_activation_steepnesses_count=4
cascade_activation_steepnesses=2.50000000000000000000e-01 5.00000000000000000000e-01 7.50000000000000000000e-01 1.00000000000000000000e+00 
layer_sizes=31 11 2 
scale_included=0
neurons (num_inputs, activation_function, activation_steepness)=(0, 0, 0.00000000000000000000e+00) (0, 0, 0.00000000000000000000e+00) (0, 0, 0.00000000000000000000e+00) (0, 0, 0.00000000000000000000e+00) (0, 0, 0.00000000000000000000e+00) (0, 0, 0.00000000000000000000e+00) (0, 0, 0.00000000000000000000e+00) (0, 0, 0.00000000000000000000e+00) (0, 0, 0.00000000000000000000e+00) (0, 0, 0.00000000000000000000e+00) (0, 0, 0.00000000000000000000e+00) (0, 0, 0.00000000000000000000e+00) (0, 0, 0.00000000000000000000e+00) (0, 0, 0.00000000000000000000e+00) (0, 0, 0.00000000000000000000e+00) (0, 0, 0.00000000000000000000e+00) (0, 0, 0.00000000000000000000e+00) (0, 0, 0.00000000000000000000e+00) (0, 0, 0.00000000000000000000e+00) (0, 0, 0.00000000000000000000e+00) (0, 0, 0.00000000000000000000e+00) (0, 0, 0.00000000000000000000e+00) (0, 0, 0.00000000000000000000e+00) (0, 0, 0.00000000000000000000e+00) (0, 0, 0.00000000000000000000e+00) (0, 0, 0.00000000000000000000e+00) (0, 0, 0.00000000000000000000e+00) (0, 0, 0.00000000000000000000e+00) (0, 0, 0.00000000000000000000e+00) (0, 0, 0.00000000000000000000e+00) (0, 0, 0.00000000000000000000e+00) (31, 6, 5.00000000000000000000e-01) (31, 6, 5.00000000000000000000e-01) (31, 6, 5.00000000000000000000e-01) (31, 6, 5.00000000000000000000e-01) (31, 6, 5.00000000000000000000e-01) (31, 6, 5.00000000000000000000e-01) (31, 6, 5.00000000000000000000e-01) (31, 6, 5.00000000000000000000e-01) (31, 6, 5.00000000000000000000e-01) (31, 6, 5.00000000000000000000e-01) (0, 6, 0.00000000000000000000e+00) (11, 6, 5.00000000000000000000e-01) (0, 6, 0.00000000000000000000e+00) 
connections (connected_to_neuron, weight)=(0, -7.80522942326577506833e+00) (1, -1.85377703104286695179e-01) (2, -1.29434169326096082386e-01) (3, -2.60121678058176486470e-01) (4, -2.73328163717060534932e-01) (5, 3.15379794145909331249e-01) (6, 1.12368992500851616612e+00) (7, 7.59336169917688375008e-01) (8, 1.68322525673879064279e+00) (9, 7.09231946841228921841e-01) (10, 3.64382572341379717962e-01) (11, 1.02547667042032042417e+00) (12, 1.25518102374121975906e+00) (13, 1.74340651095100640511e+00) (14, 1.05460536363986712161e+00) (15, 3.02708591539347093846e-01) (16, 9.15925561993237047353e-01) (17, 1.06519627764712465634e+00) (18, 8.35937055848656185297e-01) (19, 1.95042940580829798902e-01) (20, 4.50914197108657877067e-01) (21, 5.08992547857450405857e-01) (22, 3.33905875427693898949e-01) (23, 2.33546934514622739343e+00) (24, 1.58638787711134800207e-02) (25, 3.98313591096103147837e-01) (26, 3.47538838115144188556e-01) (27, 7.70838034045974063169e-01) (28, 1.74913921825877671790e-01) (29, 6.07979207169199065142e-01) (30, -8.02674059238308812425e-01) (0, 2.26022318044965686568e+00) (1, 1.69059510844094096349e-01) (2, 3.47625385395114033793e-02) (3, 1.20531018393379860121e-01) (4, 1.22339534929816352166e-02) (5, 3.70633786041632273811e-02) (6, 5.24492352884547319292e-01) (7, 9.94160337075297370624e-04) (8, 8.16762916033742736310e-01) (9, -1.19985136238062506386e-01) (10, -2.77413819784873595664e-02) (11, -7.18671937874488353515e-01) (12, 4.66732866017988134999e-01) (13, 3.73596393408225257993e-01) (14, 1.05971474599357851076e+00) (15, -9.87290996633824607942e-02) (16, 1.20729740230154147795e+00) (17, 1.48662225288006166757e+00) (18, 6.28305429687571970199e-01) (19, 3.35290847921217050054e-01) (20, 2.54064203734560636883e-02) (21, 2.16552498026646500495e-01) (22, -5.22322512181330189662e-02) (23, -6.79278358329538783922e-03) (24, -1.50390455186586252667e-01) (25, 4.70308500131126239197e-01) (26, 9.03828353786033933392e-02) (27, 1.76442371781209722537e-01) (28, 7.53401061692381968093e-02) (29, -3.19334315827948383992e-02) (30, 2.15048763245703211666e-02) (0, -6.42574482362081450537e-02) (1, -7.38614307835720323991e-02) (2, -2.73947114244125974891e-02) (3, -3.75128735604156760691e-04) (4, -4.76777324572228156097e-02) (5, 1.24677309163634078559e-01) (6, -3.91918843534665994888e-01) (7, -3.00011152506726497258e-01) (8, -6.51946110950339008383e+00) (9, -7.85512082860113924898e-02) (10, -4.52578989763453010120e-01) (11, -4.10828270407121054486e-01) (12, -1.27844856768676740089e-01) (13, -5.37252866269589990367e+00) (14, -8.48203005164952017481e+00) (15, -3.27598178014169794103e-01) (16, -5.56611117752372752676e+00) (17, 3.78809279294878120670e-01) (18, 1.70232550214980099534e-01) (19, 2.76481039418353558013e-01) (20, -1.39154892093306791628e-02) (21, 2.89776378120571928565e-02) (22, 1.08569353523095199487e-01) (23, -5.60430936379830546556e-01) (24, 4.45061565835354722154e-01) (25, 1.13412422819192795775e-01) (26, 2.86309899674523860025e-01) (27, -7.95175099289314318840e-02) (28, 9.18664926129392211962e-03) (29, 2.08324800136421683927e-01) (30, 1.61101915644762228030e-01) (0, 3.08224772507698252522e-01) (1, 2.19829197228116647589e-02) (2, -2.75506187975244863642e-02) (3, 4.03791184723538768009e-02) (4, 9.79646112024945558971e-02) (5, -2.79489564957343783469e-01) (6, -1.45934669483738704843e-01) (7, 1.14083329949248302171e-01) (8, 4.07067819711822154183e-01) (9, -3.53560870181896858000e-01) (10, -3.25146574842382019011e-01) (11, 5.91405829213522160615e+00) (12, -2.79663248135418984752e-01) (13, 4.18087294876272053124e-01) (14, 5.16451641445824338739e-01) (15, -1.67251163902428584551e-01) (16, 2.26352114068796794744e-01) (17, 4.83869678767350119841e+00) (18, 1.49001866759844658894e+00) (19, 9.16787828374489688343e-01) (20, 7.46213241219825795802e-02) (21, 9.35644871047355969340e-02) (22, 3.78787195564280254612e-01) (23, 1.87047856908244991558e-01) (24, 3.53008322469065938254e-01) (25, 1.64479145439917684435e+00) (26, 5.50736485657029706253e-01) (27, 2.16936256134671795470e-01) (28, 4.54155441016655114783e-01) (29, 3.46141077529648177880e-01) (30, 1.46049551625657803022e-01) (0, 1.20141313614975847601e-01) (1, 8.65482088062125981542e-02) (2, 7.42164473864394963476e-02) (3, 6.47447552415687521687e-02) (4, 4.62449785205681154765e-02) (5, -1.41131338409525658451e-01) (6, -4.03850254611756220857e-01) (7, 2.07147536956176735179e-02) (8, 9.71601529945631398055e-02) (9, -3.55585809259723217846e-01) (10, -3.20847999362707692050e-01) (11, -1.66735530093581862943e+00) (12, -9.40079282231630952715e-01) (13, 1.14937726563950390335e-01) (14, 9.81196294531914148251e-02) (15, -5.67610564170188736099e-01) (16, 1.93735659976712853991e-01) (17, -1.88929492948293065169e+00) (18, -1.26239975577743668289e+00) (19, -1.58687791686534435120e-01) (20, -2.29496614659664061042e-01) (21, -6.20107621142699794170e-01) (22, -2.62245151528387177020e-01) (23, 2.25816061468459727823e-01) (24, 3.50696867869772777038e-01) (25, -9.49027755896455493811e-01) (26, -2.27705832779212657968e+00) (27, 4.15764273416184160226e-01) (28, 3.60455741330115375654e-01) (29, 4.17039514764451058060e-01) (30, 1.36874744534909054128e-01) (0, 3.85889425585565160048e+00) (1, 1.52125041501862318105e-01) (2, 9.29036769441191484509e-02) (3, 7.63679775765959550915e-02) (4, 1.57228525297982008047e-01) (5, 1.17127540199270088750e-01) (6, 1.32134996453121322801e+00) (7, 2.39094547075038368900e-02) (8, 2.28265268493955630902e+00) (9, -1.06803685603271886206e-01) (10, 1.90284947018945632680e-01) (11, -1.83905947232116928625e+00) (12, 7.20342329240936107837e-02) (13, 3.93239511317183909611e+00) (14, 4.79901942389275770751e+00) (15, 1.53580295844388980964e-01) (16, 3.71252068549056213342e+00) (17, 9.31158607597946441636e-01) (18, 1.30655026861450807019e-01) (19, 2.12945992814484952316e-01) (20, 6.27439237550634076879e-02) (21, 2.11654536273245014177e-01) (22, 3.48600960380508889669e-02) (23, -2.72666661392569967259e-02) (24, -2.17870749917952258312e-02) (25, 2.74740407963748767273e-01) (26, 1.23402627667145187162e-01) (27, -1.36715735819180755906e-01) (28, 3.99590402841000988388e-02) (29, 9.00902723080387601851e-02) (30, 1.13873670397599033310e-01) (0, -7.95625669292720161252e+00) (1, -1.78251188739122767846e-01) (2, -2.64863446845592875878e-01) (3, -2.08971430106939692894e-01) (4, -2.07072925313295741478e-01) (5, 4.82521537150231494273e-01) (6, 1.10143407219002709141e+00) (7, 7.16054716339912245004e-01) (8, 1.71720681094897620333e+00) (9, 4.11548380389802959112e-01) (10, 5.90803538449227949592e-01) (11, 1.20720423880197036404e+00) (12, 7.86318992239045111425e-01) (13, 1.75384715255221679264e+00) (14, 9.79643023344552443810e-01) (15, 3.92876419880001714890e-01) (16, 7.82902884839888346669e-01) (17, 1.17615678340986451467e+00) (18, 6.95891345940647720880e-01) (19, 5.80440483480498592428e-01) (20, 4.41387376073786308339e-01) (21, 5.59746717795009174345e-01) (22, 3.67964058859319265160e-01) (23, 2.48448857902865460900e+00) (24, 9.49568954551688187982e-02) (25, 5.35109636916840658571e-01) (26, 2.87494389292407559466e-01) (27, 9.15035153260964406741e-01) (28, 2.41304078671579519400e-01) (29, 5.70125474464082793169e-01) (30, -6.65380914177769566820e-01) (0, 4.17418252201250972178e+00) (1, 6.20163016521566023975e-01) (2, 5.18457148724429495168e-01) (3, 5.30123092734448797536e-01) (4, 5.26008334511153585744e-01) (5, 4.27337016575539907492e-01) (6, 2.36483636142095665633e+00) (7, -2.22727239536238963424e+00) (8, 5.50569083552199689535e+00) (9, -5.56252558937578411857e-01) (10, 3.12187208379091155064e-02) (11, -3.11319930076972095634e+00) (12, -1.44308856369325444469e+00) (13, 6.39294078541652499581e+00) (14, 1.56770247239079516532e+01) (15, 5.46585823793592329167e+00) (16, 1.03747013930173217489e+01) (17, 5.36625546424223331954e-01) (18, -2.46695431504270379364e+00) (19, -4.54617108279177728480e-01) (20, -6.82449232781588088770e-01) (21, -2.75286040762688200001e-01) (22, 8.61838773109584455057e-02) (23, -3.24696183966767693008e+00) (24, 1.48303472002057801227e+00) (25, 3.00504420139800887402e-01) (26, -3.20444330815760847209e-01) (27, -2.06261348216882023365e+00) (28, -4.37885166427322169991e-01) (29, 3.46698366991791462333e-01) (30, -1.04018570643095920047e+00) (0, 2.32472520361011492085e+00) (1, 1.04595075862747841078e-01) (2, 1.35735462921005967107e-01) (3, -1.26901757546837717916e-02) (4, 1.59138064401490003652e-01) (5, 1.53755906900284206040e-01) (6, 6.27673059385554510392e-01) (7, -5.60421339401583756823e-02) (8, 1.27483593540260553567e+00) (9, -6.86456715110125934715e-03) (10, 4.01489413148293228240e-02) (11, -4.24499582298862032648e-01) (12, 2.07042653441381563351e-01) (13, 4.43754164617087942801e-01) (14, 2.25189930124990533855e+00) (15, 6.08142221500079238616e-02) (16, 1.08956607697319141081e+00) (17, 1.53512803596111635507e+00) (18, 4.50877906849456278060e-01) (19, 4.74142646992052219090e-01) (20, 6.71720208163424092884e-02) (21, 1.24144748724744083401e-01) (22, -1.91551602395106518317e-02) (23, -1.03143773819101017275e-01) (24, -1.19852685988168630726e-01) (25, 3.13505287071224103546e-01) (26, 2.44365690758184761489e-01) (27, -6.45151261946022222538e-04) (28, -7.01561661575784284439e-03) (29, 4.00122580357926693750e-02) (30, 8.54669223815561485136e-02) (0, -3.00862073345329661400e-01) (1, -8.36427988102318581420e-02) (2, -7.97223815312268213606e-02) (3, 3.12873615334151242151e-02) (4, -1.10554996280896877803e-01) (5, 4.71871099692991024382e-03) (6, -4.71103178602681305076e-01) (7, -4.00189446390527003850e-01) (8, -6.44908625559437442831e+00) (9, 9.13176110383090433587e-02) (10, -4.21112766986368791677e-01) (11, -1.62824823942986973702e-01) (12, 1.29258377835103271947e-01) (13, -5.67802419507492928119e+00) (14, -8.51066434651703573877e+00) (15, -5.34150209601526038128e-01) (16, -5.52882608058034907828e+00) (17, 1.98680757077604353000e-01) (18, 8.11477074481490867619e-01) (19, 2.52617925001754284331e-01) (20, 2.22328863563539258497e-02) (21, -2.88249154041282061589e-02) (22, 1.04099934349260445088e-01) (23, -9.72755252499673761513e-01) (24, 6.16992912564526749253e-02) (25, 1.65823211653287783118e-01) (26, 4.02570894628636988255e-01) (27, -9.54739415562049914543e-02) (28, -3.36796488536396099178e-02) (29, 1.99539448025558924238e-01) (30, 2.09107526349184197345e-01) (31, 8.80637504916824243040e-01) (32, 4.91796587527505504878e-02) (33, -5.94220369726341179906e-01) (34, 1.06497993983333386070e-01) (35, -3.89180924976880726618e-02) (36, 4.48293931761116482004e-01) (37, 9.47336264711059250487e-01) (38, 3.36367139551879579251e-01) (39, 6.20745615423242066977e-02) (40, -5.25297327244197975737e-01) (41, 7.27052036599265094630e-01) 
