FANN_FLO_2.1
num_layers=3
learning_rate=0.700000
connection_rate=1.000000
network_type=0
learning_momentum=0.000000
training_algorithm=2
train_error_function=1
train_stop_function=1
cascade_output_change_fraction=0.010000
quickprop_decay=-0.000100
quickprop_mu=1.750000
rprop_increase_factor=1.200000
rprop_decrease_factor=0.500000
rprop_delta_min=0.000000
rprop_delta_max=50.000000
rprop_delta_zero=0.100000
cascade_output_stagnation_epochs=12
cascade_candidate_change_fraction=0.010000
cascade_candidate_stagnation_epochs=12
cascade_max_out_epochs=150
cascade_min_out_epochs=50
cascade_max_cand_epochs=150
cascade_min_cand_epochs=50
cascade_num_candidate_groups=2
bit_fail_limit=1.00000000000000005551e-01
cascade_candidate_limit=1.00000000000000000000e+03
cascade_weight_multiplier=4.00000000000000022204e-01
cascade_activation_functions_count=10
cascade_activation_functions=3 5 7 8 10 11 14 15 16 17 
cascade_activation_steepnesses_count=4
cascade_activation_steepnesses=2.50000000000000000000e-01 5.00000000000000000000e-01 7.50000000000000000000e-01 1.00000000000000000000e+00 
layer_sizes=45 4 2 
scale_included=0
neurons (num_inputs, activation_function, activation_steepness)=(0, 0, 0.00000000000000000000e+00) (0, 0, 0.00000000000000000000e+00) (0, 0, 0.00000000000000000000e+00) (0, 0, 0.00000000000000000000e+00) (0, 0, 0.00000000000000000000e+00) (0, 0, 0.00000000000000000000e+00) (0, 0, 0.00000000000000000000e+00) (0, 0, 0.00000000000000000000e+00) (0, 0, 0.00000000000000000000e+00) (0, 0, 0.00000000000000000000e+00) (0, 0, 0.00000000000000000000e+00) (0, 0, 0.00000000000000000000e+00) (0, 0, 0.00000000000000000000e+00) (0, 0, 0.00000000000000000000e+00) (0, 0, 0.00000000000000000000e+00) (0, 0, 0.00000000000000000000e+00) (0, 0, 0.00000000000000000000e+00) (0, 0, 0.00000000000000000000e+00) (0, 0, 0.00000000000000000000e+00) (0, 0, 0.00000000000000000000e+00) (0, 0, 0.00000000000000000000e+00) (0, 0, 0.00000000000000000000e+00) (0, 0, 0.00000000000000000000e+00) (0, 0, 0.00000000000000000000e+00) (0, 0, 0.00000000000000000000e+00) (0, 0, 0.00000000000000000000e+00) (0, 0, 0.00000000000000000000e+00) (0, 0, 0.00000000000000000000e+00) (0, 0, 0.00000000000000000000e+00) (0, 0, 0.00000000000000000000e+00) (0, 0, 0.00000000000000000000e+00) (0, 0, 0.00000000000000000000e+00) (0, 0, 0.00000000000000000000e+00) (0, 0, 0.00000000000000000000e+00) (0, 0, 0.00000000000000000000e+00) (0, 0, 0.00000000000000000000e+00) (0, 0, 0.00000000000000000000e+00) (0, 0, 0.00000000000000000000e+00) (0, 0, 0.00000000000000000000e+00) (0, 0, 0.00000000000000000000e+00) (0, 0, 0.00000000000000000000e+00) (0, 0, 0.00000000000000000000e+00) (0, 0, 0.00000000000000000000e+00) (0, 0, 0.00000000000000000000e+00) (0, 0, 0.00000000000000000000e+00) (45, 6, 5.00000000000000000000e-01) (45, 6, 5.00000000000000000000e-01) (45, 6, 5.00000000000000000000e-01) (0, 6, 0.00000000000000000000e+00) (4, 4, 5.00000000000000000000e-01) (0, 4, 0.00000000000000000000e+00) 
connections (connected_to_neuron, weight)=(0, 1.18445839684528504421e+01) (1, -2.14428477370606129782e+00) (2, 5.63020474312471819189e+00) (3, -3.96227535934720531685e+00) (4, 1.31591313977038339544e+03) (5, 3.66167306028546812868e+00) (6, 8.39121580514844200849e-01) (7, 6.06331926631944129191e-01) (8, 6.10055886223287480163e+00) (9, 5.65182438682893462101e+00) (10, 2.81148188140693777726e+00) (11, 2.80031968655257657019e+00) (12, 2.82239310718646718712e+00) (13, -5.13905601384960686318e+00) (14, -3.85083996378239756808e+00) (15, -4.79863202612480321818e+00) (16, -4.12133229127501543587e+00) (17, -5.40991032099670299260e+00) (18, -4.95187887873083898427e+00) (19, 1.38938795164707812546e+03) (20, 1.10128862114477343859e+00) (21, 1.99424169694718500523e+00) (22, -3.91853025372985586117e+00) (23, -9.38435655494995746295e-01) (24, 1.41177626916634426379e+03) (25, 5.32538949685155471592e-01) (26, 1.23236104326319466651e+01) (27, -3.90357465493287758562e+00) (28, 5.79718047039690187461e+00) (29, 7.49485473445440231188e+00) (30, 8.91608575744146669706e+00) (31, 7.12304362289601566971e+00) (32, 7.96863901238774285929e+00) (33, 7.68188652900275759094e+00) (34, 7.85596396816674857888e+00) (35, 8.14270082233711001152e+00) (36, 8.22696629775372123561e+00) (37, 7.86723898195857795912e+00) (38, 3.90124327993416064597e-01) (39, 5.66238369252143236565e+00) (40, 2.40496425898460275405e+00) (41, 2.73768044827235401684e+00) (42, 1.20580606887083563450e+00) (43, 1.36049526808000376121e+00) (44, -1.77582920948028855079e+00) (0, -7.58547998762217012825e+00) (1, 2.13347073906108919417e+00) (2, 1.64119117775017708816e+00) (3, 1.59971197323414449087e+00) (4, 1.50000000000000000000e+03) (5, 1.52586813675043075911e+00) (6, 7.96823318943357672417e-02) (7, -1.52636791469802274301e-01) (8, 1.49008649264141190827e+00) (9, 1.45320804083465704437e+00) (10, 1.31151398082166781300e+00) (11, 1.25957312089485151674e+00) (12, 2.92945006278589614723e+00) (13, 1.09848396516982949045e+00) (14, 1.76678787876687359848e+00) (15, 1.21348183326986758246e+00) (16, 1.76254841176692655935e+00) (17, 1.48410138939258051671e+00) (18, 1.22484067255650863615e+00) (19, 2.22493446011211970514e+00) (20, -5.46325921896331778704e-01) (21, -5.98718156342655127844e-01) (22, 1.46837120675418275617e+00) (23, 9.44976696244877012454e-01) (24, 1.50000000000000000000e+03) (25, -9.73418681855842404804e-02) (26, -1.86932264682504944986e+00) (27, 2.46744195492338347364e+00) (28, 1.70661962506155617803e+00) (29, 2.03528187674010929697e+00) (30, 1.96471819555023863302e+00) (31, 1.89780422976298113191e+00) (32, 1.94377006932402740524e+00) (33, 1.92618789674978674320e+00) (34, 2.06590878242663977815e+00) (35, 1.96448264382074611056e+00) (36, 1.93797547874247544364e+00) (37, 1.92488334544062156262e+00) (38, 8.98785605627208106227e-01) (39, 1.14159954022310206057e+00) (40, -9.36069321360084027894e-01) (41, -1.84975729573379515935e-01) (42, 1.23726422311556860656e+00) (43, 1.84326383318895237196e+00) (44, 1.06159593696027679949e-02) (0, -2.74015038158531165635e+00) (1, 4.58251011515811690344e+00) (2, 3.32185977783969832444e+00) (3, 1.30520223946205845778e+02) (4, 1.50000000000000000000e+03) (5, 7.44174766090253285711e+01) (6, 4.06384592599009664138e-01) (7, 5.54599664695292426941e-01) (8, 1.38722954279898999630e+02) (9, 3.07798557648396489128e+01) (10, 8.42274293213401925584e+00) (11, 1.21529186845308032616e+01) (12, 5.98768527737950639889e-01) (13, -1.72641058968484237268e-02) (14, -7.80529695859520089574e-02) (15, -1.28705586093605273135e-01) (16, 2.47537422907809778749e-01) (17, 2.62764527531535174720e-02) (18, -3.14261444212112106555e-01) (19, 4.25211150176430905390e+01) (20, 1.12307573644943411995e-01) (21, -1.44380454716656725367e+00) (22, 7.18871337960574230408e-01) (23, 1.71804615294307549966e+00) (24, 1.50000000000000000000e+03) (25, -1.75078918980649145265e-01) (26, -1.90780542499042948812e+00) (27, 4.32008516205923154274e+00) (28, 2.57277717280179141213e+00) (29, 4.92485751246207748011e+00) (30, 1.87252647262167585041e+02) (31, 3.20842781635490226222e+01) (32, 5.15907982157418576463e+00) (33, 4.52624241947220369298e+01) (34, 4.76495494535205423858e+01) (35, 1.02279477793829549626e+01) (36, 3.52647478710653814460e+01) (37, 2.56256627657563420541e+01) (38, 2.60800784330522583687e+00) (39, 1.19807222376462320312e+02) (40, -3.56009699767197229647e+00) (41, -8.93635943789021558459e-01) (42, 6.60128103491499107491e+00) (43, 4.93305360212268606546e+00) (44, -1.27176181685870326454e+00) (45, -1.45701064887583342511e+01) (46, 1.40496915116511367216e+01) (47, 4.63593849491810416907e+00) (48, 1.17145027608333340829e+00) 
