FANN_FLO_2.1
num_layers=3
learning_rate=0.700000
connection_rate=1.000000
network_type=0
learning_momentum=0.000000
training_algorithm=2
train_error_function=1
train_stop_function=1
cascade_output_change_fraction=0.010000
quickprop_decay=-0.000100
quickprop_mu=1.750000
rprop_increase_factor=1.200000
rprop_decrease_factor=0.500000
rprop_delta_min=0.000000
rprop_delta_max=50.000000
rprop_delta_zero=0.100000
cascade_output_stagnation_epochs=12
cascade_candidate_change_fraction=0.010000
cascade_candidate_stagnation_epochs=12
cascade_max_out_epochs=150
cascade_min_out_epochs=50
cascade_max_cand_epochs=150
cascade_min_cand_epochs=50
cascade_num_candidate_groups=2
bit_fail_limit=1.00000000000000005551e-01
cascade_candidate_limit=1.00000000000000000000e+03
cascade_weight_multiplier=4.00000000000000022204e-01
cascade_activation_functions_count=10
cascade_activation_functions=3 5 7 8 10 11 14 15 16 17 
cascade_activation_steepnesses_count=4
cascade_activation_steepnesses=2.50000000000000000000e-01 5.00000000000000000000e-01 7.50000000000000000000e-01 1.00000000000000000000e+00 
layer_sizes=33 4 2 
scale_included=0
neurons (num_inputs, activation_function, activation_steepness)=(0, 0, 0.00000000000000000000e+00) (0, 0, 0.00000000000000000000e+00) (0, 0, 0.00000000000000000000e+00) (0, 0, 0.00000000000000000000e+00) (0, 0, 0.00000000000000000000e+00) (0, 0, 0.00000000000000000000e+00) (0, 0, 0.00000000000000000000e+00) (0, 0, 0.00000000000000000000e+00) (0, 0, 0.00000000000000000000e+00) (0, 0, 0.00000000000000000000e+00) (0, 0, 0.00000000000000000000e+00) (0, 0, 0.00000000000000000000e+00) (0, 0, 0.00000000000000000000e+00) (0, 0, 0.00000000000000000000e+00) (0, 0, 0.00000000000000000000e+00) (0, 0, 0.00000000000000000000e+00) (0, 0, 0.00000000000000000000e+00) (0, 0, 0.00000000000000000000e+00) (0, 0, 0.00000000000000000000e+00) (0, 0, 0.00000000000000000000e+00) (0, 0, 0.00000000000000000000e+00) (0, 0, 0.00000000000000000000e+00) (0, 0, 0.00000000000000000000e+00) (0, 0, 0.00000000000000000000e+00) (0, 0, 0.00000000000000000000e+00) (0, 0, 0.00000000000000000000e+00) (0, 0, 0.00000000000000000000e+00) (0, 0, 0.00000000000000000000e+00) (0, 0, 0.00000000000000000000e+00) (0, 0, 0.00000000000000000000e+00) (0, 0, 0.00000000000000000000e+00) (0, 0, 0.00000000000000000000e+00) (0, 0, 0.00000000000000000000e+00) (33, 6, 5.00000000000000000000e-01) (33, 6, 5.00000000000000000000e-01) (33, 6, 5.00000000000000000000e-01) (0, 6, 0.00000000000000000000e+00) (4, 4, 5.00000000000000000000e-01) (0, 4, 0.00000000000000000000e+00) 
connections (connected_to_neuron, weight)=(0, -6.39479112455134113269e-01) (1, -2.71478706384491541570e+00) (2, 2.63161231097354786357e+00) (3, 2.63550450008650516409e+00) (4, -2.99287523833680024765e+00) (5, -7.14554052033242292907e+00) (6, -7.14182763422300492806e+00) (7, -2.72800360438578737288e+00) (8, -3.04567818493812803027e+00) (9, -2.80451892519938228432e+00) (10, -3.32939523263593972757e+00) (11, -1.84106755370871155719e+00) (12, -2.96286409838604436473e-01) (13, -5.37027629685229435097e-01) (14, -2.26653605541807046109e+00) (15, -1.42418928258409716037e+00) (16, 6.52805261020338423172e-01) (17, -2.52937138127892247041e+00) (18, -1.63358143325062443729e+00) (19, -1.16800923198475348208e+00) (20, -1.37734028749685410986e+00) (21, -1.74350103195314476423e+00) (22, -1.13755281449764056312e+00) (23, -1.29936401019397207435e+00) (24, -1.71153825624431998875e+00) (25, -1.13030407195618898264e+00) (26, -1.56489750940293426140e+00) (27, -3.18784249210546777320e+00) (28, 2.69703550695840332807e+00) (29, 2.06893358422878925751e+00) (30, -5.36754389684228727653e-01) (31, -3.68585712976458257373e-01) (32, 2.23332512160008223034e+00) (0, 2.32233388791840411614e+00) (1, -5.65566889390040206109e+00) (2, 2.68132354048795136237e+01) (3, 2.67552954864079808317e+01) (4, -1.10459021177829441740e+01) (5, -6.99967463323322931501e+01) (6, -7.00036787302350944628e+01) (7, -4.14519054234177097840e+00) (8, -1.13645495531236910836e+01) (9, -5.74486813024470777123e+00) (10, -1.24506121865968530926e+01) (11, -8.75623518103318065897e-01) (12, -2.40424080762629044372e+00) (13, 8.17646019089618314446e-01) (14, 1.91279918120944536497e+00) (15, 5.53856648800995543525e+00) (16, 1.48702076027797573943e+01) (17, -3.79180045806684962173e-01) (18, -9.57200838284694199842e+00) (19, -7.28664882735263219615e+00) (20, -8.38446868040606219097e+00) (21, -9.90355695695268423151e+00) (22, -7.32027046924980151488e+00) (23, -6.70711352323028275890e+00) (24, -9.90696026216576441925e+00) (25, -6.91813655512635694578e+00) (26, -9.41121232661121531748e+00) (27, 8.71030802595899822371e-01) (28, -3.15167761639492383097e+00) (29, 1.61796798685969633880e+01) (30, 2.69739562494688689398e+00) (31, 3.74715732005500790081e+00) (32, -5.73220225017030404757e-01) (0, 9.31822067362575623406e+00) (1, -5.69647784508794718938e-01) (2, 5.34010318293784180810e+00) (3, 5.41667806590787126453e+00) (4, 1.34712493454595044762e-01) (5, -4.38843495501509472945e+00) (6, -4.38074500229824792541e+00) (7, -7.48615394705356429483e-01) (8, 1.01906169365837045993e-01) (9, 8.90618261753424629579e-03) (10, 3.79680906969348697100e-01) (11, -2.63085470389212661146e+00) (12, 6.60956605958281340207e+00) (13, 2.52216031117734340583e+00) (14, -1.27196210606625337292e+00) (15, 2.77394053451284605671e+00) (16, 6.95591990758065659151e+00) (17, -5.67187131822098855594e+00) (18, 3.86105653980482044219e+00) (19, 6.80760431307448143912e+00) (20, 4.43299530394987417736e+00) (21, 3.97209147763525782793e+00) (22, 7.16299321543994338413e+00) (23, 5.06865464399508347526e+00) (24, 4.11356825203532672219e+00) (25, 6.85944540705091121424e+00) (26, 3.78618170230586059688e+00) (27, 7.59966012266660606578e-01) (28, 1.66839566787842730200e+00) (29, 5.35009869534698623283e+00) (30, 4.17006904282117218941e+00) (31, 3.16377969866255259745e+00) (32, 5.92769764623144804205e-02) (33, -3.35463516728262831634e+01) (34, 1.19841242070152826926e+01) (35, 1.70813928856259948930e+01) (36, -1.28312671096608088561e+01) 
