FANN_FLO_2.1
num_layers=3
learning_rate=0.700000
connection_rate=1.000000
network_type=0
learning_momentum=0.000000
training_algorithm=2
train_error_function=1
train_stop_function=1
cascade_output_change_fraction=0.010000
quickprop_decay=-0.000100
quickprop_mu=1.750000
rprop_increase_factor=1.200000
rprop_decrease_factor=0.500000
rprop_delta_min=0.000000
rprop_delta_max=50.000000
rprop_delta_zero=0.100000
cascade_output_stagnation_epochs=12
cascade_candidate_change_fraction=0.010000
cascade_candidate_stagnation_epochs=12
cascade_max_out_epochs=150
cascade_min_out_epochs=50
cascade_max_cand_epochs=150
cascade_min_cand_epochs=50
cascade_num_candidate_groups=2
bit_fail_limit=1.00000000000000005551e-01
cascade_candidate_limit=1.00000000000000000000e+03
cascade_weight_multiplier=4.00000000000000022204e-01
cascade_activation_functions_count=10
cascade_activation_functions=3 5 7 8 10 11 14 15 16 17 
cascade_activation_steepnesses_count=4
cascade_activation_steepnesses=2.50000000000000000000e-01 5.00000000000000000000e-01 7.50000000000000000000e-01 1.00000000000000000000e+00 
layer_sizes=45 4 2 
scale_included=0
neurons (num_inputs, activation_function, activation_steepness)=(0, 0, 0.00000000000000000000e+00) (0, 0, 0.00000000000000000000e+00) (0, 0, 0.00000000000000000000e+00) (0, 0, 0.00000000000000000000e+00) (0, 0, 0.00000000000000000000e+00) (0, 0, 0.00000000000000000000e+00) (0, 0, 0.00000000000000000000e+00) (0, 0, 0.00000000000000000000e+00) (0, 0, 0.00000000000000000000e+00) (0, 0, 0.00000000000000000000e+00) (0, 0, 0.00000000000000000000e+00) (0, 0, 0.00000000000000000000e+00) (0, 0, 0.00000000000000000000e+00) (0, 0, 0.00000000000000000000e+00) (0, 0, 0.00000000000000000000e+00) (0, 0, 0.00000000000000000000e+00) (0, 0, 0.00000000000000000000e+00) (0, 0, 0.00000000000000000000e+00) (0, 0, 0.00000000000000000000e+00) (0, 0, 0.00000000000000000000e+00) (0, 0, 0.00000000000000000000e+00) (0, 0, 0.00000000000000000000e+00) (0, 0, 0.00000000000000000000e+00) (0, 0, 0.00000000000000000000e+00) (0, 0, 0.00000000000000000000e+00) (0, 0, 0.00000000000000000000e+00) (0, 0, 0.00000000000000000000e+00) (0, 0, 0.00000000000000000000e+00) (0, 0, 0.00000000000000000000e+00) (0, 0, 0.00000000000000000000e+00) (0, 0, 0.00000000000000000000e+00) (0, 0, 0.00000000000000000000e+00) (0, 0, 0.00000000000000000000e+00) (0, 0, 0.00000000000000000000e+00) (0, 0, 0.00000000000000000000e+00) (0, 0, 0.00000000000000000000e+00) (0, 0, 0.00000000000000000000e+00) (0, 0, 0.00000000000000000000e+00) (0, 0, 0.00000000000000000000e+00) (0, 0, 0.00000000000000000000e+00) (0, 0, 0.00000000000000000000e+00) (0, 0, 0.00000000000000000000e+00) (0, 0, 0.00000000000000000000e+00) (0, 0, 0.00000000000000000000e+00) (0, 0, 0.00000000000000000000e+00) (45, 6, 5.00000000000000000000e-01) (45, 6, 5.00000000000000000000e-01) (45, 6, 5.00000000000000000000e-01) (0, 6, 0.00000000000000000000e+00) (4, 4, 5.00000000000000000000e-01) (0, 4, 0.00000000000000000000e+00) 
connections (connected_to_neuron, weight)=(0, 1.25180825465006346775e+01) (1, -4.97161234111321334694e+02) (2, 2.49074634349296587743e+02) (3, -2.75052230036446552219e+01) (4, -9.00000000000000000000e+02) (5, 1.30408966872323560438e+02) (6, -8.00605199729066541181e+00) (7, 1.83450412106519600286e+00) (8, 9.98359634639795558542e+02) (9, 3.53183494435958380109e+02) (10, 8.74584817032319250529e+00) (11, 2.58106901485747471270e+02) (12, -1.58348114846564023139e+01) (13, -2.18257685349312282597e+01) (14, -1.63686493961172239153e+01) (15, -1.54883955292948130023e+01) (16, -1.54303883065163542909e+01) (17, -1.86681993736616327340e+01) (18, -1.65681172402198697569e+01) (19, 1.50000000000000000000e+03) (20, 6.68492684700098660500e+00) (21, 8.94191520268085326961e+00) (22, -3.73127388772190826671e+01) (23, 1.17118808254864759100e+00) (24, -3.00000000000000000000e+02) (25, -3.34668486755037442038e+00) (26, 1.50000000000000000000e+03) (27, -3.95716256309028802107e+00) (28, 5.55840097782336783894e+00) (29, 1.09630502094929866530e+02) (30, 1.10836883820527916100e+02) (31, 8.11578512498101218853e+01) (32, 7.41341691243076610363e+01) (33, -2.31783270692488372333e+02) (34, 8.61602292376168747978e+01) (35, -1.77302866334839248630e+00) (36, 7.14723285292213148523e+01) (37, 2.13966913164371817402e+02) (38, -7.36958654287559911111e-01) (39, 1.22192102859143378879e+01) (40, 3.31547386098001606314e+00) (41, 7.09545929613329562358e+00) (42, 1.50056441219533631681e+00) (43, -9.45797086729455038778e+00) (44, -1.42330800830856851746e+00) (0, -3.05491854719061493029e+01) (1, 1.50000000000000000000e+03) (2, 4.80198807255924631221e+00) (3, 2.07033682007423447402e+00) (4, 1.50000000000000000000e+03) (5, 4.63559829582244464774e+00) (6, -8.39777000547323404511e-01) (7, -6.33038134639480554178e-01) (8, 4.55456980948983858326e+00) (9, 4.63841807751201518073e+00) (10, 4.53567078231036902025e+00) (11, 4.61879033643842618062e+00) (12, 9.22446880013391279363e+00) (13, 7.43630967988745616992e+00) (14, 9.02355739895283548435e+00) (15, 9.23985149528115989881e+00) (16, 1.00802061575697425866e+01) (17, 8.56002416461615389665e+00) (18, 9.17741603410281214792e+00) (19, 4.91074192162659699079e+02) (20, -3.29612036090847349001e+00) (21, -1.49969407415358909930e+03) (22, 1.21385421346806126053e+01) (23, 1.24915909271038803041e+01) (24, 1.50000000000000000000e+03) (25, -7.90028375420131379059e-01) (26, -2.72839735035378261330e+01) (27, 1.19040816701696385849e+01) (28, -1.11434001744173034609e+01) (29, 5.06288895126315026118e+02) (30, 5.06331095608595603608e+02) (31, 5.06307511363505966528e+02) (32, 5.06261676730870590291e+02) (33, 5.03240808163636529571e+02) (34, 5.06321939264945626746e+02) (35, 5.04265814472148065306e+02) (36, 5.06253769447781053259e+02) (37, 5.06311984077468650867e+02) (38, 1.61993850127083938162e+00) (39, 1.17566614283071330105e-01) (40, 1.82630613480987480379e+00) (41, -1.00014604445088473028e+01) (42, 3.22854170388864503138e+00) (43, 6.30099332963215985615e+00) (44, 2.68157777099467642401e+00) (0, 1.36011454614850144651e+01) (1, -4.85997775904072071285e+01) (2, 9.85920546696995785396e+01) (3, -4.63509385268228726318e+01) (4, -9.00000000000000000000e+02) (5, 9.88004088147199723835e+01) (6, 6.73864532862850840189e+00) (7, -1.02830287602457951834e+03) (8, 3.60507293516053906046e+00) (9, 9.77370848814591397513e+01) (10, 9.84409675920033038210e+01) (11, 9.84603810860174064601e+01) (12, -7.64468813040055028551e+00) (13, -1.18577779181690914356e+01) (14, -8.51327315745113466505e+00) (15, -9.38289981317152843587e+00) (16, -9.46414414291708716576e+00) (17, -7.40595816402078899188e+00) (18, -8.01166325290019898375e+00) (19, 1.50000000000000000000e+03) (20, 5.46249076230148955524e-01) (21, 1.40074502437581234204e+01) (22, 5.81616533644023888883e+02) (23, -6.48342283349820247551e-01) (24, -3.00000000000000000000e+02) (25, -1.50000000000000000000e+03) (26, 1.45862060413227055733e+02) (27, -1.50000000000000000000e+03) (28, -1.06424135678994366572e+03) (29, 1.01672882394431084663e+02) (30, 1.00379061418722855592e+02) (31, 1.00806938018645027455e+02) (32, 1.02526711111059327663e+02) (33, 1.21160984487699948886e+02) (34, 1.06492293852620719008e+02) (35, 1.23108927735945457016e+02) (36, 1.01902104878069209803e+02) (37, 1.01844064437932189549e+02) (38, -3.87931986593697253340e+00) (39, -1.02612474400955591136e+02) (40, -8.58410396695576394244e-01) (41, -1.58313108709088510295e+01) (42, -6.25218094964335136865e+02) (43, 5.19213827874782474225e+00) (44, 1.08680746306008946256e+00) (45, -4.54669585252418251287e+00) (46, 8.99884938171240023053e+00) (47, -4.15426248341261850072e+00) (48, -4.73773460676617919063e+00) 
