FANN_FLO_2.1
num_layers=3
learning_rate=0.700000
connection_rate=1.000000
network_type=0
learning_momentum=0.000000
training_algorithm=2
train_error_function=1
train_stop_function=1
cascade_output_change_fraction=0.010000
quickprop_decay=-0.000100
quickprop_mu=1.750000
rprop_increase_factor=1.200000
rprop_decrease_factor=0.500000
rprop_delta_min=0.000000
rprop_delta_max=50.000000
rprop_delta_zero=0.100000
cascade_output_stagnation_epochs=12
cascade_candidate_change_fraction=0.010000
cascade_candidate_stagnation_epochs=12
cascade_max_out_epochs=150
cascade_min_out_epochs=50
cascade_max_cand_epochs=150
cascade_min_cand_epochs=50
cascade_num_candidate_groups=2
bit_fail_limit=1.00000000000000005551e-01
cascade_candidate_limit=1.00000000000000000000e+03
cascade_weight_multiplier=4.00000000000000022204e-01
cascade_activation_functions_count=10
cascade_activation_functions=3 5 7 8 10 11 14 15 16 17 
cascade_activation_steepnesses_count=4
cascade_activation_steepnesses=2.50000000000000000000e-01 5.00000000000000000000e-01 7.50000000000000000000e-01 1.00000000000000000000e+00 
layer_sizes=16 4 2 
scale_included=0
neurons (num_inputs, activation_function, activation_steepness)=(0, 0, 0.00000000000000000000e+00) (0, 0, 0.00000000000000000000e+00) (0, 0, 0.00000000000000000000e+00) (0, 0, 0.00000000000000000000e+00) (0, 0, 0.00000000000000000000e+00) (0, 0, 0.00000000000000000000e+00) (0, 0, 0.00000000000000000000e+00) (0, 0, 0.00000000000000000000e+00) (0, 0, 0.00000000000000000000e+00) (0, 0, 0.00000000000000000000e+00) (0, 0, 0.00000000000000000000e+00) (0, 0, 0.00000000000000000000e+00) (0, 0, 0.00000000000000000000e+00) (0, 0, 0.00000000000000000000e+00) (0, 0, 0.00000000000000000000e+00) (0, 0, 0.00000000000000000000e+00) (16, 6, 5.00000000000000000000e-01) (16, 6, 5.00000000000000000000e-01) (16, 6, 5.00000000000000000000e-01) (0, 6, 0.00000000000000000000e+00) (4, 4, 5.00000000000000000000e-01) (0, 4, 0.00000000000000000000e+00) 
connections (connected_to_neuron, weight)=(0, -3.46072634014171320871e+00) (1, -2.19822170822800222467e+00) (2, -2.74220684876706588540e+00) (3, -1.85911631172446356608e+00) (4, -2.60067100909361137440e+00) (5, -2.49570327816056991566e+00) (6, -2.55792744113189751687e+00) (7, -2.52679706183719421375e+00) (8, -1.94365541970280752970e+00) (9, -2.83367583496675345955e+00) (10, 3.69109659060128958430e+00) (11, 5.46666440828526489781e+00) (12, 1.52421842707601662426e+00) (13, -4.09910228183282310255e+00) (14, 1.55064545534299913498e+00) (15, 3.64499083779472154987e+00) (0, 1.42987638475415934636e+00) (1, 3.64575592392837988243e+00) (2, 3.95833968690746296204e+00) (3, 3.96626281379009748562e+00) (4, 4.13450040157066922575e+00) (5, 4.00945125306853267233e+00) (6, 2.76389298700517471730e+00) (7, 4.08332820023306819479e+00) (8, 3.97207544384743238552e+00) (9, 3.93463644691249081475e+00) (10, 3.10591856180714920299e+00) (11, -1.01015797830347731079e+00) (12, -6.13155619997904355323e-01) (13, 4.88705075919393205908e+00) (14, -1.11768017227727534113e+00) (15, -3.44078148763907787355e+00) (0, -2.17063262009688839882e-01) (1, 1.78839969788794173056e+00) (2, 3.45507525951242966400e+00) (3, 2.64019230883829836287e+00) (4, 3.04494697999084351636e+00) (5, 2.53812272429864638212e+00) (6, 9.27174606715062665785e+00) (7, 2.42600435346763365629e+00) (8, 2.81716376288872050182e+00) (9, 2.75075702255823140163e+00) (10, -1.59852058675988017988e+00) (11, 1.56675961441940581054e+00) (12, 1.93387777286268636168e+00) (13, 3.01581552599270708015e+00) (14, -4.06190835678946482457e-01) (15, -1.14930239755352170405e+00) (16, -2.64499797382603007989e+00) (17, 8.37160750287360855282e+00) (18, 4.67749385665826888925e+00) (19, -1.34315471930108309984e+00) 
