FANN_FLO_2.1
num_layers=3
learning_rate=0.700000
connection_rate=1.000000
network_type=0
learning_momentum=0.000000
training_algorithm=2
train_error_function=1
train_stop_function=1
cascade_output_change_fraction=0.010000
quickprop_decay=-0.000100
quickprop_mu=1.750000
rprop_increase_factor=1.200000
rprop_decrease_factor=0.500000
rprop_delta_min=0.000000
rprop_delta_max=50.000000
rprop_delta_zero=0.100000
cascade_output_stagnation_epochs=12
cascade_candidate_change_fraction=0.010000
cascade_candidate_stagnation_epochs=12
cascade_max_out_epochs=150
cascade_min_out_epochs=50
cascade_max_cand_epochs=150
cascade_min_cand_epochs=50
cascade_num_candidate_groups=2
bit_fail_limit=1.00000000000000005551e-01
cascade_candidate_limit=1.00000000000000000000e+03
cascade_weight_multiplier=4.00000000000000022204e-01
cascade_activation_functions_count=10
cascade_activation_functions=3 5 7 8 10 11 14 15 16 17 
cascade_activation_steepnesses_count=4
cascade_activation_steepnesses=2.50000000000000000000e-01 5.00000000000000000000e-01 7.50000000000000000000e-01 1.00000000000000000000e+00 
layer_sizes=51 11 2 
scale_included=0
neurons (num_inputs, activation_function, activation_steepness)=(0, 0, 0.00000000000000000000e+00) (0, 0, 0.00000000000000000000e+00) (0, 0, 0.00000000000000000000e+00) (0, 0, 0.00000000000000000000e+00) (0, 0, 0.00000000000000000000e+00) (0, 0, 0.00000000000000000000e+00) (0, 0, 0.00000000000000000000e+00) (0, 0, 0.00000000000000000000e+00) (0, 0, 0.00000000000000000000e+00) (0, 0, 0.00000000000000000000e+00) (0, 0, 0.00000000000000000000e+00) (0, 0, 0.00000000000000000000e+00) (0, 0, 0.00000000000000000000e+00) (0, 0, 0.00000000000000000000e+00) (0, 0, 0.00000000000000000000e+00) (0, 0, 0.00000000000000000000e+00) (0, 0, 0.00000000000000000000e+00) (0, 0, 0.00000000000000000000e+00) (0, 0, 0.00000000000000000000e+00) (0, 0, 0.00000000000000000000e+00) (0, 0, 0.00000000000000000000e+00) (0, 0, 0.00000000000000000000e+00) (0, 0, 0.00000000000000000000e+00) (0, 0, 0.00000000000000000000e+00) (0, 0, 0.00000000000000000000e+00) (0, 0, 0.00000000000000000000e+00) (0, 0, 0.00000000000000000000e+00) (0, 0, 0.00000000000000000000e+00) (0, 0, 0.00000000000000000000e+00) (0, 0, 0.00000000000000000000e+00) (0, 0, 0.00000000000000000000e+00) (0, 0, 0.00000000000000000000e+00) (0, 0, 0.00000000000000000000e+00) (0, 0, 0.00000000000000000000e+00) (0, 0, 0.00000000000000000000e+00) (0, 0, 0.00000000000000000000e+00) (0, 0, 0.00000000000000000000e+00) (0, 0, 0.00000000000000000000e+00) (0, 0, 0.00000000000000000000e+00) (0, 0, 0.00000000000000000000e+00) (0, 0, 0.00000000000000000000e+00) (0, 0, 0.00000000000000000000e+00) (0, 0, 0.00000000000000000000e+00) (0, 0, 0.00000000000000000000e+00) (0, 0, 0.00000000000000000000e+00) (0, 0, 0.00000000000000000000e+00) (0, 0, 0.00000000000000000000e+00) (0, 0, 0.00000000000000000000e+00) (0, 0, 0.00000000000000000000e+00) (0, 0, 0.00000000000000000000e+00) (0, 0, 0.00000000000000000000e+00) (51, 6, 5.00000000000000000000e-01) (51, 6, 5.00000000000000000000e-01) (51, 6, 5.00000000000000000000e-01) (51, 6, 5.00000000000000000000e-01) (51, 6, 5.00000000000000000000e-01) (51, 6, 5.00000000000000000000e-01) (51, 6, 5.00000000000000000000e-01) (51, 6, 5.00000000000000000000e-01) (51, 6, 5.00000000000000000000e-01) (51, 6, 5.00000000000000000000e-01) (0, 6, 0.00000000000000000000e+00) (11, 6, 5.00000000000000000000e-01) (0, 6, 0.00000000000000000000e+00) 
connections (connected_to_neuron, weight)=(0, 6.74239688482624366372e+00) (1, 2.89719327536667459189e-01) (2, 2.34625986960971033568e-01) (3, 1.91320433465087147429e-01) (4, 1.75396668908440800383e-01) (5, 1.10177514445996771464e-01) (6, -3.64731234118769576114e+00) (7, 3.31485238542503779513e-01) (8, -6.50927478716572305295e-01) (9, 1.08129483437930673517e+01) (10, -3.88814339723163981954e-01) (11, 1.12510886112063595021e+01) (12, 2.77178173997360610681e-01) (13, 2.47596983660370806302e-01) (14, -5.24762850555709370326e-01) (15, 3.22843460255400060976e-02) (16, -7.04011672306214308925e-01) (17, 3.04925289268904442519e-01) (18, -4.03009048553985838037e-01) (19, -1.83693340532300769530e-01) (20, -5.79883255600024752341e-02) (21, -3.95384451222125649084e-02) (22, -3.37586646815875510153e-02) (23, 8.25226201119139274320e-02) (24, -1.90756234357794290935e-01) (25, -3.60315553817048134233e-02) (26, -8.73390534419254183085e-01) (27, -1.35630242652533694603e+00) (28, 5.77228363548847323017e-01) (29, -6.52437865918870540938e-01) (30, -6.23668426521304719579e-01) (31, -3.97226150872589522933e+00) (32, -2.92652257782482383419e-01) (33, -4.90667762088661668640e-02) (34, -2.82909158730381360414e+00) (35, 3.22971939669563501418e-01) (36, 1.66880897836234054488e-01) (37, 1.43680456308912685159e+00) (38, 4.83962391617957510270e-01) (39, 6.02766219203487052525e-01) (40, 5.40948458956423294808e-01) (41, 9.55289406120438333581e-01) (42, -7.29240527047023578966e-01) (43, 3.82986386379754062403e+00) (44, -4.62118507113615406556e-01) (45, -3.05485698070609279497e+00) (46, -1.01003432390493208537e+00) (47, -1.68519678402363637382e+00) (48, -1.01447648874873896929e+00) (49, -1.87841717505364547147e-01) (50, 4.59069352655025950116e-02) (0, 3.31080721853574004854e+01) (1, 2.08895848204545209192e-01) (2, 1.79915388186625668787e-01) (3, 2.50989877690724616510e-01) (4, 2.24555798878125378870e-01) (5, 4.08644213581699278226e-01) (6, 2.04160980962093230318e+00) (7, 2.19108801602270225617e-01) (8, 1.63553681479493645545e-01) (9, -8.95181687045472607167e+00) (10, 2.39537005113005491141e-01) (11, -1.68801930206460615302e-01) (12, 1.89305001827622026989e-01) (13, 6.14433822225828457642e-02) (14, 2.65338387811600406874e-01) (15, -4.63226301487912675570e-02) (16, 3.22342197555772536077e-01) (17, 1.87994432353134788283e-01) (18, 2.06359031687987748427e-01) (19, 1.66524659640366251567e-01) (20, 2.34784219419200829160e-01) (21, 1.54516908556208365511e-01) (22, -1.89219992607806974938e-02) (23, 1.98263688276124616650e-01) (24, 2.30836172213739476700e-01) (25, -1.15079878493434262232e-01) (26, -4.92446070474422403773e-01) (27, -6.15644468071025352529e-01) (28, 1.12638489939398331319e-01) (29, 4.31049227006207902324e-01) (30, 3.24229232408836609558e-01) (31, -1.96740051799424248147e-01) (32, -1.05150328595918396424e+00) (33, -6.78743027468430432103e-02) (34, -1.47865925470396875063e+00) (35, -1.52425921363494969174e-02) (36, 7.40527975087383050212e-02) (37, -4.90160055215173653953e-02) (38, -2.50787055763062351199e-02) (39, -1.60453934014905597039e-01) (40, -4.27610554161387199090e-02) (41, -1.63190132398733617203e-01) (42, -1.10696561584745320483e-01) (43, 4.89763934073656065360e-02) (44, 1.35911003530284818508e-01) (45, -5.88449338383037923172e-01) (46, -4.31889065062748711554e-01) (47, -9.40734559064776765247e-01) (48, -2.47736280700569105884e-01) (49, -4.28926028178689688897e-01) (50, 1.58637806645663709260e-01) (0, -2.06703921495635478678e+00) (1, -9.65343481632568861661e-02) (2, -2.46271579596648249044e-01) (3, -1.45291506383071200581e-01) (4, -1.26924193534503348957e-01) (5, 7.27599655378767945502e-02) (6, 7.87579389440584254345e-01) (7, 1.12250205211986267551e-01) (8, 9.35149166377461094068e-02) (9, 2.31597244570472415859e+00) (10, 1.56435549797844852815e-01) (11, 1.24418537282395463839e-01) (12, 1.91378897907841960535e-01) (13, 2.11692240004504123041e-01) (14, 9.59249345414847909286e-02) (15, 9.52547474731830767780e-02) (16, 6.20103138106241624783e-02) (17, 9.70148320608414660438e-02) (18, 3.64000065780970133433e-02) (19, 6.37211535898591589083e-03) (20, 2.23997648403909919990e-02) (21, 1.57777787512269687675e-02) (22, 9.77488410520427203343e-02) (23, 7.71573830951656353117e-02) (24, 2.39394210198873545747e-02) (25, 1.74801824545528561305e-01) (26, 8.04709016238017604827e-01) (27, 2.14449379831237157967e-01) (28, 2.90024925815004115670e-02) (29, 2.52139999762774902337e-01) (30, 3.92294914713456399635e-01) (31, 9.04438816564771541628e-01) (32, 1.14304482982801828422e-02) (33, -3.76565711569095684652e-02) (34, 3.77005693044628387156e-01) (35, 2.59173100283949853218e-01) (36, 1.44889156508537647605e-01) (37, 1.74404457765262643765e-01) (38, 1.80469652124756935185e-01) (39, 2.48522118038129374851e-01) (40, 2.03279201311124368967e-01) (41, 1.66645199541817223832e-01) (42, 1.14225529350579696475e-01) (43, 2.48455865539190717817e-01) (44, 1.68022939890616784808e-01) (45, 5.81882885381258208035e-01) (46, 4.39881768358949265529e-01) (47, 3.93277901276587626977e-01) (48, 4.93401492273569830527e-01) (49, -1.42715967829924544885e-01) (50, -2.08686375137432628124e-01) (0, 1.26127343542215375471e+00) (1, -2.07080951673644618471e-02) (2, -2.75173399278094569023e-03) (3, -1.96996739847320086192e-02) (4, 1.08604427542004985940e-01) (5, 1.25583979777892040808e-01) (6, 1.29939753328342373351e+01) (7, 1.16118611596544463183e-01) (8, 4.62403213696675665506e-03) (9, -9.04968954079823006964e+00) (10, -4.16596629699691259341e-02) (11, 5.99994288441330625439e-02) (12, 1.82964312838883147450e-01) (13, 4.92523967608983967437e-02) (14, 1.30444205852181277505e-01) (15, 1.91106157445866869926e-01) (16, 2.15700320967083636337e-01) (17, 9.68910400736053972759e-02) (18, 1.42842583512309800886e-01) (19, 1.16375732545945492769e-01) (20, 1.46213887687096838475e-01) (21, 1.41657484612624728904e-01) (22, 6.15810560879741369922e-02) (23, 6.27402414476362219053e-02) (24, 1.05381721414274154291e-01) (25, 4.40591505343698730535e-03) (26, 4.49156833784149500666e-02) (27, 5.14474558932148245960e-02) (28, 5.60251838582178710024e-02) (29, 5.42855171900893870851e-02) (30, -5.73092234216221255161e-02) (31, 4.03817442167147544474e-02) (32, 2.38593704176771448378e-01) (33, 4.62706068803087677832e-01) (34, -1.73189136842900937019e-01) (35, 1.00535217716226241147e-01) (36, 8.35227248807670075159e-02) (37, 8.21547865978298624823e-02) (38, 7.61924207575378209523e-02) (39, 4.28546863995673057990e-02) (40, 3.75574536261613425858e-02) (41, 1.01369292280866579725e-01) (42, 1.13500684885586566875e-01) (43, 5.93259638102048292296e-02) (44, 1.03764574635125206292e+00) (45, 2.01572268257941833447e-01) (46, 3.65594267193100341817e-01) (47, 4.55921290592019134991e-01) (48, -3.04033523080703919211e-03) (49, -4.69359342026801018566e-01) (50, 8.26534165114214680603e-02) (0, -8.12337381533261471134e+00) (1, -1.50404660963389891215e-01) (2, -1.73097698950145262309e-01) (3, -1.64149112068984470714e-01) (4, -2.30046293699118886700e-01) (5, 4.80293324224251305665e-01) (6, 2.46895825553109737882e+00) (7, 6.70752594820223757566e-01) (8, 5.75514654056593855103e-01) (9, -1.09007663683684885569e+00) (10, 5.02911362725636634785e-01) (11, 5.71067412969478604978e-01) (12, 3.60856084810929289564e-01) (13, 3.91727902111093706505e-01) (14, 6.53121986609044191674e-01) (15, 7.18154575210627310611e-01) (16, 6.49084548954699913637e-01) (17, 6.61454831548692667731e-01) (18, 6.53002827590789536316e-01) (19, 7.75532027555658087792e-01) (20, 7.06374010360806381392e-01) (21, 7.23631189268164387585e-01) (22, 5.95050231915155825035e-01) (23, 6.51561025862300136069e-01) (24, 6.96241630439116021556e-01) (25, 4.41266793039188254255e-01) (26, 2.29937598003694121385e-01) (27, 6.26691261910708341532e-01) (28, 6.36989940361298190297e-01) (29, 4.48674152696829531273e-01) (30, 4.34347669094198640671e-01) (31, 1.28076980701571963017e+00) (32, 1.88560100472197900157e-01) (33, 5.50285962870748934783e-01) (34, 8.14697522622693015570e-01) (35, 5.29132805320398302840e-01) (36, 5.04661404405684521635e-01) (37, 4.48843668536789919266e-01) (38, 4.35194118364064241877e-01) (39, 2.69278512647746437469e-01) (40, 3.89146207608755068108e-01) (41, 4.38600856231996516499e-01) (42, 5.10454202702413262216e-01) (43, 3.51686696314021163268e-01) (44, 5.24179170411758765802e-01) (45, 8.10876763140777945260e-01) (46, 6.05204063202810726985e-01) (47, 4.96912976617302992732e-01) (48, 7.14726578982405547080e-01) (49, 7.67540214230333806000e-01) (50, -7.72927174997387944622e-01) (0, 3.86897744403251024892e+01) (1, 1.79206774910541849488e-01) (2, 1.70450874944778757447e-01) (3, 2.17486554165932016724e-01) (4, 3.21077959021184911048e-01) (5, 3.08087987376066352319e-01) (6, 2.39217974095897734088e+00) (7, 2.05732868509446276128e-01) (8, 2.27465285439735653839e-01) (9, -9.73572461523454002474e+00) (10, 5.18303261268483139723e-01) (11, 1.47849488273762985635e-01) (12, 1.85358830792201473292e-01) (13, 1.56074363643258662293e-01) (14, 3.84286756778993765504e-01) (15, 7.04192573996443010181e-05) (16, 6.34229840655028631602e-01) (17, 1.87278632307699033355e-01) (18, 2.83250482611635157060e-01) (19, 3.14994375281232807939e-01) (20, 3.43789847168794127086e-01) (21, 3.55405447201224411469e-01) (22, 2.82416608673904001581e-01) (23, 3.17955285724502934031e-01) (24, 3.97085466237480755325e-01) (25, -1.07665406414423292514e-01) (26, -1.01593959887845497470e+00) (27, 2.20566729653457554994e-01) (28, 1.55191549548109930523e-01) (29, 1.02013744175284060134e+00) (30, 6.80901235605529620010e-01) (31, -2.95165986196993657131e+00) (32, 1.80325525345874676519e-01) (33, 3.59957766456344641082e-01) (34, -8.36006026453026906964e-01) (35, 1.06397858226422004080e-01) (36, -3.09355398381280954911e-01) (37, -1.01802959976613024984e-01) (38, -1.25980919553000336730e-01) (39, -3.43897175867138374383e-02) (40, -1.23262097087915453719e-01) (41, -1.14000998775591999568e-01) (42, -1.83052399436817364586e-01) (43, 3.66153291211061771016e-01) (44, 2.08630385527640821453e-01) (45, -8.19956414060388771858e-01) (46, 1.21674396151207078742e-01) (47, 2.48326171654760126384e-02) (48, -1.14131480949507757572e-01) (49, -2.12270785903263620176e-01) (50, 3.86388788198177568489e-02) (0, 2.96525485873202843123e+00) (1, 1.49837090337068379320e-01) (2, 1.59186734521180928148e-01) (3, 1.45732997619897663988e-01) (4, 1.80684773885995575426e-01) (5, 1.09064940337955218475e+00) (6, 2.05475178793145545342e+02) (7, 2.26003965035502324410e-01) (8, -1.82410788641169274715e-01) (9, -9.39367076636407816181e+00) (10, -1.42336534834727967969e-01) (11, 1.75203414776543053843e-01) (12, -2.22706438612131962795e-01) (13, 2.15666718200239193592e+00) (14, 8.79122793106300370880e-01) (15, -2.29507100873919733797e-01) (16, 2.71771176801776148668e-01) (17, 1.32210108738462450706e-01) (18, 1.46941103020780478028e-01) (19, 2.29659201355958936253e-01) (20, 3.06018825476906258798e-02) (21, 1.09819025474800727182e-01) (22, 1.20277879434714282669e-01) (23, 4.32632850248951650318e-01) (24, 2.14095340329620409392e-01) (25, 5.01269126750197524522e-01) (26, 1.30370409713179424838e-01) (27, 2.71501060601890597049e-03) (28, -2.60218768980323596207e-02) (29, -1.54934033386864341425e-02) (30, -1.30790800670376409359e-02) (31, -1.48985984399601145700e-01) (32, 1.72455708388543715870e+00) (33, -5.86005977597868654705e-01) (34, -1.94008184637744413026e-01) (35, 1.97067379562783001612e-01) (36, 5.16733227396831473754e-01) (37, 6.31935312789678627077e-01) (38, 1.18490713297529262626e-01) (39, 1.21535290860558489734e-01) (40, 1.52089321092463092278e-01) (41, 6.54519606155239998257e-03) (42, 1.55836866772774973455e-01) (43, 3.04680652499070891981e-01) (44, 1.19413685495424237715e+00) (45, 4.92522803272141262987e-02) (46, -3.09597869029431149723e-01) (47, -1.91429349106979118655e-01) (48, -1.84485428476535429088e-01) (49, -1.88050739037696396094e-01) (50, 2.99885742078172423675e-01) (0, 2.83100087209521733556e+00) (1, 4.80672295720865894175e-02) (2, 1.01853932769585230067e-02) (3, 1.35272982302456101777e-01) (4, 1.60315665188579759004e-01) (5, -1.62422456895478767303e-01) (6, -5.46867438569188557551e+00) (7, 8.70238886659944858859e-03) (8, 3.26035216742929928602e-02) (9, 1.02541123423130130732e+02) (10, 7.57362458484028971961e-02) (11, 1.55857851310690020963e-01) (12, -2.92026905046909923680e-01) (13, -5.57199642563792861549e-03) (14, 9.37021535857052167984e-02) (15, -1.68738192559364091894e-02) (16, -2.18957783991859611383e-01) (17, 1.58525571432026363139e-01) (18, -1.13291895036410072972e-01) (19, 8.26344445397857729763e-02) (20, -1.18879214583174602771e-01) (21, -6.59369307037597079946e-02) (22, 1.97740975034434718349e-01) (23, 1.61714671401144510776e-01) (24, 4.98431482216914328864e-02) (25, -2.07573462613792669718e-01) (26, -1.10592497282322033136e+00) (27, 3.45583339250672971765e-01) (28, -4.71063490654694896898e-02) (29, -1.05023409588423571881e-01) (30, 3.94416495149237378293e-01) (31, 4.91367381236656686205e-01) (32, 2.32584624225797453878e-01) (33, 2.64887421233960196343e-01) (34, 7.40249181008492268541e-02) (35, 2.00720562228993648635e-01) (36, 1.79551080498325826840e-01) (37, 4.00126710634051072080e-02) (38, 2.04300244227785837703e-01) (39, 2.06058515786674528725e-01) (40, 2.71886083579822135370e-01) (41, 6.31855331723489982432e-02) (42, 3.13206842874024005141e-01) (43, 1.18932629556383173686e-01) (44, 8.39909318184237779770e-02) (45, 7.98872555838033515663e-01) (46, 8.31738722735782642914e-01) (47, 6.93008270927184866217e-01) (48, 4.51781653127699689421e-01) (49, 7.48696835876411448396e-01) (50, 9.91765935478660515257e-02) (0, 1.01209298555052864543e+01) (1, 5.59487595768165535404e-01) (2, 4.92157250256731459981e-01) (3, 4.97271298976137587911e-01) (4, 4.59517366798117110616e-01) (5, 4.72309916178592636982e-01) (6, -9.81571534444705684486e-01) (7, 1.03760576098595880268e+00) (8, 9.59772870599302496686e-01) (9, -3.01963546134037175150e+00) (10, 9.68973151625025952427e-01) (11, 2.68898990735355809534e+01) (12, 1.17558697910832221645e+00) (13, 2.66268850149109237435e+00) (14, 9.36600833513947961251e-01) (15, 9.54327899643285904041e-01) (16, 1.00911667932258586333e+00) (17, 1.41507806435700955738e+00) (18, 5.14245818116359054706e-01) (19, 9.63058517365435684532e-01) (20, 6.10722319093681020874e-01) (21, 4.47706134152604739995e-01) (22, 1.14002603562049742436e+00) (23, 8.54517564949898500437e-01) (24, 4.50069637288981916345e-01) (25, -8.18661705500882963538e-02) (26, 9.81652893983750857165e-02) (27, 3.38347424377739458556e-01) (28, 2.73216230973081719569e+00) (29, 2.04271964952829021556e+00) (30, 5.93383711310467543143e+00) (31, -1.05949893921715854184e+00) (32, -1.14682834795149979357e+00) (33, 1.48351504812313433890e-01) (34, -3.35976747126809416333e-01) (35, 8.37898511582709115686e-01) (36, 4.24270551009722496349e-01) (37, 1.04031608880690162877e+00) (38, 7.30139006620054376029e-01) (39, 1.59086390151221745981e+00) (40, 6.83353678095773298118e-01) (41, 1.25635670463664528285e+00) (42, 2.60741777437920541072e-01) (43, 3.88800853613081054405e+00) (44, -1.86411709072903469808e-01) (45, -3.56240395717333957482e-01) (46, -4.79322195135362727481e-01) (47, -5.75299215074117742397e-01) (48, 1.75063015317465292542e-01) (49, 2.16212641329183413719e-01) (50, -1.42480861446237905277e+00) (0, -1.57559580246873720544e-01) (1, 1.84597435126013870166e-01) (2, 6.40065248104997319700e-02) (3, -2.20709787874698998289e-03) (4, -4.58319952778818190571e-04) (5, 2.26014491436249444212e-02) (6, 5.24290437093205885510e-01) (7, 5.68296055989225973315e-02) (8, 5.83441506534144935237e-02) (9, -1.44544864007272111373e+00) (10, 4.16067781103499692574e-02) (11, 1.75259181578217293485e-01) (12, 1.32608272742755023410e-01) (13, 5.42981496027422072537e-02) (14, 1.55996184778882440725e-01) (15, -5.40134431888065758010e-02) (16, 2.64584306653767586948e-01) (17, 1.28309181415193623854e-01) (18, 2.53309855737818667709e-01) (19, 1.46778687334057883485e-01) (20, 1.93876108669181812516e-01) (21, 1.56613567343886539440e-01) (22, 1.78873593706099343059e-01) (23, 9.70633565295413724971e-02) (24, 2.68130044060687744434e-01) (25, 1.32715837341463555044e-01) (26, -1.47483806934968847413e-01) (27, 1.05059986254979170761e-01) (28, 5.68265100477481133190e-01) (29, 2.15368621960236483748e-01) (30, 1.50980599127714582020e-01) (31, -1.07947913973532039211e-01) (32, -5.16668267009019355207e-01) (33, -6.74377223672042891423e-01) (34, -3.19538169983682895925e-01) (35, -4.83820929777386499193e-01) (36, 1.11680738782738139814e-01) (37, -3.21479490519446520214e-02) (38, -1.78872162107489192373e-02) (39, 1.64344840457820648427e-02) (40, 3.98271439453774245276e-02) (41, 2.62613140514931994729e-02) (42, 2.09383947886501609048e-01) (43, -1.57760855077382439182e-01) (44, -1.87269399807700454019e+00) (45, -2.66951860767035697997e-01) (46, -1.52879659464612654984e-01) (47, -2.73482548628076194142e-01) (48, -2.84256715144817484475e-01) (49, -3.39129619233861590022e-01) (50, 1.08470095576338299015e-01) (51, 5.62999753248320189414e-01) (52, -8.81698928785191515800e-01) (53, 8.36724911775454827101e-01) (54, 8.42359920085804736445e-01) (55, 9.29337392404689266456e-01) (56, -2.96878521443894649590e-01) (57, 2.87660842906739155911e-01) (58, 2.91682491054637282879e-01) (59, 7.49399813255445801374e-01) (60, 2.31819471993894438144e-01) (61, 4.69182363986410555512e-01) 
