FANN_FLO_2.1
num_layers=3
learning_rate=0.700000
connection_rate=1.000000
network_type=0
learning_momentum=0.000000
training_algorithm=2
train_error_function=1
train_stop_function=1
cascade_output_change_fraction=0.010000
quickprop_decay=-0.000100
quickprop_mu=1.750000
rprop_increase_factor=1.200000
rprop_decrease_factor=0.500000
rprop_delta_min=0.000000
rprop_delta_max=50.000000
rprop_delta_zero=0.100000
cascade_output_stagnation_epochs=12
cascade_candidate_change_fraction=0.010000
cascade_candidate_stagnation_epochs=12
cascade_max_out_epochs=150
cascade_min_out_epochs=50
cascade_max_cand_epochs=150
cascade_min_cand_epochs=50
cascade_num_candidate_groups=2
bit_fail_limit=1.00000000000000005551e-01
cascade_candidate_limit=1.00000000000000000000e+03
cascade_weight_multiplier=4.00000000000000022204e-01
cascade_activation_functions_count=10
cascade_activation_functions=3 5 7 8 10 11 14 15 16 17 
cascade_activation_steepnesses_count=4
cascade_activation_steepnesses=2.50000000000000000000e-01 5.00000000000000000000e-01 7.50000000000000000000e-01 1.00000000000000000000e+00 
layer_sizes=16 4 2 
scale_included=0
neurons (num_inputs, activation_function, activation_steepness)=(0, 0, 0.00000000000000000000e+00) (0, 0, 0.00000000000000000000e+00) (0, 0, 0.00000000000000000000e+00) (0, 0, 0.00000000000000000000e+00) (0, 0, 0.00000000000000000000e+00) (0, 0, 0.00000000000000000000e+00) (0, 0, 0.00000000000000000000e+00) (0, 0, 0.00000000000000000000e+00) (0, 0, 0.00000000000000000000e+00) (0, 0, 0.00000000000000000000e+00) (0, 0, 0.00000000000000000000e+00) (0, 0, 0.00000000000000000000e+00) (0, 0, 0.00000000000000000000e+00) (0, 0, 0.00000000000000000000e+00) (0, 0, 0.00000000000000000000e+00) (0, 0, 0.00000000000000000000e+00) (16, 6, 5.00000000000000000000e-01) (16, 6, 5.00000000000000000000e-01) (16, 6, 5.00000000000000000000e-01) (0, 6, 0.00000000000000000000e+00) (4, 4, 5.00000000000000000000e-01) (0, 4, 0.00000000000000000000e+00) 
connections (connected_to_neuron, weight)=(0, 3.67876593301422805116e-01) (1, 1.62528256205862109418e+00) (2, 2.71974255562404065856e+00) (3, 2.93525877633634779684e+00) (4, 2.85807712394793478339e+00) (5, 2.71970754210866072498e+00) (6, 8.02949857372535014122e+00) (7, 2.59412958645769853305e+00) (8, 2.61056924338920026685e+00) (9, 2.47613401132118537973e+00) (10, -4.47536265623396156688e-01) (11, 2.02059104134609901493e+00) (12, 2.92517589980070980005e+00) (13, 3.61263201469022776635e+00) (14, -7.99563604563532925873e-01) (15, -2.05854793227733123828e+00) (0, -5.46405069463408998853e-02) (1, 3.07639319170257641289e+00) (2, 3.34816510383708365595e+00) (3, 2.54867504385057630500e+00) (4, 3.48985854945837337127e+00) (5, 3.38454573867081043304e+00) (6, 2.16090427516196514901e+00) (7, 3.03426235590407111786e+00) (8, 3.24146772459761978169e+00) (9, 2.94435836632355840692e+00) (10, 3.61373860194149454372e+00) (11, -1.13574146374604656451e+00) (12, -4.98969117952177354525e-01) (13, 3.47006629360986584842e+00) (14, -8.16390333934195022714e-01) (15, -2.13762009330157543019e+00) (0, -5.11918051442146526675e-01) (1, -4.08075092402184669282e+00) (2, -2.45996718458847718480e+00) (3, -3.65854228062234509977e+00) (4, -2.18838017399220374770e+00) (5, -2.42795950093325885177e+00) (6, -2.31201102543448655524e+00) (7, -3.00730632687371990386e+00) (8, -2.78089441204124065976e+00) (9, -3.21236860276157276672e+00) (10, 4.06386772904807980211e+00) (11, 7.76201558173171601851e+00) (12, 2.06465513825641888701e+00) (13, -3.45591326005634424945e+00) (14, 1.62996496031014070915e+00) (15, 2.02970283586972710665e+00) (16, 4.51211680445972529441e+00) (17, 6.80680414234786823613e+00) (18, -4.58111231412818753483e+00) (19, -1.44902235909068011210e+00) 
