FANN_FLO_2.1
num_layers=3
learning_rate=0.700000
connection_rate=1.000000
network_type=0
learning_momentum=0.000000
training_algorithm=2
train_error_function=1
train_stop_function=1
cascade_output_change_fraction=0.010000
quickprop_decay=-0.000100
quickprop_mu=1.750000
rprop_increase_factor=1.200000
rprop_decrease_factor=0.500000
rprop_delta_min=0.000000
rprop_delta_max=50.000000
rprop_delta_zero=0.100000
cascade_output_stagnation_epochs=12
cascade_candidate_change_fraction=0.010000
cascade_candidate_stagnation_epochs=12
cascade_max_out_epochs=150
cascade_min_out_epochs=50
cascade_max_cand_epochs=150
cascade_min_cand_epochs=50
cascade_num_candidate_groups=2
bit_fail_limit=1.00000000000000005551e-01
cascade_candidate_limit=1.00000000000000000000e+03
cascade_weight_multiplier=4.00000000000000022204e-01
cascade_activation_functions_count=10
cascade_activation_functions=3 5 7 8 10 11 14 15 16 17 
cascade_activation_steepnesses_count=4
cascade_activation_steepnesses=2.50000000000000000000e-01 5.00000000000000000000e-01 7.50000000000000000000e-01 1.00000000000000000000e+00 
layer_sizes=45 4 2 
scale_included=0
neurons (num_inputs, activation_function, activation_steepness)=(0, 0, 0.00000000000000000000e+00) (0, 0, 0.00000000000000000000e+00) (0, 0, 0.00000000000000000000e+00) (0, 0, 0.00000000000000000000e+00) (0, 0, 0.00000000000000000000e+00) (0, 0, 0.00000000000000000000e+00) (0, 0, 0.00000000000000000000e+00) (0, 0, 0.00000000000000000000e+00) (0, 0, 0.00000000000000000000e+00) (0, 0, 0.00000000000000000000e+00) (0, 0, 0.00000000000000000000e+00) (0, 0, 0.00000000000000000000e+00) (0, 0, 0.00000000000000000000e+00) (0, 0, 0.00000000000000000000e+00) (0, 0, 0.00000000000000000000e+00) (0, 0, 0.00000000000000000000e+00) (0, 0, 0.00000000000000000000e+00) (0, 0, 0.00000000000000000000e+00) (0, 0, 0.00000000000000000000e+00) (0, 0, 0.00000000000000000000e+00) (0, 0, 0.00000000000000000000e+00) (0, 0, 0.00000000000000000000e+00) (0, 0, 0.00000000000000000000e+00) (0, 0, 0.00000000000000000000e+00) (0, 0, 0.00000000000000000000e+00) (0, 0, 0.00000000000000000000e+00) (0, 0, 0.00000000000000000000e+00) (0, 0, 0.00000000000000000000e+00) (0, 0, 0.00000000000000000000e+00) (0, 0, 0.00000000000000000000e+00) (0, 0, 0.00000000000000000000e+00) (0, 0, 0.00000000000000000000e+00) (0, 0, 0.00000000000000000000e+00) (0, 0, 0.00000000000000000000e+00) (0, 0, 0.00000000000000000000e+00) (0, 0, 0.00000000000000000000e+00) (0, 0, 0.00000000000000000000e+00) (0, 0, 0.00000000000000000000e+00) (0, 0, 0.00000000000000000000e+00) (0, 0, 0.00000000000000000000e+00) (0, 0, 0.00000000000000000000e+00) (0, 0, 0.00000000000000000000e+00) (0, 0, 0.00000000000000000000e+00) (0, 0, 0.00000000000000000000e+00) (0, 0, 0.00000000000000000000e+00) (45, 6, 5.00000000000000000000e-01) (45, 6, 5.00000000000000000000e-01) (45, 6, 5.00000000000000000000e-01) (0, 6, 0.00000000000000000000e+00) (4, 4, 5.00000000000000000000e-01) (0, 4, 0.00000000000000000000e+00) 
connections (connected_to_neuron, weight)=(0, -2.06052372010675100000e+01) (1, 3.06609961358968918788e+00) (2, 1.86167647609714528301e+01) (3, 8.62657824175325060878e+00) (4, 1.50000000000000000000e+03) (5, 4.04424657145435961780e+00) (6, 3.03984046905031402019e+00) (7, 2.90034271621671724262e+00) (8, 2.22524174824101983461e+00) (9, 5.68725792094771698260e+00) (10, 1.65399018150054599730e+00) (11, 4.28436615920070629215e+00) (12, 3.42587510364215930281e+00) (13, 6.14213460951888023942e+00) (14, 6.08014176664467065336e+00) (15, 5.96515496846448822765e+00) (16, 5.33782124989664552572e+00) (17, 5.96724167184685327925e+00) (18, 6.00627256858022295916e+00) (19, 5.24560173306953245742e+01) (20, 1.28606076408259930588e+01) (21, -5.56388672856744648243e-01) (22, 7.58856684960715899280e+00) (23, 2.32146537698313792930e+00) (24, 1.50000000000000000000e+03) (25, -1.46885381669745213040e-01) (26, -5.67973746546984781247e+00) (27, 2.57087212553539039561e+01) (28, 8.14431087903585506638e+01) (29, 1.49808040948808115900e+03) (30, 1.17999616444289972605e+03) (31, 1.46999999880790710449e+03) (32, 1.21409524440954646707e+03) (33, 1.50000000000000000000e+03) (34, 1.50000000000000000000e+03) (35, 1.46999999880790710449e+03) (36, 1.45000000000000000000e+03) (37, 1.50000000000000000000e+03) (38, 7.11753973530557249028e-01) (39, 1.90023486650997730507e+00) (40, -6.62738485600477322812e-01) (41, -9.43193912757565366967e-01) (42, 2.66544508445835415245e+00) (43, 6.33230646732761481843e+00) (44, -1.17907440938112992312e-01) (0, -4.42082350985878758109e+00) (1, 1.14396769096852519709e+01) (2, -8.18566848002846014776e-02) (3, 2.59851436751291853255e-01) (4, 1.50000000000000000000e+03) (5, 1.13533936114139999418e+00) (6, -4.31450114213685953501e-01) (7, -5.36133154888261076465e-01) (8, 2.81381254684690862433e+00) (9, 5.42487727880969217154e-01) (10, 4.07699682942495655880e+00) (11, 5.28107729550403415253e-01) (12, 1.04183691192903249423e+00) (13, 3.23015061707101092114e-01) (14, 6.83540560839850791508e-02) (15, 1.58429026702008063365e-01) (16, 1.01291648132294875850e+00) (17, 4.57415497039261320644e-02) (18, 9.75003120132602180137e-02) (19, 3.00527458006873260388e+00) (20, -1.64264679053837592271e+00) (21, -5.39160875416415841244e+00) (22, 7.96207807575532333644e-01) (23, 1.07329353824070627965e+00) (24, 1.50000000000000000000e+03) (25, 2.10186400598464800948e-01) (26, -3.39295109308755282740e+00) (27, 1.44354096855753355477e+00) (28, -7.25774657169035442017e-01) (29, 2.73861489385935596985e+00) (30, 2.38272853047433841311e+00) (31, 2.37702783246731730316e+00) (32, 2.46722517961444154366e+00) (33, 2.46676811111726301817e+00) (34, 2.72883237790922761334e+00) (35, 2.38631471955935836604e+00) (36, 2.15544460437004348208e+00) (37, 2.70556177035664413566e+00) (38, 8.75913928857440571285e-01) (39, 3.05717898706727364555e+00) (40, 3.65546777253672405816e-01) (41, -7.88797690686142694005e-01) (42, 3.01536503929814292402e-01) (43, 3.33596972528394264401e+00) (44, 1.61057433187208526304e-01) (0, 8.09909120862554310349e+00) (1, -3.04569472302919697082e-01) (2, 7.56708078357151769922e+00) (3, -1.96566478513879006051e+00) (4, 8.00000000000000000000e+02) (5, 6.55371919909815758842e+00) (6, 9.91960942393351863267e-01) (7, 9.38399910778392465360e-01) (8, 4.44001711149495292830e+00) (9, 6.24304934065688410527e+00) (10, 3.58223499238350484575e+00) (11, 6.94166052931851051966e+00) (12, -3.57576263136556704580e+00) (13, -4.06860895194416105625e+00) (14, -4.46404960015169027798e+00) (15, -4.44155393126222808320e+00) (16, -3.74217844003694954935e+00) (17, -4.51145852407360425929e+00) (18, -4.52649023107822046086e+00) (19, 1.49607571806459191066e+02) (20, 1.80648662059820730441e+00) (21, 1.60914847687583817404e+00) (22, -3.54148609570942074498e+00) (23, -8.65426042617028601356e-01) (24, 9.00000000000000000000e+02) (25, 5.89543109231148651506e-02) (26, 1.07419430281723400356e+01) (27, 4.44695019184873885365e+00) (28, 3.17542296457502182250e+00) (29, 9.39261798911367939979e+00) (30, 1.36992119860660395148e+01) (31, 7.64388466741405991911e+00) (32, 1.67571189545813439281e+01) (33, 1.81748378884256673871e+01) (34, 1.66946593096022759539e+01) (35, 1.50883173111859001381e+01) (36, 1.50619646630249874875e+01) (37, 7.31265319932305857265e+01) (38, -5.32438182807410287367e-01) (39, 9.29483928569231565575e+00) (40, 1.04882821233249212689e+00) (41, 2.30559890223167318624e+00) (42, 3.69603846997459850598e-01) (43, 4.38690917464652851976e+00) (44, -1.51967792863584993945e+00) (45, 7.28867349050390167520e+00) (46, 8.68817918022539181777e+00) (47, -1.07265739778124746806e+01) (48, 1.58458746742957429232e-01) 
