FANN_FLO_2.1
num_layers=3
learning_rate=0.700000
connection_rate=1.000000
network_type=0
learning_momentum=0.000000
training_algorithm=2
train_error_function=1
train_stop_function=1
cascade_output_change_fraction=0.010000
quickprop_decay=-0.000100
quickprop_mu=1.750000
rprop_increase_factor=1.200000
rprop_decrease_factor=0.500000
rprop_delta_min=0.000000
rprop_delta_max=50.000000
rprop_delta_zero=0.100000
cascade_output_stagnation_epochs=12
cascade_candidate_change_fraction=0.010000
cascade_candidate_stagnation_epochs=12
cascade_max_out_epochs=150
cascade_min_out_epochs=50
cascade_max_cand_epochs=150
cascade_min_cand_epochs=50
cascade_num_candidate_groups=2
bit_fail_limit=1.00000000000000005551e-01
cascade_candidate_limit=1.00000000000000000000e+03
cascade_weight_multiplier=4.00000000000000022204e-01
cascade_activation_functions_count=10
cascade_activation_functions=3 5 7 8 10 11 14 15 16 17 
cascade_activation_steepnesses_count=4
cascade_activation_steepnesses=2.50000000000000000000e-01 5.00000000000000000000e-01 7.50000000000000000000e-01 1.00000000000000000000e+00 
layer_sizes=33 4 2 
scale_included=0
neurons (num_inputs, activation_function, activation_steepness)=(0, 0, 0.00000000000000000000e+00) (0, 0, 0.00000000000000000000e+00) (0, 0, 0.00000000000000000000e+00) (0, 0, 0.00000000000000000000e+00) (0, 0, 0.00000000000000000000e+00) (0, 0, 0.00000000000000000000e+00) (0, 0, 0.00000000000000000000e+00) (0, 0, 0.00000000000000000000e+00) (0, 0, 0.00000000000000000000e+00) (0, 0, 0.00000000000000000000e+00) (0, 0, 0.00000000000000000000e+00) (0, 0, 0.00000000000000000000e+00) (0, 0, 0.00000000000000000000e+00) (0, 0, 0.00000000000000000000e+00) (0, 0, 0.00000000000000000000e+00) (0, 0, 0.00000000000000000000e+00) (0, 0, 0.00000000000000000000e+00) (0, 0, 0.00000000000000000000e+00) (0, 0, 0.00000000000000000000e+00) (0, 0, 0.00000000000000000000e+00) (0, 0, 0.00000000000000000000e+00) (0, 0, 0.00000000000000000000e+00) (0, 0, 0.00000000000000000000e+00) (0, 0, 0.00000000000000000000e+00) (0, 0, 0.00000000000000000000e+00) (0, 0, 0.00000000000000000000e+00) (0, 0, 0.00000000000000000000e+00) (0, 0, 0.00000000000000000000e+00) (0, 0, 0.00000000000000000000e+00) (0, 0, 0.00000000000000000000e+00) (0, 0, 0.00000000000000000000e+00) (0, 0, 0.00000000000000000000e+00) (0, 0, 0.00000000000000000000e+00) (33, 6, 5.00000000000000000000e-01) (33, 6, 5.00000000000000000000e-01) (33, 6, 5.00000000000000000000e-01) (0, 6, 0.00000000000000000000e+00) (4, 4, 5.00000000000000000000e-01) (0, 4, 0.00000000000000000000e+00) 
connections (connected_to_neuron, weight)=(0, -7.90809789270632546021e+00) (1, 8.08816028620576332742e+00) (2, 5.49220941408505747283e-01) (3, 5.24845362042819618686e-01) (4, -1.49557121275068993782e+00) (5, 1.50000000000000000000e+03) (6, 1.50000000000000000000e+03) (7, 1.99370663316396452558e+01) (8, -1.37417726978702536833e+00) (9, 8.46815705804949026003e+00) (10, -1.42863890046284636171e+00) (11, -1.13766065766941881776e+00) (12, 3.67679502772872490723e+00) (13, 4.02671019435095922656e-01) (14, -1.43817029779062277584e+00) (15, 3.95211836181553810565e-01) (16, 3.13119387227182510713e+00) (17, 1.29856565257970942184e+02) (18, 9.27094360814523232861e-02) (19, -1.41263661706183807354e+00) (20, -1.45172216558927491548e+00) (21, 1.13128590457063110675e-01) (22, -1.27190061611647231565e+00) (23, -1.39485668116983418940e+00) (24, -1.09357689112748945881e+00) (25, -1.27082236870738984891e+00) (26, -1.38558777699424218177e+00) (27, -1.81633730829117423511e+00) (28, 2.27519120726422929835e+00) (29, 5.74149565022406771497e-01) (30, -2.32224231551529181061e+00) (31, 2.80449517029730463480e-02) (32, 2.12325612411908704047e+00) (0, 3.93569551027712738467e-01) (1, 7.76018872450603325319e+00) (2, -2.10144780366351069389e+00) (3, -2.12479320995167642039e+00) (4, 2.37656008723291201079e+00) (5, 6.20523504830613159555e+00) (6, 6.16283229007908595065e+00) (7, 8.19984674448777894895e+00) (8, 2.46731722426677491100e+00) (9, 7.88036044811672731214e+00) (10, 2.44358145437631435470e+00) (11, 1.69630524891594713921e+00) (12, 9.12541632470669661359e-01) (13, 3.45635869217002777987e+00) (14, 1.87140923055310182122e+00) (15, 4.62909060585587095460e+00) (16, 2.06829855303858645144e+00) (17, 9.66162151681642211720e-01) (18, 3.37026304675767374164e+00) (19, 2.24866314225822616635e+00) (20, 2.18966424064421261164e+00) (21, 3.00676094749444278165e+00) (22, 2.35707234409767529826e+00) (23, 2.23601902506978555962e+00) (24, 2.38944372310626773626e+00) (25, 2.36267083743639672022e+00) (26, 2.22487673363011007055e+00) (27, 2.53776237202030774398e+00) (28, 9.10699375196052041126e-01) (29, 1.78599869977954339717e+00) (30, 1.08830329027633498917e+00) (31, 2.09873614703072242094e+00) (32, -1.58855151709295583373e+00) (0, 3.19225915000666082832e+00) (1, 4.06062854621951130341e-01) (2, -2.82865041044603948706e+00) (3, -2.74671625489675985676e+00) (4, -5.06885259664000664692e-01) (5, 1.48079994028427641695e-01) (6, 1.50895291476863896429e-01) (7, 4.52004389262398831306e-01) (8, -1.89031451467804034738e-01) (9, 3.99477625710943695658e-01) (10, -1.09688942658158983257e-01) (11, 2.53234121601813688685e-01) (12, -1.07583355232943649327e+01) (13, 1.10491461644489668004e+01) (14, 4.13608078235054943406e+00) (15, 9.53283645468876699169e+01) (16, -1.19329157734768154242e+00) (17, 5.77054642114481364246e+00) (18, 4.18123723293207660845e+00) (19, 4.27919645706462414836e+00) (20, 4.36909407221482748440e+00) (21, 2.07254476711623913943e+00) (22, 4.25315288309110961507e+00) (23, 4.31274025864110654993e+00) (24, 4.24500539254588726834e+00) (25, 4.38190013118418608684e+00) (26, 4.23942125839550687516e+00) (27, 3.82615955233325200080e-01) (28, 5.95495241701497874942e+01) (29, 1.17057777545876273706e+01) (30, 8.02707437423336841675e+02) (31, 1.50499692127681083953e+00) (32, 3.76191534693012030743e-01) (33, -2.35539672155280399579e+01) (34, 3.07817960300252160266e+01) (35, -1.20270690712687944313e+01) (36, -3.07981493828074659458e-01) 
