FANN_FLO_2.1
num_layers=3
learning_rate=0.700000
connection_rate=1.000000
network_type=0
learning_momentum=0.000000
training_algorithm=2
train_error_function=1
train_stop_function=1
cascade_output_change_fraction=0.010000
quickprop_decay=-0.000100
quickprop_mu=1.750000
rprop_increase_factor=1.200000
rprop_decrease_factor=0.500000
rprop_delta_min=0.000000
rprop_delta_max=50.000000
rprop_delta_zero=0.100000
cascade_output_stagnation_epochs=12
cascade_candidate_change_fraction=0.010000
cascade_candidate_stagnation_epochs=12
cascade_max_out_epochs=150
cascade_min_out_epochs=50
cascade_max_cand_epochs=150
cascade_min_cand_epochs=50
cascade_num_candidate_groups=2
bit_fail_limit=1.00000000000000005551e-01
cascade_candidate_limit=1.00000000000000000000e+03
cascade_weight_multiplier=4.00000000000000022204e-01
cascade_activation_functions_count=10
cascade_activation_functions=3 5 7 8 10 11 14 15 16 17 
cascade_activation_steepnesses_count=4
cascade_activation_steepnesses=2.50000000000000000000e-01 5.00000000000000000000e-01 7.50000000000000000000e-01 1.00000000000000000000e+00 
layer_sizes=16 4 2 
scale_included=0
neurons (num_inputs, activation_function, activation_steepness)=(0, 0, 0.00000000000000000000e+00) (0, 0, 0.00000000000000000000e+00) (0, 0, 0.00000000000000000000e+00) (0, 0, 0.00000000000000000000e+00) (0, 0, 0.00000000000000000000e+00) (0, 0, 0.00000000000000000000e+00) (0, 0, 0.00000000000000000000e+00) (0, 0, 0.00000000000000000000e+00) (0, 0, 0.00000000000000000000e+00) (0, 0, 0.00000000000000000000e+00) (0, 0, 0.00000000000000000000e+00) (0, 0, 0.00000000000000000000e+00) (0, 0, 0.00000000000000000000e+00) (0, 0, 0.00000000000000000000e+00) (0, 0, 0.00000000000000000000e+00) (0, 0, 0.00000000000000000000e+00) (16, 6, 5.00000000000000000000e-01) (16, 6, 5.00000000000000000000e-01) (16, 6, 5.00000000000000000000e-01) (0, 6, 0.00000000000000000000e+00) (4, 4, 5.00000000000000000000e-01) (0, 4, 0.00000000000000000000e+00) 
connections (connected_to_neuron, weight)=(0, -1.16584539634394745988e+00) (1, -1.93442172823755798028e+00) (2, -1.98682659560766028406e+00) (3, -1.78889413621748794014e+00) (4, -1.76278240839223010461e+00) (5, -1.78170632110223126077e+00) (6, -1.19141731296486752534e+00) (7, -1.76990045846336507829e+00) (8, -1.73484815151327276261e+00) (9, -1.98400913169555015436e+00) (10, -1.30203860861854381348e+00) (11, 7.34175845416383920927e-01) (12, 1.14314813730057540653e+00) (13, -3.02750819144070382194e+00) (14, 1.65299166856812962401e+00) (15, 1.91829361852199098415e+00) (0, -1.17099147883463006181e+00) (1, -1.87237664578764495538e+00) (2, -1.69733623502910813130e+00) (3, -1.67656923529232848580e+00) (4, -1.81443259725550753991e+00) (5, -1.83081026659592938088e+00) (6, -1.22506132607169049287e+00) (7, -1.75107131920022340843e+00) (8, -1.75288478306693407127e+00) (9, -2.00835821395687386115e+00) (10, -1.25903524322109050537e+00) (11, 7.83052369387941427092e-01) (12, 1.11283644851979079959e+00) (13, -3.05548083004772896842e+00) (14, 1.57848747937488087523e+00) (15, 1.94881578620463868923e+00) (0, -1.57431352365242194224e-01) (1, -1.35370436939968952217e+00) (2, -2.23406230526713445173e+00) (3, -1.95566429783483441973e+00) (4, -1.75920687402041808767e+00) (5, -1.76582252125198646553e+00) (6, -4.81433365726521333983e+00) (7, -2.01672260933495950397e+00) (8, -2.06159333676991574080e+00) (9, -1.23030598494627518846e+00) (10, 1.20859352129908614870e+00) (11, -9.42569294477601182791e+00) (12, -2.96496430152276779779e+00) (13, -1.59752663699534958042e+00) (14, 4.99421733580452498202e-01) (15, 1.00507603794638389338e+00) (16, -8.96170090779004091530e+00) (17, -8.58692454145025152457e+00) (18, -7.38118191662135192388e+00) (19, -1.30769328346670787866e+00) 
