FANN_FLO_2.1
num_layers=3
learning_rate=0.700000
connection_rate=1.000000
network_type=0
learning_momentum=0.000000
training_algorithm=2
train_error_function=1
train_stop_function=1
cascade_output_change_fraction=0.010000
quickprop_decay=-0.000100
quickprop_mu=1.750000
rprop_increase_factor=1.200000
rprop_decrease_factor=0.500000
rprop_delta_min=0.000000
rprop_delta_max=50.000000
rprop_delta_zero=0.100000
cascade_output_stagnation_epochs=12
cascade_candidate_change_fraction=0.010000
cascade_candidate_stagnation_epochs=12
cascade_max_out_epochs=150
cascade_min_out_epochs=50
cascade_max_cand_epochs=150
cascade_min_cand_epochs=50
cascade_num_candidate_groups=2
bit_fail_limit=1.00000000000000005551e-01
cascade_candidate_limit=1.00000000000000000000e+03
cascade_weight_multiplier=4.00000000000000022204e-01
cascade_activation_functions_count=10
cascade_activation_functions=3 5 7 8 10 11 14 15 16 17 
cascade_activation_steepnesses_count=4
cascade_activation_steepnesses=2.50000000000000000000e-01 5.00000000000000000000e-01 7.50000000000000000000e-01 1.00000000000000000000e+00 
layer_sizes=51 11 2 
scale_included=0
neurons (num_inputs, activation_function, activation_steepness)=(0, 0, 0.00000000000000000000e+00) (0, 0, 0.00000000000000000000e+00) (0, 0, 0.00000000000000000000e+00) (0, 0, 0.00000000000000000000e+00) (0, 0, 0.00000000000000000000e+00) (0, 0, 0.00000000000000000000e+00) (0, 0, 0.00000000000000000000e+00) (0, 0, 0.00000000000000000000e+00) (0, 0, 0.00000000000000000000e+00) (0, 0, 0.00000000000000000000e+00) (0, 0, 0.00000000000000000000e+00) (0, 0, 0.00000000000000000000e+00) (0, 0, 0.00000000000000000000e+00) (0, 0, 0.00000000000000000000e+00) (0, 0, 0.00000000000000000000e+00) (0, 0, 0.00000000000000000000e+00) (0, 0, 0.00000000000000000000e+00) (0, 0, 0.00000000000000000000e+00) (0, 0, 0.00000000000000000000e+00) (0, 0, 0.00000000000000000000e+00) (0, 0, 0.00000000000000000000e+00) (0, 0, 0.00000000000000000000e+00) (0, 0, 0.00000000000000000000e+00) (0, 0, 0.00000000000000000000e+00) (0, 0, 0.00000000000000000000e+00) (0, 0, 0.00000000000000000000e+00) (0, 0, 0.00000000000000000000e+00) (0, 0, 0.00000000000000000000e+00) (0, 0, 0.00000000000000000000e+00) (0, 0, 0.00000000000000000000e+00) (0, 0, 0.00000000000000000000e+00) (0, 0, 0.00000000000000000000e+00) (0, 0, 0.00000000000000000000e+00) (0, 0, 0.00000000000000000000e+00) (0, 0, 0.00000000000000000000e+00) (0, 0, 0.00000000000000000000e+00) (0, 0, 0.00000000000000000000e+00) (0, 0, 0.00000000000000000000e+00) (0, 0, 0.00000000000000000000e+00) (0, 0, 0.00000000000000000000e+00) (0, 0, 0.00000000000000000000e+00) (0, 0, 0.00000000000000000000e+00) (0, 0, 0.00000000000000000000e+00) (0, 0, 0.00000000000000000000e+00) (0, 0, 0.00000000000000000000e+00) (0, 0, 0.00000000000000000000e+00) (0, 0, 0.00000000000000000000e+00) (0, 0, 0.00000000000000000000e+00) (0, 0, 0.00000000000000000000e+00) (0, 0, 0.00000000000000000000e+00) (0, 0, 0.00000000000000000000e+00) (51, 6, 5.00000000000000000000e-01) (51, 6, 5.00000000000000000000e-01) (51, 6, 5.00000000000000000000e-01) (51, 6, 5.00000000000000000000e-01) (51, 6, 5.00000000000000000000e-01) (51, 6, 5.00000000000000000000e-01) (51, 6, 5.00000000000000000000e-01) (51, 6, 5.00000000000000000000e-01) (51, 6, 5.00000000000000000000e-01) (51, 6, 5.00000000000000000000e-01) (0, 6, 0.00000000000000000000e+00) (11, 6, 5.00000000000000000000e-01) (0, 6, 0.00000000000000000000e+00) 
connections (connected_to_neuron, weight)=(0, 1.88174673059091435157e+00) (1, -2.34375491380525019514e-03) (2, 1.61873098764421130547e-01) (3, 8.27727432584776517954e-02) (4, 1.12417939341084866661e-02) (5, 4.78850619958834863854e-02) (6, 5.15611753196087874151e-01) (7, 1.00102822252142065196e-01) (8, 8.67407310932948039106e-02) (9, -2.49070874923648943877e+00) (10, -2.96260058965295419720e-02) (11, -6.67653282282888033139e-02) (12, 1.51226936024761005051e-01) (13, -4.94550106794253221953e-02) (14, 1.74571291133192085798e-01) (15, 1.11616200358492876493e-02) (16, 1.15417405953495172399e-01) (17, -4.65830902926941958775e-02) (18, 1.36570914150093314365e-01) (19, -1.81399388639767039644e-02) (20, 1.30845366998708190209e-01) (21, 2.65047735834412628853e-02) (22, -1.43583203933487696391e-01) (23, 1.99761247903606720122e-01) (24, 8.60644782785324469199e-02) (25, -6.69648708739188081029e-02) (26, -4.13014444734186199348e-03) (27, 2.29474189600743311290e-01) (28, -1.44095848539350174233e-01) (29, -1.48147538813517443135e-01) (30, -3.15101009456515137805e-04) (31, -4.51129441199112468652e-01) (32, 3.95587677988424812892e-01) (33, 4.01761553226630263591e-01) (34, -1.23041588584686511360e-02) (35, 4.51410829346085215596e-02) (36, 8.54059267942479660718e-02) (37, 1.67015541953623669613e-01) (38, 1.34218448540324136742e-01) (39, 5.76255268776760670724e-02) (40, 6.53533254486599046729e-02) (41, 1.65864239285851117200e-01) (42, 1.22493029747676535068e-01) (43, 4.27099006473960068897e-02) (44, 1.36154129108343707744e-01) (45, 3.33869326858022563709e-01) (46, 2.44105259889454972999e-01) (47, 5.98640015879607911842e-01) (48, -4.54846847332160575395e-01) (49, 2.65650751358233627730e-01) (50, 2.27894211709504634911e-01) (0, 2.37641905004993558848e+00) (1, 1.54267589110695185761e-01) (2, -2.86341882163654304350e-02) (3, 1.24490196365677152635e-01) (4, 8.33888896888125286111e-02) (5, -2.71463745869356225249e-02) (6, 1.81198012315339909151e+01) (7, 1.23383279605210782748e-01) (8, -8.95210472232862812525e-03) (9, -1.52292581069842665187e+01) (10, 9.92127756261458743081e-02) (11, -5.90454918496544425843e-03) (12, -5.91601966187585703860e-02) (13, -9.80648815879562735232e-02) (14, 8.19602945734474452877e-02) (15, 1.95904506010142615002e-02) (16, 2.19192271597450027976e-01) (17, -8.01145657595144465579e-03) (18, -7.75092084376118040101e-03) (19, -4.96364576987917555106e-02) (20, 1.59169080658318196075e-02) (21, -1.70347514237615578481e-02) (22, 2.24558950523352507389e-02) (23, 9.47771665488531256383e-02) (24, -5.83470063150960498166e-03) (25, -6.72025888980221919322e-02) (26, -1.12452655120662881050e-01) (27, 2.58698321580669798880e-01) (28, -1.84131240665121945210e-02) (29, 1.35248933161254136781e-01) (30, -2.50903824526358343316e-01) (31, -1.69950679384046310361e+00) (32, 2.91903154306188739042e-01) (33, 3.72064925350181652242e-01) (34, -9.39858603252352875490e-02) (35, 4.01066486851626435861e-02) (36, 1.77050589224909543651e-02) (37, 7.76465198344748613879e-02) (38, -1.97578622289183575278e-02) (39, 5.19228004744376678281e-02) (40, 6.29507712103156633066e-03) (41, -3.61754486212356174413e-02) (42, 2.33032501545291925726e-02) (43, -5.38672199416004304773e-02) (44, -2.32126465778024655695e-02) (45, -6.57806139318497629098e-01) (46, 5.66846908590610543133e-02) (47, -2.54495560587936278663e-02) (48, -1.17034781379019486858e-01) (49, 6.93565223349446591250e-02) (50, 3.85058527183881754707e-02) (0, 3.02578648466612030177e+01) (1, 2.62196446426158302767e-01) (2, 4.10042809911018046876e-01) (3, 4.33601247735267314454e-01) (4, 4.18293031521087321778e-01) (5, 3.20325717981287561020e-01) (6, 5.81749194420371984471e-01) (7, -1.63746975674711719995e-01) (8, 1.62617114198008033688e-01) (9, -7.87539654054876692157e+00) (10, 2.25258273346650356173e-01) (11, -2.13246099179599080120e-01) (12, -9.86873320568620593374e-02) (13, -1.15403024738412643413e-01) (14, -2.81451135258451445864e-02) (15, -1.77896272275826577980e-01) (16, 9.75076076051787643539e-02) (17, -2.05897898432694848037e-01) (18, -1.40442958270959677991e-01) (19, -1.59392553813608145452e-01) (20, 7.36153493561619437502e-02) (21, -5.91568320542326941958e-02) (22, -1.49565314443338315264e-01) (23, -1.72047313303324067579e-01) (24, 2.85739306489605604522e-01) (25, -3.69442981556315941383e-01) (26, -8.38200039317698042396e-01) (27, -3.07803778287012608228e-01) (28, 5.99507817239346152416e-02) (29, 1.22348100879562077248e-01) (30, 7.51614599055650811632e-02) (31, -2.77767440052673952877e-01) (32, -4.38781367727428317504e-01) (33, -7.24175330253142623960e-01) (34, -7.81525780040185247266e-01) (35, -5.01258419842258606813e-01) (36, -4.55772736785771181989e-01) (37, -4.11248235974885967270e-01) (38, -6.15781693434309773671e-01) (39, -6.18968548415556929498e-01) (40, -4.60608400653307159534e-01) (41, -2.93754614678410852502e-01) (42, -1.73232402068920016136e-01) (43, -3.04068613452430303035e-01) (44, -3.59046213489466303770e-01) (45, -7.20489201527969358452e-01) (46, -2.15993318128203104500e-02) (47, -8.69729855988210287521e-01) (48, -2.27771661894773963519e-01) (49, -4.19898444477455279333e-01) (50, 2.93371333634250164302e-01) (0, -2.13874598454624909039e+01) (1, -1.42982610778649626981e-01) (2, -1.99857713000615416776e-01) (3, -1.40010365562279998075e-01) (4, -2.65966528372604815722e-01) (5, 4.50438238248126787688e-01) (6, 5.68445303056660122820e+00) (7, 1.44845560269646278506e+00) (8, 3.41338906225457761057e-01) (9, -3.54096407395913237437e+00) (10, 4.57256597406818843243e-01) (11, 1.30137323553429995471e+00) (12, 5.12890446144998901623e-01) (13, 3.19051546742455338634e-01) (14, 9.34672447768192915518e-01) (15, 1.27364345681825974488e+00) (16, 1.09320299074621551938e+00) (17, 1.04252501724143420425e+00) (18, 6.40824759262060172915e-01) (19, 9.71306048515460762616e-01) (20, 1.27831898956192491212e+00) (21, 9.24074661627690363552e-01) (22, 5.14920699365682299486e-01) (23, 1.21774580022177825178e+00) (24, 1.20366840901436278344e+00) (25, 5.52604045275494892842e-01) (26, 5.25101286707200465287e-01) (27, 1.16273139756296917113e+00) (28, 5.26881273712718312119e-01) (29, 2.71864607598791885312e-01) (30, 3.57349436120451113830e-01) (31, 4.27063547453749237093e+00) (32, 1.44176039806180567027e+00) (33, -2.65407510886575215281e-01) (34, 1.10537440147146015512e+00) (35, 7.44863977276828626017e-01) (36, 5.01367335644730682809e-01) (37, 1.02835354180340532437e+00) (38, 6.36910785292138736935e-01) (39, 8.05031176435652251477e-01) (40, 6.25483174219717663611e-01) (41, 7.96943827262633130992e-01) (42, 8.15059065780330826989e-01) (43, 5.50473637433727458479e-01) (44, 5.14799661255306517660e-01) (45, 3.83125183301941840686e-01) (46, 6.23149187190131348402e-01) (47, 1.78644886850665152167e-01) (48, 4.24116844334063436417e-01) (49, 3.87464910725137501313e-01) (50, -1.30703592671153834281e-01) (0, 8.77921760625963720770e+00) (1, 3.57222252471127654783e-01) (2, 3.69264760000386382810e-01) (3, 2.47531385106720874800e-01) (4, 2.61087630821146943205e-01) (5, 4.16211488761635628464e+00) (6, -5.14480177292544027523e+00) (7, 6.05573273969631209468e+00) (8, 3.31303316882753318140e+00) (9, -6.41078979406798499241e+00) (10, 1.08928785560929775045e+01) (11, 6.42151195479672498578e+00) (12, 3.98399753714805804350e+00) (13, 3.01651446483337748461e+00) (14, 3.77149397117839590976e+00) (15, 4.81466652871545175429e+00) (16, 1.07039359197598731299e+01) (17, 5.06790888469384270820e+00) (18, 1.33894830288187272060e+00) (19, 1.06169696728071922820e+01) (20, 7.95636413517345353341e+00) (21, 1.44121895598921412329e+00) (22, 4.91190625868614532124e+01) (23, 2.88089371102037139494e+00) (24, 2.87505235163213601624e+00) (25, 8.91055783309892546207e-01) (26, 1.61253517515067390509e-01) (27, -2.87712147153106723163e-01) (28, 1.12945338694776129529e+01) (29, 1.09912574252351031845e+01) (30, 1.30565957860859871431e+01) (31, -3.50096333947018278909e-01) (32, -1.90826473445927313755e+00) (33, 1.48393535867489667623e+01) (34, -8.71836002656715458592e-01) (35, 6.89638683755721570989e-01) (36, 4.06424398083335192133e-01) (37, 5.29231511720500868989e-01) (38, 4.07264772951104137011e-01) (39, 4.02066625220145745789e-01) (40, 3.71938836210679135696e-01) (41, 3.05578700986308682275e-02) (42, 5.10411840073353828551e-01) (43, 2.33909997277655223868e+00) (44, 5.39056348573593080431e-01) (45, 6.63629664739520397365e-02) (46, 1.57959942100830724732e-01) (47, -5.53003912277715725665e-01) (48, 1.98861959967173929087e+00) (49, 1.11936794446821430427e+00) (50, 1.34913189575598946313e+00) (0, 2.49844868397554753514e+00) (1, 1.52300022292114783928e-01) (2, -3.73963194608909338390e-02) (3, 4.94694111227768074102e-02) (4, -1.85008498549683389478e-02) (5, 8.81483515177619858516e-02) (6, 4.35785128337390847975e+00) (7, 1.63576225944498332421e-01) (8, 1.48919618546507787071e-01) (9, -3.28487709522093140890e+00) (10, 9.23813298759932899351e-02) (11, 6.75550625692088006768e-04) (12, 1.05472472289858426597e-01) (13, -2.33023057815609632368e-03) (14, 7.02266380380711374709e-02) (15, 6.54014443040239808885e-03) (16, 5.54581132400935664095e-02) (17, 1.92709323368818429001e-02) (18, 7.46409524957329650885e-02) (19, 1.40547010535892025196e-01) (20, 9.17277731478335356385e-02) (21, 1.62415733897275718634e-02) (22, -1.12282709852373846493e-01) (23, 8.15073447674870138480e-02) (24, 5.72746286862904421811e-02) (25, -1.78080332218556354473e-02) (26, -6.92011560786155444092e-02) (27, 1.69567719407897832262e-01) (28, 1.09578157018412405965e-02) (29, -1.89297138720614099849e-02) (30, -7.80928820143450830304e-02) (31, -2.19916738827169749859e-01) (32, -7.86111795822751896479e-02) (33, 3.85457851377342120003e-01) (34, -2.02354702579260747886e-01) (35, 8.86086736715279849053e-02) (36, 2.29367851180574955361e-02) (37, 1.86881890550341274448e-02) (38, 5.90871085185332017842e-02) (39, 3.19190269094978343323e-02) (40, 5.15560492478558396456e-02) (41, 2.58895205111570499146e-02) (42, 1.52885838314420069439e-02) (43, -7.99125723807816296107e-02) (44, 3.37284816810058285519e-01) (45, -4.47784628016523633676e-01) (46, 1.23318997632810387066e-01) (47, 1.11826875563666480740e-01) (48, -2.64111393474180999874e-01) (49, 3.27019002853688126736e-03) (50, -1.02920523339100455917e-01) (0, 3.16938206739934047462e+00) (1, 1.32855235545783767481e-01) (2, 1.63210480420737991114e-01) (3, 2.88243911175876610375e-01) (4, 2.34025946765094500224e-01) (5, 9.58438094993991629433e-02) (6, -4.41735207879515279217e+00) (7, -2.42667390392907883490e-01) (8, 3.45220480311233882120e-02) (9, 2.42411906020162888353e+01) (10, 2.68008433860404057802e-02) (11, 3.22255932099448860750e-01) (12, 1.21686006664171383895e-01) (13, 1.79133616461241235163e-01) (14, -2.35332930144007190787e-01) (15, 2.06242914827621359741e-01) (16, -3.60606627383841860102e-01) (17, 2.01029768457993140984e-01) (18, -1.01522484340637070277e-01) (19, 7.61405297866913355342e-02) (20, 1.10197691273533182610e-01) (21, 6.72315248190721165278e-02) (22, 7.92794521871044433059e-02) (23, -6.12719496418755726896e-02) (24, 1.43769980235676470004e-01) (25, -2.73662511895368498749e-01) (26, -1.66787690368060781410e+00) (27, 6.66578357192920134544e-02) (28, 3.55949139210283774237e-02) (29, -1.09557950508071308415e-01) (30, 1.81663647548530460263e+00) (31, -1.26579177979250978581e+00) (32, 2.59950498236447835598e-01) (33, 3.07480490551199525662e-01) (34, -1.18205213575894840794e+00) (35, 2.55678909716921032302e-01) (36, 2.25700390447587495579e-01) (37, 2.66159136121436712408e-01) (38, 3.26161218185915591228e-01) (39, 3.24681031738721981306e-01) (40, 2.96305539929696548640e-01) (41, 3.44630387601939813802e-01) (42, 2.99367862564222098065e-01) (43, 4.15974671611948731975e-01) (44, 7.31414976517354986640e-01) (45, 8.81112601580005469493e-03) (46, -2.20076722940338698198e-01) (47, -2.13994614693946400008e-01) (48, 2.01812915457153588261e-02) (49, -1.39010872294956983053e-01) (50, -2.35520904934583247270e-01) (0, -2.17036179512560023497e+00) (1, -1.12464935491598996137e-02) (2, -1.48513271004966668221e-01) (3, -1.45171395034603051277e-01) (4, -1.46351119966319970223e-01) (5, -7.97021354036920870456e-02) (6, 1.15009635243856012110e+00) (7, 7.43656190919055656158e-03) (8, 3.03553943599734615821e-02) (9, 2.02054993128844007089e+00) (10, 2.41641173724563076974e-02) (11, 4.73515020739492739632e-02) (12, 2.72121257702914627619e-02) (13, 7.78553863104216870017e-02) (14, 5.52443687888042808676e-02) (15, 3.55545568344798820770e-02) (16, 4.30596613679272988140e-02) (17, 5.29517103921641751896e-02) (18, -4.57312950974023274542e-02) (19, -6.05410715705642990536e-02) (20, -8.79873552910876433053e-02) (21, -3.98946662679333860502e-02) (22, 5.11127698690762560102e-03) (23, -9.47591146383281734966e-02) (24, -7.35974248837265587753e-02) (25, 8.73639402434979867040e-02) (26, 4.73681379383143752460e-01) (27, -3.67460673715622604396e-02) (28, -1.26019725535638643654e-02) (29, 1.07275596939698389387e-01) (30, 1.75694914455545608822e-01) (31, 3.16693990192060126354e-01) (32, -8.68555987738513918250e-02) (33, -3.65850468788504634698e-01) (34, 4.29243461251823388292e-01) (35, 1.42045503813990007386e-02) (36, 4.22599633881540134861e-02) (37, 4.19719830533391534411e-03) (38, 2.00038280418822073115e-02) (39, 1.02444096147028037430e-02) (40, 2.94314207141068533147e-02) (41, 2.62406875543140793994e-02) (42, 2.74377002890405403968e-02) (43, 7.00962951320196064886e-02) (44, -8.72288319903070791250e-02) (45, 4.98576802844782840385e-01) (46, 6.71630411912622071746e-01) (47, -4.34400418327801907115e-02) (48, 2.08817546554573046924e-01) (49, -5.18252922407697394491e-02) (50, -3.65242040821330160583e-01) (0, 1.69732738297921166293e+01) (1, 3.59033954502444019319e-01) (2, 3.86337828995089282991e-01) (3, 4.55155958594183673860e-01) (4, 4.21891247094969501497e-01) (5, 2.76496995059675954032e-01) (6, -1.60059738453598887631e+00) (7, -6.54015940750417468230e-01) (8, -4.69155217616513575685e-01) (9, 2.01679773850875321273e+00) (10, -7.54688027390189253296e-01) (11, 3.53066512243978047891e+00) (12, 4.84968189907445113018e-01) (13, 2.89156050527313679410e+00) (14, -1.38768455672949508894e+00) (15, -4.79928521300860166932e-01) (16, -1.24621438961443598004e+00) (17, 4.50429715292445354002e-01) (18, -5.76940208866491111017e-01) (19, -1.31387625266103758026e-01) (20, -1.00256008281999076104e+00) (21, -2.21108874974316443884e-01) (22, 1.16679687754119765231e+00) (23, -5.35169537952461138453e-01) (24, -9.40550094740034703378e-01) (25, -4.56003765299634933328e-01) (26, -1.18790163616359722987e+00) (27, -1.33042863439875214127e+00) (28, 3.23287119451884663590e+00) (29, 3.55490739602350280801e-01) (30, 1.07237849353552250342e+00) (31, -1.59426796521348457247e+00) (32, -2.66823128853037516706e+00) (33, 2.59522672555374256387e-01) (34, -3.08870981123947219160e+00) (35, 2.53113146066557770375e-01) (36, 3.27289454027988813145e-01) (37, 1.32934304109089729273e+00) (38, 3.85793984357611696723e-01) (39, 1.30382848163834097477e+00) (40, 7.21690462703284851820e-01) (41, 2.01343148192613208280e+00) (42, -9.81125678588680827374e-01) (43, 3.37279888263418614613e+00) (44, -2.37741232623740605945e+00) (45, -1.93055638894104353298e+00) (46, -2.71968795800003748653e+00) (47, -7.94886692848630116437e-01) (48, -8.26127773306019164146e-01) (49, -8.56555287620876293353e-01) (50, -2.31574167128814600858e+00) (0, 1.54070572488425359126e+01) (1, 1.99347724301025680527e-01) (2, 3.26936193836138533353e-01) (3, 3.04711991084025191068e-01) (4, 2.90653237235949324369e-01) (5, 3.67450302359489011650e+00) (6, -4.74686720968946573862e+00) (7, 1.09681680705348849614e+00) (8, 9.02089221982580369286e+00) (9, -6.68574801390257889011e+00) (10, 8.91672572060273260774e+00) (11, 3.82260026589475332415e+00) (12, 2.01456245264082189905e+00) (13, 2.83769529169606604668e+00) (14, 1.78282181894013334045e+01) (15, 1.18652885982742639648e+00) (16, 8.76536240184711323842e-01) (17, 2.01430514568371643591e+00) (18, 9.24372546898275193605e-01) (19, 1.29831365138487764277e+00) (20, 6.60514819715317336168e-01) (21, 7.05049867429475951575e-01) (22, 1.48200871821744284418e+00) (23, 1.04227476384637607332e+00) (24, 1.00691635240259391715e+00) (25, 4.99579534728742669092e-02) (26, -3.62672006275577621381e-02) (27, -7.19187387782053016982e-02) (28, 2.10531078562199125415e+00) (29, 1.25735646033858934345e+01) (30, 4.40181548566741227546e+01) (31, -2.29546098377830132264e-01) (32, -1.17625567362025659768e-01) (33, -4.90984351199540591804e-01) (34, -2.21326117332966115780e-01) (35, 7.82724225432165243710e-01) (36, 8.71603988518900751892e-01) (37, 3.46762870378697019014e-01) (38, 5.91352455564975620916e-01) (39, 2.38664964705519677679e-01) (40, 6.35130408706375826355e-01) (41, 4.22761464281664278708e-01) (42, 3.72609850835269595937e-01) (43, 3.06785294969064148418e+00) (44, 5.34551128486739912660e-01) (45, 2.95694007730673169565e-01) (46, 1.63276339845059487166e-01) (47, 1.96227466880486006717e-01) (48, 2.04781727485599951422e+00) (49, 1.04409919669049422453e+00) (50, 5.40053221799540073000e-01) (51, 1.00342705768392936871e-01) (52, 4.81281415599968176444e-01) (53, -1.17128934323143396590e+00) (54, 8.33188718812463702257e-01) (55, 3.93525078105230130543e-01) (56, 4.01247988411188305502e-01) (57, 3.49234256192672787300e-01) (58, 1.14760596490933997060e+00) (59, 5.92458481462906805248e-01) (60, 4.64072500070514315507e-01) (61, 3.87177023328239666711e-01) 
