FANN_FLO_2.1
num_layers=3
learning_rate=0.700000
connection_rate=1.000000
network_type=0
learning_momentum=0.000000
training_algorithm=2
train_error_function=1
train_stop_function=1
cascade_output_change_fraction=0.010000
quickprop_decay=-0.000100
quickprop_mu=1.750000
rprop_increase_factor=1.200000
rprop_decrease_factor=0.500000
rprop_delta_min=0.000000
rprop_delta_max=50.000000
rprop_delta_zero=0.100000
cascade_output_stagnation_epochs=12
cascade_candidate_change_fraction=0.010000
cascade_candidate_stagnation_epochs=12
cascade_max_out_epochs=150
cascade_min_out_epochs=50
cascade_max_cand_epochs=150
cascade_min_cand_epochs=50
cascade_num_candidate_groups=2
bit_fail_limit=1.00000000000000005551e-01
cascade_candidate_limit=1.00000000000000000000e+03
cascade_weight_multiplier=4.00000000000000022204e-01
cascade_activation_functions_count=10
cascade_activation_functions=3 5 7 8 10 11 14 15 16 17 
cascade_activation_steepnesses_count=4
cascade_activation_steepnesses=2.50000000000000000000e-01 5.00000000000000000000e-01 7.50000000000000000000e-01 1.00000000000000000000e+00 
layer_sizes=33 4 2 
scale_included=0
neurons (num_inputs, activation_function, activation_steepness)=(0, 0, 0.00000000000000000000e+00) (0, 0, 0.00000000000000000000e+00) (0, 0, 0.00000000000000000000e+00) (0, 0, 0.00000000000000000000e+00) (0, 0, 0.00000000000000000000e+00) (0, 0, 0.00000000000000000000e+00) (0, 0, 0.00000000000000000000e+00) (0, 0, 0.00000000000000000000e+00) (0, 0, 0.00000000000000000000e+00) (0, 0, 0.00000000000000000000e+00) (0, 0, 0.00000000000000000000e+00) (0, 0, 0.00000000000000000000e+00) (0, 0, 0.00000000000000000000e+00) (0, 0, 0.00000000000000000000e+00) (0, 0, 0.00000000000000000000e+00) (0, 0, 0.00000000000000000000e+00) (0, 0, 0.00000000000000000000e+00) (0, 0, 0.00000000000000000000e+00) (0, 0, 0.00000000000000000000e+00) (0, 0, 0.00000000000000000000e+00) (0, 0, 0.00000000000000000000e+00) (0, 0, 0.00000000000000000000e+00) (0, 0, 0.00000000000000000000e+00) (0, 0, 0.00000000000000000000e+00) (0, 0, 0.00000000000000000000e+00) (0, 0, 0.00000000000000000000e+00) (0, 0, 0.00000000000000000000e+00) (0, 0, 0.00000000000000000000e+00) (0, 0, 0.00000000000000000000e+00) (0, 0, 0.00000000000000000000e+00) (0, 0, 0.00000000000000000000e+00) (0, 0, 0.00000000000000000000e+00) (0, 0, 0.00000000000000000000e+00) (33, 6, 5.00000000000000000000e-01) (33, 6, 5.00000000000000000000e-01) (33, 6, 5.00000000000000000000e-01) (0, 6, 0.00000000000000000000e+00) (4, 4, 5.00000000000000000000e-01) (0, 4, 0.00000000000000000000e+00) 
connections (connected_to_neuron, weight)=(0, -1.98839080607835594350e+00) (1, 1.52052299464943558860e+01) (2, 1.73973867103548313073e-01) (3, 1.77763784146591941049e-01) (4, -1.86655902904043169421e+00) (5, -8.93526711719992583483e+00) (6, -8.93593662891449191932e+00) (7, 1.66084410066680696616e+01) (8, -2.31271360236014578149e+00) (9, 3.03789018399814914062e+00) (10, -2.16062980618599542737e+00) (11, -2.77461450468748749287e+00) (12, -4.01927142888544863819e-02) (13, 8.06417073398441175414e+00) (14, -1.80655791223579686999e+00) (15, 3.65246715925122789059e+00) (16, 1.31585973192009597632e+00) (17, 3.10260768288387156488e+00) (18, 5.65902413872082732382e+00) (19, 5.66027712944972005715e+00) (20, 5.65290984212165081857e+00) (21, 5.66085205093799892495e+00) (22, 3.44534974208201472123e+00) (23, 5.43085379268266876807e+00) (24, 5.66377871656499642938e+00) (25, 5.67085069200060676309e+00) (26, 5.66831116179928518051e+00) (27, -1.71053475000690924368e+00) (28, 1.26534927396130791877e+00) (29, 5.95895848945368999949e+00) (30, -7.28193694537052071958e-02) (31, 2.91166669200852323840e+00) (32, 2.03304440957366061582e+00) (0, -5.59216463394372897966e+00) (1, 1.47009737455838376263e+03) (2, 1.71702938626759427088e+00) (3, 1.71658866006770405299e+00) (4, 3.66753965998354658495e+00) (5, 2.73733573198020652129e+00) (6, 2.73948659508912673033e+00) (7, 1.50000000000000000000e+03) (8, 3.65951656240155198674e+00) (9, 4.62303678878024015830e+00) (10, 3.66734057195063023471e+00) (11, -3.76633222553336910465e+00) (12, 8.96915426698380890969e+00) (13, 1.91123760798731190391e+01) (14, -6.29782945955049289211e+00) (15, 6.75515508022575872360e+00) (16, -5.50437186594776250992e-01) (17, 9.02508251972866482049e+00) (18, 3.03532480867094477617e+02) (19, 5.89557905528989408594e+02) (20, 5.39990237516369461446e+02) (21, 8.10366997851323162649e+02) (22, 9.50337296087042560089e+00) (23, 1.66204638560606916542e+01) (24, 9.74838016822253194960e+01) (25, 2.39891656806685134029e+01) (26, 2.51479911558768804980e+01) (27, 2.94082202059799069360e+00) (28, 1.59024782851062274069e+00) (29, 7.95463036015177848981e+00) (30, -1.15461374862442376354e+01) (31, 1.50000000000000000000e+03) (32, -1.39146157045025598009e+00) (0, 2.70252170566007787755e+00) (1, 8.86852937882225589306e+00) (2, -3.26989198062301156256e+00) (3, -3.26539695772738491897e+00) (4, 3.28390261116209192238e+00) (5, -3.27370659257187890390e+00) (6, -3.27246412870601943723e+00) (7, 1.00837912600543226915e+01) (8, 2.80245985634542682519e+00) (9, 1.09788811275622428809e+01) (10, 2.96584116700854893978e+00) (11, 1.98370405837057872667e+00) (12, 1.02410696773092046996e+00) (13, 5.32855252242633614657e+00) (14, 2.30591608894196475887e+00) (15, 8.35136021154040619763e+00) (16, 6.20373916107481182536e+00) (17, -1.54911607007902185629e+00) (18, 5.32951747772524520030e+00) (19, 5.33289660256305175778e+00) (20, 5.32658244888396303907e+00) (21, 5.34673945635150715816e+00) (22, 5.24426198388225017766e+00) (23, 5.34486557140490781137e+00) (24, 5.33689374257880189134e+00) (25, 5.33369755909745801858e+00) (26, 5.33495016813859290750e+00) (27, 3.30239120196306901178e+00) (28, -1.74649691502604342830e+00) (29, 1.50152355168292643839e+01) (30, 3.08559725261598671864e+00) (31, 4.08646054519076429301e+00) (32, -2.21937938839504100841e+00) (33, -4.30050427743987029316e+01) (34, 1.04103211835645677041e+01) (35, 3.96377561596287577572e+01) (36, -1.73417442971376511984e+00) 
