FANN_FLO_2.1
num_layers=3
learning_rate=0.700000
connection_rate=1.000000
network_type=0
learning_momentum=0.000000
training_algorithm=2
train_error_function=1
train_stop_function=1
cascade_output_change_fraction=0.010000
quickprop_decay=-0.000100
quickprop_mu=1.750000
rprop_increase_factor=1.200000
rprop_decrease_factor=0.500000
rprop_delta_min=0.000000
rprop_delta_max=50.000000
rprop_delta_zero=0.100000
cascade_output_stagnation_epochs=12
cascade_candidate_change_fraction=0.010000
cascade_candidate_stagnation_epochs=12
cascade_max_out_epochs=150
cascade_min_out_epochs=50
cascade_max_cand_epochs=150
cascade_min_cand_epochs=50
cascade_num_candidate_groups=2
bit_fail_limit=1.00000000000000005551e-01
cascade_candidate_limit=1.00000000000000000000e+03
cascade_weight_multiplier=4.00000000000000022204e-01
cascade_activation_functions_count=10
cascade_activation_functions=3 5 7 8 10 11 14 15 16 17 
cascade_activation_steepnesses_count=4
cascade_activation_steepnesses=2.50000000000000000000e-01 5.00000000000000000000e-01 7.50000000000000000000e-01 1.00000000000000000000e+00 
layer_sizes=51 11 2 
scale_included=0
neurons (num_inputs, activation_function, activation_steepness)=(0, 0, 0.00000000000000000000e+00) (0, 0, 0.00000000000000000000e+00) (0, 0, 0.00000000000000000000e+00) (0, 0, 0.00000000000000000000e+00) (0, 0, 0.00000000000000000000e+00) (0, 0, 0.00000000000000000000e+00) (0, 0, 0.00000000000000000000e+00) (0, 0, 0.00000000000000000000e+00) (0, 0, 0.00000000000000000000e+00) (0, 0, 0.00000000000000000000e+00) (0, 0, 0.00000000000000000000e+00) (0, 0, 0.00000000000000000000e+00) (0, 0, 0.00000000000000000000e+00) (0, 0, 0.00000000000000000000e+00) (0, 0, 0.00000000000000000000e+00) (0, 0, 0.00000000000000000000e+00) (0, 0, 0.00000000000000000000e+00) (0, 0, 0.00000000000000000000e+00) (0, 0, 0.00000000000000000000e+00) (0, 0, 0.00000000000000000000e+00) (0, 0, 0.00000000000000000000e+00) (0, 0, 0.00000000000000000000e+00) (0, 0, 0.00000000000000000000e+00) (0, 0, 0.00000000000000000000e+00) (0, 0, 0.00000000000000000000e+00) (0, 0, 0.00000000000000000000e+00) (0, 0, 0.00000000000000000000e+00) (0, 0, 0.00000000000000000000e+00) (0, 0, 0.00000000000000000000e+00) (0, 0, 0.00000000000000000000e+00) (0, 0, 0.00000000000000000000e+00) (0, 0, 0.00000000000000000000e+00) (0, 0, 0.00000000000000000000e+00) (0, 0, 0.00000000000000000000e+00) (0, 0, 0.00000000000000000000e+00) (0, 0, 0.00000000000000000000e+00) (0, 0, 0.00000000000000000000e+00) (0, 0, 0.00000000000000000000e+00) (0, 0, 0.00000000000000000000e+00) (0, 0, 0.00000000000000000000e+00) (0, 0, 0.00000000000000000000e+00) (0, 0, 0.00000000000000000000e+00) (0, 0, 0.00000000000000000000e+00) (0, 0, 0.00000000000000000000e+00) (0, 0, 0.00000000000000000000e+00) (0, 0, 0.00000000000000000000e+00) (0, 0, 0.00000000000000000000e+00) (0, 0, 0.00000000000000000000e+00) (0, 0, 0.00000000000000000000e+00) (0, 0, 0.00000000000000000000e+00) (0, 0, 0.00000000000000000000e+00) (51, 6, 5.00000000000000000000e-01) (51, 6, 5.00000000000000000000e-01) (51, 6, 5.00000000000000000000e-01) (51, 6, 5.00000000000000000000e-01) (51, 6, 5.00000000000000000000e-01) (51, 6, 5.00000000000000000000e-01) (51, 6, 5.00000000000000000000e-01) (51, 6, 5.00000000000000000000e-01) (51, 6, 5.00000000000000000000e-01) (51, 6, 5.00000000000000000000e-01) (0, 6, 0.00000000000000000000e+00) (11, 6, 5.00000000000000000000e-01) (0, 6, 0.00000000000000000000e+00) 
connections (connected_to_neuron, weight)=(0, 3.24096117741343336949e-01) (1, 9.97295604655771827929e-02) (2, 1.76607255042556171576e-01) (3, 1.78540054858687763373e-01) (4, 3.94746997962030221618e-02) (5, -5.79245912513915661712e-01) (6, -2.97880857563147927181e+00) (7, -3.84396093378204628532e-01) (8, -8.31339506342351541868e-01) (9, 7.55777276705503986420e+00) (10, -2.97219901526777074974e-01) (11, -6.89115122206455765763e-01) (12, -1.69668741673915379753e-01) (13, -1.10967011915097879537e+00) (14, -4.11463112077405157585e-01) (15, -1.14427741902096216653e-01) (16, -5.56622724097982857216e-01) (17, -1.47328613077141262755e-01) (18, -3.31194729220410377657e-01) (19, -1.40470485638393927097e-01) (20, 1.38449387826251657518e-01) (21, -8.18809311143386814313e-02) (22, -3.38949412843957686992e-01) (23, -8.51941581261442676398e-02) (24, -1.88568317672858191958e-02) (25, -7.48818138448513470617e-02) (26, -1.47403269095380573539e+00) (27, -8.33103777835899172999e-01) (28, -1.01694855736167433236e+00) (29, -2.24893378174319480411e-01) (30, -4.78764470004849562734e-01) (31, -4.79692460488507967792e-03) (32, -3.28033100024259394178e-01) (33, 1.82252858141259854730e-01) (34, -2.95351143125538340151e-01) (35, -4.92531080880957816692e-01) (36, -3.91792091870386161023e-01) (37, -6.85074507397819165710e-01) (38, -6.57549909847920277528e-01) (39, -1.21262023726225787179e+00) (40, -5.55180635006406908438e-01) (41, -1.16376900936487270855e+00) (42, -7.57737437715670092420e-02) (43, -1.00135781933327483451e+00) (44, -1.78816574678574324864e+00) (45, -5.41846716194706479186e-01) (46, -4.85113446621313282314e-01) (47, 1.65775632085470386867e-01) (48, -2.08429399799218081912e-02) (49, 2.93806906795803124410e-01) (50, -4.72822881298003705464e-02) (0, 1.64146942461714573369e+00) (1, 5.05041246764243445533e-01) (2, 4.77177431337417468082e-01) (3, 4.32177034668506487858e-01) (4, 3.13201924316467039677e-01) (5, 4.99949235864666385876e-01) (6, -3.48639537312695702020e-01) (7, 1.25926235293287530626e-01) (8, 1.73348684788858287131e-01) (9, 7.76181476778715906395e-02) (10, 3.74263358538032719913e-01) (11, -7.77221179472621237494e+00) (12, 2.46390750345814923961e-01) (13, -8.42076147284956277872e+00) (14, 5.69123843791893624378e-01) (15, 1.05896049052458376960e-01) (16, 8.21124632780272589727e-01) (17, -4.58946252017763123288e-02) (18, -1.04429938013746129166e-01) (19, 2.07480578342476490450e-01) (20, 5.02179451034043489166e-01) (21, -3.87909157137201338061e-02) (22, -5.66396766982947760805e-02) (23, -2.98279238325075031490e-02) (24, 9.18016854873752591315e-02) (25, -2.25475362324616535048e+00) (26, 1.99065882240588631902e-01) (27, 2.08437660348521935916e+00) (28, 9.46043230229869469561e-01) (29, 1.94728885962091302630e+00) (30, 4.64570924463108436697e-01) (31, 3.30888995871990175601e+02) (32, 2.57382970786918585659e+00) (33, 8.18902186970061585214e+00) (34, 3.07910302472368302418e+00) (35, 3.83581270270932750410e-01) (36, 6.04588213860733025840e-01) (37, 3.73650278635009458483e+00) (38, 2.99102734583438112370e-01) (39, -7.10064684513326227489e+00) (40, 4.25780351614206853395e-01) (41, -7.57136244603142927190e+00) (42, 1.97884651604518430057e-01) (43, -1.86479990156671826540e-01) (44, 1.63530384533038897210e+00) (45, 7.38197683020964223743e+00) (46, 1.50000000000000000000e+03) (47, 6.08720277344003068976e+00) (48, -1.62880246767583725109e+00) (49, 9.93596493347925857620e+00) (50, 3.43466345275008588800e+00) (0, 1.14931676083231537611e+00) (1, 1.18409970685188936645e-01) (2, 2.41889802648966895093e-01) (3, 1.66045678689425352248e-01) (4, 2.31546772553866270217e-01) (5, 2.40316726599378943652e-01) (6, -9.32718484467449093778e-01) (7, 1.01056132255117905872e-01) (8, 2.57159208320160703742e-01) (9, 2.04650322866244627207e+00) (10, -1.71544175718680247389e-01) (11, 1.10248438376806492944e-01) (12, -2.00421114676929246201e-01) (13, 2.71373696309945400262e-01) (14, 1.98781975426781609695e-01) (15, -5.65966790268358832527e-01) (16, 1.91090171896716398692e-01) (17, -5.34814325723222183662e-01) (18, 9.06476044881449755097e-02) (19, 1.37705813601828097603e-01) (20, -4.45248241751456719228e-01) (21, -2.30946115081660158230e-01) (22, 1.38268325230404193205e-01) (23, 1.61996900542648591959e-01) (24, 2.52190951953201014657e-01) (25, -5.75773439477952619914e-02) (26, -1.97502491792963780215e-01) (27, -6.45234686806411272819e-01) (28, -4.03552153841472527329e-01) (29, -3.02418537797004061130e-01) (30, 3.40723931846965644166e-01) (31, 9.55553260313358743261e-01) (32, -2.09650307835338045592e+00) (33, -2.54202406252094559314e-01) (34, -1.89347607607973045241e+00) (35, 3.44899156432467268729e-01) (36, -1.57260722532082869440e-01) (37, 3.19608341905867909816e+00) (38, 1.59508969208068396295e-01) (39, 8.71200632087235637968e-01) (40, 1.16828429740943828818e+00) (41, 1.25838836414560861776e+00) (42, -6.98933836034102085044e-01) (43, 4.52491002561932909032e+00) (44, -6.26072836054571646436e-01) (45, 1.42011771093474292726e-02) (46, -4.03805729784273481631e-01) (47, -2.66423659893122943831e-01) (48, -8.63870378516005954506e-02) (49, 1.00461918913575010137e+00) (50, -8.42940226939837167208e-01) (0, -2.67372561254833052136e-01) (1, 9.73444201164111039271e-02) (2, 2.66542948894367554002e-02) (3, 1.85230031721458840432e-02) (4, 7.09651105217799088587e-02) (5, -5.49185232186842342550e-02) (6, 6.86254861999503584791e-01) (7, 1.87130781538093149408e-01) (8, 1.43962353360929967705e-01) (9, -1.05643389613874738586e+00) (10, 6.91153766478735387402e-02) (11, 5.46638422554509423312e-02) (12, 3.01345293013021264805e-01) (13, 9.21657593635516608765e-02) (14, 6.25743864323693554930e-01) (15, 3.57455586060874352938e-01) (16, 1.78127171565299391442e-01) (17, 5.43662336678085500452e-01) (18, 8.11070345376488366362e-02) (19, 4.17222155422789509061e-01) (20, 2.18299366057740834579e-01) (21, 1.49072798072876783887e-02) (22, 2.19360542041114853218e-01) (23, 1.62596396929930553377e-01) (24, 4.02713269388000616456e-02) (25, 1.02576900845722768230e-01) (26, 2.90843058784758246027e-01) (27, 2.10273131704027477218e-01) (28, 3.90137463677791618277e-01) (29, 1.37810098447705253744e-01) (30, 2.65593881432477363358e-01) (31, -2.24594235949286291643e-01) (32, 1.74130591122517441871e-01) (33, 1.39174615607900209469e+00) (34, -4.83097582347459114649e-02) (35, 1.63327462297308489969e-01) (36, 4.65179268115466990063e-02) (37, 5.18427799093166899458e-02) (38, 3.26242033443013446092e-01) (39, 2.43348282667194909523e-01) (40, -4.77844097868565798048e-02) (41, 1.17434241794662747038e-01) (42, -1.12531760156517376958e-01) (43, 1.63209336796879783509e-03) (44, 2.80496684786441241588e-01) (45, 9.74992892136326005925e-01) (46, -9.61636665275293345267e-02) (47, 3.16346147622707796199e-01) (48, 2.04482534640941376880e-02) (49, 2.21944304885569904107e-01) (50, -1.69078203049407682634e-01) (0, 9.55350040502907615902e-01) (1, 1.28712283075880479233e-01) (2, 1.63905592263769578354e-01) (3, 2.54146853090357560667e-01) (4, 1.54823144526314210312e-01) (5, -2.90437161064816040668e-01) (6, -1.81504223124460883909e+00) (7, 1.86299710614213520632e-01) (8, 7.88994376840346234303e-02) (9, 6.81196330067983879530e+00) (10, -4.62944349070114946620e-01) (11, 3.70488175089697890918e-01) (12, 6.51637693539245110852e-02) (13, 4.07847238742349571528e-01) (14, 1.94951667577166698475e-01) (15, 1.76862882183706632278e-01) (16, 1.24567987016598324956e-01) (17, 1.86173941402270254342e-01) (18, -4.45687579225988617093e-01) (19, -5.82921982972688157432e-01) (20, -3.07259433304916562690e-01) (21, -3.56100590733879951433e-01) (22, -5.94715607733649412325e-02) (23, -6.75637348329829356963e-01) (24, -8.60381177565853194622e-01) (25, -3.37493092199208644111e-01) (26, -4.03108777595271583483e-01) (27, 1.33188987736368474879e-01) (28, 7.82409507623698097234e-01) (29, -2.55976591243163742462e-01) (30, -3.80187875885226844730e-01) (31, -1.32332234895203876279e-01) (32, -1.74613820587967327747e+00) (33, -9.52998245927226372842e-01) (34, -3.91558499611891153158e-01) (35, -4.79956342002073252373e-02) (36, 1.68669843003581010343e-01) (37, -3.39462747189912095180e-01) (38, 3.53968215925942408795e-01) (39, 3.02792286516682607189e-01) (40, -5.00796343177159930526e-01) (41, -2.62829805777271219291e-01) (42, 4.01346585842021347235e-02) (43, -4.30832964905770832154e-01) (44, -1.13595221624548425865e+00) (45, -2.47370890159358786109e-01) (46, -9.57811987286667387842e-01) (47, 3.40019991746080940676e-01) (48, 4.13618331796280325197e-01) (49, 7.35565862596568864618e-01) (50, -2.53275177110307336825e-01) (0, 1.33313310336686221547e+01) (1, 6.43963509358633334756e-01) (2, 7.13902824677694725075e-01) (3, 7.21886188842523979226e-01) (4, 6.55737021126020724893e-01) (5, 6.46678287526868844637e-01) (6, 1.68935542512161473994e+00) (7, 1.18907877648682580585e+00) (8, 2.48878971542422028351e-01) (9, 5.38512211323305178823e-01) (10, 3.94460194918289819288e-01) (11, 1.62455274578780866079e+01) (12, 1.84370969296839959384e+00) (13, 4.74429651021422227331e+00) (14, 1.50685206604457566648e+00) (15, 1.39002664078095738986e+00) (16, 1.00997869597670564268e+00) (17, 1.76962556324781639105e+00) (18, 7.34480415411189913044e-01) (19, 1.52905170085480324182e+00) (20, 1.14378265029859171875e+00) (21, 1.25751024041300918377e+00) (22, 1.48442972843958553852e+00) (23, 8.84853120618202759751e-01) (24, 1.08391436914803573899e+00) (25, 5.28751008631248464731e-01) (26, 4.72739525339611665888e-01) (27, -1.82009189560474338165e+00) (28, 2.11101129099453599380e+00) (29, 1.87739709901894391564e+00) (30, 2.41732188447282281274e+00) (31, -5.03434207357532415017e+00) (32, -3.01589858376492714331e-01) (33, 9.35752503302223370696e-01) (34, -1.81340728113010807299e+00) (35, 1.26846965159871394313e+00) (36, 6.63112268729415199608e-01) (37, 2.30155661077921580571e+00) (38, 2.38285385294630236430e+00) (39, 3.63751501743865146565e+00) (40, 4.44862986879040023247e-01) (41, 1.83037917791650772692e+00) (42, 2.64341842265854054528e-01) (43, 1.15140160774963682400e+01) (44, -2.16342676423563667898e-01) (45, -1.49756295360858215915e+00) (46, -1.03502772665931264129e+00) (47, -4.73089817096825793197e-01) (48, -1.60869579569781762096e-01) (49, 8.03792516631429476703e-01) (50, -7.13593239216625363497e+00) (0, -2.83668590788394219260e+01) (1, -1.05646342336085122260e-01) (2, -1.73260912596132798935e-01) (3, -1.18230956782365698166e-02) (4, -3.62402427186037240370e-02) (5, 7.82638598874504043401e-01) (6, 2.40623716533856768507e+00) (7, 1.10516816785160498782e+00) (8, 1.32900376895725780280e+00) (9, -2.16712305419014983343e+00) (10, 1.33334460170916302424e+00) (11, 4.92645356279893253948e-01) (12, 7.65716765782528119288e-01) (13, 7.19738178064541656020e-01) (14, 9.09571245057297139702e-01) (15, 1.03365485540161894384e+00) (16, 7.89082993382476560740e-01) (17, 1.08864348199339699974e+00) (18, 1.03611315119200897428e+00) (19, 1.26638317007485401433e+00) (20, 1.15942530069322047304e+00) (21, 1.16825549657134941661e+00) (22, 1.34537983159202334527e+00) (23, 1.29653507023769409834e+00) (24, 1.09328991867425751039e+00) (25, 5.03272498202550933044e-01) (26, 9.57924344191630083856e-01) (27, 5.36450905745219919218e-01) (28, 1.05864335265447229162e+00) (29, 1.34067907296774402326e+00) (30, 1.67304884041093382407e+00) (31, 5.74103917855519063629e-01) (32, 6.88938367523863282038e-01) (33, -8.82365059808778440242e-02) (34, 1.00711177698108622636e+00) (35, 8.97390855722758229440e-01) (36, 7.63688373278480603368e-01) (37, 9.88846631947419285602e-01) (38, 8.66433670512583353762e-01) (39, 7.45548362151152610444e-01) (40, 8.37576707007827381268e-01) (41, 8.91974592673880350979e-01) (42, 5.55790816224737804774e-01) (43, -2.19899791712311366843e-02) (44, 1.13588595701040673269e+00) (45, 3.58167807649656777524e-01) (46, 5.83241971818363125202e-01) (47, 3.06942408226597462928e-01) (48, 4.45979024352703701251e-01) (49, 3.81859607283797419797e-01) (50, -1.01880490442336893442e-01) (0, 2.27440287964994425352e+01) (1, 2.98341051546929414418e-01) (2, 4.24366862384675136433e-01) (3, 4.48156804649232021198e-01) (4, 4.62927938310502218311e-01) (5, -2.56058862617593918642e+00) (6, -7.51021796118757478666e+00) (7, -2.97965708252967997893e+00) (8, -4.32394943058491687538e+00) (9, 1.63076863606736317536e+01) (10, -4.59904703971253958628e+00) (11, 8.33612090685809370427e+00) (12, -1.84941939632847729413e+00) (13, -1.87185942342514444192e+00) (14, -2.91113359385002556934e+00) (15, -1.22274733730043627666e+00) (16, -2.78175433155905649230e+00) (17, 1.76165509499579320263e+00) (18, -5.04182283032918210353e+00) (19, -4.73027427603766703612e+00) (20, -5.64031702795172229514e+00) (21, -4.98173608281221191874e+00) (22, -2.89333520495418428098e+00) (23, -4.48293970874165381701e+00) (24, -5.00497041500669315184e+00) (25, 2.80892665682112729897e+00) (26, 2.52216853816481867412e+00) (27, 2.28229200560842393486e+00) (28, 1.54071740598054041094e+00) (29, -5.61752716804841956133e+00) (30, -3.91108601808326916682e+00) (31, -1.01070185554430946873e+00) (32, -6.56955027766741195272e-01) (33, 3.02959733971636957506e+00) (34, -3.42735555107035461120e+00) (35, 3.47077749614776687181e+00) (36, 3.73469470223355326510e+00) (37, 3.12282276277681036802e+00) (38, 6.21781060280267028340e-01) (39, 2.91169281252842448993e+00) (40, 2.36642279872244820638e+00) (41, 2.35671716849629753199e+00) (42, 1.98509687149817670715e+00) (43, 1.14556535376387387259e+01) (44, -8.03664948250162880505e-02) (45, -5.26090868904076081058e-01) (46, 5.62860123510461329843e-01) (47, -1.90863651079486579265e-01) (48, -1.25726912192013848962e-02) (49, 1.02157610100509943507e+00) (50, 2.68560276556803589898e+00) (0, 1.24891404845518909639e+01) (1, 2.58777249501374262408e-01) (2, 1.48472543702747566963e-01) (3, 2.55862537668374079303e-01) (4, 2.51300994203713434771e-01) (5, -3.22348278406328681012e-01) (6, -3.95449351390294268072e+00) (7, -1.71652977787431854084e-01) (8, -1.47250566037087815552e+00) (9, 8.05609400310255274746e+00) (10, -1.30623733391883534161e+00) (11, -1.07294324317779121714e+00) (12, 1.15362938261574982102e-01) (13, 3.40426982348905671216e-01) (14, -4.92545314108783993667e-01) (15, -2.62100351096468342504e-01) (16, -4.97761558388951252940e-01) (17, -1.61724984398723792278e-01) (18, -5.59916052820853216154e-01) (19, -5.04822418684377494102e-01) (20, -6.13675570816132887053e-01) (21, -6.86412546595889905277e-01) (22, -7.72919956438634314644e-01) (23, -5.39232104612636042873e-01) (24, -6.36357830700898241538e-01) (25, -5.01432986294934879279e-02) (26, -9.66450482348710671054e-01) (27, 9.03658269697773380846e-02) (28, 7.98158179743601703393e-01) (29, -1.15649948763966659016e+00) (30, -7.34132354978517365218e-01) (31, 2.12635841690923029640e-03) (32, -6.43051735683298431034e-01) (33, 1.90930569479382139519e+00) (34, -3.67918876407862527333e-01) (35, -1.17784974121573779438e-01) (36, -1.06288797686561950484e-02) (37, 7.89288090675244469185e-02) (38, -1.14371544297418109570e-01) (39, 2.10155171491875736312e-01) (40, 4.90720124255481018882e-02) (41, 3.48937653612558018601e-01) (42, -9.29340814086761779489e-02) (43, -7.01311657913679553644e-01) (44, -1.49061784403576003122e+00) (45, 4.61133561079246967473e-01) (46, 1.64784544494225998479e-01) (47, 4.36924500737202237133e-01) (48, 3.05302946272655084670e-01) (49, 3.97223368339754301370e-01) (50, 4.02857909091197466389e-02) (0, -3.35173542522656797704e-01) (1, -4.80352828277778656774e-02) (2, -3.76114288343619637689e-02) (3, -1.68504256941242214207e-01) (4, -8.34905544294549384343e-02) (5, 5.15643514969620075927e-02) (6, 5.30059756997251052546e-01) (7, 4.22056121355741178935e-02) (8, 4.57084507161809733278e-02) (9, 1.72569282029254456035e+00) (10, 5.38820548686641045966e-02) (11, 8.42785238696889676957e-02) (12, 1.91728784619166515990e-02) (13, 5.51504394367531292076e-02) (14, 9.92602151218249101339e-03) (15, 3.25570629386620277734e-02) (16, 8.23732751640870591858e-02) (17, 8.80522820135057164570e-03) (18, 2.43423142726483902887e-02) (19, -3.27218401470803152420e-02) (20, -9.94253086800374677456e-04) (21, 2.21053530591756690338e-02) (22, -2.11660691220627236731e-02) (23, -7.73689910305842224597e-03) (24, 1.69792585157056627465e-02) (25, 4.79472845831443311715e-02) (26, 2.44478227469588693666e-01) (27, 1.73470649877432714359e-01) (28, -3.97664133278796076004e-03) (29, 6.59231925063833712475e-02) (30, 7.96975671831698026515e-03) (31, -8.06992327939008713411e-02) (32, 4.40547417409115238396e-01) (33, 2.86876264661496960251e-02) (34, 9.52306915851329205402e-02) (35, 6.39162331491697627284e-02) (36, 7.81974566732882708786e-02) (37, 4.38944527373344717258e-02) (38, 4.96973430816110978148e-02) (39, 4.98749691220727667251e-02) (40, 9.07968277611777146996e-02) (41, 5.43733744735464263886e-02) (42, 1.28606732736264134376e-01) (43, 1.50319444907584698345e-01) (44, 3.85958456777298286600e-01) (45, -2.38322592540556044138e-02) (46, 9.38254674586330439379e-02) (47, -1.05514020435398796910e-02) (48, 2.17851154105078159695e-02) (49, -2.94945932739755334318e-01) (50, -1.45900058992376652212e-01) (51, 1.79864835391386757024e-01) (52, -5.26365198370301601294e-02) (53, 1.68865402674310466358e-01) (54, 1.81391406047852560279e-01) (55, 1.65661854856957307947e-01) (56, 8.35597515922774314312e-01) (57, 2.03664964196501019345e+00) (58, 1.69134360784470638706e-01) (59, 8.05804240331396415264e-01) (60, 1.37997091362105872570e+00) (61, 5.82617205978070651362e-01) 
