FANN_FLO_2.1
num_layers=3
learning_rate=0.700000
connection_rate=1.000000
network_type=0
learning_momentum=0.000000
training_algorithm=2
train_error_function=1
train_stop_function=1
cascade_output_change_fraction=0.010000
quickprop_decay=-0.000100
quickprop_mu=1.750000
rprop_increase_factor=1.200000
rprop_decrease_factor=0.500000
rprop_delta_min=0.000000
rprop_delta_max=50.000000
rprop_delta_zero=0.100000
cascade_output_stagnation_epochs=12
cascade_candidate_change_fraction=0.010000
cascade_candidate_stagnation_epochs=12
cascade_max_out_epochs=150
cascade_min_out_epochs=50
cascade_max_cand_epochs=150
cascade_min_cand_epochs=50
cascade_num_candidate_groups=2
bit_fail_limit=1.00000000000000005551e-01
cascade_candidate_limit=1.00000000000000000000e+03
cascade_weight_multiplier=4.00000000000000022204e-01
cascade_activation_functions_count=10
cascade_activation_functions=3 5 7 8 10 11 14 15 16 17 
cascade_activation_steepnesses_count=4
cascade_activation_steepnesses=2.50000000000000000000e-01 5.00000000000000000000e-01 7.50000000000000000000e-01 1.00000000000000000000e+00 
layer_sizes=29 11 2 
scale_included=0
neurons (num_inputs, activation_function, activation_steepness)=(0, 0, 0.00000000000000000000e+00) (0, 0, 0.00000000000000000000e+00) (0, 0, 0.00000000000000000000e+00) (0, 0, 0.00000000000000000000e+00) (0, 0, 0.00000000000000000000e+00) (0, 0, 0.00000000000000000000e+00) (0, 0, 0.00000000000000000000e+00) (0, 0, 0.00000000000000000000e+00) (0, 0, 0.00000000000000000000e+00) (0, 0, 0.00000000000000000000e+00) (0, 0, 0.00000000000000000000e+00) (0, 0, 0.00000000000000000000e+00) (0, 0, 0.00000000000000000000e+00) (0, 0, 0.00000000000000000000e+00) (0, 0, 0.00000000000000000000e+00) (0, 0, 0.00000000000000000000e+00) (0, 0, 0.00000000000000000000e+00) (0, 0, 0.00000000000000000000e+00) (0, 0, 0.00000000000000000000e+00) (0, 0, 0.00000000000000000000e+00) (0, 0, 0.00000000000000000000e+00) (0, 0, 0.00000000000000000000e+00) (0, 0, 0.00000000000000000000e+00) (0, 0, 0.00000000000000000000e+00) (0, 0, 0.00000000000000000000e+00) (0, 0, 0.00000000000000000000e+00) (0, 0, 0.00000000000000000000e+00) (0, 0, 0.00000000000000000000e+00) (0, 0, 0.00000000000000000000e+00) (29, 6, 5.00000000000000000000e-01) (29, 6, 5.00000000000000000000e-01) (29, 6, 5.00000000000000000000e-01) (29, 6, 5.00000000000000000000e-01) (29, 6, 5.00000000000000000000e-01) (29, 6, 5.00000000000000000000e-01) (29, 6, 5.00000000000000000000e-01) (29, 6, 5.00000000000000000000e-01) (29, 6, 5.00000000000000000000e-01) (29, 6, 5.00000000000000000000e-01) (0, 6, 0.00000000000000000000e+00) (11, 6, 5.00000000000000000000e-01) (0, 6, 0.00000000000000000000e+00) 
connections (connected_to_neuron, weight)=(0, -5.23384461637976272641e+00) (1, 2.44124620146990260749e-03) (2, -9.41758961491346094363e-03) (3, 4.73924541372800350869e-02) (4, 1.99121051926159954581e-02) (5, 5.01110748418008733474e-01) (6, 1.92294298106441163831e-01) (7, 3.30959402220691728536e-02) (8, 2.85370672523902246809e-01) (9, -2.28912279935906126660e-01) (10, 8.16131694126556728186e-01) (11, 1.01292617962695064016e+00) (12, 1.07932793202066257265e+00) (13, -1.06621625936948394298e+00) (14, 1.02284438016080692080e+00) (15, 1.16113491047541672607e+00) (16, 1.17567134671524131662e+00) (17, -3.24059555045724589917e-01) (18, 4.51481775626527637169e-01) (19, 1.35166693471821114381e-01) (20, -2.69236848638794379340e-01) (21, 6.32608695786227581692e-02) (22, 7.26503776692475011778e-01) (23, 9.32969320051014849859e-01) (24, -2.61014360913733312053e-01) (25, 3.50680981308633052396e-02) (26, 1.32080893580640651441e-01) (27, -2.90758671159770221148e-01) (28, -5.33443736351337724488e-02) (0, -5.22047447871806724606e+00) (1, -6.11078178983187475515e-02) (2, 9.08970796961331289898e-02) (3, 7.12799245018505972515e-02) (4, 2.94204616446042295508e-02) (5, 8.82758394515413963299e-02) (6, 1.15023524170340535333e-01) (7, 5.49105037702576972980e-02) (8, 1.10504278709572439920e-01) (9, -3.39496527449097973417e-01) (10, 1.38638134639181465069e+00) (11, 1.33207574260881322914e+00) (12, 4.39172248762586037163e-01) (13, 4.70765730697716017206e-02) (14, 7.09515521006888194577e-01) (15, 1.32284460609214793436e+00) (16, 1.22157143779450927390e+00) (17, -5.32159872619706111885e-03) (18, 3.14714078148307263572e-01) (19, 3.75404088898682042341e-02) (20, -3.48014289487476813356e-01) (21, 1.38307721809648426214e-01) (22, 6.49704409670451621395e-01) (23, 9.17450678875194824968e-01) (24, -3.95179403908859694372e-01) (25, 8.53378009880177978985e-02) (26, 1.58455794496613622258e-01) (27, -6.56865171075989739968e-01) (28, -4.25708645200631452532e-02) (0, 5.36576135889726746342e-01) (1, 5.50239683969232368232e-02) (2, 2.89737732989999718924e-02) (3, 5.31349928958627509834e-02) (4, 4.58669068200799820434e-02) (5, 1.00432711605995272919e+00) (6, 2.20944602998787514858e-01) (7, 2.52086175651684007981e-01) (8, 1.96740379168351253725e+01) (9, 1.33966043624874520113e-01) (10, -2.12671358797160392484e+00) (11, -2.81035271245305029453e+00) (12, 1.60315676172198529059e+01) (13, -5.80114760707169985210e+00) (14, 3.34692069493834480909e+01) (15, 1.30253766553373093728e+01) (16, 4.48903809690127708620e+00) (17, 1.14827579247030548970e+01) (18, 1.44190035086342982495e-01) (19, 1.06786325593338837781e-01) (20, 1.86906464479900613629e-01) (21, 1.03493608428300062907e-01) (22, 9.70713271152338386116e+00) (23, 7.11037073855350088003e-01) (24, 2.28615324399099151265e-01) (25, 2.25797114727695980019e-01) (26, 2.93936453951708753785e-01) (27, 1.80156837158580063196e+00) (28, 4.60526980494218654560e-02) (0, 2.05662695448037946555e-01) (1, 8.93242818599023352677e-02) (2, 1.24752973515299792062e-01) (3, 1.77308486152199795693e-01) (4, 9.43193969612397681290e-02) (5, 3.54951856721103631287e-01) (6, -1.01102534617730402400e-01) (7, -8.40950095472795811080e-02) (8, 3.10354081106942807367e+01) (9, -1.60592550645343445925e-01) (10, -1.24807257195060694599e+00) (11, -2.00194551298309608711e+00) (12, 7.38391519137258312000e-01) (13, -4.36904638718585758284e+00) (14, 1.45919450154330809788e+00) (15, 9.12429253135875484304e+01) (16, 4.15420301590414808857e+01) (17, 1.80796758647829669542e+01) (18, -2.31876651541717215821e+00) (19, -8.99352923850075536283e-02) (20, -6.54870501609695843115e-01) (21, -2.53006763255713307270e-01) (22, 1.23186595551375233093e+00) (23, 1.17282939853426544374e+01) (24, -6.10649899898005221743e-01) (25, -5.14457107941931890416e-01) (26, -8.21493793780795206194e-02) (27, 5.24548651679851207774e-01) (28, 9.01813937942878007803e-02) (0, 1.15545424055600367552e+01) (1, 3.75597552501108877809e-01) (2, 5.31759210966971096468e-01) (3, 5.01862892054464992952e-01) (4, 4.37151775800135367067e-01) (5, -8.87245118337562255206e-01) (6, -5.25039335116782579505e-01) (7, -5.87355590573952812683e-01) (8, -1.84699741567476505288e+00) (9, -6.20500776857246583162e-01) (10, -3.53402285511620872782e+00) (11, -4.00053142604037414998e+00) (12, -2.44220406208275273019e-02) (13, -5.70024613657189505034e+00) (14, -1.17696372047104910741e-01) (15, -3.57088379071810191334e+00) (16, -3.63145243002728346227e+00) (17, -2.98599226807086781665e-01) (18, -3.21071787344710091183e-01) (19, -1.43273483522124145395e+00) (20, -1.66536120690723832283e+00) (21, -1.19059441483539574236e+00) (22, -5.90449065391328353769e-01) (23, -6.01937445566596007751e-01) (24, -1.18044006261276801517e+00) (25, -9.52421077737293897414e-01) (26, -9.22940627158439053090e-01) (27, -2.49932140638145089406e-01) (28, 1.82677955009766218586e-01) (0, 2.44717011234719699075e+01) (1, 4.70743177681204938434e-01) (2, 4.06530065684554187122e-01) (3, 4.58462810366389417194e-01) (4, 4.28770052491662112537e-01) (5, -1.49422716504333763510e+00) (6, -9.44377522659869850230e-01) (7, -2.26635923556570251236e-01) (8, -1.65680386746575392110e+00) (9, -1.66789988627610696881e+00) (10, -2.80357467266402871076e+00) (11, -6.18425599208992204936e-01) (12, -9.68436850247659380964e-02) (13, -5.86314247180189873632e+00) (14, -7.21924377249536924905e-02) (15, -3.60038883603701131975e+00) (16, -3.56308878205121537519e+00) (17, -1.77175135603132494211e+00) (18, -7.91158698278338956555e-01) (19, -1.50358196672247168557e+00) (20, -1.91027507681120645167e+00) (21, -8.76975503458446881133e-01) (22, -7.42466578417338762819e-01) (23, -5.41610221969725635915e-01) (24, -1.24938991753472938839e+00) (25, -1.86410536711058694159e+00) (26, -1.18752977870625553436e+00) (27, -1.39786816820428883013e+00) (28, 1.96091350595615582231e-01) (0, 4.71198915530289941245e+00) (1, 2.90670651753672126816e-01) (2, 2.34731841643579935974e-01) (3, 3.00099517961271766708e-01) (4, 3.23223341067560565598e-01) (5, 3.73903444100082360535e-01) (6, 1.72539983163370158614e+00) (7, 4.90134051570875028947e-01) (8, 6.50514058975817732744e+01) (9, 2.25554669065587437560e-01) (10, -5.49812550101349373222e+00) (11, -5.51278936028839261496e+00) (12, -1.92436252282718739393e-02) (13, -5.68631501359939228735e+00) (14, 2.93818003931242466287e-01) (15, 3.98494429259844906710e+01) (16, 3.90596913458016885556e+01) (17, 1.03775496475135913244e+01) (18, 1.39618308828484360973e-01) (19, 2.49209622792831181348e-01) (20, 3.02276275330250587814e+00) (21, 5.91014940456763593346e+00) (22, 1.70696094578619863569e+01) (23, -1.11660901580618832085e+00) (24, 1.48984986231444072047e-01) (25, 1.64663085790172436518e+00) (26, 3.57417128319222732191e-01) (27, 8.25702053995385765184e-01) (28, 2.97122007563695583743e-02) (0, -5.16790057432296379147e+00) (1, 3.11327242750668899129e-02) (2, 2.43920722503209348730e-02) (3, -9.74177679520106393207e-02) (4, 5.63094133038068087038e-02) (5, 3.47669897313849174392e-01) (6, 1.39636164931758011143e-01) (7, -1.48225437701090274195e-02) (8, 3.00809802209059840017e-01) (9, -1.33342043398247928065e-01) (10, 1.34054657656740405791e+00) (11, 1.20950641438125439109e+00) (12, 4.48435957950093666557e-01) (13, 1.26761866207798834516e-01) (14, 4.68928718948605383066e-01) (15, 1.25414738131231073837e+00) (16, 1.26461891247718405396e+00) (17, 7.40846329155722821413e-02) (18, 3.20811707814635693747e-01) (19, 9.82167172327646914587e-02) (20, -3.82868899006720053713e-01) (21, 1.56153069333337640723e-01) (22, 6.46632833313563804012e-01) (23, 7.95809656611449089958e-01) (24, -3.09265969284187758337e-01) (25, 5.47561274233668293654e-02) (26, 8.92724614884747996735e-02) (27, -3.11286194170739327625e-01) (28, -8.92067607914358851051e-02) (0, 8.03807327717297148695e+00) (1, 5.17296281187085371656e-01) (2, 3.40612683920411829508e-01) (3, 4.90496319262532898264e-01) (4, 4.41634212164430384195e-01) (5, 6.20239335377960832041e-01) (6, -6.35366605635715453460e-01) (7, 6.16471894934238040520e-01) (8, 9.19416872437348864366e+00) (9, -2.62763589065829361591e-01) (10, -8.71396838189853473189e-01) (11, 9.23059441934493207782e+00) (12, 2.74115163196080972863e-02) (13, 8.07413193276535423593e+00) (14, 2.97328107977267164230e-01) (15, 1.96098934491328442675e+01) (16, 3.97791970415622486712e+01) (17, 1.30793701759673322016e+01) (18, 9.53264235274619897709e-01) (19, 5.63230501763949842342e-01) (20, -1.01119106075013354129e+00) (21, 1.76811975666095722026e+00) (22, -7.11523840080839797828e-01) (23, -7.63383246682643457071e-01) (24, -2.23470309132597043378e-02) (25, -4.25403764958053320910e-01) (26, 9.57246677324188999236e-01) (27, 8.42987987526107040992e-01) (28, -2.68777135156472679611e+00) (0, 3.24061003336653830065e-01) (1, 2.20753541512455991880e-01) (2, 4.71808894705438505723e-02) (3, 1.97480416221585325376e-01) (4, 3.22856291365289441164e-02) (5, -1.34933363706737408094e+00) (6, -2.14124092662103443496e-01) (7, 1.15317045637516060741e-01) (8, -5.75527694286008029145e-01) (9, 1.48754074039384287520e-01) (10, -4.39992213822370459297e+00) (11, -1.55238100156736114066e+00) (12, -7.97249111197408821816e-01) (13, -2.02591400697141127418e-01) (14, -1.38123812538135082306e+00) (15, -1.43138119339473912639e+00) (16, -1.57730716236430890120e+00) (17, -5.16158052527634081397e-02) (18, -2.50851782964965330791e+00) (19, -2.06244135319066830558e-02) (20, -5.69420572512633893503e-01) (21, 2.48505743523630834302e-02) (22, -4.62086107449728555885e-01) (23, -9.27059560329236642673e-01) (24, -9.03357548437828533627e-02) (25, -3.13347877772497673821e-02) (26, 3.22320043235675202098e-01) (27, 5.73310043237502786617e-01) (28, 1.76039763455379361101e-01) (29, 3.03117954719013482645e-01) (30, 3.66627807195420651887e-01) (31, 2.45370548083941902862e-01) (32, 3.87993928554371647621e-01) (33, -4.69393667268110270641e-01) (34, -7.64511637571464897078e-01) (35, 2.82008945998938664879e-01) (36, 3.64812339122529416535e-01) (37, 9.71213447730129741942e-01) (38, -8.53081050074905172798e-02) (39, 6.97794991198927960774e-01) 
