FANN_FLO_2.1
num_layers=3
learning_rate=0.700000
connection_rate=1.000000
network_type=0
learning_momentum=0.000000
training_algorithm=2
train_error_function=1
train_stop_function=1
cascade_output_change_fraction=0.010000
quickprop_decay=-0.000100
quickprop_mu=1.750000
rprop_increase_factor=1.200000
rprop_decrease_factor=0.500000
rprop_delta_min=0.000000
rprop_delta_max=50.000000
rprop_delta_zero=0.100000
cascade_output_stagnation_epochs=12
cascade_candidate_change_fraction=0.010000
cascade_candidate_stagnation_epochs=12
cascade_max_out_epochs=150
cascade_min_out_epochs=50
cascade_max_cand_epochs=150
cascade_min_cand_epochs=50
cascade_num_candidate_groups=2
bit_fail_limit=1.00000000000000005551e-01
cascade_candidate_limit=1.00000000000000000000e+03
cascade_weight_multiplier=4.00000000000000022204e-01
cascade_activation_functions_count=10
cascade_activation_functions=3 5 7 8 10 11 14 15 16 17 
cascade_activation_steepnesses_count=4
cascade_activation_steepnesses=2.50000000000000000000e-01 5.00000000000000000000e-01 7.50000000000000000000e-01 1.00000000000000000000e+00 
layer_sizes=29 11 2 
scale_included=0
neurons (num_inputs, activation_function, activation_steepness)=(0, 0, 0.00000000000000000000e+00) (0, 0, 0.00000000000000000000e+00) (0, 0, 0.00000000000000000000e+00) (0, 0, 0.00000000000000000000e+00) (0, 0, 0.00000000000000000000e+00) (0, 0, 0.00000000000000000000e+00) (0, 0, 0.00000000000000000000e+00) (0, 0, 0.00000000000000000000e+00) (0, 0, 0.00000000000000000000e+00) (0, 0, 0.00000000000000000000e+00) (0, 0, 0.00000000000000000000e+00) (0, 0, 0.00000000000000000000e+00) (0, 0, 0.00000000000000000000e+00) (0, 0, 0.00000000000000000000e+00) (0, 0, 0.00000000000000000000e+00) (0, 0, 0.00000000000000000000e+00) (0, 0, 0.00000000000000000000e+00) (0, 0, 0.00000000000000000000e+00) (0, 0, 0.00000000000000000000e+00) (0, 0, 0.00000000000000000000e+00) (0, 0, 0.00000000000000000000e+00) (0, 0, 0.00000000000000000000e+00) (0, 0, 0.00000000000000000000e+00) (0, 0, 0.00000000000000000000e+00) (0, 0, 0.00000000000000000000e+00) (0, 0, 0.00000000000000000000e+00) (0, 0, 0.00000000000000000000e+00) (0, 0, 0.00000000000000000000e+00) (0, 0, 0.00000000000000000000e+00) (29, 6, 5.00000000000000000000e-01) (29, 6, 5.00000000000000000000e-01) (29, 6, 5.00000000000000000000e-01) (29, 6, 5.00000000000000000000e-01) (29, 6, 5.00000000000000000000e-01) (29, 6, 5.00000000000000000000e-01) (29, 6, 5.00000000000000000000e-01) (29, 6, 5.00000000000000000000e-01) (29, 6, 5.00000000000000000000e-01) (29, 6, 5.00000000000000000000e-01) (0, 6, 0.00000000000000000000e+00) (11, 6, 5.00000000000000000000e-01) (0, 6, 0.00000000000000000000e+00) 
connections (connected_to_neuron, weight)=(0, -4.79985776923532836413e-01) (1, -2.68874795066065229443e-02) (2, 2.61587618960195007756e-02) (3, -9.96929810272402655569e-02) (4, -7.00136379228777638861e-02) (5, 1.30050343721801797692e-01) (6, 5.63041288072767986961e-01) (7, 4.76950182196250627165e-01) (8, 3.30180772104029407465e-01) (9, 2.86626882826538198490e-01) (10, 9.00304096726322278244e-01) (11, 1.03475090229752542115e+00) (12, 4.01014944543643225838e-01) (13, 3.69851247319450515683e-01) (14, 6.16513350909280166690e-01) (15, 1.06444151767057371138e+00) (16, 5.59509003305149410501e-01) (17, 4.65652594798373065110e-01) (18, 6.37066459847411281636e-02) (19, 1.69230297067080537321e-01) (20, 5.09940695422947398718e-01) (21, 1.64918827859744307474e-02) (22, 6.20772494258854168336e-01) (23, 1.19828386049024171456e+00) (24, 1.12292353015080406675e-01) (25, -1.17490835280058495554e-02) (26, 1.03058143231404358842e-01) (27, 3.17979710579432417461e-02) (28, -4.80013161210858727013e-02) (0, -2.78979924643196930401e-01) (1, -6.52576863713370675102e-02) (2, -3.22007752902614130530e-02) (3, 3.80505330912960723633e-02) (4, -8.26004810578929299369e-02) (5, 1.74788255026087746558e-01) (6, 3.53036520230751271754e-01) (7, -2.87646568917438338886e-01) (8, -2.38235801089789456242e+00) (9, -3.65858565829318971296e-01) (10, -1.34396163835880866344e+00) (11, -1.42587915386407937390e+00) (12, 8.46243010206723308975e-03) (13, -1.04798373917276310685e+00) (14, -1.50992172578610694966e-01) (15, -5.14651983038623672684e+00) (16, -3.28976023498371894505e+00) (17, -4.28022368128038976920e+00) (18, 1.11363708255193971652e+00) (19, 1.50242770767501060414e-01) (20, 2.02283789906074817910e-01) (21, -3.83785343241922830004e-02) (22, -1.04694012101774669432e+00) (23, -5.06827497254518144487e-01) (24, 8.07878967171313938644e-02) (25, 9.99937013573477112560e-02) (26, 1.73717070850819083061e-01) (27, -1.49380096388416849784e+00) (28, -4.88145500676112013144e-03) (0, -9.43479428916851436959e-01) (1, -1.35100722423778379921e-01) (2, -1.90902806929336310571e-01) (3, -2.56305859601362109879e-02) (4, -6.21197150266034892052e-02) (5, 2.80894914292960595770e-01) (6, 4.51931609617425289471e-01) (7, 2.68349299325309695319e-02) (8, 8.72566669230502300891e-02) (9, 9.87129856523117840683e-04) (10, 9.68172649066582846622e-01) (11, 9.83576873456259881401e-01) (12, 4.00027819960854458259e-01) (13, 5.51519836246185168882e-01) (14, 5.95585491943535383363e-01) (15, 8.62128828557269355493e-01) (16, 9.59928226931225370144e-01) (17, 2.32862261805186293584e-01) (18, 1.69634187003844777442e-01) (19, 1.53599760579795768800e-01) (20, 6.80126223650815986410e-02) (21, -1.43550494733281963633e-01) (22, 4.61302551387958392759e-01) (23, 1.13111384807775761097e+00) (24, 2.75327013965843470089e-01) (25, 8.84052458716858280408e-02) (26, 1.62525578114521979112e-01) (27, -1.00451019227174898063e+00) (28, -1.34733138377373495853e-01) (0, 1.89726675004162292915e-01) (1, -2.05436240504317496613e-01) (2, -1.44963066647582294877e-01) (3, -1.29031989346080067094e-01) (4, -1.79482351611190055207e-01) (5, 4.37733647372429354738e-02) (6, 4.79538849617066054165e-01) (7, -3.85801445506137818953e-01) (8, -2.52953885561378610802e+00) (9, -2.65276837907356233259e-01) (10, 2.56574605406875544400e-01) (11, -1.01805194601877602167e+00) (12, -6.28160674746463254525e-02) (13, 4.39115336225668950743e-01) (14, -5.52524615025895560194e-02) (15, -5.28328880102475206826e+00) (16, -5.05485666857574766908e+00) (17, -5.03034184394849592792e+00) (18, 1.52701897428207500340e+00) (19, 3.35339872910649261506e-01) (20, 4.62556185142289563728e-02) (21, -4.96870888841383431811e-02) (22, -1.52478052607220582182e+00) (23, -4.92739451448825471758e-01) (24, 1.68605476224959111020e-01) (25, 8.71630267090627991466e-02) (26, 1.63090540221745905480e-01) (27, -1.51510858876066767387e+00) (28, 2.32562427773636976047e-02) (0, 3.41427508371206789306e+00) (1, 4.12657537260200490969e-01) (2, 2.91490905680801382083e-01) (3, 3.65740784206535329837e-01) (4, 2.90384352901126907565e-01) (5, 9.30753702815447447882e-01) (6, -3.40678629553493039772e-01) (7, -7.15245458460874061757e-01) (8, 4.02108227911021032241e+00) (9, -4.68596557977600025602e-01) (10, -1.45665129640242607678e+00) (11, -1.08719723510827592783e+00) (12, -2.97621124451777852027e-01) (13, 2.58181109757016080675e-01) (14, -3.32752261302974972068e-01) (15, 7.12824271395823227948e+00) (16, 7.58466196553515548118e+00) (17, 4.06830374970416297487e+00) (18, 1.03817928454895858081e+00) (19, 8.82398433017621330876e-01) (20, 1.87632079260230816287e-01) (21, 7.56742442202093723580e+00) (22, -4.06369174814378786298e-01) (23, -2.03926664933256462930e+00) (24, -4.37707281637097489480e-01) (25, 4.03190971495774264088e-01) (26, 6.13727851793124279389e-01) (27, 1.36441816846862096213e+00) (28, -4.16803673695187226755e-01) (0, -5.69788019166337278421e+00) (1, -1.57797630376508513095e-01) (2, -2.25981544203450956942e-01) (3, -7.19160022804048032485e-02) (4, -8.69264187881257505142e-02) (5, 3.71883913362039741912e-01) (6, 5.47941151393054215468e-01) (7, 1.12833112891053688465e-01) (8, 5.39451578704216672122e-01) (9, 3.47348291785728069403e-01) (10, 9.90082033217287826865e-01) (11, 8.44407952565067621009e-01) (12, 5.00597080427676144332e-01) (13, 5.38630786283056051111e-01) (14, 6.75913841183051089523e-01) (15, 1.14927063273632779072e+00) (16, 1.20174110784445242750e+00) (17, 2.63461696455954907936e-01) (18, 3.14055469867415559815e-01) (19, 2.21347579684035206116e-01) (20, 2.08843726274373947538e-01) (21, 9.09376893060189067652e-02) (22, 6.28727633939788144168e-01) (23, 1.02693926265230639494e+00) (24, 1.50508528512142775169e-01) (25, 1.58856255634354098794e-01) (26, 1.92252224377880809314e-01) (27, -4.05202692207426828919e-01) (28, -5.67458527646126850708e-02) (0, 3.40428301321598558715e+00) (1, 3.64192921719257434177e-01) (2, 3.09925478002731402682e-01) (3, 2.29028467139904240435e-01) (4, 3.95766306719486316013e-01) (5, 8.50393178459082244025e-01) (6, -1.52755114912452483189e+00) (7, 1.71917418072859928824e-01) (8, 3.21090229027818896412e+00) (9, -2.72707324998044009501e-01) (10, -3.37562020247002603224e-01) (11, 5.46562756990933928947e-01) (12, -3.93186506533042878786e-01) (13, 8.45078943484588673840e-01) (14, -2.03447405241039713797e-01) (15, 7.23911045268198716229e+00) (16, 7.53626307593392485984e+00) (17, 5.08743357914438831813e+00) (18, -1.94986856034712174868e+00) (19, 3.24318524457196444288e-01) (20, 1.38767147068581415265e-02) (21, 1.53845937781941666245e+00) (22, -3.83317959559498211419e-01) (23, -1.16506891197972106688e+00) (24, -2.24158033764089714701e-01) (25, 4.00717751266625399342e-01) (26, 3.80444804445654760627e-01) (27, 1.34197806651726025962e+00) (28, -9.18044175939379480944e-01) (0, -5.42862415835509870554e-01) (1, -9.35801864778860043037e-02) (2, -4.36075703418119381416e-02) (3, -1.69904749951349076653e-01) (4, -1.95050522795902014916e-01) (5, 2.62792299068338119916e-01) (6, 5.20504722765114280492e-01) (7, 1.38118335058748185201e-02) (8, 3.99220347859625679376e-01) (9, 4.15672532581539910801e-01) (10, 8.42711106596787828948e-01) (11, 1.12310683095696450806e+00) (12, 4.10743987037907265503e-01) (13, 3.15252843707272689677e-01) (14, 5.94786040696325790655e-01) (15, 6.56772817286330412578e-01) (16, 6.01737821244907711282e-01) (17, 4.61684490078257403489e-01) (18, 1.27439574679607064978e-01) (19, 8.28238456425380020764e-02) (20, 3.58226087349712729591e-01) (21, 6.32246913410300370728e-02) (22, 5.07098218681785839479e-01) (23, 1.11606965147740821998e+00) (24, 1.70660499434605622548e-01) (25, 1.58095914258845606989e-03) (26, 1.90041878201246683400e-01) (27, -2.24449997904424769501e-01) (28, -1.54390064325345410801e-01) (0, 6.03828286873364472598e+00) (1, 6.57172606633004835475e-02) (2, 2.38835695509701656514e-01) (3, 1.15137274687081306301e-01) (4, 2.38966393594532894307e-01) (5, -1.95037891926775619478e-01) (6, -1.77138801126792144736e-01) (7, 1.24041903704086145521e-01) (8, -5.44099625265278441510e-01) (9, -6.28880747261850170382e-02) (10, -1.64350466656485028061e+00) (11, -1.54680027605612657737e+00) (12, -1.30675549928717882331e-01) (13, -1.72531464708172377343e+00) (14, -6.35254148298188936472e-01) (15, -1.75833496921072085506e+00) (16, -1.33087850986551869958e+00) (17, 4.63035945126279158135e-01) (18, -1.43083980980942415684e+00) (19, 1.02326499479493349121e-01) (20, -2.28138770165128484946e-01) (21, 1.09199859730450071771e-01) (22, -7.95586290167469623036e-01) (23, -8.20914951814352367165e-01) (24, 9.47185255892192545790e-02) (25, -1.08714025258311586253e-01) (26, 6.83278087453410704066e-02) (27, 9.45304221785219667140e-01) (28, 2.25000937744973955601e-02) (0, 2.78333162444743020814e+00) (1, 1.14942623900921400693e-01) (2, 2.36585634427816882130e-01) (3, 1.03317330258638914731e-01) (4, 1.11547532158644255307e-01) (5, -7.41331218700571753510e-02) (6, 2.80842951544142460651e-01) (7, 5.56132106727196123819e-02) (8, -3.62521830405420464327e-01) (9, -6.75958895313071295163e-02) (10, -1.28026456567347457494e+00) (11, -9.99482961017237436785e-01) (12, 1.56921128863746900395e-01) (13, -1.84411584399728378791e+00) (14, 1.68336086268626589080e-01) (15, -9.73487347576039829811e-01) (16, -1.15055873244174899916e+00) (17, -1.41698394365547741813e+00) (18, 3.80726321900838216017e-01) (19, 6.19946133468353421936e-02) (20, 4.96957923093622855326e-01) (21, 7.72469075495017670763e-02) (22, -1.28836641444189403671e+00) (23, -4.01825879612969505406e-01) (24, -2.04163653253772503504e-01) (25, -7.43183722986688194423e-02) (26, 7.57566982470957300810e-02) (27, 4.99574770746340768302e-01) (28, 2.22491675877778488646e-01) (29, 2.47929149345364169266e-01) (30, -1.69652969436074774201e-01) (31, 4.85362876217248440103e-01) (32, -1.42708210196697632410e-01) (33, 7.20174728814622078232e-01) (34, 9.41938267382073868283e-01) (35, 6.60196616236230271468e-01) (36, 4.44202724375283908298e-01) (37, -1.46945879692899461499e-01) (38, -1.72149170014995467337e-01) (39, 4.79377007357221496253e-01) 
