FANN_FLO_2.1
num_layers=3
learning_rate=0.700000
connection_rate=1.000000
network_type=0
learning_momentum=0.000000
training_algorithm=2
train_error_function=1
train_stop_function=1
cascade_output_change_fraction=0.010000
quickprop_decay=-0.000100
quickprop_mu=1.750000
rprop_increase_factor=1.200000
rprop_decrease_factor=0.500000
rprop_delta_min=0.000000
rprop_delta_max=50.000000
rprop_delta_zero=0.100000
cascade_output_stagnation_epochs=12
cascade_candidate_change_fraction=0.010000
cascade_candidate_stagnation_epochs=12
cascade_max_out_epochs=150
cascade_min_out_epochs=50
cascade_max_cand_epochs=150
cascade_min_cand_epochs=50
cascade_num_candidate_groups=2
bit_fail_limit=1.00000000000000005551e-01
cascade_candidate_limit=1.00000000000000000000e+03
cascade_weight_multiplier=4.00000000000000022204e-01
cascade_activation_functions_count=10
cascade_activation_functions=3 5 7 8 10 11 14 15 16 17 
cascade_activation_steepnesses_count=4
cascade_activation_steepnesses=2.50000000000000000000e-01 5.00000000000000000000e-01 7.50000000000000000000e-01 1.00000000000000000000e+00 
layer_sizes=29 11 2 
scale_included=0
neurons (num_inputs, activation_function, activation_steepness)=(0, 0, 0.00000000000000000000e+00) (0, 0, 0.00000000000000000000e+00) (0, 0, 0.00000000000000000000e+00) (0, 0, 0.00000000000000000000e+00) (0, 0, 0.00000000000000000000e+00) (0, 0, 0.00000000000000000000e+00) (0, 0, 0.00000000000000000000e+00) (0, 0, 0.00000000000000000000e+00) (0, 0, 0.00000000000000000000e+00) (0, 0, 0.00000000000000000000e+00) (0, 0, 0.00000000000000000000e+00) (0, 0, 0.00000000000000000000e+00) (0, 0, 0.00000000000000000000e+00) (0, 0, 0.00000000000000000000e+00) (0, 0, 0.00000000000000000000e+00) (0, 0, 0.00000000000000000000e+00) (0, 0, 0.00000000000000000000e+00) (0, 0, 0.00000000000000000000e+00) (0, 0, 0.00000000000000000000e+00) (0, 0, 0.00000000000000000000e+00) (0, 0, 0.00000000000000000000e+00) (0, 0, 0.00000000000000000000e+00) (0, 0, 0.00000000000000000000e+00) (0, 0, 0.00000000000000000000e+00) (0, 0, 0.00000000000000000000e+00) (0, 0, 0.00000000000000000000e+00) (0, 0, 0.00000000000000000000e+00) (0, 0, 0.00000000000000000000e+00) (0, 0, 0.00000000000000000000e+00) (29, 6, 5.00000000000000000000e-01) (29, 6, 5.00000000000000000000e-01) (29, 6, 5.00000000000000000000e-01) (29, 6, 5.00000000000000000000e-01) (29, 6, 5.00000000000000000000e-01) (29, 6, 5.00000000000000000000e-01) (29, 6, 5.00000000000000000000e-01) (29, 6, 5.00000000000000000000e-01) (29, 6, 5.00000000000000000000e-01) (29, 6, 5.00000000000000000000e-01) (0, 6, 0.00000000000000000000e+00) (11, 6, 5.00000000000000000000e-01) (0, 6, 0.00000000000000000000e+00) 
connections (connected_to_neuron, weight)=(0, 2.43670043911959872673e+01) (1, -8.68159568576286691521e-03) (2, 1.48850366112905058147e-01) (3, 1.29849701759534391643e-01) (4, 7.68625509116225430484e-02) (5, -2.40496933341010521445e+00) (6, 5.68109458139537060184e-01) (7, 5.05932207908305064947e-01) (8, -1.51599598428980608666e+00) (9, 3.36460133719115705997e-01) (10, -9.09966358742479858313e-02) (11, -1.16706852685152218108e+00) (12, -6.42700935935176381752e-02) (13, -5.87555801128824994883e-01) (14, -7.76505423394567850792e-01) (15, -1.54980560985472570756e+00) (16, -1.53187016991045843461e+00) (17, -1.23068348690321061056e+00) (18, -6.55728803231726442569e-01) (19, -7.99502225948068301342e-01) (20, -1.57625969355011719131e-01) (21, -2.22168063783709035519e+00) (22, -2.59413344065712980768e-01) (23, -3.83597417139465823865e-01) (24, 3.12453517115709733520e-01) (25, -1.66471369634410060190e-01) (26, -8.88502314526206427026e-01) (27, -5.07801051783381973692e-01) (28, 4.94675964537210355321e-01) (0, 2.39125249742014887033e+01) (1, -1.45761905236706278480e-03) (2, 1.76944347099795796716e-03) (3, 6.74089840240909426994e-02) (4, 1.61561173815293446232e-01) (5, -2.65809243147108720251e+00) (6, 5.72168832471965038700e-01) (7, 5.28944391139812508662e-01) (8, -1.14231975412410458048e+00) (9, 4.14702381321258806146e-01) (10, -2.16433007406060140543e-01) (11, -8.54508847729398723914e-01) (12, -4.37949231206360478641e-01) (13, 4.17441183454135944508e-01) (14, -3.76474731596069922546e-01) (15, -1.35093422051764622260e+00) (16, -1.47161472406483806452e+00) (17, -1.32509311851359501411e+00) (18, -5.34763359680185956790e-01) (19, -5.47712468538542607277e-01) (20, -9.05182350814062591793e-02) (21, -2.13761923128429875973e+00) (22, -5.76099580718191228712e-01) (23, -2.87081838748262374583e-01) (24, 3.32763221442630874325e-01) (25, 1.01086224957507714306e-02) (26, -3.88554024522656082929e-01) (27, -9.44353821978947238769e-01) (28, 5.27663588944024875005e-01) (0, 1.23181806164404150650e+00) (1, 3.87643582769104877439e-01) (2, 3.40554024674364963499e-01) (3, 4.95965342618891857907e-01) (4, 3.99962160386511722532e-01) (5, -1.27873768215133609694e+00) (6, -7.51291417614434409167e-01) (7, -5.88925875583415470160e-01) (8, -1.30430447987558517653e+00) (9, -6.96734382965795595588e-01) (10, -1.93181198905147777367e+00) (11, -1.67310397388704901189e+00) (12, -5.30830903208617810307e-01) (13, -2.90339345012939720192e+00) (14, -3.74371596925163807601e-01) (15, -2.02960939475019053191e+00) (16, -1.91363420255806815362e+00) (17, -1.27829722444215243549e+00) (18, -5.58123307818681246850e-01) (19, -1.86583926559096702213e+00) (20, -8.90264274970440472323e-01) (21, -7.04296890048400348050e-01) (22, -6.91644230468968168601e-01) (23, -6.84729225106794570088e-01) (24, -1.28679231895807522079e+00) (25, -2.23743163707626724346e+00) (26, -7.05664967249471142274e-01) (27, -2.43274406703423207166e-01) (28, 3.27617414290416242295e-01) (0, 8.09734972541197084439e-01) (1, 8.33333610845660016642e-02) (2, 4.90921541405771738598e-02) (3, -2.24840313838864588880e-02) (4, 9.67121153427218244181e-02) (5, -6.37618427399763154639e-01) (6, -1.34299759841758736822e-01) (7, -3.78961810717165226148e-02) (8, -4.40167716314428136837e-01) (9, 1.42386881247479030188e-01) (10, -1.56164123179679847908e+00) (11, -1.04590178043939574515e+00) (12, -1.85239713180424286909e-01) (13, -1.32779815061538064569e+00) (14, -1.63166254022144657787e-01) (15, -1.14182224330691273195e+00) (16, -1.16128236414398289256e+00) (17, -4.94333112333342761247e-01) (18, -1.52211526534134413552e-02) (19, -1.68716337385855147391e-01) (20, 2.79480861882375641869e-01) (21, 2.01379146807239839401e-01) (22, -7.88264527335980513811e-01) (23, -1.15357170110758500137e+00) (24, 9.41658685837599707114e-02) (25, 8.82208000312106749297e-02) (26, -1.61680537829133580408e-01) (27, 1.15760793457493585401e-01) (28, 1.42621961907961225524e-01) (0, 7.14962962805731683247e-01) (1, 2.65309833370504011274e-01) (2, 2.16323383532819407682e-01) (3, 1.99006855868158000211e-01) (4, 1.57223850868997344632e-01) (5, -7.24089569054078285859e-01) (6, -1.82552392896333431915e-01) (7, 1.69968733699626312061e-01) (8, 3.42727365261856053991e+00) (9, 1.05005653087321973449e-01) (10, -1.29250049838662839363e+00) (11, -1.25025936291635697550e+00) (12, 6.37331689174049642599e-02) (13, -1.45685288209231456058e+00) (14, 2.90118430245854319605e-01) (15, 6.09966540245804278442e+00) (16, 4.00349424809945286796e+00) (17, 4.94888847946557230983e+00) (18, -3.39581068551749853945e-01) (19, 4.13857763959244451257e-01) (20, -1.28652427334339097831e-01) (21, 3.78095082269432780642e-01) (22, 8.79628442328689585938e-02) (23, -2.25292649402853040197e-01) (24, -1.76527012606931016370e-01) (25, 8.07242797098365189035e-02) (26, 3.07989658852247716325e-01) (27, 3.04565610581589596428e-01) (28, 4.83566532127956277831e-02) (0, -1.16607994493938951774e-01) (1, 1.90677526505985378558e-01) (2, 2.97408281884576422560e-02) (3, 4.91329609475518735984e-02) (4, 1.20785567077198091601e-01) (5, -2.29052890144879645051e-01) (6, -1.49494727351611334659e-03) (7, -2.72264731200532350552e-01) (8, 3.11937802799244678909e+00) (9, -3.57216158067537259413e-01) (10, -7.11326547365803418810e-02) (11, 7.66431179562343301015e-01) (12, -8.62315237185239114037e-02) (13, 9.27653972378859825731e-01) (14, -2.13716452580283378104e-01) (15, 6.35217977273814948802e+00) (16, 4.47190116714319430002e+00) (17, 3.06404762845249845071e+00) (18, -2.75246303475112585879e-01) (19, 1.95357848597291716697e-01) (20, -2.34322275571491267510e-01) (21, 7.88531889667084817663e-02) (22, 2.12607947822050946662e-01) (23, 2.45628923346108363202e-01) (24, -3.23781872668488568401e-01) (25, -2.03214834264337979031e-01) (26, 1.52075009484915452118e-01) (27, 4.68171653156221334591e-02) (28, 1.43632465671684694808e-01) (0, 7.80898348288683430418e-01) (1, 2.77899317428614067715e-01) (2, 3.67304667815710472745e-01) (3, 2.04669840619112503033e-01) (4, 2.83474735900904106778e-01) (5, -1.71674894658332610753e+00) (6, -6.19958067630496767464e-01) (7, -1.59048738181490040278e-01) (8, -8.08101425562042008366e-01) (9, -2.84762890341393459792e-01) (10, -1.73321767261311787678e+00) (11, -1.98305709699394094869e+00) (12, -3.63926990526789728708e-01) (13, -2.67326735822111238861e+00) (14, -3.64934036074353373991e-01) (15, -1.58073611199137498140e+00) (16, -1.60564233676901024772e+00) (17, -8.14681396669330482041e-01) (18, -4.83623839293095658665e-01) (19, -6.79692598377433343515e-01) (20, -1.75240964022177658777e+00) (21, -2.84872114520529184922e-01) (22, -1.01957109145451640941e+00) (23, -1.78934972539056480478e+00) (24, -6.53245281240834363423e-01) (25, -1.13542564184511807213e+00) (26, -4.40019799726510674187e-01) (27, 6.32816675442706033650e-01) (28, 2.18090701790994739850e-01) (0, 1.03626599023209453598e+00) (1, 5.83403701849466854723e-02) (2, -5.40282624287543623842e-03) (3, 1.22723780102301241457e-01) (4, 2.68403622277266079577e-02) (5, -1.32475498153702936355e-01) (6, -1.06214912287386797907e+00) (7, -6.56597345988611635903e-01) (8, 1.16246659383750131078e-01) (9, -2.66507044686811023215e-01) (10, 7.89343332662836433267e-02) (11, -1.52903940679802782115e-02) (12, -1.48777659072415580077e-01) (13, -1.06054130031602064643e-01) (14, -4.02509374756976900933e-02) (15, -1.58131824449320140813e-01) (16, -6.48884564793303780794e-02) (17, -1.80416731102513300256e-02) (18, -1.00186479888352297785e+00) (19, -8.90232491933587860578e-02) (20, 1.12478851497196252751e+00) (21, 2.01021352463811864286e-01) (22, -4.62841944691625428732e-01) (23, -1.92446912298390504503e-01) (24, 2.63461587529310259370e-01) (25, 3.44817528064606387828e-02) (26, -9.09718608531775552173e-01) (27, -3.92462906793128452065e-01) (28, 2.82998178423061852449e-01) (0, 5.70730919939729131052e-01) (1, 1.86210598929219706132e-01) (2, 5.85917645528845898450e-02) (3, 5.85412123635344616712e-02) (4, 1.99579145891957743242e-01) (5, -1.07172714949565150988e+00) (6, -6.78457574039338512373e-02) (7, -1.31363683464126107525e-01) (8, 2.70394474056259159767e+00) (9, 1.31013438295373180198e-01) (10, 1.33231000984501135598e+00) (11, 2.41600900850832589484e+00) (12, -1.21963771452527708350e-01) (13, 1.65362877467037683310e+00) (14, 1.04485487640481017335e-01) (15, 6.25502139288537772899e+00) (16, 4.46940315883239946970e+00) (17, 2.93528643008084966226e+00) (18, -4.20834895169944378512e-01) (19, -4.21898005597934333544e-01) (20, -1.19219288196261985480e-01) (21, 1.33030681823687824128e-01) (22, -4.65228805369710007867e-01) (23, -1.05209744979558772471e+00) (24, -1.66915452608092484965e-01) (25, -2.77764991815975470502e-01) (26, 1.89272342336657378725e-01) (27, 1.49233390093320594794e-01) (28, 8.42570476114702510140e-02) (0, 2.69860369734211396064e+01) (1, 1.19889981207939241847e-01) (2, 4.07641297349559464380e-03) (3, 5.28396247900448923218e-02) (4, 1.47635928449722370059e-01) (5, -1.93308542343440703526e+00) (6, 4.32779883792994701786e-01) (7, 4.15730724660346828703e-01) (8, -1.44547657886811298233e+00) (9, 1.06217664231247496676e-01) (10, -2.68433023380104940347e-01) (11, -1.12156169219068302390e+00) (12, 2.30025556437191656955e-03) (13, -1.03561689045115823404e+00) (14, -5.55808963547627099544e-01) (15, -1.57143271171753617921e+00) (16, -1.86158241693698145447e+00) (17, -1.68705786488025100134e+00) (18, -5.58036057402342966505e-01) (19, -8.11493451131078513683e-01) (20, 9.58971881080616789239e-02) (21, -2.29885512449627205100e+00) (22, -6.55021900721491245889e-01) (23, -5.28742908733196070870e-01) (24, 2.06584423498030439470e-01) (25, -2.10423599876510214468e-01) (26, -4.20070820233830188872e-01) (27, -2.55495539369492929982e-01) (28, 5.51934855001692592502e-01) (29, -2.62230451305501488513e-01) (30, -2.55351821978681059466e-01) (31, -2.53878208156263218687e-01) (32, -4.69551616959371587168e-01) (33, 5.32765254179584757388e-01) (34, 6.32854106104533853383e-01) (35, -3.27402683253919635220e-01) (36, -3.34722695214674653696e-02) (37, 6.77308001734565290342e-01) (38, -2.53745923836820097552e-01) (39, 3.42103735191234048507e-01) 
