FANN_FLO_2.1
num_layers=3
learning_rate=0.700000
connection_rate=1.000000
network_type=0
learning_momentum=0.000000
training_algorithm=2
train_error_function=1
train_stop_function=1
cascade_output_change_fraction=0.010000
quickprop_decay=-0.000100
quickprop_mu=1.750000
rprop_increase_factor=1.200000
rprop_decrease_factor=0.500000
rprop_delta_min=0.000000
rprop_delta_max=50.000000
rprop_delta_zero=0.100000
cascade_output_stagnation_epochs=12
cascade_candidate_change_fraction=0.010000
cascade_candidate_stagnation_epochs=12
cascade_max_out_epochs=150
cascade_min_out_epochs=50
cascade_max_cand_epochs=150
cascade_min_cand_epochs=50
cascade_num_candidate_groups=2
bit_fail_limit=1.00000000000000005551e-01
cascade_candidate_limit=1.00000000000000000000e+03
cascade_weight_multiplier=4.00000000000000022204e-01
cascade_activation_functions_count=10
cascade_activation_functions=3 5 7 8 10 11 14 15 16 17 
cascade_activation_steepnesses_count=4
cascade_activation_steepnesses=2.50000000000000000000e-01 5.00000000000000000000e-01 7.50000000000000000000e-01 1.00000000000000000000e+00 
layer_sizes=12 11 2 
scale_included=0
neurons (num_inputs, activation_function, activation_steepness)=(0, 0, 0.00000000000000000000e+00) (0, 0, 0.00000000000000000000e+00) (0, 0, 0.00000000000000000000e+00) (0, 0, 0.00000000000000000000e+00) (0, 0, 0.00000000000000000000e+00) (0, 0, 0.00000000000000000000e+00) (0, 0, 0.00000000000000000000e+00) (0, 0, 0.00000000000000000000e+00) (0, 0, 0.00000000000000000000e+00) (0, 0, 0.00000000000000000000e+00) (0, 0, 0.00000000000000000000e+00) (0, 0, 0.00000000000000000000e+00) (12, 6, 5.00000000000000000000e-01) (12, 6, 5.00000000000000000000e-01) (12, 6, 5.00000000000000000000e-01) (12, 6, 5.00000000000000000000e-01) (12, 6, 5.00000000000000000000e-01) (12, 6, 5.00000000000000000000e-01) (12, 6, 5.00000000000000000000e-01) (12, 6, 5.00000000000000000000e-01) (12, 6, 5.00000000000000000000e-01) (12, 6, 5.00000000000000000000e-01) (0, 6, 0.00000000000000000000e+00) (11, 6, 5.00000000000000000000e-01) (0, 6, 0.00000000000000000000e+00) 
connections (connected_to_neuron, weight)=(0, -2.50002318684937829829e+00) (1, -2.27455108323309396212e-01) (2, -2.69400737145159274721e-01) (3, -3.09003359534952670717e-01) (4, -2.66124433734629184389e-01) (5, 1.50558030917742113886e+00) (6, 7.01678945584968460913e-01) (7, 6.38612132867742987585e-01) (8, 6.69543323431163184267e-01) (9, 4.34673449551166102278e-01) (10, 2.47891948773121179039e-01) (11, -1.57707644584621359263e-01) (0, 4.27272776834671519364e-01) (1, -8.17069902737494052625e-02) (2, -2.75228216965551775175e-02) (3, 1.10878378431443717217e-02) (4, -2.14631080348844927030e-02) (5, -4.85475201094939556867e+00) (6, 1.48553289484150430333e+00) (7, 4.23806323646753746459e-01) (8, 9.91828374065507945012e-01) (9, 9.96338249747715343219e-01) (10, 2.38302350039905963541e-01) (11, 2.16209211772812673336e-02) (0, 1.31637736558176254853e+00) (1, 3.89757446055963741038e-01) (2, 3.34643050139501796458e-01) (3, 2.73761428003862605784e-01) (4, 4.33696455364778743480e-01) (5, 4.84522560088564802072e+00) (6, -4.43310213451051787770e-02) (7, -3.17760457981202559807e-01) (8, -9.85192152412585619992e-02) (9, 1.12571303248043519396e+00) (10, -4.93946380248524996581e-01) (11, 3.73360184653767357421e-01) (0, 1.73838349634159676782e+01) (1, 3.36876680809772732772e-01) (2, 3.78566307682312253036e-01) (3, 3.89642564315117123641e-01) (4, 3.48433790463722470321e-01) (5, -2.88897329830352544988e+00) (6, -4.70827763205803773161e-01) (7, -3.46269983964263727838e-01) (8, -7.17187386284057426522e-01) (9, -3.58847655786097785580e+00) (10, -1.54943164208755757016e+00) (11, 3.85848886545684888194e-01) (0, -2.64234072779299999922e+00) (1, -2.61037328403211088546e-01) (2, -2.10750007193303584563e-01) (3, -2.37226196687436580168e-01) (4, -2.45240294497228089599e-01) (5, 1.51299432977535586176e+00) (6, 6.69722030772642029639e-01) (7, 5.56688089271952013526e-01) (8, 6.37723015014081351381e-01) (9, 4.44236220702643846980e-01) (10, 1.51858620244950198730e-01) (11, -1.48731766226734091196e-01) (0, -2.61306653608562733382e+00) (1, -2.01301797189924691622e-01) (2, -2.42894499459478829806e-01) (3, -2.63675070264551669741e-01) (4, -2.14376090922567819064e-01) (5, 1.53830100908377032098e+00) (6, 6.88644490106777085181e-01) (7, 5.18376253893543581519e-01) (8, 6.26083427432923667055e-01) (9, 4.34423162197173640120e-01) (10, 2.45362400907963601471e-01) (11, -2.29699527802909780894e-01) (0, 1.27641363590217804536e+00) (1, 3.79527411466196284984e-01) (2, 3.84285210674360500072e-01) (3, 2.73793852930620418284e-01) (4, 3.96553686862543330882e-01) (5, 4.77638406528760839365e+00) (6, -1.11076026893105556104e-01) (7, -2.97220771897408919671e-01) (8, -6.82166909387037279089e-01) (9, 1.13271225690479737658e+00) (10, -5.86536026826360079589e-01) (11, 3.22007557078369865966e-01) (0, -2.56505112414243008345e+00) (1, -1.25592938520960151205e-01) (2, -9.26334028029960065975e-02) (3, -1.65687560000471412192e-01) (4, -1.93066327729277009695e-01) (5, 1.51363460604797084308e+00) (6, 7.09425661075820390700e-01) (7, 6.70333241591676509685e-01) (8, 6.71544904187919455829e-01) (9, 2.62433735726990691184e-01) (10, -7.62886967563247142543e-02) (11, -2.75390370462693823139e-01) (0, 1.36333508192754959687e+00) (1, 3.61929607718206591827e-01) (2, 2.87464150368190951568e-01) (3, 4.25930571882940478545e-01) (4, 3.73236430018163867217e-01) (5, 4.77472061513592649362e+00) (6, -8.49805746122836436207e-03) (7, -4.06316036123607116082e-01) (8, 8.77400979215740145500e-04) (9, 9.78151024129347401725e-01) (10, -6.36785666724898669067e-01) (11, 3.50363334127926084882e-01) (0, 4.11830263905231974686e-01) (1, -4.24271419365759294706e-02) (2, -6.48278675694819034314e-02) (3, -5.09879111965055864530e-02) (4, -4.85022037942762773710e-02) (5, -3.49068324408091301692e+00) (6, 1.66262112568981668126e+00) (7, 4.10218625306337791869e-01) (8, 9.75029490388978903326e-01) (9, 1.15788407028194484383e+00) (10, -3.60651927059572677270e-02) (11, -7.40618264847861113020e-02) (12, 4.20479912137447731091e-01) (13, -1.35861622368895984536e-01) (14, 5.85177679892750490787e-01) (15, -3.74520866376242822504e-01) (16, 4.62211397180532834739e-01) (17, 4.13559239993070981711e-01) (18, 5.72230940099926699283e-01) (19, 4.71523676008668513049e-01) (20, 5.77077885504933107974e-01) (21, -1.35596048509225908241e-01) (22, 3.71315699685486722004e-01) 
