FANN_FLO_2.1
num_layers=3
learning_rate=0.700000
connection_rate=1.000000
network_type=0
learning_momentum=0.000000
training_algorithm=2
train_error_function=1
train_stop_function=1
cascade_output_change_fraction=0.010000
quickprop_decay=-0.000100
quickprop_mu=1.750000
rprop_increase_factor=1.200000
rprop_decrease_factor=0.500000
rprop_delta_min=0.000000
rprop_delta_max=50.000000
rprop_delta_zero=0.100000
cascade_output_stagnation_epochs=12
cascade_candidate_change_fraction=0.010000
cascade_candidate_stagnation_epochs=12
cascade_max_out_epochs=150
cascade_min_out_epochs=50
cascade_max_cand_epochs=150
cascade_min_cand_epochs=50
cascade_num_candidate_groups=2
bit_fail_limit=1.00000000000000005551e-01
cascade_candidate_limit=1.00000000000000000000e+03
cascade_weight_multiplier=4.00000000000000022204e-01
cascade_activation_functions_count=10
cascade_activation_functions=3 5 7 8 10 11 14 15 16 17 
cascade_activation_steepnesses_count=4
cascade_activation_steepnesses=2.50000000000000000000e-01 5.00000000000000000000e-01 7.50000000000000000000e-01 1.00000000000000000000e+00 
layer_sizes=12 11 2 
scale_included=0
neurons (num_inputs, activation_function, activation_steepness)=(0, 0, 0.00000000000000000000e+00) (0, 0, 0.00000000000000000000e+00) (0, 0, 0.00000000000000000000e+00) (0, 0, 0.00000000000000000000e+00) (0, 0, 0.00000000000000000000e+00) (0, 0, 0.00000000000000000000e+00) (0, 0, 0.00000000000000000000e+00) (0, 0, 0.00000000000000000000e+00) (0, 0, 0.00000000000000000000e+00) (0, 0, 0.00000000000000000000e+00) (0, 0, 0.00000000000000000000e+00) (0, 0, 0.00000000000000000000e+00) (12, 6, 5.00000000000000000000e-01) (12, 6, 5.00000000000000000000e-01) (12, 6, 5.00000000000000000000e-01) (12, 6, 5.00000000000000000000e-01) (12, 6, 5.00000000000000000000e-01) (12, 6, 5.00000000000000000000e-01) (12, 6, 5.00000000000000000000e-01) (12, 6, 5.00000000000000000000e-01) (12, 6, 5.00000000000000000000e-01) (12, 6, 5.00000000000000000000e-01) (0, 6, 0.00000000000000000000e+00) (11, 6, 5.00000000000000000000e-01) (0, 6, 0.00000000000000000000e+00) 
connections (connected_to_neuron, weight)=(0, 1.54346656976550384854e+01) (1, 3.93411330858416397049e-01) (2, 3.14939632991499740555e-01) (3, 4.08727630952544052079e-01) (4, 3.85247200707144576981e-01) (5, -3.60996338959983020800e+00) (6, -1.06563878666912303927e+00) (7, -6.73262544220155079167e-01) (8, -6.22273578357809165063e-01) (9, -3.87963076434054343622e+00) (10, 3.18893296792902708470e-02) (11, 4.77446092192482407501e-01) (0, -3.93870838221788099887e+00) (1, -6.92473078058369745369e-02) (2, -8.43673372552998651619e-02) (3, -1.02699870793641387379e-01) (4, -1.66989105372250812298e-01) (5, 1.11707762545567113044e+00) (6, 3.06513484516278855718e-01) (7, 3.27840637662635936422e-01) (8, 4.75258328223449877381e-01) (9, 2.16420171338116890114e-01) (10, 7.53978144925271515087e-02) (11, -1.35987433696500376046e-01) (0, -4.04447143760203875473e+00) (1, -5.24901324794896026460e-02) (2, -1.09726640014470397388e-01) (3, -2.25957053332150714642e-01) (4, -2.13611173062146442181e-01) (5, 1.29223563868708168911e+00) (6, 2.98641573801629922613e-01) (7, 3.38227770590514620341e-01) (8, 5.81137731874210472505e-01) (9, 1.59079819641200687075e-01) (10, 5.49728412728940421528e-02) (11, -1.25212770689830388271e-01) (0, -5.35370259987011554159e+00) (1, -1.59394518590565748006e-01) (2, -4.90997071629725653774e-02) (3, -7.53747756844722199832e-02) (4, -1.65133160657282895833e-01) (5, 1.17797589845882866300e+00) (6, 2.67457343458090801569e-01) (7, 2.64009040147864026959e-01) (8, 4.43486342370120911749e-01) (9, 3.64379482897742468239e-01) (10, 1.72893776426855244610e-01) (11, -4.59268188346600367278e-02) (0, 2.72543936772785633238e+00) (1, 2.01654033639316138116e-01) (2, 2.11027154602889593926e-01) (3, 1.65275035329942310280e-01) (4, 2.79565142371539843147e-01) (5, 1.08483023965489113749e+01) (6, -3.62609028539119027101e-01) (7, -4.53990916127099741750e-01) (8, -5.15771496757960523638e-01) (9, 4.27173062930047198194e-01) (10, -8.57609482800326672347e-01) (11, 2.18107158764717201649e-01) (0, 5.58117478431746860679e+00) (1, 1.35886061672446523119e+00) (2, 1.31330381814715657640e+00) (3, 1.37763004485842999181e+00) (4, 1.44281537566659268101e+00) (5, 1.07811751389633858622e+01) (6, 5.22272916443217494198e-01) (7, -3.55361590948232830556e-01) (8, -1.50991283154531474864e-01) (9, 5.16432693454752289597e-01) (10, -1.03887658715188208047e-01) (11, -8.77612084134300196592e-02) (0, 9.94896554972253821525e-01) (1, 1.51857804428508796901e-01) (2, 1.65488328706195841900e-01) (3, 3.47041774462631125164e-01) (4, 3.32042653035095058911e-01) (5, -4.18222980398691923654e+00) (6, 9.70882204508739382609e-02) (7, -5.80152233303251052554e-01) (8, -5.34731813095724484164e-01) (9, -1.99695638894174465339e-01) (10, -2.83790353317360521945e-01) (11, 1.08335114431693399495e-01) (0, 3.74589347168350306205e+00) (1, 2.81553612876881187432e-01) (2, 2.00619811047066332055e-01) (3, 2.76965113211620872491e-01) (4, 3.17250283289898737937e-01) (5, 1.07799123400580132426e+01) (6, 1.01848779554747886911e-01) (7, -3.83874716574087004872e-01) (8, -4.58519156739211286578e-01) (9, 5.71301657309740584800e-01) (10, -4.49824303138006587055e-01) (11, -1.21058464048691610815e-01) (0, 2.74837660594425647886e+00) (1, 1.42555614732308877368e-01) (2, 3.19316668234868594745e-01) (3, 2.74324578963323018055e-01) (4, 3.03581936083837100604e-01) (5, 1.08494704389702523173e+01) (6, -6.88655183368635792629e-02) (7, -4.13726205343141417714e-01) (8, -4.86600544020629133257e-01) (9, 4.58134480438173286032e-01) (10, -4.62327611399753535260e-01) (11, 2.25126621337016663560e-01) (0, 1.00610292854460325884e+00) (1, 1.70582305561473857036e-01) (2, 2.40308280955722819439e-01) (3, 3.12883440326621908856e-01) (4, 2.27130096327236186138e-01) (5, -4.23855634231127531564e+00) (6, 1.61709135043039547996e-01) (7, -3.44255580036449015946e-01) (8, -7.63682631717174098540e-01) (9, -2.20817785292003521125e-01) (10, -2.88041997332672661258e-01) (11, 8.75600868585847263992e-02) (12, -2.60250804436304494782e-01) (13, 5.98081384786228853478e-01) (14, 6.27134342678646761193e-01) (15, 6.49289235975251344257e-01) (16, 4.87744661527884704189e-01) (17, 4.17401897269499999599e-01) (18, -1.15216372536330685650e-01) (19, 4.84822931247962218837e-01) (20, 4.24263621228945952968e-01) (21, -1.31593620406299099956e-01) (22, 4.59351670579949356021e-01) 
