FANN_FLO_2.1
num_layers=3
learning_rate=0.700000
connection_rate=1.000000
network_type=0
learning_momentum=0.000000
training_algorithm=2
train_error_function=1
train_stop_function=1
cascade_output_change_fraction=0.010000
quickprop_decay=-0.000100
quickprop_mu=1.750000
rprop_increase_factor=1.200000
rprop_decrease_factor=0.500000
rprop_delta_min=0.000000
rprop_delta_max=50.000000
rprop_delta_zero=0.100000
cascade_output_stagnation_epochs=12
cascade_candidate_change_fraction=0.010000
cascade_candidate_stagnation_epochs=12
cascade_max_out_epochs=150
cascade_min_out_epochs=50
cascade_max_cand_epochs=150
cascade_min_cand_epochs=50
cascade_num_candidate_groups=2
bit_fail_limit=1.00000000000000005551e-01
cascade_candidate_limit=1.00000000000000000000e+03
cascade_weight_multiplier=4.00000000000000022204e-01
cascade_activation_functions_count=10
cascade_activation_functions=3 5 7 8 10 11 14 15 16 17 
cascade_activation_steepnesses_count=4
cascade_activation_steepnesses=2.50000000000000000000e-01 5.00000000000000000000e-01 7.50000000000000000000e-01 1.00000000000000000000e+00 
layer_sizes=12 11 2 
scale_included=0
neurons (num_inputs, activation_function, activation_steepness)=(0, 0, 0.00000000000000000000e+00) (0, 0, 0.00000000000000000000e+00) (0, 0, 0.00000000000000000000e+00) (0, 0, 0.00000000000000000000e+00) (0, 0, 0.00000000000000000000e+00) (0, 0, 0.00000000000000000000e+00) (0, 0, 0.00000000000000000000e+00) (0, 0, 0.00000000000000000000e+00) (0, 0, 0.00000000000000000000e+00) (0, 0, 0.00000000000000000000e+00) (0, 0, 0.00000000000000000000e+00) (0, 0, 0.00000000000000000000e+00) (12, 6, 5.00000000000000000000e-01) (12, 6, 5.00000000000000000000e-01) (12, 6, 5.00000000000000000000e-01) (12, 6, 5.00000000000000000000e-01) (12, 6, 5.00000000000000000000e-01) (12, 6, 5.00000000000000000000e-01) (12, 6, 5.00000000000000000000e-01) (12, 6, 5.00000000000000000000e-01) (12, 6, 5.00000000000000000000e-01) (12, 6, 5.00000000000000000000e-01) (0, 6, 0.00000000000000000000e+00) (11, 6, 5.00000000000000000000e-01) (0, 6, 0.00000000000000000000e+00) 
connections (connected_to_neuron, weight)=(0, 3.75501044779062709278e-01) (1, 8.40936111037483141617e-02) (2, -2.22463278348693678510e-02) (3, 6.38268919412841723160e-02) (4, 1.19602348071788794348e-01) (5, -1.83248531108376866428e+00) (6, 5.16266394390674898673e-01) (7, 1.13112698487651999746e-01) (8, 6.54210103219799027352e-02) (9, 1.48283814927597113603e-03) (10, 1.97518478066502634061e-01) (11, -2.87098593377471469901e-02) (0, -2.30870807633523256186e+01) (1, -2.66070847580692042278e-02) (2, 5.64279060861858257347e-03) (3, -1.04794785119082620173e-01) (4, -7.46756826708575710549e-02) (5, 2.23018719563762646274e+00) (6, 6.35144881059934496292e-01) (7, 7.26878707759419651069e-01) (8, 1.85700365231657088527e-01) (9, 3.01120617672702206580e-01) (10, 1.56818631624432686111e-01) (11, -8.28910387893714434293e-02) (0, -1.67403063296682752537e-01) (1, 1.22408324116309571994e-01) (2, 7.78805550275644270508e-02) (3, -5.34862566651501808446e-02) (4, 5.45687165199121582138e-02) (5, 1.74138386339558270954e+00) (6, 1.94572281551926490328e-01) (7, 1.98560344162619639707e-01) (8, 2.57526514260463856854e-01) (9, 1.76290934690198325407e-01) (10, -2.74210812988438593085e-02) (11, -8.18555663161271533645e-03) (0, 2.63298834576930373963e-01) (1, -6.98609792513337490849e-02) (2, -1.19596415085282663932e-02) (3, -8.03173028749910034030e-02) (4, -2.91164883298363971753e-02) (5, -2.92777126569230539133e+00) (6, 3.79423561123875430212e-01) (7, 2.02187343413545300708e-01) (8, 2.65425599869866690739e-01) (9, 1.54193407516112573896e-01) (10, 2.22355848846988751744e-01) (11, -2.55213800223729914141e-01) (0, 2.77692942939636200350e-01) (1, -3.51747122170931597607e-02) (2, 8.57469144699566643286e-02) (3, 2.87642407653325299366e-02) (4, 1.48751765811204333945e-01) (5, -2.57539268933638565429e+00) (6, 5.18150150136334031181e-01) (7, 5.40332664112997185235e-01) (8, 2.04495645082598043185e-01) (9, 3.40574433459903749832e-02) (10, 1.82031789598082444082e-01) (11, -2.15379919815689102602e-01) (0, 2.67835355799042940106e-01) (1, 1.01758613376264683836e-01) (2, -3.23970251396845515535e-02) (3, 9.69065272653592268970e-03) (4, 6.22278443857480351165e-02) (5, -2.49130087420132495524e+00) (6, 7.58452207352893759129e-01) (7, 5.55662605788075136815e-01) (8, 3.28277041679672088037e-02) (9, -3.39419345007274664283e-02) (10, -5.93663291662642651769e-03) (11, -1.72609494152102570588e-03) (0, 3.26751528003238755904e-01) (1, 7.10240594431210819915e-02) (2, 1.30632578520422121260e-01) (3, -1.15057610586832680805e-02) (4, 5.59669501467992130950e-02) (5, -1.15554205301155121788e+00) (6, 1.63822673335384999538e-01) (7, -7.19706653134355223145e-01) (8, -1.57004298514493462191e-01) (9, 1.41376254724506433824e-01) (10, -9.25302864691848192535e-01) (11, 2.89074610653865179954e-02) (0, 6.97093004052685216720e+00) (1, 7.03255481433160190008e-01) (2, 5.65756949942596065739e-01) (3, 6.57195232223756309331e-01) (4, 5.76574585747010814885e-01) (5, 7.85794910599262408368e+00) (6, 7.58082998955849696188e+00) (7, 9.25562718740176870735e-02) (8, 6.71190704513109581697e-01) (9, 4.53429081365774244716e+00) (10, -3.46005295684492897301e-01) (11, -1.45619338606684256554e+00) (0, -5.01741569944522791680e-01) (1, 1.84033367293793582997e-02) (2, 5.09214433607644081925e-03) (3, -7.67408047360461365027e-02) (4, 2.37230661767441584897e-02) (5, 1.75351731506514041392e+00) (6, 5.25115005463717907097e-02) (7, 2.30144032166624074032e-01) (8, 1.13788142370614478449e-01) (9, 6.29303144970580763395e-02) (10, -1.76429121289833068520e-01) (11, 9.35377641505718698811e-02) (0, -1.22938826267962362238e+01) (1, -7.61750505456470772270e-02) (2, 3.37198584189868436067e-02) (3, -7.46838540920757576469e-02) (4, -9.34056357631229683403e-02) (5, 1.52031964887591386493e+00) (6, 1.81015853272260107687e-01) (7, 6.12983115774632034145e-02) (8, 7.92916909617424753298e-02) (9, 1.36034707045645658630e-01) (10, -6.56872124761214010169e-02) (11, -2.92959786985451872687e-02) (12, -2.57327442582062915211e-01) (13, 6.16561111312073917290e-01) (14, 5.83165186522096923305e-01) (15, -3.33254704451397709697e-01) (16, -1.68900014906829432082e-01) (17, -1.24433081208541643226e-01) (18, -1.44592652886696926284e-01) (19, 1.03969624526354520455e+00) (20, 4.43228127856699127829e-01) (21, 8.50574296669919571734e-01) (22, 5.34116334654378133173e-01) 
