FANN_FLO_2.1
num_layers=3
learning_rate=0.700000
connection_rate=1.000000
network_type=0
learning_momentum=0.000000
training_algorithm=2
train_error_function=1
train_stop_function=1
cascade_output_change_fraction=0.010000
quickprop_decay=-0.000100
quickprop_mu=1.750000
rprop_increase_factor=1.200000
rprop_decrease_factor=0.500000
rprop_delta_min=0.000000
rprop_delta_max=50.000000
rprop_delta_zero=0.100000
cascade_output_stagnation_epochs=12
cascade_candidate_change_fraction=0.010000
cascade_candidate_stagnation_epochs=12
cascade_max_out_epochs=150
cascade_min_out_epochs=50
cascade_max_cand_epochs=150
cascade_min_cand_epochs=50
cascade_num_candidate_groups=2
bit_fail_limit=1.00000000000000005551e-01
cascade_candidate_limit=1.00000000000000000000e+03
cascade_weight_multiplier=4.00000000000000022204e-01
cascade_activation_functions_count=10
cascade_activation_functions=3 5 7 8 10 11 14 15 16 17 
cascade_activation_steepnesses_count=4
cascade_activation_steepnesses=2.50000000000000000000e-01 5.00000000000000000000e-01 7.50000000000000000000e-01 1.00000000000000000000e+00 
layer_sizes=14 11 2 
scale_included=0
neurons (num_inputs, activation_function, activation_steepness)=(0, 0, 0.00000000000000000000e+00) (0, 0, 0.00000000000000000000e+00) (0, 0, 0.00000000000000000000e+00) (0, 0, 0.00000000000000000000e+00) (0, 0, 0.00000000000000000000e+00) (0, 0, 0.00000000000000000000e+00) (0, 0, 0.00000000000000000000e+00) (0, 0, 0.00000000000000000000e+00) (0, 0, 0.00000000000000000000e+00) (0, 0, 0.00000000000000000000e+00) (0, 0, 0.00000000000000000000e+00) (0, 0, 0.00000000000000000000e+00) (0, 0, 0.00000000000000000000e+00) (0, 0, 0.00000000000000000000e+00) (14, 6, 5.00000000000000000000e-01) (14, 6, 5.00000000000000000000e-01) (14, 6, 5.00000000000000000000e-01) (14, 6, 5.00000000000000000000e-01) (14, 6, 5.00000000000000000000e-01) (14, 6, 5.00000000000000000000e-01) (14, 6, 5.00000000000000000000e-01) (14, 6, 5.00000000000000000000e-01) (14, 6, 5.00000000000000000000e-01) (14, 6, 5.00000000000000000000e-01) (0, 6, 0.00000000000000000000e+00) (11, 6, 5.00000000000000000000e-01) (0, 6, 0.00000000000000000000e+00) 
connections (connected_to_neuron, weight)=(0, 1.78478066202549783270e+01) (1, 1.04632907791198506708e-01) (2, 1.23829101456464502062e-01) (3, 2.30726176185668568897e-01) (4, 2.00839438719810109424e-01) (5, -3.05275955756797134910e+00) (6, 1.63297734873544904133e+01) (7, -3.55699330589726234186e-02) (8, -1.05930847977732156551e+00) (9, -3.01204662527916194881e-02) (10, 3.44767146117785805437e-01) (11, 5.44801368090040427639e-02) (12, 6.73571232058630231521e-01) (13, 1.01190870104881883162e-01) (0, 1.21312606068777317780e+00) (1, 1.26357703753212935460e+00) (2, 1.15254231267074613854e+00) (3, 1.25156375117997176183e+00) (4, 1.20010286666850096715e+00) (5, 5.71780252385184439845e+00) (6, 4.20074830923850583986e+00) (7, 3.24697808893544204167e+00) (8, 4.46200390680625336159e+00) (9, 3.36475373800841603966e+00) (10, 3.35624368000503547904e+00) (11, 3.65997932938321346441e+00) (12, 1.07153638783616100838e+00) (13, -1.09860610480275955325e+00) (0, -1.55606568477395534877e+00) (1, -1.68636478300257866558e-02) (2, -1.93422920818491980710e-02) (3, -2.05038077945872351804e-02) (4, -1.73950370382802144142e-01) (5, 6.71859222975049741322e-01) (6, -3.19024497164276998884e-01) (7, -1.51571411013594337103e-01) (8, -8.61699841111567554908e-02) (9, -1.82950583187444781874e-01) (10, -5.46622297118690259055e-01) (11, -2.74497182173758569323e-01) (12, 1.63541121043889431386e-01) (13, 2.39527584852380515112e-01) (0, 1.79471064012794307985e+01) (1, 1.47022039873660720355e-01) (2, 6.20121371579777994065e-02) (3, 1.71007604582370437152e-01) (4, 1.01632681919397102610e-01) (5, -3.61358307278912693761e+00) (6, 1.63247719722044202229e+01) (7, -4.11020636579944934064e-02) (8, -1.07179049705599283016e+00) (9, -3.01490191252870298744e-01) (10, 3.76554869420626991960e-01) (11, 2.39190092029862785838e-02) (12, 6.77926364638433698317e-01) (13, 1.21518941881520500803e-01) (0, 4.23155308766231197382e-01) (1, -1.40519969317364712413e-01) (2, -3.36567910045862395130e-02) (3, -4.93679955904484987078e-03) (4, 1.82688383727788727917e-02) (5, -4.51047581000044317534e+00) (6, -4.32848862979158877096e+00) (7, 3.16458537883975821181e-01) (8, 3.55163807254596897156e-01) (9, 2.86483286917126434012e-01) (10, -2.80266514866983840193e+00) (11, 3.46144754533652287964e-01) (12, -2.57440456074883927684e+00) (13, -3.16493568167551475590e-01) (0, 1.77784581508784107484e+01) (1, 6.63734474178017813673e-02) (2, 1.10112624704426675937e-01) (3, 2.48693446158951586566e-01) (4, 1.51675852477139327945e-01) (5, -2.67195463537545485622e+00) (6, 1.63762534463953706165e+01) (7, 3.53017981591308149802e-02) (8, -1.09761229460571740901e+00) (9, 4.57282266646354962347e-02) (10, 6.65990485128513109991e-01) (11, 7.80375513393992970013e-02) (12, 6.65337300232019202006e-01) (13, -1.03260867917828305651e-01) (0, 4.03493661613881671180e-01) (1, -1.72457501444268190838e-01) (2, -1.47715956124711000896e-01) (3, -2.71836371750116545520e-02) (4, -1.39883808943676968273e-01) (5, -4.93981880958039898388e+00) (6, -4.33772723052248387887e+00) (7, 3.35256197008215295341e-01) (8, 5.54766660382725929068e-01) (9, 2.76394999623215453788e-01) (10, -2.76985794137536522896e+00) (11, 3.26413396839980107789e-01) (12, -2.51807418537547578197e+00) (13, -1.76260178134306416675e-01) (0, -6.91553000708667875429e-01) (1, -4.37440753886555733221e-02) (2, 5.73352417255887630149e-03) (3, 2.48232378652239529804e-02) (4, -3.19852338144635192640e-02) (5, 1.96399414528228599686e+00) (6, 4.89710463784933036635e+00) (7, -3.00936070266507704751e-01) (8, -1.26002322837688446322e-01) (9, -2.84643893030985029036e-01) (10, 8.02714133431468024327e-01) (11, -1.70063197851550162998e-01) (12, 1.79719371805015848409e-01) (13, 2.30350644693109368744e-01) (0, -1.77279188815172332738e+01) (1, -6.45190713480000149760e-02) (2, -9.95846999361996582101e-02) (3, -1.43616081543255280639e-01) (4, -6.38829109743122708354e-02) (5, 1.13395759262856232752e+00) (6, 1.02477474242802202298e+00) (7, 3.97905298934634540919e-02) (8, 1.12057877200748734481e+00) (9, 7.09430138034806700986e-02) (10, 1.68674731772209152147e-01) (11, 4.49336395850508454886e-02) (12, -1.52696838666062317813e-01) (13, 2.04925776454027042117e-01) (0, 4.47335378332004318658e-01) (1, -1.41172684881138821300e-01) (2, -1.66794063181161800191e-02) (3, -8.46538023680925288961e-02) (4, -2.78369189829111296497e-02) (5, -4.51418349695777720854e+00) (6, -4.38145117882236867501e+00) (7, 3.81035209151827203300e-01) (8, 6.31744080980994437979e-01) (9, 2.85347475707447784110e-01) (10, -3.52313722793561545643e+00) (11, 1.63326088433150329315e-01) (12, 1.45764760843116314426e+00) (13, -2.76146208093031364506e-01) (14, -4.38546729443703153795e-02) (15, 1.13114603744401720498e+00) (16, 7.27940891393512812257e-01) (17, -7.44092817544008133801e-02) (18, -1.67599427162410913317e-01) (19, -8.61503089903856295040e-02) (20, -2.12874189887965692414e-01) (21, 6.40385776306369391975e-01) (22, 1.01187898605548176612e+00) (23, -2.48990074587379567328e-01) (24, 5.27718314132777033265e-01) 
