FANN_FLO_2.1
num_layers=3
learning_rate=0.700000
connection_rate=1.000000
network_type=0
learning_momentum=0.000000
training_algorithm=2
train_error_function=1
train_stop_function=1
cascade_output_change_fraction=0.010000
quickprop_decay=-0.000100
quickprop_mu=1.750000
rprop_increase_factor=1.200000
rprop_decrease_factor=0.500000
rprop_delta_min=0.000000
rprop_delta_max=50.000000
rprop_delta_zero=0.100000
cascade_output_stagnation_epochs=12
cascade_candidate_change_fraction=0.010000
cascade_candidate_stagnation_epochs=12
cascade_max_out_epochs=150
cascade_min_out_epochs=50
cascade_max_cand_epochs=150
cascade_min_cand_epochs=50
cascade_num_candidate_groups=2
bit_fail_limit=1.00000000000000005551e-01
cascade_candidate_limit=1.00000000000000000000e+03
cascade_weight_multiplier=4.00000000000000022204e-01
cascade_activation_functions_count=10
cascade_activation_functions=3 5 7 8 10 11 14 15 16 17 
cascade_activation_steepnesses_count=4
cascade_activation_steepnesses=2.50000000000000000000e-01 5.00000000000000000000e-01 7.50000000000000000000e-01 1.00000000000000000000e+00 
layer_sizes=14 11 2 
scale_included=0
neurons (num_inputs, activation_function, activation_steepness)=(0, 0, 0.00000000000000000000e+00) (0, 0, 0.00000000000000000000e+00) (0, 0, 0.00000000000000000000e+00) (0, 0, 0.00000000000000000000e+00) (0, 0, 0.00000000000000000000e+00) (0, 0, 0.00000000000000000000e+00) (0, 0, 0.00000000000000000000e+00) (0, 0, 0.00000000000000000000e+00) (0, 0, 0.00000000000000000000e+00) (0, 0, 0.00000000000000000000e+00) (0, 0, 0.00000000000000000000e+00) (0, 0, 0.00000000000000000000e+00) (0, 0, 0.00000000000000000000e+00) (0, 0, 0.00000000000000000000e+00) (14, 6, 5.00000000000000000000e-01) (14, 6, 5.00000000000000000000e-01) (14, 6, 5.00000000000000000000e-01) (14, 6, 5.00000000000000000000e-01) (14, 6, 5.00000000000000000000e-01) (14, 6, 5.00000000000000000000e-01) (14, 6, 5.00000000000000000000e-01) (14, 6, 5.00000000000000000000e-01) (14, 6, 5.00000000000000000000e-01) (14, 6, 5.00000000000000000000e-01) (0, 6, 0.00000000000000000000e+00) (11, 6, 5.00000000000000000000e-01) (0, 6, 0.00000000000000000000e+00) 
connections (connected_to_neuron, weight)=(0, -1.72828865773597435407e+01) (1, 1.30365481558418240537e-02) (2, -8.84080799338245598706e-02) (3, -8.55048839420319110871e-03) (4, -5.86476409849548477315e-02) (5, 1.15000941400984912910e+00) (6, 9.03670529894235685653e-01) (7, 9.46923929982082079881e-01) (8, 1.23093060820889799167e+00) (9, 1.04951546746020185630e+00) (10, 3.75592973793332618460e-01) (11, 9.54567174639922133572e-01) (12, 1.47631587838511435518e-01) (13, -6.61044928694098921085e-02) (0, 9.11306609011227286565e-01) (1, 2.65672487500896614687e-01) (2, 1.73209955278625704622e-01) (3, 2.13277471545925301211e-01) (4, 2.58978289846172493593e-01) (5, 6.61930593490229401965e+00) (6, 7.30093930513155253692e+00) (7, -3.34855926123803882000e-01) (8, -2.05253505646773914961e-01) (9, 2.23846415749612254187e-01) (10, 9.33636211692420303621e+00) (11, -2.45685369631250399847e-01) (12, 2.15197153055745760142e+00) (13, -1.62801507660864569482e-01) (0, 2.02072399843565904121e+01) (1, 1.47904400921485046361e+00) (2, 1.41674746966979103746e+00) (3, 1.50266263282916168187e+00) (4, 1.42383996791264633153e+00) (5, 6.58044494880050923058e+00) (6, 7.26213643551361354156e+00) (7, 1.11834606784613388442e+00) (8, 2.23261104649080266427e+00) (9, 6.62373948513313548503e-01) (10, 9.78057924506140174969e+00) (11, 1.84577340926647970321e+00) (12, 2.35214959869745676713e+00) (13, -7.42409129532689782138e-01) (0, 1.27054445226300849470e+00) (1, 2.95428199142930947296e-01) (2, 3.72723256618497811310e-01) (3, 3.64837904841421090119e-01) (4, 2.51516723454711932373e-01) (5, -3.98298917191224699508e+00) (6, 4.57609781064946041784e-01) (7, 5.66062317396990519192e-02) (8, -7.26251840718448393730e-01) (9, 1.67788702220486474204e-01) (10, 3.00301342460978892834e-01) (11, 6.41601912392848056088e-02) (12, 2.21822723453326625664e-01) (13, 5.67876835720780182015e-01) (0, -4.16514113134920815895e+00) (1, -3.04443653355324188314e-02) (2, 1.51728276480948987698e-02) (3, -3.57902239690506343561e-02) (4, -6.25146966109955404267e-02) (5, 1.29807631617946217517e+00) (6, 5.32772801265423590067e-01) (7, -1.76272438743402759531e-01) (8, -3.06492372472951524198e-01) (9, -1.45958807001092705224e-01) (10, 3.04863980876086126948e-01) (11, -1.78340902463468536920e-01) (12, 1.48944036779780075719e-01) (13, -1.64271308662714443649e-01) (0, 2.69908510233329188566e+01) (1, 2.02175849175924154943e-01) (2, 2.78728799021714990225e-01) (3, 1.17741369700902709372e-01) (4, 2.89576144016259973135e-01) (5, -2.06998723207704582450e+00) (6, -4.22660632504723032810e+00) (7, -1.32444985365428302693e+00) (8, -3.26857829061508553536e+00) (9, -2.08737678291105721584e+00) (10, -8.77443715425037518152e-01) (11, -2.19090992880353985228e+00) (12, 1.82569110533237516369e-01) (13, 3.55708159214082331179e-01) (0, 1.20266586431268773794e+00) (1, 2.45089494926426759713e-01) (2, 2.38631298137400443826e-01) (3, 1.89718650025818641458e-01) (4, 3.59275319916699253930e-01) (5, -3.02362247314822507605e+00) (6, 9.37670988577750996740e-01) (7, -1.15902946329233078049e-01) (8, -1.26071356507584803053e-01) (9, 1.50724041518608825596e-01) (10, 5.15398824571894564883e-01) (11, -4.57711046299612914212e-02) (12, 1.34970370700991243451e-01) (13, 4.08564632259546881010e-02) (0, 2.71386525492237460355e+01) (1, 1.56124016635464352154e-01) (2, 2.30303766571329865398e-01) (3, 1.14585461460398246869e-01) (4, 2.47847164415167409146e-01) (5, -2.33306911067397582116e+00) (6, -4.18836193726089511813e+00) (7, -8.07878723389352182416e-01) (8, -3.40769090471029656442e+00) (9, -1.93537727953695659622e+00) (10, -7.52727396281265170863e-01) (11, -2.07108174932489452758e+00) (12, 2.16267920930108853428e-01) (13, 8.21548058706893180592e-01) (0, 1.42053754331665582633e+00) (1, 1.34064649949917374938e-01) (2, 2.85168489228138311020e-01) (3, 1.17437882135757912239e-01) (4, 1.90069211433777335296e-01) (5, -2.85243370030585818853e+00) (6, -7.14250543764739065367e-01) (7, 6.15670568309879540081e-02) (8, 9.32434941360555519241e-02) (9, 3.74084623770111923680e-01) (10, -4.16358418183847112104e-01) (11, 2.44196176333003084347e-01) (12, 2.94736299295469073023e-01) (13, -3.16665530835827935263e-02) (0, 1.56330711874206373935e+00) (1, 2.92060500967446567966e-01) (2, 3.17183843839112522556e-01) (3, 3.14209601867142918064e-01) (4, 1.38813353168908470980e-01) (5, 6.65955069303141389270e+00) (6, 7.34296206981432231231e+00) (7, 6.18307912989938035508e-01) (8, 1.22436634279016964832e+00) (9, 2.93348314402293863790e-01) (10, 9.21290060966340540460e+00) (11, 3.66890593049978119833e-01) (12, 2.23981205040294240050e+00) (13, -2.97064941176890251473e-01) (14, 6.96601803387115969812e-01) (15, 6.62094451137207218316e-01) (16, 5.58763475816069887792e-01) (17, -2.80628670626235809937e-01) (18, 6.96474225392037515903e-01) (19, -1.92194753917039357072e-01) (20, -2.38350445274802869022e-01) (21, -2.80893344056329818947e-01) (22, -9.07167683727474055688e-02) (23, 5.04797671989616225652e-01) (24, 8.08214078710156380581e-01) 
