FANN_FLO_2.1
num_layers=3
learning_rate=0.700000
connection_rate=1.000000
network_type=0
learning_momentum=0.000000
training_algorithm=2
train_error_function=1
train_stop_function=1
cascade_output_change_fraction=0.010000
quickprop_decay=-0.000100
quickprop_mu=1.750000
rprop_increase_factor=1.200000
rprop_decrease_factor=0.500000
rprop_delta_min=0.000000
rprop_delta_max=50.000000
rprop_delta_zero=0.100000
cascade_output_stagnation_epochs=12
cascade_candidate_change_fraction=0.010000
cascade_candidate_stagnation_epochs=12
cascade_max_out_epochs=150
cascade_min_out_epochs=50
cascade_max_cand_epochs=150
cascade_min_cand_epochs=50
cascade_num_candidate_groups=2
bit_fail_limit=1.00000000000000005551e-01
cascade_candidate_limit=1.00000000000000000000e+03
cascade_weight_multiplier=4.00000000000000022204e-01
cascade_activation_functions_count=10
cascade_activation_functions=3 5 7 8 10 11 14 15 16 17 
cascade_activation_steepnesses_count=4
cascade_activation_steepnesses=2.50000000000000000000e-01 5.00000000000000000000e-01 7.50000000000000000000e-01 1.00000000000000000000e+00 
layer_sizes=14 11 2 
scale_included=0
neurons (num_inputs, activation_function, activation_steepness)=(0, 0, 0.00000000000000000000e+00) (0, 0, 0.00000000000000000000e+00) (0, 0, 0.00000000000000000000e+00) (0, 0, 0.00000000000000000000e+00) (0, 0, 0.00000000000000000000e+00) (0, 0, 0.00000000000000000000e+00) (0, 0, 0.00000000000000000000e+00) (0, 0, 0.00000000000000000000e+00) (0, 0, 0.00000000000000000000e+00) (0, 0, 0.00000000000000000000e+00) (0, 0, 0.00000000000000000000e+00) (0, 0, 0.00000000000000000000e+00) (0, 0, 0.00000000000000000000e+00) (0, 0, 0.00000000000000000000e+00) (14, 6, 5.00000000000000000000e-01) (14, 6, 5.00000000000000000000e-01) (14, 6, 5.00000000000000000000e-01) (14, 6, 5.00000000000000000000e-01) (14, 6, 5.00000000000000000000e-01) (14, 6, 5.00000000000000000000e-01) (14, 6, 5.00000000000000000000e-01) (14, 6, 5.00000000000000000000e-01) (14, 6, 5.00000000000000000000e-01) (14, 6, 5.00000000000000000000e-01) (0, 6, 0.00000000000000000000e+00) (11, 6, 5.00000000000000000000e-01) (0, 6, 0.00000000000000000000e+00) 
connections (connected_to_neuron, weight)=(0, -5.66847098137959859443e-01) (1, -1.13577111974079852930e-01) (2, -1.72304584994633497308e-01) (3, -1.93019568338711561273e-01) (4, -1.86948991730530561517e-01) (5, 1.08066892451682905474e+00) (6, -1.86960961094845790065e+00) (7, 1.55924273318346712225e-01) (8, -1.44970852578792830379e-01) (9, -1.62226250247919340230e-01) (10, -3.13771861727186907043e-01) (11, -2.58535503551754648754e-02) (12, -7.13002861608070526156e-02) (13, 2.31212374229724293428e-01) (0, 2.32215939571218576987e+00) (1, -5.28026891019487298884e-01) (2, -5.27592201795720971980e-01) (3, -4.53066510226869390010e-01) (4, -4.96725005176210099300e-01) (5, -1.25160327394224015762e+01) (6, -4.71268899861403678386e+00) (7, 5.05369727695360926312e-01) (8, 7.15863640610473361825e-01) (9, 4.31947686145316200879e-01) (10, -4.69545686342695223203e+00) (11, 5.88482276573046858559e-01) (12, -4.51121302097892529215e-01) (13, 1.18752424745260398709e+00) (0, -3.08856229843793883560e+01) (1, -9.07422275677405298921e-02) (2, -2.17667733265467872039e-01) (3, -1.52131532265254248992e-01) (4, -9.32292313709937037203e-02) (5, 2.80213180767763692103e+00) (6, 4.34185005150085956416e+00) (7, 1.66333275614368480966e+00) (8, 4.01382923840715921671e+00) (9, 4.28227062578996342523e+00) (10, 1.88609760170996199058e+00) (11, 2.59700429992039305560e+00) (12, 2.26570900747208892057e+00) (13, -1.40795977251908333017e+00) (0, 2.10075269403783089217e+01) (1, 2.12693958201702337796e-01) (2, 2.30313731947239141995e-01) (3, 2.64022661962803217861e-01) (4, 3.10426002958114954922e-01) (5, -3.77129338702275429540e+00) (6, -1.02258753703151117342e+00) (7, -3.33386292864439592876e+00) (8, -2.61933064786902436438e+00) (9, -4.72325988963887688499e+00) (10, -1.87342359842961769800e+00) (11, -1.65529305369405044246e+00) (12, -2.85960431378990209694e+00) (13, 1.78522575600894128911e+00) (0, -1.44165434664756564320e-01) (1, -4.92767989287365149043e-02) (2, -1.09475389088152727513e-01) (3, -1.24145224655627120502e-01) (4, -8.99469926605213770943e-02) (5, 8.21775621073949191775e-01) (6, 6.86429991029618769005e-01) (7, -1.37299490491572889761e-01) (8, -1.37672550920371172811e-01) (9, -1.15872070348236586024e-01) (10, -2.57631938095041979064e-01) (11, -1.21583887704399498664e-01) (12, -8.99300609600930112020e-02) (13, 4.03891132943459185700e-01) (0, -6.22515722049170321384e+01) (1, -2.11948835908021937513e+00) (2, -2.12759381590928997596e+00) (3, -2.02803794352855648597e+00) (4, -2.07043971924629177650e+00) (5, -2.57700348967248604737e+00) (6, -4.11339846335733216875e+00) (7, -7.35182687134198964429e+00) (8, -9.76643768835477743551e+00) (9, 1.84123210459739672373e-01) (10, -4.69992241376167552147e+00) (11, -6.37637456186003070968e+00) (12, 1.47141737347154605287e-01) (13, 4.30252945214536541840e+00) (0, -2.58266717916995791615e-01) (1, -1.12834297662998059297e-02) (2, -1.28888903612496996676e-01) (3, -5.07500716096187520776e-02) (4, -9.30696823245311943840e-02) (5, 8.27628759937989566531e-01) (6, 7.04885749720452814415e-01) (7, -5.48027668049039656806e-02) (8, -4.42806450748727958855e-02) (9, -1.44206963839172169761e-01) (10, -1.93637361878893320133e-02) (11, -2.54704003550795032851e-01) (12, -1.76774292343594791044e-01) (13, 3.25140496669074074987e-01) (0, 2.57545391804076029274e+00) (1, -4.53850900830552017595e-01) (2, -4.22341993154809025590e-01) (3, -3.30534068943783898575e-01) (4, -3.77820661367699650590e-01) (5, -1.32205386904646249313e+00) (6, -4.87861164344236986068e+00) (7, 5.49468906562716852271e-01) (8, 1.37763651873849257701e-01) (9, 2.62986382121623840646e-01) (10, -3.99352642764728837932e+00) (11, 1.70719917776407069387e-02) (12, -9.23828035732660701740e-01) (13, 1.26026430918031651096e+00) (0, 2.10326797838238483962e+01) (1, 1.61818232915650977999e-01) (2, 2.11893637261640205294e-01) (3, 2.26026762805234565645e-01) (4, 3.17681160352479674547e-01) (5, -3.84371761253192101293e+00) (6, -7.74784439887460818497e-01) (7, -1.95065089206620001505e+00) (8, -2.78598315914445748831e+00) (9, -4.71050232008740898948e+00) (10, -2.07960482346699659928e+00) (11, -2.90462861265016325518e+00) (12, -2.02896010207596733110e+00) (13, 1.92022314621957002068e+00) (0, -1.27775251510943321787e-01) (1, -6.46347424456295005513e-02) (2, -9.53896737167057306994e-02) (3, -1.15011362589281462832e-01) (4, -3.27345004746135842533e-02) (5, 6.91615311655104481048e-01) (6, -7.29412261067286848970e-01) (7, -1.62816147123784088491e-01) (8, -1.31517577860478518392e-01) (9, -1.41854673778984613497e-01) (10, -1.35147779562449138480e-01) (11, -1.69313961037186044845e-01) (12, -5.30205439389194038702e-02) (13, 4.23343824021645220856e-01) (14, 3.37802329786779431675e-01) (15, -3.20220044219379385009e-01) (16, 9.86343611629956651399e-01) (17, -3.10390923614678182485e-02) (18, 7.12604707486360622326e-01) (19, -3.90079902534736455699e-01) (20, 6.82901988871235432477e-01) (21, -3.44754484611658862381e-01) (22, -1.58194476945696139991e-02) (23, 7.01249817468303282553e-01) (24, 1.16818671553714237277e+00) 
