FANN_FLO_2.1
num_layers=3
learning_rate=0.700000
connection_rate=1.000000
network_type=0
learning_momentum=0.000000
training_algorithm=2
train_error_function=1
train_stop_function=1
cascade_output_change_fraction=0.010000
quickprop_decay=-0.000100
quickprop_mu=1.750000
rprop_increase_factor=1.200000
rprop_decrease_factor=0.500000
rprop_delta_min=0.000000
rprop_delta_max=50.000000
rprop_delta_zero=0.100000
cascade_output_stagnation_epochs=12
cascade_candidate_change_fraction=0.010000
cascade_candidate_stagnation_epochs=12
cascade_max_out_epochs=150
cascade_min_out_epochs=50
cascade_max_cand_epochs=150
cascade_min_cand_epochs=50
cascade_num_candidate_groups=2
bit_fail_limit=1.00000000000000005551e-01
cascade_candidate_limit=1.00000000000000000000e+03
cascade_weight_multiplier=4.00000000000000022204e-01
cascade_activation_functions_count=10
cascade_activation_functions=3 5 7 8 10 11 14 15 16 17 
cascade_activation_steepnesses_count=4
cascade_activation_steepnesses=2.50000000000000000000e-01 5.00000000000000000000e-01 7.50000000000000000000e-01 1.00000000000000000000e+00 
layer_sizes=19 11 2 
scale_included=0
neurons (num_inputs, activation_function, activation_steepness)=(0, 0, 0.00000000000000000000e+00) (0, 0, 0.00000000000000000000e+00) (0, 0, 0.00000000000000000000e+00) (0, 0, 0.00000000000000000000e+00) (0, 0, 0.00000000000000000000e+00) (0, 0, 0.00000000000000000000e+00) (0, 0, 0.00000000000000000000e+00) (0, 0, 0.00000000000000000000e+00) (0, 0, 0.00000000000000000000e+00) (0, 0, 0.00000000000000000000e+00) (0, 0, 0.00000000000000000000e+00) (0, 0, 0.00000000000000000000e+00) (0, 0, 0.00000000000000000000e+00) (0, 0, 0.00000000000000000000e+00) (0, 0, 0.00000000000000000000e+00) (0, 0, 0.00000000000000000000e+00) (0, 0, 0.00000000000000000000e+00) (0, 0, 0.00000000000000000000e+00) (0, 0, 0.00000000000000000000e+00) (19, 6, 5.00000000000000000000e-01) (19, 6, 5.00000000000000000000e-01) (19, 6, 5.00000000000000000000e-01) (19, 6, 5.00000000000000000000e-01) (19, 6, 5.00000000000000000000e-01) (19, 6, 5.00000000000000000000e-01) (19, 6, 5.00000000000000000000e-01) (19, 6, 5.00000000000000000000e-01) (19, 6, 5.00000000000000000000e-01) (19, 6, 5.00000000000000000000e-01) (0, 6, 0.00000000000000000000e+00) (11, 6, 5.00000000000000000000e-01) (0, 6, 0.00000000000000000000e+00) 
connections (connected_to_neuron, weight)=(0, -3.16128260975759634022e-01) (1, 1.11843338740007847143e-01) (2, 4.85998713792728728733e-02) (3, 2.01195156705515271200e-01) (4, 9.35848341704773600824e-02) (5, -9.03072131493067586927e-02) (6, 1.08950212023664713690e-01) (7, 1.35543905204906067752e+00) (8, -1.62312323462973952248e-02) (9, -6.12473852124083784076e-01) (10, -1.81503581699951510586e-01) (11, -2.44615787861145239646e-01) (12, -1.39118209601008041565e-01) (13, -3.01195753535939414469e-01) (14, -2.07030269880309203412e-01) (15, -3.19562941384266496758e-01) (16, 8.24322086410941706758e-02) (17, 1.75023117021167307072e+00) (18, -1.26235764517721432004e-02) (0, 4.27816483937887213074e+01) (1, 2.14600608276893090043e-01) (2, 2.69831903802920880509e-01) (3, 2.37242565083075895860e-01) (4, 2.39696495759059324815e-01) (5, 9.54532861227567752671e-02) (6, -4.06797045250458566557e-01) (7, -5.57863295023054917010e+00) (8, -3.27167013451733046381e+00) (9, -2.87609479423808789278e+00) (10, -5.58987542077183929834e-01) (11, -3.20348805463401653526e+00) (12, -8.81374345944280657150e-01) (13, -2.59040101069958206281e+00) (14, -2.05207252261330896914e+00) (15, 8.85615510454919041550e-02) (16, -9.11926340942643132159e-01) (17, -5.30271239432914320844e+00) (18, 5.73877114833566626118e-01) (0, 7.47054879745964517390e-01) (1, 6.10729162376956458136e-02) (2, 1.71029031721933233445e-01) (3, 1.32227898089273349091e-01) (4, 1.61603481022699224656e-01) (5, 1.10095919767767922576e-02) (6, 6.63178943264698950166e-02) (7, 3.90065214584359165606e-01) (8, -1.81617053348685830727e-01) (9, -1.30005452198565685240e-01) (10, -6.05185277342584648785e-01) (11, -6.26177799972948562202e-02) (12, -2.15180212011040122855e-01) (13, -1.20100677619686596609e-01) (14, 2.00809865345684984694e-01) (15, 3.42992945722052855473e-01) (16, -2.00812380002541424062e-01) (17, 6.23470224375360526636e+00) (18, -1.67276457622164947958e-01) (0, -7.56598764534099355039e-01) (1, 6.44525356999243181910e-02) (2, -4.86545968929431708362e-04) (3, -8.30112851747667052082e-02) (4, 2.07666822186316005205e-02) (5, -2.99830622831503690318e-02) (6, 1.67176857016493096708e-01) (7, 1.76766940298050023728e+00) (8, -3.23159003069121153473e-01) (9, -2.60479152002124458853e-01) (10, -7.71911249451514847042e-02) (11, -2.31304258291721603902e-01) (12, -1.03390914508114634129e-01) (13, -1.90546839892452024579e-01) (14, -2.73183339503829225592e-01) (15, -8.22509946507946343441e-02) (16, 1.04397356045207705816e-02) (17, 1.34276138591340621353e+00) (18, 6.79618601115441617333e-02) (0, 2.76631036352172117176e+01) (1, 8.73787565014316619516e-02) (2, 2.75358491935487115221e-01) (3, 1.36217494853492021578e-01) (4, 2.66290017761941222307e-01) (5, -1.50130714378844121182e-01) (6, -5.01960355115771750256e-01) (7, -4.06140193622358314229e+00) (8, -9.17061593160638177658e-01) (9, -1.06545735393093865540e+00) (10, -8.00921766255387246325e-01) (11, -8.87685161040471459870e-01) (12, -8.27950172587205379671e-01) (13, -1.18835058489161160544e+00) (14, -8.75720162176723659897e-01) (15, -2.38067524266924984699e-01) (16, -7.80393332825394026031e-01) (17, -5.18649929875103676835e+00) (18, 5.89543438744169923105e-01) (0, -6.40303307128475607257e-01) (1, 1.14719499262223509350e-03) (2, 7.55630650034750245281e-02) (3, 2.67474718800390712237e-02) (4, -1.09664604772010967904e-01) (5, -6.10073134938321284815e-02) (6, 2.78270661256719731291e-01) (7, 1.83459354302335952980e+00) (8, -7.99640668046992797446e-02) (9, -9.60643590476100012188e-02) (10, 1.33272624401973797253e-02) (11, -1.63768977110386265705e-01) (12, -3.27305103651106890639e-02) (13, -1.48413780569748611493e-03) (14, 1.79295377775864767100e-02) (15, -1.32005772116035841046e-01) (16, -8.85931940025587172372e-02) (17, 1.31435969817212661148e+00) (18, -3.04443743440893643815e-02) (0, 5.18844601752147860374e-01) (1, 1.10876071371997161896e-01) (2, 6.80689021134026212012e-02) (3, 1.84235933341944907449e-01) (4, 1.29886473634207966210e-01) (5, 2.05023108676886056667e-01) (6, -1.19488792168091269991e-02) (7, -2.15715850829861599536e+00) (8, -1.44736087677939884166e-01) (9, -5.71041332407042578900e-01) (10, -2.31419185065073085283e-01) (11, -2.01948462043972015723e-01) (12, -1.15986421769980904695e-01) (13, -8.13180045516067040445e-02) (14, 1.07798938447909192773e-01) (15, -1.32470572045940426786e-01) (16, 2.30036003640049446783e-01) (17, -1.53743047473781113688e+00) (18, 3.60012748567623552809e-01) (0, -8.48841791901444153723e-01) (1, -7.22160899726010802047e-02) (2, 5.28572274657629348482e-02) (3, -1.63847968851103483780e-03) (4, 8.45073832484625059314e-02) (5, 5.36997991640847521788e-02) (6, 1.50021902642656551619e-01) (7, 1.82519614784930839235e+00) (8, -8.09719908453790937486e-02) (9, -6.56792775048757326850e-02) (10, -5.59593011169480444855e-02) (11, -9.20464631002202715582e-02) (12, 8.26603369798055778728e-03) (13, -5.16558879714057034294e-02) (14, -5.36771206215186091892e-02) (15, 5.75747404592563266634e-02) (16, -2.03224250261763217384e-01) (17, 1.38965363400748787015e+00) (18, 9.04753226425858703141e-02) (0, 9.21151825871720042471e+00) (1, 1.87240018800564261836e-01) (2, 1.68980396643944236201e-01) (3, 2.46273710683651420039e-01) (4, 1.26045829907723005991e-01) (5, -5.99059656355933167760e-01) (6, -1.63937969390135895864e+00) (7, 4.04312221666627991112e+01) (8, 8.90413995244673461826e-01) (9, 1.11601334113622541189e+00) (10, 8.59566914331812093053e-01) (11, 1.00347791125371155196e+00) (12, 6.29782864446276291481e-01) (13, 9.83030657544365027434e-01) (14, 1.90823851678394995623e+00) (15, -4.29160436904764130972e-01) (16, 2.91154685492559905935e-01) (17, 3.68050522952423619927e+01) (18, 9.45571203307012109196e-02) (0, 2.77863477792396764698e+01) (1, 2.46956609689588185708e-01) (2, 8.45198785299012822492e-02) (3, 8.13633432024667424542e-02) (4, 1.20811798178548659988e-01) (5, -6.05568465481629125691e-01) (6, -5.76942804528117636487e-01) (7, -2.79355186491077089883e+00) (8, -1.36413792998964278347e+00) (9, -1.13784710101665353932e+00) (10, -5.13233753754958388349e-01) (11, -1.50996067551376222937e+00) (12, -4.23175153530128855817e-01) (13, -1.58643318829427193428e+00) (14, -9.10803374135131904588e-01) (15, -1.39218056333747175479e-01) (16, -1.17761623018308192457e+00) (17, -5.39714760458853870517e+00) (18, 5.05983831455649846198e-01) (19, 4.19115177729916910110e-01) (20, -5.54603511299477269780e-01) (21, 3.08403794679280529589e-01) (22, 4.13878082320290219265e-01) (23, -5.33834270371236763175e-01) (24, 3.21801097227417121083e-01) (25, -5.36881378718818358386e-01) (26, 3.03034804733477269867e-01) (27, 1.02732732503480428399e+00) (28, -4.96663793159761446372e-01) (29, 8.89194011827396102454e-01) 
