FANN_FLO_2.1
num_layers=3
learning_rate=0.700000
connection_rate=1.000000
network_type=0
learning_momentum=0.000000
training_algorithm=2
train_error_function=1
train_stop_function=1
cascade_output_change_fraction=0.010000
quickprop_decay=-0.000100
quickprop_mu=1.750000
rprop_increase_factor=1.200000
rprop_decrease_factor=0.500000
rprop_delta_min=0.000000
rprop_delta_max=50.000000
rprop_delta_zero=0.100000
cascade_output_stagnation_epochs=12
cascade_candidate_change_fraction=0.010000
cascade_candidate_stagnation_epochs=12
cascade_max_out_epochs=150
cascade_min_out_epochs=50
cascade_max_cand_epochs=150
cascade_min_cand_epochs=50
cascade_num_candidate_groups=2
bit_fail_limit=1.00000000000000005551e-01
cascade_candidate_limit=1.00000000000000000000e+03
cascade_weight_multiplier=4.00000000000000022204e-01
cascade_activation_functions_count=10
cascade_activation_functions=3 5 7 8 10 11 14 15 16 17 
cascade_activation_steepnesses_count=4
cascade_activation_steepnesses=2.50000000000000000000e-01 5.00000000000000000000e-01 7.50000000000000000000e-01 1.00000000000000000000e+00 
layer_sizes=19 11 2 
scale_included=0
neurons (num_inputs, activation_function, activation_steepness)=(0, 0, 0.00000000000000000000e+00) (0, 0, 0.00000000000000000000e+00) (0, 0, 0.00000000000000000000e+00) (0, 0, 0.00000000000000000000e+00) (0, 0, 0.00000000000000000000e+00) (0, 0, 0.00000000000000000000e+00) (0, 0, 0.00000000000000000000e+00) (0, 0, 0.00000000000000000000e+00) (0, 0, 0.00000000000000000000e+00) (0, 0, 0.00000000000000000000e+00) (0, 0, 0.00000000000000000000e+00) (0, 0, 0.00000000000000000000e+00) (0, 0, 0.00000000000000000000e+00) (0, 0, 0.00000000000000000000e+00) (0, 0, 0.00000000000000000000e+00) (0, 0, 0.00000000000000000000e+00) (0, 0, 0.00000000000000000000e+00) (0, 0, 0.00000000000000000000e+00) (0, 0, 0.00000000000000000000e+00) (19, 6, 5.00000000000000000000e-01) (19, 6, 5.00000000000000000000e-01) (19, 6, 5.00000000000000000000e-01) (19, 6, 5.00000000000000000000e-01) (19, 6, 5.00000000000000000000e-01) (19, 6, 5.00000000000000000000e-01) (19, 6, 5.00000000000000000000e-01) (19, 6, 5.00000000000000000000e-01) (19, 6, 5.00000000000000000000e-01) (19, 6, 5.00000000000000000000e-01) (0, 6, 0.00000000000000000000e+00) (11, 6, 5.00000000000000000000e-01) (0, 6, 0.00000000000000000000e+00) 
connections (connected_to_neuron, weight)=(0, 3.41956763346976444495e+00) (1, 5.85392627312565583253e-01) (2, 5.85565704299832123780e-01) (3, 5.49973230256462941590e-01) (4, 5.10380666150475392762e-01) (5, -1.15518585155160180555e+00) (6, -1.11694874992742687603e+00) (7, 2.40017524589636117582e+01) (8, 2.41149901858834159185e+00) (9, 2.52420335381225369176e+00) (10, 4.66752621410949586345e-01) (11, 2.50565100579456112584e+00) (12, 7.76616906126700090596e-01) (13, 2.00833350732674942307e+00) (14, 1.97881781622519858921e+00) (15, -6.89823764992256505124e-01) (16, 8.49444397035819864783e-01) (17, 4.51331281613421992915e+01) (18, 2.87136151960248053872e-01) (0, -1.59924173146420461888e-01) (1, 3.07361921119532234548e-02) (2, 1.70219517295344818786e-01) (3, 1.34901753609164704040e-01) (4, 1.37782922928317536071e-01) (5, 2.45185583746021007467e-01) (6, 7.06933425640794199651e-01) (7, -4.45715130972922324304e+01) (8, 4.00769561768554660741e-01) (9, 1.28911912131422168315e-01) (10, 1.43549731914981354430e-01) (11, 3.99719576925599506811e-01) (12, 2.03911642687972044508e-01) (13, 1.30703851742402427094e-01) (14, -9.21055775601093557059e-03) (15, 4.03711178081492871872e-01) (16, 2.90074613026201744148e-01) (17, -4.20692842020021284810e+00) (18, 1.56471740256302366268e-01) (0, -1.06316172755481943568e+01) (1, -8.28852044579254376711e-02) (2, -1.10931830641494873213e-02) (3, 5.03908226521145377608e-03) (4, -4.51239781615005303150e-02) (5, 1.50064887482040040800e-02) (6, 9.92505386069656159176e-02) (7, 2.37969144011695288299e+00) (8, 8.74228080156277259638e-02) (9, 2.13063074619456692405e-02) (10, -4.67501729629969872692e-02) (11, 8.28363368541208261453e-02) (12, 4.40597012581397454167e-02) (13, -3.71178799353131805283e-02) (14, 7.06543610295165130930e-02) (15, 2.52572018644422816025e-02) (16, -2.60058382636081830697e-01) (17, 2.50075556869474668886e+00) (18, -2.11555639432857683913e-01) (0, 2.88845000931489126472e+00) (1, 4.61403124609615467033e-01) (2, 4.81492780724193714104e-01) (3, 4.32762794771816394768e-01) (4, 3.85233488509084898155e-01) (5, -6.93436393729378708350e-01) (6, -9.89098656708235046686e-01) (7, 2.39486635257341653471e+01) (8, 2.46963183096913185821e+00) (9, 1.74883597131750234688e+00) (10, 5.56025075791938605541e-01) (11, 1.15606727149058752246e+00) (12, 2.87843011672693105396e-01) (13, 1.93493054264428310240e+00) (14, 1.78536277736677062578e+00) (15, -8.06344020796318394773e-01) (16, 3.40315567094469251241e-01) (17, 4.51933252762866572994e+01) (18, 1.30734683780164839817e-01) (0, 1.39984334453925690633e-01) (1, 2.82580174213571344577e-01) (2, 4.00307863658590112887e-01) (3, 3.45092333561105524264e-01) (4, 2.96254519081039224826e-01) (5, 4.93688341628621518709e-01) (6, 8.10010174457851284124e-01) (7, -9.55918491408613957283e-01) (8, -8.40536524638573867563e-01) (9, -1.81684266918111148037e+00) (10, -3.26819230226094437075e-01) (11, -4.55402915041811240382e-01) (12, 9.66344869037619180752e-03) (13, -1.23242830354011378979e+00) (14, -1.37543464533038939379e+00) (15, 4.64652105733449005687e-01) (16, -3.46037463515408705295e-01) (17, 5.67057764692915000637e+00) (18, -5.92125021764182801753e-01) (0, -4.70891831218537976200e-02) (1, 2.80797397541842110036e-02) (2, 2.10423252527698029235e-01) (3, 1.24746008758529147720e-01) (4, 9.93169909167131992334e-02) (5, 2.34427936291282390524e-01) (6, 7.79121370887490671819e-01) (7, -4.45880103367627143029e+01) (8, 4.40620385349773380224e-01) (9, 2.34674632239454394877e-01) (10, 1.06106988136752566909e-01) (11, 1.06989498855408385336e-01) (12, 2.59287814753706935544e-01) (13, 1.73950031561509482758e-01) (14, -6.35092194052381125990e-02) (15, 3.55711358173574965225e-01) (16, 5.34525037259625634967e-01) (17, -4.20980929149614180318e+00) (18, 1.15901168237678958706e-01) (0, -1.05858923024656519374e+01) (1, -4.19863929717409142817e-03) (2, -9.33587538239227521242e-02) (3, -1.62423780762838004810e-01) (4, -1.70822179519818900806e-01) (5, 6.03894013942409511875e-03) (6, 1.33914010883579764899e-01) (7, 2.18849189902503393768e+00) (8, 2.17522142189318951067e-01) (9, 1.53090167354748840634e-01) (10, -6.33997023008799759358e-02) (11, 1.33648227363878796536e-01) (12, 1.84404473746018537916e-01) (13, 1.72794595350359514452e-01) (14, 1.19142545028937760915e-02) (15, -4.45537772038369708771e-02) (16, -1.25467883700544458048e-01) (17, 2.47472598627963913387e+00) (18, -1.35411167254717301756e-01) (0, 3.87019531745880052132e-01) (1, 3.25804343271097751611e-02) (2, 7.24601549851736914665e-02) (3, 2.03878573124392975524e-01) (4, 1.03868602757438144302e-01) (5, 4.19622262326734329907e-01) (6, 7.15033078467580240911e-01) (7, -4.46158961835563658838e+01) (8, 4.53316681326412174169e-01) (9, 1.11995961190994933188e-01) (10, 1.49531698768123139098e-01) (11, 3.04068382472360065893e-01) (12, 1.21920636999066356321e-01) (13, 1.74485340876237265961e-01) (14, 4.36045740870790940469e-02) (15, 4.36713956969241590134e-01) (16, 6.17720284723559887041e-01) (17, -4.21541104032026137105e+00) (18, 1.29350861935292910099e-01) (0, 3.50959781562275097144e+00) (1, 6.22625220014477620545e-01) (2, 5.68308222486401337648e-01) (3, 4.52360893978501210633e-01) (4, 4.55352272285843739930e-01) (5, -1.02532456777213476506e+00) (6, -1.06531729155206145165e+00) (7, 2.38697088514306337004e+01) (8, 2.34809923432139333599e+00) (9, 1.99485349595299132908e+00) (10, 5.36916407822234820202e-01) (11, 2.41239791523637725490e+00) (12, 4.62327444788848407331e-01) (13, 2.01861684226634174877e+00) (14, 2.01541373335959583812e+00) (15, -7.29313138556976658933e-01) (16, 1.33096969694259281702e+00) (17, 4.52367434304071025508e+01) (18, -2.78033992284836273257e-01) (0, -1.06248360700132593593e+01) (1, -5.80131845709549037737e-02) (2, -6.58493178126083600343e-02) (3, -1.20279385351823447925e-01) (4, -2.98340307709442122130e-02) (5, 2.29188529826710556125e-02) (6, 2.21295757551515259731e-01) (7, 2.27927419121224783538e+00) (8, 1.22565349298293380098e-01) (9, 1.55406558361737417995e-01) (10, -2.12614983223414592828e-02) (11, 2.46135852697512202969e-01) (12, 8.69199149252940506116e-02) (13, 1.94758161892031267381e-01) (14, 9.93259114786399638364e-02) (15, -2.91435625412850909943e-02) (16, -1.54551567619812008081e-01) (17, 2.50155592868891973879e+00) (18, -2.65609646367023610747e-01) (19, 5.59204015702357226658e-01) (20, -2.08004617731098434552e-01) (21, 6.35502429992417572358e-01) (22, 5.01153574619297992321e-01) (23, 1.70194739793899825486e-02) (24, -2.36236048529867431744e-01) (25, 6.17299618512849090912e-01) (26, -1.71898154209379511181e-01) (27, 5.71991154286866310130e-01) (28, 6.51765520066479919770e-01) (29, 5.47387237394206027652e-01) 
