FANN_FLO_2.1
num_layers=3
learning_rate=0.700000
connection_rate=1.000000
network_type=0
learning_momentum=0.000000
training_algorithm=2
train_error_function=1
train_stop_function=1
cascade_output_change_fraction=0.010000
quickprop_decay=-0.000100
quickprop_mu=1.750000
rprop_increase_factor=1.200000
rprop_decrease_factor=0.500000
rprop_delta_min=0.000000
rprop_delta_max=50.000000
rprop_delta_zero=0.100000
cascade_output_stagnation_epochs=12
cascade_candidate_change_fraction=0.010000
cascade_candidate_stagnation_epochs=12
cascade_max_out_epochs=150
cascade_min_out_epochs=50
cascade_max_cand_epochs=150
cascade_min_cand_epochs=50
cascade_num_candidate_groups=2
bit_fail_limit=1.00000000000000005551e-01
cascade_candidate_limit=1.00000000000000000000e+03
cascade_weight_multiplier=4.00000000000000022204e-01
cascade_activation_functions_count=10
cascade_activation_functions=3 5 7 8 10 11 14 15 16 17 
cascade_activation_steepnesses_count=4
cascade_activation_steepnesses=2.50000000000000000000e-01 5.00000000000000000000e-01 7.50000000000000000000e-01 1.00000000000000000000e+00 
layer_sizes=19 11 2 
scale_included=0
neurons (num_inputs, activation_function, activation_steepness)=(0, 0, 0.00000000000000000000e+00) (0, 0, 0.00000000000000000000e+00) (0, 0, 0.00000000000000000000e+00) (0, 0, 0.00000000000000000000e+00) (0, 0, 0.00000000000000000000e+00) (0, 0, 0.00000000000000000000e+00) (0, 0, 0.00000000000000000000e+00) (0, 0, 0.00000000000000000000e+00) (0, 0, 0.00000000000000000000e+00) (0, 0, 0.00000000000000000000e+00) (0, 0, 0.00000000000000000000e+00) (0, 0, 0.00000000000000000000e+00) (0, 0, 0.00000000000000000000e+00) (0, 0, 0.00000000000000000000e+00) (0, 0, 0.00000000000000000000e+00) (0, 0, 0.00000000000000000000e+00) (0, 0, 0.00000000000000000000e+00) (0, 0, 0.00000000000000000000e+00) (0, 0, 0.00000000000000000000e+00) (19, 6, 5.00000000000000000000e-01) (19, 6, 5.00000000000000000000e-01) (19, 6, 5.00000000000000000000e-01) (19, 6, 5.00000000000000000000e-01) (19, 6, 5.00000000000000000000e-01) (19, 6, 5.00000000000000000000e-01) (19, 6, 5.00000000000000000000e-01) (19, 6, 5.00000000000000000000e-01) (19, 6, 5.00000000000000000000e-01) (19, 6, 5.00000000000000000000e-01) (0, 6, 0.00000000000000000000e+00) (11, 6, 5.00000000000000000000e-01) (0, 6, 0.00000000000000000000e+00) 
connections (connected_to_neuron, weight)=(0, 8.84188310145551326080e-01) (1, 1.31408996360762614364e-01) (2, 7.74193102888898199154e-02) (3, 8.03739274315671270443e-02) (4, 1.51509113090498942489e-01) (5, -8.99473487468875620987e-02) (6, 2.61883033285713384686e-01) (7, -1.45702155342412851269e+01) (8, 2.64418703395906222464e-02) (9, -5.95088302231775723161e-02) (10, -2.68304890061364029186e-02) (11, 1.25738119771167979055e-02) (12, 6.57271090608352488716e-04) (13, 3.92411852211574201099e-03) (14, 2.91503489276999816493e-01) (15, 6.36979318926142012991e-01) (16, 5.20784327821749548626e-01) (17, -4.73575838287146755334e+00) (18, 1.43261785842412475711e-01) (0, 9.03506908000882447141e+00) (1, 3.43170493349576610775e-01) (2, 2.23058010891223679195e-01) (3, 1.76995791003251801143e-01) (4, 3.51639553412938732357e-01) (5, -1.02846869855913025660e+00) (6, -7.87530475314815237020e-01) (7, 1.86163850920732372174e+01) (8, 2.45966938733029438779e+00) (9, 1.93473390626395103098e+00) (10, 5.87505129926697788889e-01) (11, 1.87229117142641898752e+00) (12, 6.78311958839878048622e-01) (13, 5.78736147733999395371e-01) (14, 9.44278575107487472273e-01) (15, -4.04646046890604405011e-01) (16, 9.51567503661386315805e-01) (17, 1.12534535406849638406e+01) (18, -1.46173402064137147871e-01) (0, -1.67120539095872815138e-02) (1, 1.36271545990137216142e-01) (2, 5.38773335057774679924e-02) (3, 6.13155386883297917611e-02) (4, 4.26556862432042258049e-02) (5, -3.37550355821514824761e-01) (6, -1.15689076821058028921e-01) (7, 1.87109174998934619794e+01) (8, 2.68679513257157220885e-01) (9, 3.03866573644583692904e-01) (10, 3.88453301358528402254e-01) (11, 2.77186708220018784843e-01) (12, 3.83747165755307817481e-01) (13, 3.18392158738828034981e-01) (14, 2.72044804493370373510e-01) (15, 1.93993124000882338764e-01) (16, -9.48027793205374752494e-02) (17, 1.13132727100274816934e+01) (18, 3.54863761757606366309e-01) (0, -2.30417940203810402977e+01) (1, -7.04642058155412059905e-02) (2, 6.41591019191866673843e-02) (3, -6.04668267807835987937e-02) (4, -2.09184893212193585843e-02) (5, -2.97473699837902672005e-02) (6, -9.76270882202144585360e-02) (7, 2.60650222096652450787e+00) (8, 5.57719509107292510386e-01) (9, 7.79297088547477145859e-01) (10, 2.65155988226232486316e-01) (11, 6.61257669213637044869e-01) (12, 1.05086469630200934899e-01) (13, 1.27988146180396755724e+00) (14, 1.30707430774455746203e+00) (15, 3.50752255244488678199e-02) (16, 1.00945546550570253164e-01) (17, 3.80037752775852810672e+00) (18, -9.78992658010957306214e-02) (0, -1.39021509982888460399e+01) (1, 8.64127941514308828275e-03) (2, -2.00550415358418561429e-02) (3, 7.29894853391771930573e-02) (4, -5.48645750424737246864e-02) (5, -2.02962746295784410289e-02) (6, -1.31202100067731142197e-01) (7, 2.37240264883780849203e+00) (8, 4.66090870205374541158e-01) (9, 5.51473730939823991726e-01) (10, 2.77815963124439291310e-01) (11, 5.57273826600206190207e-01) (12, 2.13769744745668149877e-01) (13, 5.38561792808968431423e-01) (14, 5.14565188598171241452e-01) (15, -1.16856634806155462725e-01) (16, -2.15346129451904400032e-01) (17, 2.68978507947190648153e+00) (18, -1.17743021581940887632e-01) (0, -2.30139587257767388451e+01) (1, -9.74217512450093608978e-02) (2, 2.38529361047869585544e-02) (3, 7.43755764522677359496e-02) (4, 7.84430868187075275300e-02) (5, 1.42682461947223199195e-02) (6, -1.34399112106656698495e-01) (7, 2.52515682671279373395e+00) (8, 5.83514395159901111398e-01) (9, 7.78573093279132266709e-01) (10, 2.08070459256467776843e-01) (11, 5.94637080911024740182e-01) (12, 2.06093305329282355798e-01) (13, 9.99283487089487443278e-01) (14, 1.22093447977786739855e+00) (15, 8.92323789741950555710e-03) (16, 1.27535774631319764882e-01) (17, 3.77991186319296490481e+00) (18, -9.52942000977037018128e-02) (0, 1.06255960006311345190e+00) (1, 1.50744828638498112872e-01) (2, 1.74424167034093691164e-01) (3, 2.00255285260145021731e-01) (4, 1.34835723099176241213e-01) (5, 3.55691216178049940400e-01) (6, 6.74146990443112104074e-01) (7, -2.99029818625609742355e+01) (8, 3.13612682902563222331e-01) (9, -1.25014070725581183385e-02) (10, 6.91579365204861185035e-01) (11, 6.49744233181164115853e-02) (12, 4.60014316115917809569e-01) (13, 1.90712240910529233495e-02) (14, 1.32000761164453833674e-01) (15, 1.11561911721839046585e+00) (16, 6.27540058205712791839e-01) (17, -7.76510298429227674433e+00) (18, -1.26161999079824650727e-02) (0, 1.00527348825257489828e+00) (1, 7.01847803475768305947e-02) (2, 1.26217974412670769224e-01) (3, 2.22546434092751155287e-01) (4, 1.79429030108681358824e-01) (5, -8.48219475779370540858e-02) (6, 2.93943120012855663159e-01) (7, -1.45205438768578432018e+01) (8, 7.95678851086679406190e-02) (9, 8.71245160088808187626e-04) (10, -8.12590884001928998037e-02) (11, 2.50964423706218943411e-02) (12, 7.77618485835072925649e-02) (13, -9.05443814131500768205e-02) (14, 3.64698076200073495468e-01) (15, 4.13786436977856053598e-01) (16, 4.56681156592387005322e-01) (17, -4.67417829860719002966e+00) (18, 1.62950988151067260867e-01) (0, 9.29644830849841397047e-01) (1, 7.42152253560857122494e-02) (2, 1.00459116923077518280e-01) (3, 1.55265986400111216659e-01) (4, 2.32999950128062266463e-01) (5, -5.98490706714310399805e-02) (6, 3.72030189107036723950e-01) (7, -1.45810451617551706249e+01) (8, 1.73790880676180314879e-01) (9, -3.48458472943446243009e-02) (10, 5.44994180118783255740e-02) (11, 2.43726631691143259817e-02) (12, 3.45734735856312591640e-02) (13, 1.01604456249185570726e-01) (14, 1.29678625644436773534e-01) (15, 4.28857752728981134194e-01) (16, 5.01548977630156489482e-01) (17, -7.82678456036544645258e+00) (18, 1.22633765675061734424e-01) (0, 3.90769238231818727414e+00) (1, 3.85925003813093969729e-01) (2, 2.36358219312018336122e-01) (3, 3.03671182618922175234e-01) (4, 3.04831729756182612245e-01) (5, -4.46919008626240621407e-01) (6, -4.22974503345381613872e-01) (7, 1.86075377511318080792e+01) (8, 1.99819202607103951763e+00) (9, 5.28741553717763657083e-01) (10, 2.00694577960100595249e-01) (11, 9.97396014618926796125e-01) (12, 1.67524208771974159049e-01) (13, 5.59022889687660340385e-01) (14, 6.83612569240699907702e-01) (15, -4.44824554457056375867e-01) (16, 1.25595245708492830872e+00) (17, 1.12099130703828588906e+01) (18, -7.62047575345559252691e-02) (19, -8.87940506407303709047e-02) (20, 5.63117050542117136835e-01) (21, 6.40318446769000071406e-01) (22, 4.81827861478735408607e-01) (23, 4.93666062079483658476e-01) (24, 4.55056371947933635536e-01) (25, -1.88418903463804521259e-01) (26, -1.55720962114004490839e-01) (27, -1.62537426321684497221e-01) (28, 5.49513677682167855920e-01) (29, 4.25140976743867360366e-01) 
