FANN_FLO_2.1
num_layers=3
learning_rate=0.700000
connection_rate=1.000000
network_type=0
learning_momentum=0.000000
training_algorithm=2
train_error_function=1
train_stop_function=1
cascade_output_change_fraction=0.010000
quickprop_decay=-0.000100
quickprop_mu=1.750000
rprop_increase_factor=1.200000
rprop_decrease_factor=0.500000
rprop_delta_min=0.000000
rprop_delta_max=50.000000
rprop_delta_zero=0.100000
cascade_output_stagnation_epochs=12
cascade_candidate_change_fraction=0.010000
cascade_candidate_stagnation_epochs=12
cascade_max_out_epochs=150
cascade_min_out_epochs=50
cascade_max_cand_epochs=150
cascade_min_cand_epochs=50
cascade_num_candidate_groups=2
bit_fail_limit=1.00000000000000005551e-01
cascade_candidate_limit=1.00000000000000000000e+03
cascade_weight_multiplier=4.00000000000000022204e-01
cascade_activation_functions_count=10
cascade_activation_functions=3 5 7 8 10 11 14 15 16 17 
cascade_activation_steepnesses_count=4
cascade_activation_steepnesses=2.50000000000000000000e-01 5.00000000000000000000e-01 7.50000000000000000000e-01 1.00000000000000000000e+00 
layer_sizes=31 11 2 
scale_included=0
neurons (num_inputs, activation_function, activation_steepness)=(0, 0, 0.00000000000000000000e+00) (0, 0, 0.00000000000000000000e+00) (0, 0, 0.00000000000000000000e+00) (0, 0, 0.00000000000000000000e+00) (0, 0, 0.00000000000000000000e+00) (0, 0, 0.00000000000000000000e+00) (0, 0, 0.00000000000000000000e+00) (0, 0, 0.00000000000000000000e+00) (0, 0, 0.00000000000000000000e+00) (0, 0, 0.00000000000000000000e+00) (0, 0, 0.00000000000000000000e+00) (0, 0, 0.00000000000000000000e+00) (0, 0, 0.00000000000000000000e+00) (0, 0, 0.00000000000000000000e+00) (0, 0, 0.00000000000000000000e+00) (0, 0, 0.00000000000000000000e+00) (0, 0, 0.00000000000000000000e+00) (0, 0, 0.00000000000000000000e+00) (0, 0, 0.00000000000000000000e+00) (0, 0, 0.00000000000000000000e+00) (0, 0, 0.00000000000000000000e+00) (0, 0, 0.00000000000000000000e+00) (0, 0, 0.00000000000000000000e+00) (0, 0, 0.00000000000000000000e+00) (0, 0, 0.00000000000000000000e+00) (0, 0, 0.00000000000000000000e+00) (0, 0, 0.00000000000000000000e+00) (0, 0, 0.00000000000000000000e+00) (0, 0, 0.00000000000000000000e+00) (0, 0, 0.00000000000000000000e+00) (0, 0, 0.00000000000000000000e+00) (31, 6, 5.00000000000000000000e-01) (31, 6, 5.00000000000000000000e-01) (31, 6, 5.00000000000000000000e-01) (31, 6, 5.00000000000000000000e-01) (31, 6, 5.00000000000000000000e-01) (31, 6, 5.00000000000000000000e-01) (31, 6, 5.00000000000000000000e-01) (31, 6, 5.00000000000000000000e-01) (31, 6, 5.00000000000000000000e-01) (31, 6, 5.00000000000000000000e-01) (0, 6, 0.00000000000000000000e+00) (11, 6, 5.00000000000000000000e-01) (0, 6, 0.00000000000000000000e+00) 
connections (connected_to_neuron, weight)=(0, 6.75528462198400458938e-01) (1, 1.98935956850951056740e-01) (2, 5.25390465587880807485e-03) (3, 1.46459575447490455979e-02) (4, 1.12809726193850365372e-01) (5, 4.55839246534769682029e+00) (6, 2.84233739787633776785e-01) (7, 2.75945626277509639124e+01) (8, 8.06417867653048014986e-01) (9, 2.58740955753429202613e-01) (10, 1.33149829222698592446e+01) (11, 2.39170484899169331072e+01) (12, 1.74615393844279903623e-01) (13, 1.63523015967819679295e-01) (14, 1.79988983060596824393e-01) (15, -3.41472402294076132767e-02) (16, 1.87426258679319779343e-01) (17, -8.92714049850990898349e-01) (18, 1.43811145291735414942e-01) (19, -4.37448546268685956040e-01) (20, 3.01284305666765783727e-01) (21, 1.81551226873007074403e+01) (22, 7.71714043461291954173e+00) (23, 4.87294589876160921804e-01) (24, 3.90614605998185870916e+00) (25, -4.17084093619886298043e-01) (26, -3.24828635476969884710e-01) (27, -3.26213705654282495883e-02) (28, -1.20403965509919674143e-02) (29, 6.39122379336930362959e-02) (30, 2.44689524965984936400e-02) (0, 3.89881188653164656444e+01) (1, 1.47774568227986569102e-01) (2, 8.34845066349308162490e-02) (3, 2.40001133112172360118e-01) (4, 2.56980171827534853435e-01) (5, -4.78399543120290804410e+00) (6, 1.13646253168245836562e-01) (7, -2.13765358053738308008e-01) (8, -9.10790767455728733637e-01) (9, -2.70577333912496120760e+00) (10, -1.59603766266854713018e-01) (11, 1.58634112527240328516e-01) (12, -8.46629424010050035676e-01) (13, -5.04501264058393461553e-01) (14, -7.12471265073739257190e-01) (15, -5.08999827157640805098e-01) (16, -2.43300145530770811630e-01) (17, -3.96501210972825923751e-01) (18, -6.34828894347431726963e-01) (19, -7.55914468111281045992e-01) (20, -7.25277982970267465213e-01) (21, -8.73946646613035893481e-01) (22, -2.64860448507774526306e+00) (23, 5.83979563210006991092e-02) (24, -5.33408306578294300060e-01) (25, -7.94551483603767733088e-03) (26, -8.13040897449668786834e-01) (27, -3.15788795630408625215e-01) (28, -4.10647276390886661890e-01) (29, -3.44162556741626490808e-02) (30, 5.02612342822968516387e-01) (0, 5.00056029517864236711e-02) (1, 1.23518219491333375304e-01) (2, 2.06562107702583624969e-01) (3, 8.14633949602550921920e-02) (4, 1.02169754257292133559e-01) (5, -2.89337480628201770827e+00) (6, -5.16815285082168340836e-01) (7, -1.23393656028356751841e-02) (8, -6.80749476585632451453e-01) (9, -4.88170809138714245634e-01) (10, -9.13647729922089368859e-02) (11, 3.06943853594953824926e-02) (12, -4.65570966104942363106e-01) (13, -1.82856658659699244929e-01) (14, -2.83348567049844304866e-02) (15, -1.93487042883404369853e+00) (16, -7.03331750596897453676e-01) (17, -2.90675785878921955074e-01) (18, -2.81672704472700141665e+00) (19, -2.97439277439728866348e-01) (20, -1.90471704654263274126e-01) (21, -5.85825945195113176323e-02) (22, 3.24301514315484262774e-02) (23, -1.19160899521656468703e-01) (24, -1.28214695970224945576e+00) (25, -4.39795102223941788977e-02) (26, -2.08099283621241359921e-01) (27, -4.54683422246985269322e-01) (28, -5.48516883515500430768e-01) (29, -4.84345181136689451051e-01) (30, -4.57823396278241201429e-01) (0, 7.07067207159632116209e-01) (1, 1.27058506046462099670e-01) (2, 1.45491659675765022675e-01) (3, 7.16700032698392996977e-02) (4, -1.89817621958970408902e-02) (5, 1.93098044397789756488e+01) (6, -5.15825823583815457063e-01) (7, 1.53339591684399163540e+01) (8, -6.97046007759859587161e-01) (9, 3.42956826055969060327e-03) (10, 1.34934064787979508537e+01) (11, 2.41454402071339053748e+01) (12, -1.05171236455672612031e-01) (13, 4.17169353812589238650e-02) (14, 3.85341806163822242493e-02) (15, -1.93098065038495647627e+00) (16, -1.03631280379128876135e+00) (17, -1.13298234815352705240e+00) (18, -1.23492965308671331925e+00) (19, -4.10557101739661700623e-01) (20, 1.11573608451979744416e+00) (21, 6.20208981740519771364e+00) (22, 4.62581876228397526063e+00) (23, -1.47338196115142615328e-02) (24, 1.25424553572669350565e-01) (25, -1.07973850498437357048e-01) (26, -8.19865211770582580364e-01) (27, -1.77278468505569075653e+00) (28, -3.75054806129779205737e-01) (29, -3.43935864695500914667e-01) (30, 1.93636752300319153752e-01) (0, 1.43275780246458017686e+00) (1, -1.78277072677260998990e-02) (2, 8.54294459154957552816e-02) (3, 4.84299893310421378234e-02) (4, -1.74593691894656781460e-02) (5, -1.08092024017651988643e+00) (6, -8.74539368866274036129e-01) (7, -2.08337608323353490336e-01) (8, -2.97890215489704068830e-01) (9, -1.23889672990366558891e-01) (10, -7.27022675054767697489e-01) (11, -8.14307670196821181685e-02) (12, -2.78427105277627373603e-01) (13, -3.42260637749839446986e-01) (14, -4.01838424005703631625e-01) (15, -7.99289929930729892149e-01) (16, -5.52794382739429490670e-01) (17, -4.66734935683829843533e-01) (18, -4.40381323228384136126e-01) (19, -3.22402693170512399945e-01) (20, 2.76560911726421998491e-01) (21, 1.03432396106741486541e-01) (22, 7.87462988972279925859e-02) (23, -1.07660862322917472156e+00) (24, 8.17804531394513284370e-02) (25, -2.50614301479293311026e-01) (26, -7.46517876341997954626e-01) (27, -1.65456418057706899916e+00) (28, -8.27768347476940058449e-01) (29, -4.92060655267475166585e-01) (30, -3.22089684054135128033e-01) (0, 3.74900515156271485484e-02) (1, 1.44524028499910001111e-01) (2, 1.73735344757625198575e-01) (3, 2.48181240608283670834e-01) (4, 1.83300780107566452237e-01) (5, -3.01566188919582911510e+00) (6, -3.34708318216937472656e-01) (7, 4.48468692410649641400e-02) (8, -6.03143264137569468097e-01) (9, -5.94258868807430840064e-01) (10, -1.25163302988629456663e-02) (11, 5.08809103498890150097e-02) (12, -5.89537723647209466193e-01) (13, -1.13216474063870156663e-01) (14, -4.00275751583680852730e-02) (15, -8.83109866885831151784e-01) (16, -4.81828556832063714666e-01) (17, -4.14145142244721542468e-01) (18, -1.56583375537384128506e+00) (19, -4.30870737606752374216e-01) (20, -2.88032238336516366317e-01) (21, 4.19359132736939477226e-02) (22, -4.08301132113942533142e-01) (23, -2.42401079059337554167e-01) (24, -6.78732936036126832668e-01) (25, -9.10253508075071215977e-02) (26, -4.17730408135038311368e-01) (27, -7.80671108935330648748e-01) (28, -6.34527498809521750545e-01) (29, -3.87469966076539662492e-01) (30, -2.83905594980899622648e-01) (0, 3.94338338907628340735e+01) (1, 1.27999489979556985153e-01) (2, 9.14691033230342620541e-02) (3, 1.09745045976451821579e-01) (4, 2.16259939448646409943e-01) (5, -4.66237097001732081480e+00) (6, 6.86601556856062250622e-02) (7, -1.69476777718602089617e-01) (8, -1.18340646934172100124e+00) (9, -2.83116909877355071856e+00) (10, -1.75395223457239846088e-01) (11, 3.43484191350987844160e-01) (12, -7.36033213301762412328e-01) (13, -9.05335101106033768303e-01) (14, -7.31553557988129821155e-01) (15, -5.41878226052904587995e-01) (16, -2.78646463567088664703e-01) (17, -6.40919038902791893264e-01) (18, -1.84646126758892092923e+00) (19, -8.60503103377108224947e-01) (20, -6.22397425016542826803e-01) (21, -9.85657889310527224325e-01) (22, -2.19043823670342296950e+00) (23, 2.58700900690096879941e-01) (24, -4.47162561249950352149e-01) (25, -1.32918503067140994500e-02) (26, -5.28321259997919345786e-01) (27, -5.61350316768456591987e-01) (28, 2.53131884640923676688e-01) (29, 9.47989550020305604683e-02) (30, 4.93863632667481455840e-01) (0, 1.16793369630777554846e+00) (1, 5.86464492689895908195e-02) (2, 2.31486098290615144313e-01) (3, 1.73571960450344175975e-01) (4, 3.68401570331382960388e-02) (5, 2.55169152670285948048e+00) (6, 6.42043520205122941746e+00) (7, 2.45310765081057446935e+00) (8, 1.53947408766037763250e+00) (9, -1.49431681000482319277e-01) (10, 4.12926998813937462529e-01) (11, 5.99879596481248000828e-01) (12, 4.91047630437167537121e-01) (13, -4.39713143031782105474e-01) (14, -6.21792054262144233689e-01) (15, 5.65999651685903604204e-01) (16, 2.41462568109451369835e+00) (17, 3.60162429571193731803e+00) (18, 4.44401491608903964625e-01) (19, 6.86061317010870475031e-01) (20, 1.41176594253063225626e-01) (21, 6.32526835653197894160e-01) (22, 7.88632192264532427828e+00) (23, 3.04208699798365245215e+00) (24, 9.16965800829209753964e-01) (25, 1.12167972855960362821e-01) (26, 1.23559808057822384519e+00) (27, 5.20914950494073769605e-01) (28, 1.88644284861057420777e+00) (29, -3.63899971924246667943e-01) (30, -5.09432123061852371038e-01) (0, 1.52674616089989179102e+00) (1, 1.68939213386957637342e-01) (2, 1.83880846134607783826e-01) (3, 5.88331847705291788309e-02) (4, 1.72143663398210994275e-01) (5, 1.93713584954399387072e+01) (6, -5.81511147954676510530e-01) (7, 1.51477647445950704963e+01) (8, -7.28030755914738203494e-01) (9, 3.88937007065600526268e-01) (10, 1.35051249866540814537e+01) (11, 6.69999480720671947154e+00) (12, -1.04521879867373407302e-01) (13, 3.41854412030384094412e-02) (14, 5.55919588963591088104e-02) (15, -1.11402011420716262613e+00) (16, -1.73529710853365748413e+00) (17, -1.35682876622523362897e+00) (18, -1.33290749249701834245e+00) (19, -4.81245076444541231009e-01) (20, 1.11155022913115608674e+00) (21, 6.22087515252873668459e+00) (22, 4.53053749660795368470e+00) (23, -3.21272000150329972712e-02) (24, 1.66519749442445674781e+00) (25, -1.60837042745160530011e-01) (26, -6.87586344704676055706e-01) (27, -7.01118232459820966973e-01) (28, -3.58079373495425623553e-01) (29, -2.28923929006703053002e-01) (30, 1.66670448713359370396e-01) (0, 1.30533081512092108412e+00) (1, 1.16002062044902987115e-01) (2, 1.77635082684322598290e-01) (3, 2.00540909252926113915e-01) (4, 9.42050867600881941533e-02) (5, -9.23211573385132822089e-01) (6, -4.11656940055196818307e-01) (7, -9.55059863097489469830e-01) (8, -3.81315244759756699633e-01) (9, -4.67831803188656747405e-01) (10, -9.08685108085926396271e-01) (11, -1.51334159198901363474e+00) (12, -3.43402317029406822790e-01) (13, -8.85089628010688800330e-01) (14, -1.02256287866054562663e+00) (15, -3.32947450454047610968e-01) (16, -4.13774266729955764177e-01) (17, -3.01835619946325128815e-01) (18, -2.84798222802742695414e-01) (19, 2.11737553122833155328e-01) (20, -7.43342541191120281807e-02) (21, -6.54024776324511836201e-01) (22, -1.75381543657239818979e-01) (23, -7.07397422318811530673e-01) (24, 3.08266621345255620312e-01) (25, -1.86736865031217913469e+00) (26, -4.75977431992885002821e-01) (27, -2.49737956799468224789e-01) (28, -1.05190799680414268091e-01) (29, -3.04517389332401633428e-01) (30, -1.99233755474511775585e-01) (31, 3.45990472140111249288e-01) (32, -7.33385720478897051855e-01) (33, -1.47337827040595198413e-01) (34, 9.08091667862714557735e-01) (35, -2.13067138616255286054e-01) (36, -1.24433709814204734867e-01) (37, -9.59862736291865581428e-01) (38, 2.03922497652498341258e-01) (39, 7.55125579119874545952e-01) (40, -2.18204379034945245008e-01) (41, 5.93736135750623117424e-01) 
