FANN_FLO_2.1
num_layers=3
learning_rate=0.700000
connection_rate=1.000000
network_type=0
learning_momentum=0.000000
training_algorithm=2
train_error_function=1
train_stop_function=1
cascade_output_change_fraction=0.010000
quickprop_decay=-0.000100
quickprop_mu=1.750000
rprop_increase_factor=1.200000
rprop_decrease_factor=0.500000
rprop_delta_min=0.000000
rprop_delta_max=50.000000
rprop_delta_zero=0.100000
cascade_output_stagnation_epochs=12
cascade_candidate_change_fraction=0.010000
cascade_candidate_stagnation_epochs=12
cascade_max_out_epochs=150
cascade_min_out_epochs=50
cascade_max_cand_epochs=150
cascade_min_cand_epochs=50
cascade_num_candidate_groups=2
bit_fail_limit=1.00000000000000005551e-01
cascade_candidate_limit=1.00000000000000000000e+03
cascade_weight_multiplier=4.00000000000000022204e-01
cascade_activation_functions_count=10
cascade_activation_functions=3 5 7 8 10 11 14 15 16 17 
cascade_activation_steepnesses_count=4
cascade_activation_steepnesses=2.50000000000000000000e-01 5.00000000000000000000e-01 7.50000000000000000000e-01 1.00000000000000000000e+00 
layer_sizes=31 11 2 
scale_included=0
neurons (num_inputs, activation_function, activation_steepness)=(0, 0, 0.00000000000000000000e+00) (0, 0, 0.00000000000000000000e+00) (0, 0, 0.00000000000000000000e+00) (0, 0, 0.00000000000000000000e+00) (0, 0, 0.00000000000000000000e+00) (0, 0, 0.00000000000000000000e+00) (0, 0, 0.00000000000000000000e+00) (0, 0, 0.00000000000000000000e+00) (0, 0, 0.00000000000000000000e+00) (0, 0, 0.00000000000000000000e+00) (0, 0, 0.00000000000000000000e+00) (0, 0, 0.00000000000000000000e+00) (0, 0, 0.00000000000000000000e+00) (0, 0, 0.00000000000000000000e+00) (0, 0, 0.00000000000000000000e+00) (0, 0, 0.00000000000000000000e+00) (0, 0, 0.00000000000000000000e+00) (0, 0, 0.00000000000000000000e+00) (0, 0, 0.00000000000000000000e+00) (0, 0, 0.00000000000000000000e+00) (0, 0, 0.00000000000000000000e+00) (0, 0, 0.00000000000000000000e+00) (0, 0, 0.00000000000000000000e+00) (0, 0, 0.00000000000000000000e+00) (0, 0, 0.00000000000000000000e+00) (0, 0, 0.00000000000000000000e+00) (0, 0, 0.00000000000000000000e+00) (0, 0, 0.00000000000000000000e+00) (0, 0, 0.00000000000000000000e+00) (0, 0, 0.00000000000000000000e+00) (0, 0, 0.00000000000000000000e+00) (31, 6, 5.00000000000000000000e-01) (31, 6, 5.00000000000000000000e-01) (31, 6, 5.00000000000000000000e-01) (31, 6, 5.00000000000000000000e-01) (31, 6, 5.00000000000000000000e-01) (31, 6, 5.00000000000000000000e-01) (31, 6, 5.00000000000000000000e-01) (31, 6, 5.00000000000000000000e-01) (31, 6, 5.00000000000000000000e-01) (31, 6, 5.00000000000000000000e-01) (0, 6, 0.00000000000000000000e+00) (11, 6, 5.00000000000000000000e-01) (0, 6, 0.00000000000000000000e+00) 
connections (connected_to_neuron, weight)=(0, 2.68847021222994664313e+00) (1, 1.26366936007636987416e-01) (2, 9.67340994273604704023e-02) (3, 1.58607177773612967320e-01) (4, 8.32749906574668380399e-02) (5, 4.46764962484767158557e-01) (6, 1.23997263980820005003e+00) (7, 4.42878973887150750866e-01) (8, 8.14425173312000150183e-01) (9, -3.43350851706200232982e+00) (10, 3.52043348108996068113e-01) (11, 4.46277261948847370210e-01) (12, 2.27691007930356931199e-01) (13, 1.29412598001150502824e+00) (14, 5.33822680881038458267e-01) (15, 1.00390182445415732104e+00) (16, 8.58722140058785110561e-01) (17, 8.28508666551467820582e-01) (18, 1.16780138178081593914e+00) (19, 1.04704478390022703849e+00) (20, 4.16413944139218561435e-01) (21, 4.76237857416411725087e-01) (22, 2.43095356400899798022e-01) (23, 7.39569650983266990707e-01) (24, 4.11223288547004239835e-01) (25, 5.43646529176553094942e-01) (26, 6.88006044129436333812e-01) (27, 9.53906278228748183423e-01) (28, 1.08320332112425490867e-02) (29, 2.99676523216244028447e+00) (30, -2.70400737603576253598e-02) (0, 6.60359013762110036438e-01) (1, 1.49653529923660655321e-01) (2, 2.22567519348366105181e-01) (3, 2.14499784808857341112e-01) (4, 2.02845705848438584429e-01) (5, 3.08828492802172993592e+00) (6, 3.81942179240791324091e-01) (7, 8.04451991181541314901e-01) (8, 3.82462419411576159956e-01) (9, 4.21972016821783668661e+00) (10, 2.35189086684713694053e-01) (11, 5.07332858739570236040e-01) (12, 1.51466563832492639996e+00) (13, -9.44601518847258507516e-03) (14, -5.25959880380948652245e-01) (15, 1.58542050207591711519e-01) (16, 4.53921932429083713201e-02) (17, 2.52049752746357325073e-01) (18, -7.70740464831109473032e-01) (19, 2.61443182769490356510e-01) (20, 5.13197295453363608320e-02) (21, 7.55398906715190721073e-01) (22, 1.71726818794084978848e+00) (23, 3.28013351147312171019e-01) (24, 1.90381320516401192355e-01) (25, 2.87478561065559301557e-01) (26, 2.89534889761915936734e-01) (27, 1.39940431791104574755e-01) (28, 3.63916593930834531001e-01) (29, -6.85553497014888130190e-03) (30, 3.28699249314491348528e-01) (0, -1.55527867248067175332e+00) (1, -1.42678302391394173920e-01) (2, -2.30035234852655923188e-01) (3, -1.82652336223944167237e-01) (4, -2.36010213061197793305e-01) (5, -9.15008546997348570784e-01) (6, -9.01278984632890911577e-01) (7, -1.52612935267432336950e+00) (8, -4.28451405003277330241e-01) (9, 1.13122833848582737826e-01) (10, -6.58233616310973213004e-01) (11, -2.73687247278191847499e+00) (12, 1.54424999689238590106e-01) (13, 4.88239778437400684385e-01) (14, 4.45613850622468277152e-01) (15, -8.42368419904482634841e-01) (16, -2.34688931952155260818e-01) (17, -5.21396073634526890928e-01) (18, -4.78522988753497746650e-01) (19, -1.16542924054273619450e-01) (20, -1.74239747841728714883e-01) (21, -6.90238618016590366189e-01) (22, -2.22936835534303723350e+00) (23, -1.93367900961187300091e+00) (24, -1.20238202806440974690e+00) (25, 3.74864662740489296144e-01) (26, -3.01930893191759808225e-01) (27, 2.75359472793240300792e-01) (28, -6.41165984489523776979e-01) (29, 2.02684163752330170905e-01) (30, 6.72968776762321446716e-02) (0, -1.84985867418430149911e-01) (1, -1.47253593386797634185e-02) (2, 1.07561295670113132861e-01) (3, 1.13893559020599888232e-01) (4, 7.35589617906423354210e-02) (5, 2.43173450798544710239e+00) (6, 2.49968626748933692161e-01) (7, 1.49712779214206737066e+00) (8, 7.51670805842452383061e-01) (9, -7.81745131795049813528e-02) (10, 9.73693944881011685943e-01) (11, 1.14103155599859684699e+00) (12, -2.15921378907950982373e-02) (13, 1.10851394451007612130e-01) (14, 3.06986028930256830971e-02) (15, 2.03510315972845717836e-01) (16, 1.59840224822333482058e-01) (17, 1.07178201380468199333e-01) (18, 1.33773375906514526562e-02) (19, 4.98677333395299959840e-01) (20, 9.36377318841614569855e-01) (21, 1.16600472273792288291e+01) (22, 2.39848697283562684035e+00) (23, 4.43761802231659618911e-01) (24, 1.39351554906003904932e+00) (25, -1.51527564297425504369e-01) (26, 2.01646664666592562165e-01) (27, -6.26169335622318579126e-02) (28, 3.25792454731736236262e-01) (29, 2.25661740968925933828e-03) (30, 9.54514675745528756723e-02) (0, 3.98410380344845478362e+01) (1, 2.10897888051712278923e-01) (2, 2.26809992449724495689e-01) (3, 3.79675301717960711478e-01) (4, 3.03904588329040881156e-01) (5, -4.88245769641923121895e+00) (6, -1.16381357299679702444e-01) (7, -6.76110858162008665495e-01) (8, -9.56456765358076443917e-01) (9, -3.28388652027095728769e+00) (10, -1.12393261496456364767e+00) (11, -4.89966767954982562738e-01) (12, -1.08114361010257398199e+00) (13, -1.30521314575111468947e+00) (14, -1.30202760214413126860e+00) (15, -4.75096585501213197755e-01) (16, -5.17284411746284811251e-01) (17, -6.47076214472571686898e-01) (18, -8.13625986668593648155e-01) (19, -5.26885079063334815785e-01) (20, -9.50922242488472790889e-01) (21, -1.15755666050600281025e+00) (22, -2.31656993144248080085e+00) (23, -5.01551092968168729658e-02) (24, -7.12781502908783615169e-01) (25, -2.64397775606720453201e-01) (26, -2.56467370524998683479e-01) (27, -3.34646968652880349993e-01) (28, -3.15006992004643548988e-01) (29, -3.03976509842151743079e-01) (30, 3.45080033122480256402e-01) (0, 5.86412157799833688721e-01) (1, 2.11927620690327389585e-01) (2, 1.72594426196080008573e-01) (3, 2.03198639672260983335e-01) (4, 1.28102539103489732053e-01) (5, 3.02582595836907719544e+00) (6, 3.56667887606231692743e-01) (7, 7.64480384187171901900e-01) (8, 6.43931007868825955320e-01) (9, 4.18657100032251960897e+00) (10, 1.61600907298627444186e-01) (11, 6.95611375365806638982e-01) (12, 1.72168524371887188273e+00) (13, -1.27307479492945685440e-01) (14, -5.34790108010567699637e-01) (15, 2.67416871442585024621e-01) (16, 5.56463155597456821111e-02) (17, -2.16274424690315620473e-03) (18, -1.47341219788637539656e-01) (19, 2.73929804506970575595e-01) (20, 3.03358994509989043920e-02) (21, 6.68465256638801408329e-01) (22, 1.59889882469249977603e+00) (23, 3.67105497007507330931e-01) (24, 2.66980687479310974108e-01) (25, 1.48534672818546070738e-01) (26, 2.83643536869993939664e-01) (27, 2.38425999775709690498e-01) (28, 4.14196635923498868159e-01) (29, -1.69331550267062397319e-01) (30, 2.35357108997528069461e-01) (0, 2.59277637203454869308e-01) (1, 8.84791011780732133962e-02) (2, 6.52586514920227983572e-02) (3, 2.09888289541237879621e-02) (4, -7.88204078703886729107e-02) (5, 9.56776930022683025356e+00) (6, -1.46531841141459784339e-01) (7, 6.74386322433226048645e+00) (8, 3.08859374049967938536e-01) (9, 2.90075089189998525097e-01) (10, 2.22996179413787620760e+00) (11, 2.83725330841715495112e+00) (12, 1.10062877853271220974e-01) (13, 1.05466775171045384907e-01) (14, 1.56755879885441068433e-01) (15, -1.07056544951618004546e+00) (16, -9.20262779739596248341e-01) (17, -8.71240807416850615574e-01) (18, -5.64687134403686966100e-02) (19, 3.88986836355841580914e-02) (20, 8.40276493499420906730e-01) (21, 8.18208661278759308288e+00) (22, 3.18837709860973195219e+00) (23, 3.17398110320162296638e-01) (24, 6.90672454966969828760e-01) (25, 1.03259413209258035793e-01) (26, 1.27957486945369347531e-01) (27, -6.78498994391685927852e-01) (28, -7.35765742959187951655e-02) (29, -1.59711967077297262163e-01) (30, 6.99005735341144407435e-02) (0, 2.55189682443857090988e-01) (1, 6.05202598695049054367e-02) (2, -6.29560069997216632115e-03) (3, 6.23489005606269602877e-03) (4, 6.81608153704890973312e-02) (5, 9.45825384188141704556e+00) (6, -4.35167983000253333348e-02) (7, 6.70880419323317944702e+00) (8, -3.81677303798390266110e-01) (9, 1.83403465914534685721e-01) (10, 2.20267100073484023426e+00) (11, 2.40302418337460776954e+00) (12, -5.49885420524533416464e-02) (13, 1.54821455053571754856e-01) (14, 2.92220496005302865505e-01) (15, -6.77646905369665875085e-01) (16, -7.87154404235543170287e-01) (17, -8.65529026919068300572e-01) (18, -7.39326641745382401316e-03) (19, -2.67831797960310369344e-02) (20, 8.60703497002266670890e-01) (21, 8.08495478680406876038e+00) (22, 3.28070014106206730986e+00) (23, 2.06568160941195094749e-01) (24, 1.59342270318918011185e+00) (25, 8.11365979579076052053e-02) (26, 1.76016242641189202267e-01) (27, -6.30360301416641677363e-01) (28, -1.83589597314755881285e-01) (29, -1.87707359757465469530e-01) (30, -1.77230412837432980966e-02) (0, -8.37858671826733392152e+00) (1, -9.88680787751610862246e-02) (2, -6.89075805613931224869e-02) (3, -2.60541357467110948343e-02) (4, -1.33927106148951813314e-01) (5, -4.14368162628590752661e+00) (6, -3.05980797367413626109e-01) (7, -7.43899099672024610719e-01) (8, -7.13798982424642569633e-01) (9, 2.62270728190516499989e-01) (10, -5.67633354993936301014e-01) (11, -1.44672207386664264384e+00) (12, -3.22107298263845820419e-01) (13, 8.14023293188981950097e-03) (14, -1.96817811872634140791e-01) (15, -9.02112649979875280692e-01) (16, -7.79289356784764186692e-01) (17, -6.24402811146528180508e-01) (18, -6.87387706550814048256e-01) (19, -3.64664905434514297067e-01) (20, -2.97373318149348697670e-01) (21, -4.42996542580443630754e-01) (22, -2.33786075875206700303e+00) (23, -9.71494712210388855489e-01) (24, -6.49487085973012412410e-01) (25, 2.74234549944687377998e-01) (26, -2.55102837766302492639e-01) (27, -7.09673400973793389035e-01) (28, -9.01683090378897766914e-03) (29, -9.69351459815112503904e-01) (30, 9.17261334520851207008e-02) (0, 3.65214853217109407524e+01) (1, 2.69267526214254648842e-01) (2, 3.39039348756206893043e-01) (3, 2.91091655140055083351e-01) (4, 3.45873870645893477516e-01) (5, -5.48931086850226002127e+00) (6, -2.10442408220663478013e-02) (7, -6.16169170320185477507e-01) (8, -8.29187198704546934991e-01) (9, -3.22615181820334395724e+00) (10, -1.13840394616479478884e+00) (11, -3.78524604368366157647e-01) (12, -8.31734148908859438620e-01) (13, -8.34604123687646692886e-01) (14, -9.82083928031062480812e-01) (15, -3.07574544346632117175e-01) (16, -4.51551278564476910038e-01) (17, -2.67096201715861014669e-01) (18, -7.48095844885985239436e-01) (19, -4.14216474334486051134e-01) (20, -9.67138230395827580566e-01) (21, -9.98083265720656753750e-01) (22, -2.12481570523221474645e+00) (23, -2.57454621578612416477e-02) (24, -7.22632909568170167525e-01) (25, -7.95766282117784246042e-02) (26, -1.76245252981873351539e-01) (27, -3.10424132754481219010e-01) (28, -1.28146064228926548356e-01) (29, -3.18912448084028687934e-01) (30, 6.65551192255520063235e-01) (31, 1.00674521288785720485e-01) (32, 2.19574492554381495157e-01) (33, -8.64436182921110851662e-02) (34, 3.27767969449734464238e-01) (35, -6.74527768017001316814e-01) (36, 2.09948163609221583048e-01) (37, 7.67930896092631209982e-01) (38, 7.48952181149699081075e-01) (39, -2.16038587472251672472e-02) (40, -9.49692198652211216903e-01) (41, 7.33348585843759503966e-01) 
