FANN_FLO_2.1
num_layers=3
learning_rate=0.700000
connection_rate=1.000000
network_type=0
learning_momentum=0.000000
training_algorithm=2
train_error_function=1
train_stop_function=1
cascade_output_change_fraction=0.010000
quickprop_decay=-0.000100
quickprop_mu=1.750000
rprop_increase_factor=1.200000
rprop_decrease_factor=0.500000
rprop_delta_min=0.000000
rprop_delta_max=50.000000
rprop_delta_zero=0.100000
cascade_output_stagnation_epochs=12
cascade_candidate_change_fraction=0.010000
cascade_candidate_stagnation_epochs=12
cascade_max_out_epochs=150
cascade_min_out_epochs=50
cascade_max_cand_epochs=150
cascade_min_cand_epochs=50
cascade_num_candidate_groups=2
bit_fail_limit=1.00000000000000005551e-01
cascade_candidate_limit=1.00000000000000000000e+03
cascade_weight_multiplier=4.00000000000000022204e-01
cascade_activation_functions_count=10
cascade_activation_functions=3 5 7 8 10 11 14 15 16 17 
cascade_activation_steepnesses_count=4
cascade_activation_steepnesses=2.50000000000000000000e-01 5.00000000000000000000e-01 7.50000000000000000000e-01 1.00000000000000000000e+00 
layer_sizes=31 11 2 
scale_included=0
neurons (num_inputs, activation_function, activation_steepness)=(0, 0, 0.00000000000000000000e+00) (0, 0, 0.00000000000000000000e+00) (0, 0, 0.00000000000000000000e+00) (0, 0, 0.00000000000000000000e+00) (0, 0, 0.00000000000000000000e+00) (0, 0, 0.00000000000000000000e+00) (0, 0, 0.00000000000000000000e+00) (0, 0, 0.00000000000000000000e+00) (0, 0, 0.00000000000000000000e+00) (0, 0, 0.00000000000000000000e+00) (0, 0, 0.00000000000000000000e+00) (0, 0, 0.00000000000000000000e+00) (0, 0, 0.00000000000000000000e+00) (0, 0, 0.00000000000000000000e+00) (0, 0, 0.00000000000000000000e+00) (0, 0, 0.00000000000000000000e+00) (0, 0, 0.00000000000000000000e+00) (0, 0, 0.00000000000000000000e+00) (0, 0, 0.00000000000000000000e+00) (0, 0, 0.00000000000000000000e+00) (0, 0, 0.00000000000000000000e+00) (0, 0, 0.00000000000000000000e+00) (0, 0, 0.00000000000000000000e+00) (0, 0, 0.00000000000000000000e+00) (0, 0, 0.00000000000000000000e+00) (0, 0, 0.00000000000000000000e+00) (0, 0, 0.00000000000000000000e+00) (0, 0, 0.00000000000000000000e+00) (0, 0, 0.00000000000000000000e+00) (0, 0, 0.00000000000000000000e+00) (0, 0, 0.00000000000000000000e+00) (31, 6, 5.00000000000000000000e-01) (31, 6, 5.00000000000000000000e-01) (31, 6, 5.00000000000000000000e-01) (31, 6, 5.00000000000000000000e-01) (31, 6, 5.00000000000000000000e-01) (31, 6, 5.00000000000000000000e-01) (31, 6, 5.00000000000000000000e-01) (31, 6, 5.00000000000000000000e-01) (31, 6, 5.00000000000000000000e-01) (31, 6, 5.00000000000000000000e-01) (0, 6, 0.00000000000000000000e+00) (11, 6, 5.00000000000000000000e-01) (0, 6, 0.00000000000000000000e+00) 
connections (connected_to_neuron, weight)=(0, 4.34842820057358636632e+00) (1, 6.79106084973507440061e-01) (2, 6.76118178636723077268e-01) (3, 6.54277859599285638303e-01) (4, 6.20158261031800051022e-01) (5, 1.38214401050680280036e+00) (6, -9.96314629607927826349e-01) (7, 3.44776052028915103165e+00) (8, -8.60504874611885406388e-01) (9, 7.12903040033229995487e+00) (10, 1.08852201986167518299e+00) (11, 1.11893190430020017523e+00) (12, 1.48363700348016203101e+00) (13, 2.67284907081978762022e+00) (14, 2.44371442022751628187e+00) (15, -1.98849838543759749321e+00) (16, -1.90741800461040900139e+00) (17, -1.67884517556504930802e+00) (18, -7.83759134669985146893e-01) (19, -1.20699311214758098210e+00) (20, -2.42185357048285365700e-01) (21, 1.96231888187439906801e+00) (22, 5.67627760538917680577e+00) (23, -3.06110725018011342602e-01) (24, 1.98804752364639569784e-01) (25, -1.64210841252550587832e-01) (26, -8.84056064747584802177e-01) (27, -1.84352202021422950651e+00) (28, -5.84924888612283089273e-01) (29, 6.24379534346819697888e-01) (30, 2.38443306664307519416e-01) (0, 4.41759851539220704808e+00) (1, 6.65282560856037652464e-01) (2, 6.29242135555439729977e-01) (3, 5.82336088986092348385e-01) (4, 5.80208590597801943112e-01) (5, 1.25173542240079127552e+00) (6, -1.11921075701071015551e+00) (7, 3.52273688257714923111e+00) (8, -7.28534994299204208268e-01) (9, 2.98577864079678700904e+00) (10, 1.08562308791722217372e+00) (11, 2.01963892412861367731e+00) (12, 8.38786487631291155509e-01) (13, 2.59364932456868135802e+00) (14, 2.45185236158798991468e+00) (15, -1.37664944889069595924e+00) (16, -1.80633436904985944516e+00) (17, -1.76318927181006346316e+00) (18, -7.04866449381491899651e-01) (19, -8.21365295892144353651e-01) (20, -7.14181002066393899597e-01) (21, 2.45358399138622118585e+00) (22, 5.80210637287718178356e+00) (23, -1.11534842054943655887e-01) (24, -1.98741396119837321343e-01) (25, -2.62687094702467649476e-01) (26, -3.17884157109645126837e+00) (27, -2.16381951452107534895e-01) (28, -5.58180969954980232828e-01) (29, 3.70975661143878754356e-01) (30, 1.51455051282723407446e-01) (0, -3.05780001742358864547e-01) (1, 2.46445194678603686500e-02) (2, 3.77393320994674277835e-02) (3, -5.13299374980629719012e-02) (4, -1.00379132400244597267e-01) (5, 1.39975783292320099527e+00) (6, 3.14377940401387515057e-02) (7, 4.02447626815644332599e-01) (8, 5.66800229656640897069e-01) (9, -4.48783271165533320657e-02) (10, 1.18311692589208772297e+00) (11, 6.01772226804825560720e-01) (12, -1.45550645164177039348e-01) (13, -4.89968977065812286154e-02) (14, 1.42602371956775872408e-02) (15, 1.43427161630331811981e-01) (16, 4.38578036987179939454e-02) (17, 5.23672037303392901020e-02) (18, 2.85579185681575087319e-01) (19, 3.45563216078569435119e-01) (20, 4.03805444693732640271e-01) (21, 2.90698524214830245072e+00) (22, 8.13155223623101797159e+00) (23, 3.03686210823131852443e-01) (24, 6.99066852879656752684e-01) (25, -8.04985665485088430771e-02) (26, 4.73967429371435156060e-01) (27, -2.59959150684573203627e-01) (28, 1.36248997012165910803e-02) (29, -4.85617648829875167560e-02) (30, -1.73267214128401098039e-01) (0, -2.43176856378054147001e+01) (1, -5.99158946684938149146e-04) (2, -1.57492553834132270607e-01) (3, -5.37017043868819182739e-02) (4, -1.48572010938338355812e-01) (5, 1.41161714557674256021e+00) (6, 1.26146524676423121836e-01) (7, 1.71523286373673089500e+00) (8, 7.02061270511272983441e-01) (9, 5.37699439061857353828e-01) (10, 3.27319876347666294247e-01) (11, 6.81890538240619181742e-01) (12, -5.64417856905956027980e-02) (13, 1.10495134357310856310e-01) (14, 2.02172686273096702259e-01) (15, 4.94839248917068985634e-01) (16, 4.73456965607258861706e-01) (17, 3.21925716864548239204e-01) (18, 2.43549322586241012711e-01) (19, 3.85738695760448224714e-01) (20, 4.86590595704749939721e-01) (21, 1.70609243263953724856e+00) (22, 1.75908374607767448161e+00) (23, -1.75585223271359003316e-01) (24, 6.08164593854351065438e-01) (25, -2.16412289483619485475e-01) (26, 8.94830395671498912691e-01) (27, -6.97785869962003896250e-02) (28, -7.14893355419290998931e-02) (29, -1.89924194769731879973e-01) (30, -1.55393351072456359363e-01) (0, -9.54009251717368500501e-01) (1, 9.79679953273541494208e-03) (2, 1.39004154127479236797e-02) (3, -6.10924350101112526024e-02) (4, 3.05766401809096990960e-02) (5, 9.47696775056926399294e-01) (6, 1.80263082627208415243e-01) (7, 2.93706856084952616648e-01) (8, 3.71593976533405034868e-01) (9, 4.63409789476853725687e-02) (10, 2.13452296149052117569e-01) (11, 1.83651273655203450819e-01) (12, -7.70573478936411454532e-02) (13, -7.66900120971413523652e-02) (14, 1.69225080230409469229e-02) (15, 1.05219452273058677871e-01) (16, 2.60090267848181622146e-01) (17, 2.68621003817725079177e-01) (18, 3.45536056897953358646e-01) (19, 2.48844806728091283432e-01) (20, -2.55350567068020783967e-01) (21, -9.41432490905651397917e-01) (22, -1.76412046960785967586e-01) (23, 7.32735000527461322051e-02) (24, 5.47826760366709075711e-01) (25, -3.70102163098174063993e-01) (26, 1.22628837322176206803e-01) (27, 1.96464057695811100679e-01) (28, 1.52588219071434605389e-01) (29, 1.35946965479007086941e-01) (30, 1.14358943158640716242e-01) (0, -1.68277997570417459094e+00) (1, 1.28592137923617278600e-02) (2, -1.09492998875103469958e-01) (3, -7.11092840203862153192e-02) (4, -9.41927622327427827020e-02) (5, 1.31366294145545503547e+00) (6, 4.69567126735997222853e-02) (7, 5.91681853757706321950e-01) (8, 4.79966703058472943244e-01) (9, 3.59286287166072249022e-01) (10, 3.33653921555965626844e-01) (11, 6.26453027540775919668e-01) (12, -1.36233753678538627163e-01) (13, 9.32288605596303873724e-03) (14, -1.30548451015335520431e-01) (15, 4.94443047398601849551e-03) (16, -4.25872264469238301365e-02) (17, 1.19235658827963164619e-01) (18, 6.84448080413974369041e-02) (19, 2.36602857754371537213e-01) (20, 1.21330514378849910195e-01) (21, 3.47700773764202247795e-02) (22, -3.74391170944127604781e-01) (23, 7.35526494642073647157e-02) (24, 5.76284413445869114767e-01) (25, -1.96925180158930013263e-01) (26, 2.16367577068381278238e-01) (27, -4.71136827985584205614e-01) (28, -1.24000096610144286413e-01) (29, 3.63018722968214205271e-02) (30, -2.50229479052742863343e-02) (0, 1.71797452723758836690e+00) (1, 8.33969931432839706176e-02) (2, -8.99216576126845093531e-03) (3, 5.09311626979944004345e-02) (4, -4.10966579487684474659e-02) (5, 1.07579850931670661929e+00) (6, 1.84816401205423586074e-01) (7, 5.70793798808224561725e-01) (8, 5.86318542529920216921e-01) (9, -2.89919525472187245008e-01) (10, 5.16239215484932234546e-01) (11, 5.25158691473488703494e-01) (12, 8.61576717111182666109e-02) (13, 8.45441695003794624341e-02) (14, 1.53618779738834809745e-01) (15, 1.47072532431923863605e-01) (16, 2.47070591375255360633e-01) (17, 2.55847639035391705153e-01) (18, 2.48923038709737115548e-01) (19, 3.67850169406445881570e-01) (20, 3.58437273128957734070e-01) (21, -5.56214259860359216958e-01) (22, 9.49267519083889332876e+00) (23, 1.41443530094853164858e-01) (24, 5.66550555619702245203e-01) (25, -4.89635418794470700377e-01) (26, 3.00458942659899863603e-01) (27, 1.42090011072104283052e-01) (28, 2.18074468095684037561e-01) (29, -6.88121409954396273667e-02) (30, -3.82145058235634216270e-02) (0, 1.17711487557282490357e+00) (1, 2.74441488925692866907e-01) (2, 3.35320041422126124964e-01) (3, 2.70215161983249019251e-01) (4, 2.75800504628894160852e-01) (5, 6.60391014490249794733e+00) (6, -6.95395781438125498708e-02) (7, 7.50979810575421069530e-01) (8, -1.78584471366804042880e+00) (9, 4.61686912242261771055e-01) (10, 2.28681671558060761740e+00) (11, 5.24075254355391040306e-01) (12, 3.59459223820923046144e-01) (13, -8.12862600281838765248e-01) (14, -9.68233594750263826256e-01) (15, -1.81212057057031716845e+00) (16, -6.76610777558927511954e-01) (17, -1.69209338821904275996e+00) (18, -1.97026888229328067670e-01) (19, -4.40517406341525918911e-01) (20, 1.09731148437098802173e-01) (21, 1.49093997166512082231e+00) (22, 4.56512723878365012098e+00) (23, 1.83060063878761752898e-02) (24, -4.52242589866879374227e-01) (25, 1.89701376926028231207e-01) (26, -1.57135088618350748924e+00) (27, -2.12402052619281578316e+00) (28, -1.20602604932968549001e+00) (29, -8.45351088446958054412e-01) (30, -3.53877067890185137422e-01) (0, 4.31213024222936525121e+00) (1, 6.45008234650784051389e-01) (2, 6.79852662951641595335e-01) (3, 5.34585973591499952207e-01) (4, 6.57357348472767388792e-01) (5, 1.27017085590775669068e+00) (6, -1.07311114638401261523e+00) (7, 3.52983150423547442642e+00) (8, -7.61638981873781539811e-01) (9, 1.80667312123428835946e+00) (10, 2.06021138070297071820e+00) (11, 1.23226078586195630926e+00) (12, 5.72460778920128254832e-01) (13, 2.65227730253594362608e+00) (14, 2.37867010655831156996e+00) (15, -1.67686573528039351011e+00) (16, -1.46619591939204974018e+00) (17, -1.93591147732973967166e+00) (18, -6.08253716524026155632e-01) (19, -9.64965603297139318251e-01) (20, -3.31237852348069794495e-01) (21, 2.35576833993964029901e+00) (22, 5.88819028423649193371e+00) (23, -2.26650424512850057202e-01) (24, -2.81503842374329127374e-01) (25, -1.11190274550661785669e-01) (26, -9.24233797453654748466e-01) (27, -2.06362850249619589338e-01) (28, -5.66641461850655892007e-01) (29, 4.21433302626232186849e-01) (30, 1.11101961711724275816e-01) (0, 4.36706068199865171664e+01) (1, 5.38676540074206178232e-01) (2, 5.31845475253916566416e-01) (3, 6.70839893338537995859e-01) (4, 6.90801667687750642344e-01) (5, -8.78810395687536782816e+00) (6, -2.98971268282426511087e-02) (7, -2.00718842892867499472e+00) (8, -7.66781924495017253030e-01) (9, -4.67342228378963309154e+00) (10, -2.22231494622350167489e+00) (11, -1.93044036931380769140e+00) (12, -1.13894816115862251849e+00) (13, -2.96990780150547362126e-01) (14, -1.48397938114010058408e-02) (15, -1.87710572438205769430e-01) (16, -4.72152364010993030874e-01) (17, -5.74109012365988435889e-01) (18, -1.31403763437091813948e-01) (19, -3.68598485193682656735e-01) (20, -4.66147491155696425125e+00) (21, -3.61457329228036972069e+00) (22, -3.43985912689332362646e+00) (23, 7.15419062806151861977e-01) (24, -1.46614928118849530136e+00) (25, -5.93701751558662338404e-01) (26, -1.14106162870682492638e+00) (27, 1.55277750126819380494e-01) (28, 2.47546168583799963692e-01) (29, 7.31167388557184882991e-01) (30, 8.56240436580801400623e-01) (31, 3.99810870581817134894e-01) (32, 4.78630100563125715496e-01) (33, 7.07311359798022842860e-01) (34, 9.04758019004204161462e-01) (35, 1.87280705791283225148e-01) (36, 7.39160133656850182327e-01) (37, 1.94167235780454666694e-01) (38, 1.55145573106199780034e-01) (39, 4.45099727085049856612e-01) (40, -4.66007407142006446765e-01) (41, 4.68426958890316713635e-01) 
