FANN_FLO_2.1
num_layers=3
learning_rate=0.700000
connection_rate=1.000000
network_type=0
learning_momentum=0.000000
training_algorithm=2
train_error_function=1
train_stop_function=1
cascade_output_change_fraction=0.010000
quickprop_decay=-0.000100
quickprop_mu=1.750000
rprop_increase_factor=1.200000
rprop_decrease_factor=0.500000
rprop_delta_min=0.000000
rprop_delta_max=50.000000
rprop_delta_zero=0.100000
cascade_output_stagnation_epochs=12
cascade_candidate_change_fraction=0.010000
cascade_candidate_stagnation_epochs=12
cascade_max_out_epochs=150
cascade_min_out_epochs=50
cascade_max_cand_epochs=150
cascade_min_cand_epochs=50
cascade_num_candidate_groups=2
bit_fail_limit=1.00000000000000005551e-01
cascade_candidate_limit=1.00000000000000000000e+03
cascade_weight_multiplier=4.00000000000000022204e-01
cascade_activation_functions_count=10
cascade_activation_functions=3 5 7 8 10 11 14 15 16 17 
cascade_activation_steepnesses_count=4
cascade_activation_steepnesses=2.50000000000000000000e-01 5.00000000000000000000e-01 7.50000000000000000000e-01 1.00000000000000000000e+00 
layer_sizes=15 11 2 
scale_included=0
neurons (num_inputs, activation_function, activation_steepness)=(0, 0, 0.00000000000000000000e+00) (0, 0, 0.00000000000000000000e+00) (0, 0, 0.00000000000000000000e+00) (0, 0, 0.00000000000000000000e+00) (0, 0, 0.00000000000000000000e+00) (0, 0, 0.00000000000000000000e+00) (0, 0, 0.00000000000000000000e+00) (0, 0, 0.00000000000000000000e+00) (0, 0, 0.00000000000000000000e+00) (0, 0, 0.00000000000000000000e+00) (0, 0, 0.00000000000000000000e+00) (0, 0, 0.00000000000000000000e+00) (0, 0, 0.00000000000000000000e+00) (0, 0, 0.00000000000000000000e+00) (0, 0, 0.00000000000000000000e+00) (15, 6, 5.00000000000000000000e-01) (15, 6, 5.00000000000000000000e-01) (15, 6, 5.00000000000000000000e-01) (15, 6, 5.00000000000000000000e-01) (15, 6, 5.00000000000000000000e-01) (15, 6, 5.00000000000000000000e-01) (15, 6, 5.00000000000000000000e-01) (15, 6, 5.00000000000000000000e-01) (15, 6, 5.00000000000000000000e-01) (15, 6, 5.00000000000000000000e-01) (0, 6, 0.00000000000000000000e+00) (11, 6, 5.00000000000000000000e-01) (0, 6, 0.00000000000000000000e+00) 
connections (connected_to_neuron, weight)=(0, -6.55138514022575058071e-01) (1, -2.32008434765725510274e-02) (2, -5.18998242848305521568e-02) (3, -1.40829745673456740995e-01) (4, -1.36133816086569381376e-01) (5, 2.06203247084952234758e+00) (6, 7.08580277129670088598e-02) (7, -1.41508094054878297285e-01) (8, -2.33295019630624128615e-01) (9, -4.46587882666729829584e-01) (10, 1.48459736184741980525e-01) (11, 7.42656228366999210388e-02) (12, -2.93985277275457812518e-01) (13, -1.47138961936789519624e-01) (14, 1.66344828125916915917e-01) (0, 2.08436237746126735715e+01) (1, 2.64288876692095275889e-01) (2, 3.06837779024878021250e-01) (3, 3.95022813717165466318e-01) (4, 2.44195882717409551432e-01) (5, -3.26733446352104728305e+00) (6, -7.92984662217500746451e-01) (7, -9.37046895497237963824e-01) (8, -1.32968656033181642506e+00) (9, -3.06205450377227972325e+00) (10, -1.47697792132045280233e+00) (11, -1.38502295214112747246e+00) (12, -1.39633774816894007387e+00) (13, 1.08652454071182000273e-01) (14, 1.39990687869748081651e-01) (0, 2.24803705547477967741e+01) (1, 2.26466798693762377814e-01) (2, 2.58011044473276662803e-01) (3, 3.57819588393793686087e-01) (4, 2.95323716015444381888e-01) (5, -3.50742088753383329802e+00) (6, -7.66566199821832716665e-01) (7, -1.69558918790453128089e+00) (8, -7.40509637240460483198e-01) (9, -2.77168603466989349471e+00) (10, -8.47158326724385180029e-01) (11, -1.30382458065812234516e+00) (12, -1.36872461497687769594e+00) (13, 4.07346753303827469050e-02) (14, -1.84333776370522339771e-01) (0, 2.12255380887757034714e+01) (1, 3.45025478558973919263e-01) (2, 3.16471910732226024976e-01) (3, 3.58574523287253033033e-01) (4, 2.97913885372118603101e-01) (5, -3.37687578692443279849e+00) (6, -7.46127571835653813359e-01) (7, -1.32925223440284945298e+00) (8, -1.32935299783849214528e+00) (9, -2.88560850908815558213e+00) (10, -1.00536521040899340385e+00) (11, -1.68138270661532551742e+00) (12, -1.53458545238792831711e+00) (13, -3.34748226072500779105e-02) (14, 2.22323023282250370469e-01) (0, 4.75550486053108290019e-01) (1, 5.73468291414566455622e-01) (2, 4.49704834473915682214e-01) (3, 5.20278685940094520745e-01) (4, 5.64209067476578174372e-01) (5, 9.11231552792965437959e+00) (6, -3.04150137420034077929e-02) (7, 6.34173012101224786718e-01) (8, 1.27869271646399962350e+00) (9, 4.95638689391441200627e+00) (10, -7.58959803099965440998e-02) (11, 2.15410150301498015679e+00) (12, 1.45624864906369189121e+00) (13, -9.67061925152123635918e-01) (14, -8.88936353253186428702e-01) (0, -5.49089848081813380887e-01) (1, -4.19095642798333264945e-02) (2, -1.69578425579586578031e-01) (3, -5.01300133698372799018e-02) (4, -1.56218618147888732572e-01) (5, 1.69687335398453820190e+00) (6, -4.10765670970420146424e-02) (7, -4.33075945953171129177e-02) (8, -3.89210605320777169869e-01) (9, -6.62733279078689285768e-01) (10, -2.19125373695329157125e-04) (11, 1.55589514714827931163e-01) (12, -2.52585437009945346087e-01) (13, 4.05474860669465843321e-03) (14, 3.69060396234590415432e-01) (0, -5.80472094792084281067e-01) (1, -1.64524651997475859777e-02) (2, -1.26676823937216354032e-01) (3, -8.38078595631508993513e-02) (4, -9.97118614547638781875e-02) (5, 2.00480548319012896741e+00) (6, 1.32422866161733737700e-01) (7, 4.89441024023241563756e-03) (8, -1.83553058835324911513e-01) (9, -3.29431570797108441706e-01) (10, 1.13841542836099693381e-01) (11, 7.83910093132166446717e-02) (12, -5.19017783419141662260e-02) (13, 1.16964491349878657589e-02) (14, -1.05263617355145541743e-01) (0, 2.05727343261480051240e+01) (1, 3.34346239010134216318e-01) (2, 2.55605858305731237223e-01) (3, 4.38412223497667785654e-01) (4, 2.93902881929913040171e-01) (5, -3.20850806364683460714e+00) (6, -7.63958232117298186026e-01) (7, -1.13365659713994104685e+00) (8, -1.27467159999730350606e+00) (9, -3.29674427525090729674e+00) (10, -9.26788075601719385510e-01) (11, -1.48795090054653056377e+00) (12, -1.31969092100762819264e+00) (13, -3.07450252511866861660e-01) (14, 1.30261219021069324375e-02) (0, -5.91900012473807857205e-01) (1, -2.44435109131722894116e-02) (2, -1.61298736923256469389e-01) (3, -5.35186864369301615318e-02) (4, -9.85647253625779040664e-02) (5, 2.00792106094547051498e+00) (6, 1.53565768079425818415e-01) (7, -2.06619761524562156607e-01) (8, -2.41188820366097816938e-01) (9, -5.34771067645071984664e-01) (10, 8.52173752352257674048e-02) (11, 1.07583937469630120526e-02) (12, -1.83604914556160347949e-01) (13, -4.48434365647611340999e-02) (14, 2.62652550779936488912e-01) (0, -1.04156271434008695920e+00) (1, -3.98745089598320001656e-01) (2, -3.74890707262180322701e-01) (3, -4.53538685866020196968e-01) (4, -4.02467287905834192330e-01) (5, -9.47748814553180096709e+00) (6, 8.65194745912710616587e-01) (7, -2.52827152261632694119e-02) (8, -5.23868214625673012108e-01) (9, -4.60054707958369046850e+00) (10, 9.04330535912540756094e-01) (11, 1.60529051925396881728e+00) (12, 1.61330184752794814074e-01) (13, 1.76437422346091110636e-01) (14, 5.58402485105025214729e-01) (15, 4.40664711051983459811e-01) (16, -2.01429156069904136128e-01) (17, -2.40365286772399600057e-01) (18, -2.31255670492797604787e-01) (19, 5.02060540152274525916e-01) (20, 2.76913694874267923840e-01) (21, 1.49123714194837275748e-01) (22, -2.45412406926303616750e-01) (23, 5.91026836929703036638e-01) (24, -5.68733561307539492446e-01) (25, 5.53627493711689400158e-01) 
