FANN_FLO_2.1
num_layers=3
learning_rate=0.700000
connection_rate=1.000000
network_type=0
learning_momentum=0.000000
training_algorithm=2
train_error_function=1
train_stop_function=1
cascade_output_change_fraction=0.010000
quickprop_decay=-0.000100
quickprop_mu=1.750000
rprop_increase_factor=1.200000
rprop_decrease_factor=0.500000
rprop_delta_min=0.000000
rprop_delta_max=50.000000
rprop_delta_zero=0.100000
cascade_output_stagnation_epochs=12
cascade_candidate_change_fraction=0.010000
cascade_candidate_stagnation_epochs=12
cascade_max_out_epochs=150
cascade_min_out_epochs=50
cascade_max_cand_epochs=150
cascade_min_cand_epochs=50
cascade_num_candidate_groups=2
bit_fail_limit=1.00000000000000005551e-01
cascade_candidate_limit=1.00000000000000000000e+03
cascade_weight_multiplier=4.00000000000000022204e-01
cascade_activation_functions_count=10
cascade_activation_functions=3 5 7 8 10 11 14 15 16 17 
cascade_activation_steepnesses_count=4
cascade_activation_steepnesses=2.50000000000000000000e-01 5.00000000000000000000e-01 7.50000000000000000000e-01 1.00000000000000000000e+00 
layer_sizes=15 11 2 
scale_included=0
neurons (num_inputs, activation_function, activation_steepness)=(0, 0, 0.00000000000000000000e+00) (0, 0, 0.00000000000000000000e+00) (0, 0, 0.00000000000000000000e+00) (0, 0, 0.00000000000000000000e+00) (0, 0, 0.00000000000000000000e+00) (0, 0, 0.00000000000000000000e+00) (0, 0, 0.00000000000000000000e+00) (0, 0, 0.00000000000000000000e+00) (0, 0, 0.00000000000000000000e+00) (0, 0, 0.00000000000000000000e+00) (0, 0, 0.00000000000000000000e+00) (0, 0, 0.00000000000000000000e+00) (0, 0, 0.00000000000000000000e+00) (0, 0, 0.00000000000000000000e+00) (0, 0, 0.00000000000000000000e+00) (15, 6, 5.00000000000000000000e-01) (15, 6, 5.00000000000000000000e-01) (15, 6, 5.00000000000000000000e-01) (15, 6, 5.00000000000000000000e-01) (15, 6, 5.00000000000000000000e-01) (15, 6, 5.00000000000000000000e-01) (15, 6, 5.00000000000000000000e-01) (15, 6, 5.00000000000000000000e-01) (15, 6, 5.00000000000000000000e-01) (15, 6, 5.00000000000000000000e-01) (0, 6, 0.00000000000000000000e+00) (11, 6, 5.00000000000000000000e-01) (0, 6, 0.00000000000000000000e+00) 
connections (connected_to_neuron, weight)=(0, 1.88276418948690675848e+01) (1, 3.94571162833671329473e-01) (2, 3.98217059745292423223e-01) (3, 3.95271897389392612432e-01) (4, 4.85778763963680026983e-01) (5, -4.85266071439181079228e+00) (6, -5.45971667658744386209e-01) (7, -1.48559257651512655052e+00) (8, -1.53577750999855422442e+00) (9, -3.13460151601421710410e+00) (10, -3.89650486122229189334e-01) (11, -1.31120771167419336578e+00) (12, -1.26392205083528907927e+00) (13, -2.32442590966803024066e-02) (14, 7.52017372443886555899e-01) (0, 2.48413347534026573982e+00) (1, 5.29840583150597232986e-01) (2, 5.30039111321182865311e-01) (3, 3.88644011860104332534e-01) (4, 4.33375233953209704207e-01) (5, 4.36182925276786704671e+02) (6, 4.41872723453430593654e-01) (7, 5.60214565447783585661e-01) (8, 6.68882048409296769975e-01) (9, 2.21743625804502331178e+00) (10, 2.98571343910404463085e-01) (11, 4.04734854283646749984e-01) (12, 5.56947924359111778969e-01) (13, -5.05935833824162517480e-01) (14, -3.49147575943854981961e-01) (0, 2.07933278413760413983e+00) (1, 3.39765866393991367023e-01) (2, 2.08117400402971219897e-01) (3, 3.95127569432207059741e-01) (4, 2.19999690647073614658e-01) (5, -3.26067592123948024607e+00) (6, 1.63496733648349872048e-02) (7, 1.49208798793739827460e-01) (8, 1.05191106283824178935e-01) (9, 1.43356910948277627149e-01) (10, -1.07194419173644098220e-03) (11, -4.36183345371083525110e-02) (12, -1.80988423515537656672e-02) (13, -3.30494601298849999260e-01) (14, -5.72474793362136580299e-02) (0, 2.45047473243560265388e+00) (1, 2.76813013855447709322e-01) (2, 3.66049601141443359253e-01) (3, 3.06453830007543615022e-01) (4, 3.03634753827085490663e-01) (5, 4.36148999635458608282e+02) (6, 2.44492906314270508350e-01) (7, 5.44328337960661157169e-01) (8, 3.58164673183035020543e-01) (9, 1.45029544959593037490e+00) (10, 3.78198536939478302532e-01) (11, 3.76378370024369246494e-01) (12, 3.84764318419025197482e-01) (13, -4.56874335879080883949e-01) (14, 2.82423982020910568913e-01) (0, 1.16905736950283811737e+00) (1, 2.51924531335426971079e-01) (2, 2.15300941640926946086e-01) (3, 2.09385426516129125041e-01) (4, 2.39042317295862782878e-01) (5, -3.71835111424839759309e+00) (6, 8.32300539653674231744e-02) (7, 2.10209962864801397364e-01) (8, 4.33858892405638296719e-02) (9, 5.83808181171171280965e-01) (10, -9.39876877811376965077e-02) (11, 2.05085268806994545660e-04) (12, 1.45785359004310999254e-01) (13, 2.73645864300469977837e-02) (14, 8.39448674750809253897e-02) (0, -7.69050458146568782780e+00) (1, -1.66082757220972154766e-01) (2, -1.65662127242792223125e-01) (3, -1.95497373802548252142e-02) (4, -4.53771154148465277745e-02) (5, 2.58540565837988678410e+00) (6, -1.86982670535125822253e-01) (7, -1.77402036064853822761e-02) (8, -1.42951024213769928295e-01) (9, 5.86927728255947148139e-03) (10, -7.12199576488687924325e-02) (11, -5.79401858249616596996e-02) (12, -1.57507980869520280987e-01) (13, 3.20190015913544845372e-02) (14, -1.24372121553669209848e-01) (0, 9.88687257198853863827e-01) (1, 1.48397709955808490556e-02) (2, 1.23551551034089684977e-02) (3, 1.24793301128351477591e-01) (4, 3.51877536406156460336e-02) (5, -3.86467190898840184943e+00) (6, 7.97793938175200313678e-03) (7, 4.26639037180678026839e-02) (8, 1.00376958792204692972e-01) (9, 5.05442631437059741728e+00) (10, 3.73527801490825123176e-02) (11, 1.60756723117841560100e-01) (12, 2.59762418059061972464e-01) (13, -7.12606965904668404610e-03) (14, 4.99123803858683545709e-01) (0, 2.11656167390095939496e+00) (1, 2.81370547707029294848e-01) (2, 2.22118076975293954334e-01) (3, 3.93717740769334689777e-01) (4, 2.72023205752321195483e-01) (5, -3.25259064058266567088e+00) (6, 7.53906072122623727161e-02) (7, 1.96142054628580031483e-01) (8, 5.63190050963529795225e-02) (9, 1.58153344260646505637e-01) (10, -9.70744931247656261952e-02) (11, 2.15286835816427650492e-02) (12, -2.22980268288830198176e-02) (13, -3.57577223350089012932e-01) (14, 1.36808351366699637586e-01) (0, 1.23316029379050040582e+00) (1, 2.57495589927621781889e-01) (2, 2.33092420176454456771e-01) (3, 3.50830935315080583159e-01) (4, 4.30960908905454631590e-01) (5, -3.46923236737282758568e+00) (6, -7.85623807866200341010e-02) (7, 1.09751835480118950517e-01) (8, 6.86907858796739767548e-02) (9, 4.53995067858261935889e-01) (10, 2.71398729536111195382e-02) (11, -2.38625624863390284336e-02) (12, 8.65771239024330924172e-02) (13, -2.19326895948003697256e-01) (14, 1.79694696498398434614e-02) (0, 1.87841997945825838201e+01) (1, 3.93252670838336704229e-01) (2, 4.75898891760806797002e-01) (3, 4.57027569486598672643e-01) (4, 3.78960639311771096960e-01) (5, -4.48202202496301982393e+00) (6, -2.44202920033482068218e-01) (7, -1.69154198067575811670e+00) (8, -1.57130036712100529250e+00) (9, -2.50818962707921144784e+00) (10, -8.19986239053065890658e-01) (11, -1.62059876040874928371e+00) (12, -1.88960918358159313257e+00) (13, 9.79789197669403422175e-02) (14, 1.35009499209842287470e-01) (15, -3.69014106812426800897e-01) (16, 8.16163623333613141853e-01) (17, -2.32365168490216322805e-01) (18, 6.98981194538593531007e-01) (19, -2.03216510369269409697e-01) (20, 6.93243447837384674237e-01) (21, -4.86538891838328262096e-03) (22, -1.67938085268223541435e-01) (23, -1.95776445952425992569e-01) (24, -3.24338600161025225610e-01) (25, 6.52964597153647074990e-01) 
