FANN_FLO_2.1
num_layers=3
learning_rate=0.700000
connection_rate=1.000000
network_type=0
learning_momentum=0.000000
training_algorithm=2
train_error_function=1
train_stop_function=1
cascade_output_change_fraction=0.010000
quickprop_decay=-0.000100
quickprop_mu=1.750000
rprop_increase_factor=1.200000
rprop_decrease_factor=0.500000
rprop_delta_min=0.000000
rprop_delta_max=50.000000
rprop_delta_zero=0.100000
cascade_output_stagnation_epochs=12
cascade_candidate_change_fraction=0.010000
cascade_candidate_stagnation_epochs=12
cascade_max_out_epochs=150
cascade_min_out_epochs=50
cascade_max_cand_epochs=150
cascade_min_cand_epochs=50
cascade_num_candidate_groups=2
bit_fail_limit=1.00000000000000005551e-01
cascade_candidate_limit=1.00000000000000000000e+03
cascade_weight_multiplier=4.00000000000000022204e-01
cascade_activation_functions_count=10
cascade_activation_functions=3 5 7 8 10 11 14 15 16 17 
cascade_activation_steepnesses_count=4
cascade_activation_steepnesses=2.50000000000000000000e-01 5.00000000000000000000e-01 7.50000000000000000000e-01 1.00000000000000000000e+00 
layer_sizes=15 11 2 
scale_included=0
neurons (num_inputs, activation_function, activation_steepness)=(0, 0, 0.00000000000000000000e+00) (0, 0, 0.00000000000000000000e+00) (0, 0, 0.00000000000000000000e+00) (0, 0, 0.00000000000000000000e+00) (0, 0, 0.00000000000000000000e+00) (0, 0, 0.00000000000000000000e+00) (0, 0, 0.00000000000000000000e+00) (0, 0, 0.00000000000000000000e+00) (0, 0, 0.00000000000000000000e+00) (0, 0, 0.00000000000000000000e+00) (0, 0, 0.00000000000000000000e+00) (0, 0, 0.00000000000000000000e+00) (0, 0, 0.00000000000000000000e+00) (0, 0, 0.00000000000000000000e+00) (0, 0, 0.00000000000000000000e+00) (15, 6, 5.00000000000000000000e-01) (15, 6, 5.00000000000000000000e-01) (15, 6, 5.00000000000000000000e-01) (15, 6, 5.00000000000000000000e-01) (15, 6, 5.00000000000000000000e-01) (15, 6, 5.00000000000000000000e-01) (15, 6, 5.00000000000000000000e-01) (15, 6, 5.00000000000000000000e-01) (15, 6, 5.00000000000000000000e-01) (15, 6, 5.00000000000000000000e-01) (0, 6, 0.00000000000000000000e+00) (11, 6, 5.00000000000000000000e-01) (0, 6, 0.00000000000000000000e+00) 
connections (connected_to_neuron, weight)=(0, -7.74956598898391391117e+00) (1, -1.70882965152077376247e-01) (2, -1.63202310626320540310e-01) (3, -1.34273211185745922069e-01) (4, -1.09116474811844554882e-01) (5, 2.73023389513181946597e+00) (6, -1.20901280872192554150e-01) (7, -1.09548889205142802039e-01) (8, -8.71339540570301995803e-02) (9, 4.03539257969257603165e-01) (10, -1.62096313395154123516e-01) (11, -1.79648481917161539911e-01) (12, -1.73478806596994467037e-01) (13, -1.10206993902041167077e-01) (14, -6.95540242702541722242e-02) (0, -7.62972213348369265873e+00) (1, -1.66010087972880304719e-01) (2, -1.31760685390234777437e-01) (3, -1.08062102144957331018e-01) (4, -2.27624258643389532075e-01) (5, 2.77825285794670229222e+00) (6, -1.46642391593836879382e-01) (7, -1.26104419927534544543e-01) (8, -1.12353507690583762080e-01) (9, 2.67485974880289148481e-02) (10, -1.62600690649009033129e-01) (11, -3.93208147029998969502e-02) (12, -8.91838475133383545845e-02) (13, -8.46511001232402027217e-02) (14, -9.60966878520973649680e-02) (0, 3.59566224759049468673e+00) (1, 6.41533601507875084202e-01) (2, 6.57544258460733055394e-01) (3, 5.39677719995710014622e-01) (4, 6.05816009864541649144e-01) (5, 2.02722996174454763718e+01) (6, -1.57934047558674323097e-01) (7, 8.94009365179945225677e-01) (8, 6.05287355020704742614e-01) (9, 3.55632885882191018823e+00) (10, -1.04446702475170266622e-01) (11, 5.21933890357944241245e-01) (12, 6.81149449780645843688e-01) (13, -8.40362683203809968102e-02) (14, -3.57272869192791664439e-01) (0, -1.39673937412652215961e-01) (1, -1.38896376948889951203e-02) (2, -5.79599783878859617370e-02) (3, -4.52769260221092158247e-03) (4, -5.89103744488295652526e-02) (5, -7.95300942829806700729e+00) (6, 1.04986439836222675281e-01) (7, 2.37150708382020264375e-01) (8, 3.42584269289860965380e-01) (9, 8.45269264869237590965e-01) (10, 1.46898047106321733013e-01) (11, 1.22424867135036294363e-01) (12, 2.48114222829232455858e-01) (13, 5.61183470035485187921e-01) (14, 7.35442532502414980655e-02) (0, 2.81424598190122976504e+00) (1, 5.34603084627714886246e-01) (2, 5.24225424234000092483e-01) (3, 5.18810744587508088088e-01) (4, 5.99579717222777142105e-01) (5, 2.01496237627327516861e+01) (6, -8.13750925449225892550e-02) (7, 3.33353092525537630930e-01) (8, 4.84007747085088479988e-01) (9, 3.59583493658832864526e+00) (10, 2.91681952527959864607e-02) (11, 4.19334561275567341276e-01) (12, 5.20783140734168759067e-01) (13, -7.45261171827203083851e-01) (14, 1.25883159844627168233e-01) (0, -7.62469704469661380131e+00) (1, -1.87979355640635253932e-01) (2, -1.52785502560362523861e-01) (3, -2.81742140836939602977e-01) (4, -1.03867642767653214908e-01) (5, 2.86695691927355778006e+00) (6, -1.58906835749037855798e-01) (7, -3.53336537885040880003e-02) (8, -1.71344314031755012850e-01) (9, -7.66466907498923599729e-02) (10, -1.50645667510448222348e-01) (11, -1.10046918783676922482e-01) (12, -1.34055709464794253760e-01) (13, -2.92425403836504629873e-02) (14, -5.54145398957598400713e-02) (0, -2.55118694456967554096e-01) (1, 8.97409309334189393692e-03) (2, -5.42963714461859661697e-02) (3, 6.72384007710876835384e-02) (4, -7.79490442138251887760e-02) (5, -7.99091710320670500778e+00) (6, 1.04547399473387744862e-01) (7, 2.69100586120972873339e-01) (8, 2.03885974531064356752e-01) (9, 8.88841914228940654930e-01) (10, 1.68763891832884233013e-01) (11, 2.75561273228872138930e-01) (12, 2.79304640536198800493e-01) (13, 5.02918469453743743891e-01) (14, 6.60508318148853718066e-02) (0, 3.85986255259195516487e+01) (1, 3.57346156767702094470e-01) (2, 2.84973101846075049792e-01) (3, 3.46871489814615241443e-01) (4, 3.67755809954500190173e-01) (5, -4.75463549158471820988e+00) (6, -2.29520678636365937919e-01) (7, -2.30257893634253374415e+00) (8, -3.01659757771555803174e+00) (9, -4.77747674075969985807e+00) (10, 1.78020987273240172133e-01) (11, -2.23459134665672243258e+00) (12, -2.80094697251583291120e+00) (13, 2.22305922858931193087e-01) (14, 2.91977242884322418792e-01) (0, -2.74700238754006775821e+00) (1, -5.15721472140822367880e-02) (2, -4.02125002976927714560e-02) (3, -6.97804572221312341407e-02) (4, -9.56943364974531668343e-02) (5, 1.93315422771704392702e+00) (6, -1.02092032207586960735e-01) (7, -3.75036741715155386157e-01) (8, -2.93407802227479863610e-01) (9, -3.62481808487055745527e-01) (10, -2.05808281488110283997e-01) (11, -9.19202602003790641971e-02) (12, -2.72117657101098142647e-01) (13, 1.14346507682230077996e-01) (14, -1.19753739062582839625e-01) (0, 1.88747379389575087316e+00) (1, 4.97171869717544290257e-01) (2, 3.91694599978631707859e-01) (3, 3.43147596560424650303e-01) (4, 4.07408273063605996800e-01) (5, 2.02826083003640249558e+01) (6, 3.56777906240676317973e-02) (7, 4.09591185975119398410e-01) (8, 4.48344573014520852983e-01) (9, 3.46736079791120843652e+00) (10, 2.01263098433658998987e-01) (11, 2.47111628961611123900e-01) (12, 4.64353432355706752244e-01) (13, -1.70309417520403605373e+00) (14, 4.12241195212404598625e-01) (15, 4.80319316509365989987e-01) (16, 3.98297580900788261715e-01) (17, 4.93154338104547285138e-01) (18, -1.40970992916892967628e-01) (19, 4.93693715436280988751e-01) (20, 4.88987500789761497799e-01) (21, -1.61144943503207432878e-01) (22, -1.90468301831891700937e-01) (23, 4.46873474081613764053e-01) (24, 4.98992821676553510724e-01) (25, 4.96806103895372386248e-01) 
