FANN_FLO_2.1
num_layers=3
learning_rate=0.700000
connection_rate=1.000000
network_type=0
learning_momentum=0.000000
training_algorithm=2
train_error_function=1
train_stop_function=1
cascade_output_change_fraction=0.010000
quickprop_decay=-0.000100
quickprop_mu=1.750000
rprop_increase_factor=1.200000
rprop_decrease_factor=0.500000
rprop_delta_min=0.000000
rprop_delta_max=50.000000
rprop_delta_zero=0.100000
cascade_output_stagnation_epochs=12
cascade_candidate_change_fraction=0.010000
cascade_candidate_stagnation_epochs=12
cascade_max_out_epochs=150
cascade_min_out_epochs=50
cascade_max_cand_epochs=150
cascade_min_cand_epochs=50
cascade_num_candidate_groups=2
bit_fail_limit=1.00000000000000005551e-01
cascade_candidate_limit=1.00000000000000000000e+03
cascade_weight_multiplier=4.00000000000000022204e-01
cascade_activation_functions_count=10
cascade_activation_functions=3 5 7 8 10 11 14 15 16 17 
cascade_activation_steepnesses_count=4
cascade_activation_steepnesses=2.50000000000000000000e-01 5.00000000000000000000e-01 7.50000000000000000000e-01 1.00000000000000000000e+00 
layer_sizes=9 11 2 
scale_included=0
neurons (num_inputs, activation_function, activation_steepness)=(0, 0, 0.00000000000000000000e+00) (0, 0, 0.00000000000000000000e+00) (0, 0, 0.00000000000000000000e+00) (0, 0, 0.00000000000000000000e+00) (0, 0, 0.00000000000000000000e+00) (0, 0, 0.00000000000000000000e+00) (0, 0, 0.00000000000000000000e+00) (0, 0, 0.00000000000000000000e+00) (0, 0, 0.00000000000000000000e+00) (9, 6, 5.00000000000000000000e-01) (9, 6, 5.00000000000000000000e-01) (9, 6, 5.00000000000000000000e-01) (9, 6, 5.00000000000000000000e-01) (9, 6, 5.00000000000000000000e-01) (9, 6, 5.00000000000000000000e-01) (9, 6, 5.00000000000000000000e-01) (9, 6, 5.00000000000000000000e-01) (9, 6, 5.00000000000000000000e-01) (9, 6, 5.00000000000000000000e-01) (0, 6, 0.00000000000000000000e+00) (11, 6, 5.00000000000000000000e-01) (0, 6, 0.00000000000000000000e+00) 
connections (connected_to_neuron, weight)=(0, 1.11183581214077911170e+01) (1, 3.04107044602622111906e-01) (2, 3.52703344787348826994e-01) (3, 4.33247838879813274016e-01) (4, 3.17392130161513408293e-01) (5, -1.22640778886301227146e+00) (6, -3.09749172487174506685e+00) (7, -2.05011324955620111155e+00) (8, 2.01087695943592326131e+00) (0, 3.62541353194164236995e-02) (1, -1.46174213662516261358e-01) (2, -6.02921608833185337928e-02) (3, -2.80823174861780308631e-02) (4, -1.16423404589068024695e-01) (5, 1.23754117696645704605e+00) (6, -9.19982061900688918854e+00) (7, 2.23489406798844436608e+00) (8, 1.02929260216786146176e-02) (0, 1.46536364020693726795e-01) (1, 9.57149676609901495228e-02) (2, 2.55889672749128771478e-01) (3, 2.23663765900221217509e-01) (4, 1.72050524466123927469e-01) (5, 3.42244430455786105560e-02) (6, 2.13651680293217016704e-01) (7, 1.87945587205258474173e-01) (8, 4.16403659240100532113e-01) (0, -9.47362125345860284220e-02) (1, -1.37361942967537731253e-01) (2, -5.38605444041527492427e-02) (3, -2.04454965135220378958e-01) (4, -1.66062838575009197317e-01) (5, 1.04728989362923158302e-01) (6, 2.19639771639884306964e+00) (7, -5.78965904421761129450e-02) (8, -1.15725743569226727225e-01) (0, 4.03491763627188138042e-01) (1, 3.56214260644967972702e-01) (2, 3.39321052618081986374e-01) (3, 4.24568472392614304489e-01) (4, 3.01026938445623448715e-01) (5, 1.42403314747670144413e+01) (6, -7.28963084201174016385e+00) (7, 1.39371894707632844046e+01) (8, 2.22165682657026142266e+00) (0, 5.81406331644218399290e-01) (1, 4.06817846263502258530e-01) (2, 4.88649897540662958573e-01) (3, 4.10493098462675232163e-01) (4, 4.29855078722093719712e-01) (5, 6.43911492070534396959e+00) (6, -3.03206384537349649122e+00) (7, 1.38089795967293564871e+01) (8, 3.29522616864532269521e-01) (0, -1.57446473850198803701e-01) (1, -7.90773055191503759787e-02) (2, -1.23452717685268983927e-01) (3, -1.47608878569475379834e-03) (4, -1.28914596759842542406e-01) (5, 9.11606923343816072380e-02) (6, 2.25693840441539306241e+00) (7, -1.60958296269889250540e-01) (8, -9.92111889494376036902e-02) (0, -1.32569672209898042903e-01) (1, -6.34073710675703144934e-02) (2, -2.62281394238936017838e-02) (3, -1.07561694705055818644e-01) (4, -1.71238200985954908129e-01) (5, -4.81009849885316153467e-03) (6, 2.29062999620617224750e+00) (7, -6.10300215191796058267e-02) (8, -2.14863757587762410628e-01) (0, 1.10065238300390682014e+01) (1, 3.48783778384596843125e-01) (2, 3.60113868847758311631e-01) (3, 3.35575962797076243760e-01) (4, 3.78606731429965037705e-01) (5, -3.26925835154914468106e+00) (6, -3.19249425687705512544e+00) (7, -3.21525843907312802727e+00) (8, 3.90632383246662406862e+00) (0, 5.12353131152894025746e+00) (1, 3.48298981096119342205e-01) (2, 4.24557204599947390911e-01) (3, 3.86567230578035769817e-01) (4, 4.35174259598822055217e-01) (5, -2.39917507933300422351e+00) (6, -1.67252936351278114202e+00) (7, -4.72445791259172853671e+00) (8, 3.08986346923683541377e+00) (9, -1.40388204181255499270e-01) (10, -3.76290104005842340751e-01) (11, 3.58230913540400668429e-03) (12, 4.19320334535287497779e-01) (13, 5.35748696944552960097e-01) (14, 5.42273769008683181880e-01) (15, 3.47615701131571974702e-01) (16, 3.62343934349765028902e-01) (17, -4.27944943918993681020e-01) (18, -2.79725836179314402141e-01) (19, 2.50004314321155884926e-01) 
