FANN_FLO_2.1
num_layers=3
learning_rate=0.700000
connection_rate=1.000000
network_type=0
learning_momentum=0.000000
training_algorithm=2
train_error_function=1
train_stop_function=1
cascade_output_change_fraction=0.010000
quickprop_decay=-0.000100
quickprop_mu=1.750000
rprop_increase_factor=1.200000
rprop_decrease_factor=0.500000
rprop_delta_min=0.000000
rprop_delta_max=50.000000
rprop_delta_zero=0.100000
cascade_output_stagnation_epochs=12
cascade_candidate_change_fraction=0.010000
cascade_candidate_stagnation_epochs=12
cascade_max_out_epochs=150
cascade_min_out_epochs=50
cascade_max_cand_epochs=150
cascade_min_cand_epochs=50
cascade_num_candidate_groups=2
bit_fail_limit=1.00000000000000005551e-01
cascade_candidate_limit=1.00000000000000000000e+03
cascade_weight_multiplier=4.00000000000000022204e-01
cascade_activation_functions_count=10
cascade_activation_functions=3 5 7 8 10 11 14 15 16 17 
cascade_activation_steepnesses_count=4
cascade_activation_steepnesses=2.50000000000000000000e-01 5.00000000000000000000e-01 7.50000000000000000000e-01 1.00000000000000000000e+00 
layer_sizes=9 11 2 
scale_included=0
neurons (num_inputs, activation_function, activation_steepness)=(0, 0, 0.00000000000000000000e+00) (0, 0, 0.00000000000000000000e+00) (0, 0, 0.00000000000000000000e+00) (0, 0, 0.00000000000000000000e+00) (0, 0, 0.00000000000000000000e+00) (0, 0, 0.00000000000000000000e+00) (0, 0, 0.00000000000000000000e+00) (0, 0, 0.00000000000000000000e+00) (0, 0, 0.00000000000000000000e+00) (9, 6, 5.00000000000000000000e-01) (9, 6, 5.00000000000000000000e-01) (9, 6, 5.00000000000000000000e-01) (9, 6, 5.00000000000000000000e-01) (9, 6, 5.00000000000000000000e-01) (9, 6, 5.00000000000000000000e-01) (9, 6, 5.00000000000000000000e-01) (9, 6, 5.00000000000000000000e-01) (9, 6, 5.00000000000000000000e-01) (9, 6, 5.00000000000000000000e-01) (0, 6, 0.00000000000000000000e+00) (11, 6, 5.00000000000000000000e-01) (0, 6, 0.00000000000000000000e+00) 
connections (connected_to_neuron, weight)=(0, 3.30461564245986050281e-01) (1, 1.06145386126663909820e+00) (2, 1.05771152403977120038e+00) (3, 1.00079714235689865021e+00) (4, 9.82492310077216268738e-01) (5, 1.64384090295132239135e+01) (6, -6.78690530783959644623e+00) (7, 6.88603738370004858638e+00) (8, -4.43489735580399613291e-01) (0, 3.89425886307387891794e-01) (1, -3.49117950053875802929e-01) (2, -2.61646867247288417158e-01) (3, -3.94801516534750818188e-01) (4, -2.88779750915234334485e-01) (5, -3.25389280821867965532e-01) (6, 4.66278885091198258550e+00) (7, -1.01388667160758316754e+00) (8, -2.19282811116602111001e-01) (0, 5.14466426253524122814e-01) (1, 7.18764912358376029111e-01) (2, 7.76064369848820212461e-01) (3, 8.12025208047482016660e-01) (4, 6.37414608172031771360e-01) (5, 2.02136119654581065674e+01) (6, -5.81767298041587377355e+00) (7, 8.83316793621269091830e+00) (8, -2.43173551951031297058e-01) (0, -2.06863405260325039503e-01) (1, 8.92799425832887294519e-01) (2, 7.20168221704622135704e-01) (3, 8.20977326445241573083e-01) (4, 8.80580309741159084069e-01) (5, 1.45924924832239311101e+00) (6, 5.58625765224125814257e+00) (7, 2.25701278046302050706e-02) (8, 5.61395141153809978940e-02) (0, 6.26430238407803430256e-01) (1, -1.88388494769337860868e-01) (2, -7.82609935796291789067e-02) (3, -1.55414370814564911649e-01) (4, -9.10885091817409953130e-02) (5, 4.98234047410222369301e-01) (6, -1.73421053076241804547e+00) (7, 9.10179213711241108520e-01) (8, -2.48562776522489627118e-02) (0, 4.33190648887782636667e-01) (1, -2.89377548565081299525e-01) (2, -4.12803285588434987208e-01) (3, -2.70667188634089173060e-01) (4, -3.43649298717192464014e-01) (5, -1.73359902698083301331e+00) (6, 5.29629965385606560346e+00) (7, -1.46830450018219149655e+00) (8, -1.10609426027302754081e-01) (0, -3.20563966485739260115e-01) (1, 9.12630815021653774011e-01) (2, 7.53704320602079258506e-01) (3, 7.28336166553159580772e-01) (4, 8.53559467904229762780e-01) (5, 1.31415328156604926946e+00) (6, 5.54609558065560293016e+00) (7, 5.75183909093658803091e-03) (8, 1.99153937664556357490e-01) (0, 6.67160625380230798420e-01) (1, -1.68156830588582245634e-01) (2, -2.31974227348569123075e-01) (3, -6.43461700475246867192e-02) (4, -2.44996218005421845243e-01) (5, -4.89305890697417145141e-01) (6, 1.17000650518999238514e+00) (7, -3.01407702484366035733e+00) (8, -2.14736522854684669381e-01) (0, -2.36869354879169202732e+00) (1, -1.99059317326949480886e-01) (2, -3.23781775749133471365e-01) (3, -3.23269078946517351980e-01) (4, -2.57994572139190025961e-01) (5, 6.38121924674805995892e-01) (6, 1.60571948134915554185e+00) (7, 9.14808384790344986115e-01) (8, -9.11132029730273185208e-01) (0, -2.58889951880887758673e-01) (1, -1.12022530617954307885e+00) (2, -9.45610489275474641602e-01) (3, -9.93411685850639436524e-01) (4, -1.09299722644331032129e+00) (5, -6.06565450871815903255e-01) (6, 6.96442882770385018887e+00) (7, -9.87545514932449908230e-01) (8, -6.69352751266333312330e-02) (9, 6.52677138309362581126e-01) (10, 4.32696527736424751964e-01) (11, 6.21944059591177267343e-01) (12, -2.64035421123322622261e-01) (13, -4.94481720081385467402e-01) (14, 1.65267059220240236650e-01) (15, -2.40862670054253547036e-01) (16, -2.30892127100736282985e-01) (17, 6.15822753966672742365e-01) (18, 4.51368781814452058043e-01) (19, 5.25924493190023323308e-01) 
