FANN_FLO_2.1
num_layers=3
learning_rate=0.700000
connection_rate=1.000000
network_type=0
learning_momentum=0.000000
training_algorithm=2
train_error_function=1
train_stop_function=1
cascade_output_change_fraction=0.010000
quickprop_decay=-0.000100
quickprop_mu=1.750000
rprop_increase_factor=1.200000
rprop_decrease_factor=0.500000
rprop_delta_min=0.000000
rprop_delta_max=50.000000
rprop_delta_zero=0.100000
cascade_output_stagnation_epochs=12
cascade_candidate_change_fraction=0.010000
cascade_candidate_stagnation_epochs=12
cascade_max_out_epochs=150
cascade_min_out_epochs=50
cascade_max_cand_epochs=150
cascade_min_cand_epochs=50
cascade_num_candidate_groups=2
bit_fail_limit=1.00000000000000005551e-01
cascade_candidate_limit=1.00000000000000000000e+03
cascade_weight_multiplier=4.00000000000000022204e-01
cascade_activation_functions_count=10
cascade_activation_functions=3 5 7 8 10 11 14 15 16 17 
cascade_activation_steepnesses_count=4
cascade_activation_steepnesses=2.50000000000000000000e-01 5.00000000000000000000e-01 7.50000000000000000000e-01 1.00000000000000000000e+00 
layer_sizes=9 11 2 
scale_included=0
neurons (num_inputs, activation_function, activation_steepness)=(0, 0, 0.00000000000000000000e+00) (0, 0, 0.00000000000000000000e+00) (0, 0, 0.00000000000000000000e+00) (0, 0, 0.00000000000000000000e+00) (0, 0, 0.00000000000000000000e+00) (0, 0, 0.00000000000000000000e+00) (0, 0, 0.00000000000000000000e+00) (0, 0, 0.00000000000000000000e+00) (0, 0, 0.00000000000000000000e+00) (9, 6, 5.00000000000000000000e-01) (9, 6, 5.00000000000000000000e-01) (9, 6, 5.00000000000000000000e-01) (9, 6, 5.00000000000000000000e-01) (9, 6, 5.00000000000000000000e-01) (9, 6, 5.00000000000000000000e-01) (9, 6, 5.00000000000000000000e-01) (9, 6, 5.00000000000000000000e-01) (9, 6, 5.00000000000000000000e-01) (9, 6, 5.00000000000000000000e-01) (0, 6, 0.00000000000000000000e+00) (11, 6, 5.00000000000000000000e-01) (0, 6, 0.00000000000000000000e+00) 
connections (connected_to_neuron, weight)=(0, 1.64426068080818388317e+00) (1, 9.95932486755216506147e-01) (2, 9.75593832237089064741e-01) (3, 1.12477228502687220946e+00) (4, 1.08556989292558436766e+00) (5, 1.89555779662292422927e-01) (6, -6.27951694184521791442e+00) (7, 8.57585469274716738486e-02) (8, 3.86616259467391087945e-01) (0, 2.57926746676905238598e-01) (1, -8.42816605899459753148e-02) (2, -7.54895806048042211644e-02) (3, -5.11470250520832114827e-02) (4, -9.55131277177459631078e-02) (5, -1.57723865991016287680e-02) (6, -1.79362111540732271919e+00) (7, 1.20432076081029726389e+00) (8, 2.47115967897048288693e-01) (0, -2.27211907639338406284e-01) (1, -2.01782029397504008780e-03) (2, 6.15677143978355378984e-02) (3, -8.11749678505184202315e-02) (4, -1.02787116582465365422e-01) (5, 7.59987385801984660638e-01) (6, -1.40520301021756742477e-02) (7, 8.57909324352985946938e-01) (8, -4.54307195588202650249e-01) (0, 3.76643708828505063835e-01) (1, -7.82365877336203691117e-02) (2, -5.03571447139918165758e-02) (3, 5.45173099578030295048e-03) (4, -2.97618027931391589125e-02) (5, 3.23922898156940919367e-01) (6, -8.97702631588316313227e-02) (7, 1.26124154774269081614e-01) (8, 2.33875386276667041052e-01) (0, 2.09173050154862938399e+00) (1, 9.51510904454892281201e-01) (2, 9.16901631378834625075e-01) (3, 8.54077166044419300306e-01) (4, 8.92735270881360065687e-01) (5, 1.16486445057484022669e+01) (6, -8.30879289781899643685e+00) (7, 9.45059198893921070805e+00) (8, 1.74796349001938855494e-01) (0, 2.33366034103768243968e-01) (1, -4.75582570007568941617e-02) (2, -4.41849135032421694302e-02) (3, 7.26306050845855200038e-02) (4, -5.40894769302135980382e-02) (5, 4.03695154340369377621e+00) (6, -9.58323246822951446688e+00) (7, 4.92420177592943186795e+00) (8, -1.47772385413608542404e-01) (0, -3.14137292614364960208e-01) (1, 3.96959539102791289511e-02) (2, 3.08059807466743926230e-02) (3, 3.79012282537697295370e-02) (4, -1.08368033583235934270e-01) (5, 7.94351177148534759453e-01) (6, -7.60456960953895533262e-02) (7, 8.31871638779885014259e-01) (8, -4.82695114656539137066e-01) (0, 3.71816264468611556993e+00) (1, 3.75304910832084559491e-01) (2, 4.03807416104711491833e-01) (3, 4.03905979835428197156e-01) (4, 3.93305327289737605145e-01) (5, -9.15252559665903020480e-01) (6, -2.12816204496837002580e+00) (7, -1.30994825141612891706e+00) (8, 6.55100844501064427661e-01) (0, 1.60306343888707054646e+01) (1, 5.67184066067250247656e-01) (2, 6.66729492733986850439e-01) (3, 6.73964542935402866064e-01) (4, 7.25530562589676852880e-01) (5, -2.42810786054990224159e+00) (6, -1.79579253241810832264e+00) (7, -4.61829868405697574474e+00) (8, 4.47202373891936399986e-01) (0, -2.43544966151773040197e-01) (1, -3.24329991806685978203e-03) (2, -4.28291754614704622481e-04) (3, -1.33154983417879929641e-01) (4, -9.41649589406364923017e-02) (5, 5.53523754061157613471e-01) (6, 1.10556003407440081587e-01) (7, 4.05897192289828734335e-01) (8, -2.87789028990155515420e-01) (9, -1.52292906575697939431e-01) (10, -5.78165051445013802867e-02) (11, 8.45446488497214820867e-01) (12, 1.96596067639782847575e-03) (13, 8.79033459344573109284e-01) (14, -8.72081790289806035865e-01) (15, 7.93410908404665105031e-01) (16, -1.78352304990163967879e-01) (17, -1.51454921044583967760e-01) (18, 6.31358545905154611155e-01) (19, 3.05168330334538051574e-01) 
