FANN_FLO_2.1
num_layers=3
learning_rate=0.700000
connection_rate=1.000000
network_type=0
learning_momentum=0.000000
training_algorithm=2
train_error_function=1
train_stop_function=1
cascade_output_change_fraction=0.010000
quickprop_decay=-0.000100
quickprop_mu=1.750000
rprop_increase_factor=1.200000
rprop_decrease_factor=0.500000
rprop_delta_min=0.000000
rprop_delta_max=50.000000
rprop_delta_zero=0.100000
cascade_output_stagnation_epochs=12
cascade_candidate_change_fraction=0.010000
cascade_candidate_stagnation_epochs=12
cascade_max_out_epochs=150
cascade_min_out_epochs=50
cascade_max_cand_epochs=150
cascade_min_cand_epochs=50
cascade_num_candidate_groups=2
bit_fail_limit=1.00000000000000005551e-01
cascade_candidate_limit=1.00000000000000000000e+03
cascade_weight_multiplier=4.00000000000000022204e-01
cascade_activation_functions_count=10
cascade_activation_functions=3 5 7 8 10 11 14 15 16 17 
cascade_activation_steepnesses_count=4
cascade_activation_steepnesses=2.50000000000000000000e-01 5.00000000000000000000e-01 7.50000000000000000000e-01 1.00000000000000000000e+00 
layer_sizes=20 11 2 
scale_included=0
neurons (num_inputs, activation_function, activation_steepness)=(0, 0, 0.00000000000000000000e+00) (0, 0, 0.00000000000000000000e+00) (0, 0, 0.00000000000000000000e+00) (0, 0, 0.00000000000000000000e+00) (0, 0, 0.00000000000000000000e+00) (0, 0, 0.00000000000000000000e+00) (0, 0, 0.00000000000000000000e+00) (0, 0, 0.00000000000000000000e+00) (0, 0, 0.00000000000000000000e+00) (0, 0, 0.00000000000000000000e+00) (0, 0, 0.00000000000000000000e+00) (0, 0, 0.00000000000000000000e+00) (0, 0, 0.00000000000000000000e+00) (0, 0, 0.00000000000000000000e+00) (0, 0, 0.00000000000000000000e+00) (0, 0, 0.00000000000000000000e+00) (0, 0, 0.00000000000000000000e+00) (0, 0, 0.00000000000000000000e+00) (0, 0, 0.00000000000000000000e+00) (0, 0, 0.00000000000000000000e+00) (20, 6, 5.00000000000000000000e-01) (20, 6, 5.00000000000000000000e-01) (20, 6, 5.00000000000000000000e-01) (20, 6, 5.00000000000000000000e-01) (20, 6, 5.00000000000000000000e-01) (20, 6, 5.00000000000000000000e-01) (20, 6, 5.00000000000000000000e-01) (20, 6, 5.00000000000000000000e-01) (20, 6, 5.00000000000000000000e-01) (20, 6, 5.00000000000000000000e-01) (0, 6, 0.00000000000000000000e+00) (11, 6, 5.00000000000000000000e-01) (0, 6, 0.00000000000000000000e+00) 
connections (connected_to_neuron, weight)=(0, 2.27670898781234036790e+01) (1, 3.15366617818547023688e-01) (2, 3.59919264395905269538e-01) (3, 3.56802731235695613776e-01) (4, 2.81283147116375698005e-01) (5, -1.81409823976074546792e+00) (6, -2.46308637182255507625e+00) (7, -1.37103510132426564816e+00) (8, -2.96786993530156495424e+00) (9, -2.29140932271083475058e+00) (10, -1.88472421947066681724e+00) (11, -2.34548977308925366003e+00) (12, -2.48177994185758121759e+00) (13, -1.59172416808581768111e-01) (14, -6.07876507608419736073e+00) (15, -1.51901588905532936025e+00) (16, -1.42406031662614074307e+00) (17, -1.03333931247339405601e+00) (18, 1.50533034025403611444e+00) (19, 2.30949078191448364805e+00) (0, 3.40965294990820737553e+01) (1, 3.52947826809784370727e-01) (2, 3.03698032475611168213e-01) (3, 2.71627228088280159302e-01) (4, 3.73994740970035988159e-01) (5, -1.07839051124436857698e+00) (6, -1.34016017251105101771e+00) (7, -2.94197017494291479522e+00) (8, -1.84165111612464205137e+00) (9, -2.60275064003999645479e+00) (10, -1.74974416461248871713e+00) (11, -2.61214585303147828199e+00) (12, -2.40392798433276100312e+00) (13, -1.33762132634601726977e+00) (14, -4.22424673180314602661e+00) (15, -8.04296121943325337256e-01) (16, -4.12681802306373579636e-01) (17, -9.36046698170234114933e-01) (18, -1.29548421356010723393e+00) (19, 8.92693484965423111888e-01) (0, 5.36189039089676722227e+00) (1, 7.89866710402469390795e-02) (2, 1.78279523024747671434e-01) (3, 2.37694155643174948045e-01) (4, 2.43909802506158651658e-01) (5, -2.99281028271500937343e-01) (6, -2.93786373609995710154e+00) (7, 4.52718513523510834862e-01) (8, -2.82800752753059769784e-01) (9, -4.35367855147437976537e-01) (10, -8.13555285189738075502e-01) (11, -3.32609652738400873861e-01) (12, -3.49062660395591084495e-01) (13, -5.52135330574334837195e-01) (14, -2.18302832624665876793e+00) (15, -1.08312336654515983803e+00) (16, -1.28420420724276707070e+00) (17, -1.13866823258251370632e-01) (18, 9.24621322536652967550e-01) (19, 2.66608695567525810777e-01) (0, 5.14685415418709490964e-01) (1, 1.09551043969140948775e-01) (2, 1.41576843124376322569e-01) (3, 2.17112803619848249159e-01) (4, 7.97270664689406910464e-02) (5, -8.46629140890252096519e-02) (6, 3.24229124678377633728e+00) (7, -2.31396215950340933265e-01) (8, -3.92402268493660180693e-02) (9, 6.22389303216284578424e-02) (10, -3.00985849719502762678e-01) (11, 2.84509976449161365586e-02) (12, 2.87920665042497997410e-02) (13, 1.00999071578878954480e-01) (14, -3.14912433810526382061e+00) (15, -5.42895592963717144031e-01) (16, 7.20067579232502447129e-02) (17, 1.49416579992904474672e-01) (18, 6.14038761717424219633e-01) (19, 1.40486525502792392039e-01) (0, -5.92201195019287496280e+00) (1, -3.29347051701873727581e-01) (2, -2.56194375477165059429e-01) (3, -3.09698350749343709332e-01) (4, -2.18329995892375838817e-01) (5, 6.64814897649367408938e-01) (6, -1.32586955212948305416e+03) (7, 1.30606941700656253857e+00) (8, -7.65590548669289328032e-02) (9, -7.05131171285924059772e-03) (10, 3.10991151280674671398e-01) (11, -1.50037892185243843662e-02) (12, -9.93920851598125293380e-02) (13, 7.99367419143723445529e-01) (14, -4.11861421282041195724e+00) (15, 3.35788081718025654965e-01) (16, 3.54290052025470314501e-01) (17, -1.62430146086843855101e-03) (18, 3.72284051690785711131e-01) (19, -6.79481855482169244675e-02) (0, -1.01151620132919575212e+01) (1, -4.08949336204003296991e-02) (2, -6.75883447918366186968e-02) (3, -1.61234655061669118759e-01) (4, -8.39440753850411586212e-02) (5, 2.36701866811064393081e-01) (6, 1.96418755484439855330e+00) (7, 4.14437995700439210101e-01) (8, 5.79343895760275673368e-01) (9, 5.42180651745862163260e-01) (10, 6.61515827880074458456e-01) (11, 5.27554287659147580491e-01) (12, 6.09418410371193819408e-01) (13, 5.37570901732629946590e-02) (14, 6.53920566690254112530e+00) (15, 3.71035231236099272145e-01) (16, -7.03423655802926095504e-02) (17, -2.07723055834071379522e+00) (18, 1.56903717603815762160e+00) (19, -1.57227473194582467730e-01) (0, 1.16855599116892605593e+00) (1, 1.64690841791744951861e-01) (2, 1.14349518773670999483e-01) (3, 2.13687238154526476519e-01) (4, 1.00192409811135169084e-01) (5, -3.53129148241219492643e-01) (6, -1.06133941443140269456e+01) (7, -7.57538491016894077745e-01) (8, -1.20809392282460431600e-01) (9, -7.11490524591714801339e-01) (10, -1.13038723524233053475e+00) (11, -8.45999631316694644667e-01) (12, -7.07394791773627851228e-01) (13, -1.28916120866105793352e-01) (14, -1.57987142774755495722e+00) (15, -1.39617780952726078247e+00) (16, -8.09831465284861828913e-01) (17, 3.57451994358656335860e-02) (18, -2.62509633148349186271e-01) (19, 2.07502993781554345709e-01) (0, 5.70610720111085378825e-01) (1, 7.81668518905517389905e-02) (2, 1.02262089145648202293e-01) (3, -5.41299040193679581456e-02) (4, 5.02460693244812101055e-02) (5, 1.31903523830816382656e-01) (6, 1.14966684287424012467e+01) (7, 5.87357933248398356163e-01) (8, 3.85151419380492687772e-01) (9, -1.39279793559230636452e-02) (10, 2.15273768619082844777e-01) (11, 9.41558971013929935090e-02) (12, 5.53062183956335232105e-02) (13, 4.32659091428927167211e-02) (14, 1.24743322144742196933e+00) (15, 4.63165308811314888060e-02) (16, 4.62075375847674663099e-01) (17, 1.51424173315126246731e-02) (18, 2.05226636693168623671e-02) (19, -2.64155954671216955387e-02) (0, -7.12841635581824650814e+00) (1, -3.64445302784305869004e-02) (2, -4.26572043597561109673e-02) (3, -6.25112135112149275296e-02) (4, -1.52898140639052992906e-01) (5, 2.40637705323499540011e-01) (6, 2.47513675712751091140e+00) (7, 3.65295399136170761967e-01) (8, 1.26776170071592253485e-01) (9, 4.19752230634081069383e-01) (10, 1.90898427738943249343e-01) (11, 4.00188257682697445805e-01) (12, 3.17610630242805225265e-01) (13, -8.09717451843764562947e-03) (14, 3.71578731952035168362e+00) (15, 3.33298987387997736054e-01) (16, 7.63614824802880232113e-01) (17, -2.25128085996957161274e-01) (18, 6.72473693651688964046e-01) (19, -8.67606045830149191778e-02) (0, -4.41831878442324388345e+00) (1, -3.35308397113420697533e-01) (2, -1.72932097612955359978e-01) (3, -3.08176161645986657067e-01) (4, -3.40316416620351891442e-01) (5, 7.59181058693138122173e-01) (6, -1.32601070911583883571e+03) (7, 1.24401996106583911939e+00) (8, 1.64927631406489194621e-01) (9, 6.25473717309359522609e-01) (10, 6.61239158020990203113e-01) (11, 7.06307566242086015684e-01) (12, 6.16365260605707843133e-01) (13, 6.74502283187077611437e-01) (14, -4.69594540547125305352e+00) (15, 7.65795071695546836210e-01) (16, 1.03688931343625245773e+00) (17, 1.86181837163979513328e-01) (18, 1.29119441331661244377e+00) (19, -1.25276185282092139550e-01) (20, -6.65647605117024587784e-01) (21, -7.11330728742249340790e-01) (22, -2.54780825807029875918e-01) (23, 3.73739355850142951354e-01) (24, -7.85092961206852013589e-01) (25, 4.24843140709730782145e-01) (26, -3.06835111400530213821e-01) (27, 1.46831734178406281277e-01) (28, 4.03669270355708320608e-01) (29, -8.47549047532807131589e-01) (30, 7.62085252689224224021e-01) 
