FANN_FLO_2.1
num_layers=3
learning_rate=0.700000
connection_rate=1.000000
network_type=0
learning_momentum=0.000000
training_algorithm=2
train_error_function=1
train_stop_function=1
cascade_output_change_fraction=0.010000
quickprop_decay=-0.000100
quickprop_mu=1.750000
rprop_increase_factor=1.200000
rprop_decrease_factor=0.500000
rprop_delta_min=0.000000
rprop_delta_max=50.000000
rprop_delta_zero=0.100000
cascade_output_stagnation_epochs=12
cascade_candidate_change_fraction=0.010000
cascade_candidate_stagnation_epochs=12
cascade_max_out_epochs=150
cascade_min_out_epochs=50
cascade_max_cand_epochs=150
cascade_min_cand_epochs=50
cascade_num_candidate_groups=2
bit_fail_limit=1.00000000000000005551e-01
cascade_candidate_limit=1.00000000000000000000e+03
cascade_weight_multiplier=4.00000000000000022204e-01
cascade_activation_functions_count=10
cascade_activation_functions=3 5 7 8 10 11 14 15 16 17 
cascade_activation_steepnesses_count=4
cascade_activation_steepnesses=2.50000000000000000000e-01 5.00000000000000000000e-01 7.50000000000000000000e-01 1.00000000000000000000e+00 
layer_sizes=20 11 2 
scale_included=0
neurons (num_inputs, activation_function, activation_steepness)=(0, 0, 0.00000000000000000000e+00) (0, 0, 0.00000000000000000000e+00) (0, 0, 0.00000000000000000000e+00) (0, 0, 0.00000000000000000000e+00) (0, 0, 0.00000000000000000000e+00) (0, 0, 0.00000000000000000000e+00) (0, 0, 0.00000000000000000000e+00) (0, 0, 0.00000000000000000000e+00) (0, 0, 0.00000000000000000000e+00) (0, 0, 0.00000000000000000000e+00) (0, 0, 0.00000000000000000000e+00) (0, 0, 0.00000000000000000000e+00) (0, 0, 0.00000000000000000000e+00) (0, 0, 0.00000000000000000000e+00) (0, 0, 0.00000000000000000000e+00) (0, 0, 0.00000000000000000000e+00) (0, 0, 0.00000000000000000000e+00) (0, 0, 0.00000000000000000000e+00) (0, 0, 0.00000000000000000000e+00) (0, 0, 0.00000000000000000000e+00) (20, 6, 5.00000000000000000000e-01) (20, 6, 5.00000000000000000000e-01) (20, 6, 5.00000000000000000000e-01) (20, 6, 5.00000000000000000000e-01) (20, 6, 5.00000000000000000000e-01) (20, 6, 5.00000000000000000000e-01) (20, 6, 5.00000000000000000000e-01) (20, 6, 5.00000000000000000000e-01) (20, 6, 5.00000000000000000000e-01) (20, 6, 5.00000000000000000000e-01) (0, 6, 0.00000000000000000000e+00) (11, 6, 5.00000000000000000000e-01) (0, 6, 0.00000000000000000000e+00) 
connections (connected_to_neuron, weight)=(0, 1.12821627835955879959e+01) (1, 2.08644385114060276765e-01) (2, 3.20138710215435606798e-01) (3, 1.81579376235352502045e-01) (4, 1.91629062071190819916e-01) (5, -6.65559690075380516738e-01) (6, -4.17325551590637999766e+00) (7, -8.16679853246802478495e-01) (8, -1.49473544314022051271e-02) (9, -2.74614452339662140634e-01) (10, -4.51177049449084321964e-01) (11, -2.79400241664928161711e-01) (12, -3.89869473647870945499e-01) (13, -5.45318804502970211345e-01) (14, -3.60818600314442372579e+00) (15, -2.91380092856756034436e-01) (16, -3.54411030459912235191e-01) (17, -6.71315865412449586103e-01) (18, -8.61869422808168583749e-02) (19, 4.21551917975036050112e-01) (0, 1.59431022897637131308e+01) (1, 3.14636758385989756537e-01) (2, 2.99420020400378794623e-01) (3, 3.58953877209518046332e-01) (4, 4.30840088843200297308e-01) (5, -1.11387145852465097029e+00) (6, -1.04738347841036301133e+01) (7, -1.02477646481621342822e+00) (8, -1.40262610012850141850e+00) (9, -2.66427394126322747425e+00) (10, -1.42725957595141550449e+00) (11, -3.70508716508669300183e+00) (12, -2.52048018787481442615e+00) (13, 4.40676147783842286909e-01) (14, -1.04406841051483390004e+01) (15, -1.60204383577304043662e+00) (16, -2.92247487437643616026e-01) (17, 9.92266279681064067297e-01) (18, -1.58136112283046936788e+00) (19, 4.64434382990541960723e-01) (0, 3.17030373430311263050e+00) (1, 4.75156029698413140405e-01) (2, 5.43246177968542798276e-01) (3, 5.61937822041075452084e-01) (4, 4.93437720474761365441e-01) (5, -1.62812643921403310543e+00) (6, 4.99334734206157463632e+02) (7, -1.22398904629837579350e+00) (8, 4.76832640165291863354e+01) (9, 4.10114759640815951247e-01) (10, 6.74697899946525569970e-02) (11, 1.34798777828750160346e-02) (12, 3.21450299952089069144e-01) (13, -1.50631255514391626527e+00) (14, 6.35082661852960406179e+00) (15, 3.56080197374879919847e-02) (16, 2.29296922413723229528e-02) (17, -9.61070551588287913525e-01) (18, -1.22142730621008599456e+00) (19, -5.75135072811277514582e-02) (0, 1.15692212225064872122e+00) (1, 1.98862908635890289766e-01) (2, 2.86124242697513131439e-01) (3, 3.46047034714973000824e-01) (4, 1.97897000466143890840e-01) (5, 4.88129164303218343601e-01) (6, 3.97413279498457612249e+01) (7, 6.06137432352876648345e-01) (8, -4.89473203553182356629e-01) (9, 3.11422136090835299793e-01) (10, 5.50948494007488687174e-01) (11, 5.62994972352281242145e-01) (12, 1.69442456280162162541e-01) (13, -2.01389570704354134434e-02) (14, 2.05978569838534575354e+00) (15, 1.00715694436474295648e-01) (16, 2.11490520343886823085e-01) (17, 5.85249101211190669858e-01) (18, 2.24733598149671559563e-01) (19, 3.04187996144839822854e-01) (0, -8.36742432977923167314e-01) (1, -1.71842121410755027666e-01) (2, -9.94012364033735468238e-02) (3, -2.07002163756278861895e-01) (4, -5.24725773219145361081e-02) (5, 7.93964279077540413532e-01) (6, 2.58057641631498757562e+00) (7, 8.05864743668556982037e-01) (8, -2.13330190375317474416e-01) (9, 1.57662795222367313475e-01) (10, 2.43562861172236216900e-01) (11, 2.00480562779181026301e-01) (12, 1.16458687582205316913e-01) (13, 2.92547684698288568139e-02) (14, 1.85896083276769497061e+00) (15, 4.93765370271987025230e-01) (16, 6.11320747856224588901e-01) (17, -3.70623549436419563730e-01) (18, 2.63609037903446474793e-01) (19, -7.05325953585828890890e-02) (0, -3.88397156602753812482e-01) (1, -1.29496125500565800737e-01) (2, -8.41673444918454027874e-02) (3, -1.77210869263774190019e-01) (4, -5.27686905077755646909e-02) (5, 6.84949632695230237189e-01) (6, 3.49350328331418591432e+00) (7, 7.92848469922556420286e-01) (8, 1.17480197019578833095e-01) (9, 1.08792259120088302682e-01) (10, 2.06392821525697323093e-01) (11, 2.95265230091024788450e-01) (12, 8.17189399387346082637e-02) (13, -1.52554533801358711137e-02) (14, 1.84532472055456020499e+00) (15, 4.17203263662642764853e-01) (16, 3.17385822894998170796e-01) (17, -2.04229958545857320784e-01) (18, 2.54406375874745127597e-01) (19, -1.28245199789394775935e-01) (0, 2.37386624969293329457e+01) (1, 5.55441960222267550051e-01) (2, 5.31474947459244173587e-01) (3, 5.11566526717686209658e-01) (4, 5.32842590934776705325e-01) (5, -1.60462069752159819380e-01) (6, 4.99363124688225525460e+02) (7, -1.25920125760923928837e+00) (8, 2.04473808643632359860e+01) (9, 3.71996548274090521602e+00) (10, 4.42340656873323079257e-01) (11, 3.85521981933323720781e+00) (12, 2.34702950538940902092e+00) (13, -1.54378760022970459159e-02) (14, 6.40414733932142077322e+00) (15, -9.79047826952771371722e-01) (16, -1.35700360807588826795e+00) (17, -7.52100531558897444917e-01) (18, -5.16590681183554945033e-02) (19, -1.80802587763361444217e-01) (0, 2.46690265548799558815e+01) (1, 2.97230599698705910683e-01) (2, 3.00304806110544442177e-01) (3, 2.21733527508659822303e-01) (4, 2.37395519641323521354e-01) (5, -4.03342241253944466806e-02) (6, -6.11672766778662335696e+00) (7, -1.90804005376604773891e-01) (8, -5.08399115495772147000e+00) (9, -3.86554757315539587736e+00) (10, -4.91411922641215304086e-01) (11, -3.95512764028626540025e+00) (12, -2.21614119288491728810e+00) (13, 1.76619155638072289349e-01) (14, -1.47645425339933762388e+01) (15, -7.21574382940184499979e-01) (16, -8.76046776287809358941e-01) (17, 1.83841635092174748856e+00) (18, -9.84005942413411216485e-01) (19, 4.35852551621473460752e-01) (0, -5.23195707112143471029e-01) (1, -9.84478656556154463342e-02) (2, -1.52718930354311582809e-01) (3, -5.17635558154131009134e-02) (4, -6.85142491366411143794e-02) (5, 7.01179993048687166812e-01) (6, 2.26752271709417563272e+00) (7, 8.27549257223709644471e-01) (8, 3.09886722680034032429e-01) (9, 9.55235942737318322049e-02) (10, 1.74528440562810721604e-01) (11, 1.81159598706176511174e-01) (12, 6.28576984984297870707e-02) (13, -7.12695570546208884144e-03) (14, 1.78959887765462233311e+00) (15, 5.13566140882761978936e-01) (16, 4.28908434335440791330e-01) (17, -2.77007877324156104315e-01) (18, 2.05769986895004391991e-01) (19, -1.81308536949571857955e-01) (0, 1.12075696046676895890e+01) (1, 1.89284803941594109711e-01) (2, 2.42203379645691746491e-01) (3, 3.63555418923245166063e-01) (4, 2.08293999209748142976e-01) (5, -5.07252017627246587494e-01) (6, -3.70583268823596778674e+00) (7, -1.31952883134998977255e+00) (8, 1.00657735382068722063e-01) (9, -2.83230706073297144876e-01) (10, -5.04880424609778444278e-01) (11, -3.33875371583691182842e-01) (12, -4.54925590158636761196e-01) (13, -4.58690621997146497080e-01) (14, -3.62394557553116536397e+00) (15, -3.11604446805449908364e-01) (16, -3.40341193873198388786e-01) (17, -1.15445893064516069693e+00) (18, -3.40049653100277793349e-01) (19, 4.11498463048098561679e-01) (20, -6.99221109986188138485e-01) (21, -1.80587892342055078565e-01) (22, 7.43447333012994926449e-01) (23, 1.58978858365725235491e-02) (24, 1.64873793887260478019e-01) (25, 2.06956186039013251277e-01) (26, 7.18096509014543693539e-01) (27, -2.06434838038498769119e-01) (28, -1.72796201139015920267e-02) (29, -6.75120661049964265743e-01) (30, 4.48009136542095343092e-01) 
