FANN_FLO_2.1
num_layers=3
learning_rate=0.700000
connection_rate=1.000000
network_type=0
learning_momentum=0.000000
training_algorithm=2
train_error_function=1
train_stop_function=1
cascade_output_change_fraction=0.010000
quickprop_decay=-0.000100
quickprop_mu=1.750000
rprop_increase_factor=1.200000
rprop_decrease_factor=0.500000
rprop_delta_min=0.000000
rprop_delta_max=50.000000
rprop_delta_zero=0.100000
cascade_output_stagnation_epochs=12
cascade_candidate_change_fraction=0.010000
cascade_candidate_stagnation_epochs=12
cascade_max_out_epochs=150
cascade_min_out_epochs=50
cascade_max_cand_epochs=150
cascade_min_cand_epochs=50
cascade_num_candidate_groups=2
bit_fail_limit=1.00000000000000005551e-01
cascade_candidate_limit=1.00000000000000000000e+03
cascade_weight_multiplier=4.00000000000000022204e-01
cascade_activation_functions_count=10
cascade_activation_functions=3 5 7 8 10 11 14 15 16 17 
cascade_activation_steepnesses_count=4
cascade_activation_steepnesses=2.50000000000000000000e-01 5.00000000000000000000e-01 7.50000000000000000000e-01 1.00000000000000000000e+00 
layer_sizes=20 11 2 
scale_included=0
neurons (num_inputs, activation_function, activation_steepness)=(0, 0, 0.00000000000000000000e+00) (0, 0, 0.00000000000000000000e+00) (0, 0, 0.00000000000000000000e+00) (0, 0, 0.00000000000000000000e+00) (0, 0, 0.00000000000000000000e+00) (0, 0, 0.00000000000000000000e+00) (0, 0, 0.00000000000000000000e+00) (0, 0, 0.00000000000000000000e+00) (0, 0, 0.00000000000000000000e+00) (0, 0, 0.00000000000000000000e+00) (0, 0, 0.00000000000000000000e+00) (0, 0, 0.00000000000000000000e+00) (0, 0, 0.00000000000000000000e+00) (0, 0, 0.00000000000000000000e+00) (0, 0, 0.00000000000000000000e+00) (0, 0, 0.00000000000000000000e+00) (0, 0, 0.00000000000000000000e+00) (0, 0, 0.00000000000000000000e+00) (0, 0, 0.00000000000000000000e+00) (0, 0, 0.00000000000000000000e+00) (20, 6, 5.00000000000000000000e-01) (20, 6, 5.00000000000000000000e-01) (20, 6, 5.00000000000000000000e-01) (20, 6, 5.00000000000000000000e-01) (20, 6, 5.00000000000000000000e-01) (20, 6, 5.00000000000000000000e-01) (20, 6, 5.00000000000000000000e-01) (20, 6, 5.00000000000000000000e-01) (20, 6, 5.00000000000000000000e-01) (20, 6, 5.00000000000000000000e-01) (0, 6, 0.00000000000000000000e+00) (11, 6, 5.00000000000000000000e-01) (0, 6, 0.00000000000000000000e+00) 
connections (connected_to_neuron, weight)=(0, 5.15569362722085955397e+00) (1, 2.41934352184204559677e-01) (2, 2.34939620459942322128e-01) (3, 2.04754874671368186645e-01) (4, 1.53701507116226709915e-01) (5, 3.05837881462790658893e-02) (6, 9.92558344946268817921e+01) (7, -8.37513447907074715104e-01) (8, 6.97680025609597631586e+00) (9, 3.24549342792998629648e+00) (10, 2.21732525699756960469e-01) (11, 1.96461479982983249215e+01) (12, 2.63071288807314340730e+00) (13, -1.83954064648565694673e-02) (14, 7.60966658548059005085e+00) (15, 1.94407817324889514721e-01) (16, -2.81984609745897896182e-01) (17, 1.18470446090475356460e-02) (18, 1.62877047546517683685e+00) (19, -1.10952198569047449928e-01) (0, 4.41962907820211814425e+00) (1, 1.75367696348737278633e-01) (2, 1.55148668352674046211e-01) (3, 1.74612624708722630196e-01) (4, 5.76306452491985934938e-02) (5, -5.37278068627435989590e-01) (6, 2.25139343382481570188e+02) (7, -3.97788905548639770693e-01) (8, 2.45544070510392370421e-01) (9, -3.73198817469624494203e-02) (10, 7.67285232215694779079e-02) (11, -1.51337778880110702256e-02) (12, -1.30714125456644569834e-01) (13, -6.31662823440820142551e-01) (14, 6.44763752063041728491e+00) (15, -7.60290160209346338460e-02) (16, -2.36646466737710864381e-01) (17, -5.96835671775127862837e-01) (18, -8.58315493616438329738e-01) (19, -8.88869120128809170334e-02) (0, -1.46334282799406665276e+01) (1, -2.71823848973979757815e-02) (2, -2.70987744819392965823e-02) (3, -6.00255276452771185935e-02) (4, -5.40752108585109692029e-02) (5, -2.77278340369126297116e-01) (6, 1.04728854657939418615e+00) (7, 1.23343799265192965997e+00) (8, 2.77725426880823800246e-01) (9, 4.21497627252606199555e-01) (10, 3.84845693517364084713e-01) (11, 3.97087717540040741060e-01) (12, 4.56032875986136454483e-01) (13, -5.74944113744467855120e-01) (14, 1.53127914158645928033e+00) (15, 2.67192540150093527096e-01) (16, -7.03761252535388404095e-02) (17, 3.58518605181293548156e+00) (18, 2.14868478933411738430e-01) (19, -2.38323570016662655835e-01) (0, -3.41309410230365415373e+01) (1, -1.30108518277051721235e-01) (2, -7.26146676882532121633e-02) (3, -1.50255688771036045870e-02) (4, -8.76145043715265275930e-02) (5, 6.93859982696198862584e-01) (6, 1.27037307138910815496e-01) (7, 8.46702665999706116651e-01) (8, 6.48070180140357887666e-01) (9, 5.53102553233404070632e-01) (10, 4.46405496422879022322e-01) (11, 3.72281436302147106243e-01) (12, 6.33707265628151605874e-01) (13, 1.34903293110207600503e-01) (14, 4.15684216585321131276e+00) (15, 8.17078300266459889301e-01) (16, 1.13396594194829725133e+00) (17, 3.49307041467663142997e-02) (18, 1.85682882297611651090e-01) (19, -2.61638745679706408165e-01) (0, 4.40505604539996120650e+00) (1, 1.19142488149597505775e-01) (2, 1.24084182588054994789e-01) (3, 1.70613393691971232391e-01) (4, 1.51942983774139867004e-01) (5, -2.74939126749470463817e-01) (6, 2.25238405685730413097e+02) (7, -8.25820117699001321476e-01) (8, 5.67290363418747264901e-02) (9, 9.06202214006283507386e-02) (10, 1.21006165137820725919e-01) (11, -6.98848025339625887609e-03) (12, 2.10437834699206488542e-01) (13, -6.49208772876641360128e-01) (14, 7.50055508271398263531e+00) (15, -1.88398559156667144698e-01) (16, -6.61149048547722550939e-02) (17, -1.30873247031976835952e-01) (18, -1.85848197479057813952e-01) (19, -6.64192818916114369188e-01) (0, -1.11230346728529094769e+00) (1, -9.19738811603335038036e-02) (2, -1.04428346191957344136e-01) (3, -9.82211035838869706005e-02) (4, -8.98870927444246625715e-02) (5, 1.91659453541108915076e-01) (6, 8.54184712082758146323e-01) (7, 2.73008822017234809021e-01) (8, 1.93051328150540713047e-01) (9, 8.12455556615320761971e-02) (10, 2.13519505903798867408e-01) (11, 1.91251050900469010685e-01) (12, 9.70544647501877244533e-02) (13, 2.36428675474490479491e-01) (14, 9.59804938879932900697e-01) (15, 1.47245118293741605875e+00) (16, 2.48180346015914254920e+00) (17, -3.36056510833337152011e-01) (18, 5.24658796217707279474e-01) (19, 1.84818902801392709323e-01) (0, 1.06974648119689419445e+00) (1, 7.86712214948054183727e-02) (2, 6.78569384516593127055e-02) (3, 7.67537959517355788952e-02) (4, 1.11527786463629804969e-01) (5, 2.17816355698104230365e-01) (6, 8.07727474018069955264e+01) (7, 2.34356178148932198235e-01) (8, -2.51257333355098880223e-02) (9, 5.60428401882974491777e-01) (10, 7.94134348715812898867e-01) (11, 6.86102496978798437333e-01) (12, 4.78125324904891790823e-01) (13, 3.24180585566343826276e-01) (14, -6.86047483543275582463e+00) (15, 3.12808073228716121417e-01) (16, -2.24027825932990087843e-01) (17, 3.11540480076706982615e+00) (18, 2.92707589716488270071e+00) (19, 6.29118642636769254128e-02) (0, -5.69707447955900914138e+00) (1, -1.13751635652496421724e-01) (2, -2.20392771762325162532e-01) (3, -1.03099734288169944674e-01) (4, -1.32517167132808755259e-01) (5, 3.66109244218230212020e-01) (6, 1.56459258966462244622e+00) (7, 6.88864615085540199502e-01) (8, -2.02280599427686509639e-02) (9, 1.31780149151538461538e-01) (10, 9.00629972848446258560e-02) (11, 9.19150886939684858001e-02) (12, 1.30043640151327688503e-01) (13, 2.38801187847581558588e-01) (14, 2.68696291554684396630e+00) (15, -5.22399935050957053839e-01) (16, -5.32049292547004282206e-01) (17, -6.16105846305447513167e-01) (18, -3.23810528540221187477e-01) (19, 2.67874126790719688240e-02) (0, 7.49083036925496426051e+00) (1, 2.58813411857602038157e-01) (2, 1.59471937384125184156e-01) (3, 2.50674218799587789075e-01) (4, 2.11500738676306254682e-01) (5, -1.26968317240187422712e-01) (6, 4.10480723379395939787e+01) (7, 1.44980879663994310924e-01) (8, 2.61214579989343889110e+01) (9, 6.56778570718813980989e+00) (10, 2.72930056363734063751e+00) (11, 1.19547627948181389712e+01) (12, 3.95206480718938379937e+00) (13, 5.94180237476345762815e+00) (14, 1.25796152831936449701e+01) (15, -4.80553493529701025722e+00) (16, -6.88826033409431115473e+00) (17, -8.22541051140402323938e-01) (18, 1.32008782551899028768e+00) (19, -9.14891079869294299165e-01) (0, -6.87849299371528122293e+00) (1, -1.23724084021979499615e-01) (2, -9.38378755473435605117e-02) (3, -1.97219808124840106922e-02) (4, -4.18133695148764361615e-02) (5, 2.93846341166938640477e-01) (6, 1.31764450321397075250e+00) (7, 2.93432254951646487307e-01) (8, 1.83010042982805265499e-01) (9, 3.20864302032620452021e-01) (10, 2.04804547866465708195e-01) (11, 2.71291355106613008008e-01) (12, 3.03032671947620790842e-01) (13, 2.13153235998559981157e-01) (14, 1.87996885802514834829e+00) (15, 2.00895805511047575997e-01) (16, 4.68022979297797597775e-02) (17, -8.43304597188776206007e-02) (18, -6.90691638232042159906e-01) (19, 1.44497674574606216336e-01) (20, 7.55872785428302496058e-01) (21, 9.03246403059221103504e-01) (22, 4.15009945484986764175e-01) (23, 4.64630328054055574682e-01) (24, 7.56709201447299473209e-01) (25, 5.96503614812620708285e-01) (26, 3.03307785110981942278e-01) (27, 9.98643321891459656570e-01) (28, 1.55626454286930032689e-01) (29, 8.56305252721635268287e-01) (30, 3.38732063092518798086e-01) 
