FANN_FLO_2.1
num_layers=3
learning_rate=0.700000
connection_rate=1.000000
network_type=0
learning_momentum=0.000000
training_algorithm=2
train_error_function=1
train_stop_function=1
cascade_output_change_fraction=0.010000
quickprop_decay=-0.000100
quickprop_mu=1.750000
rprop_increase_factor=1.200000
rprop_decrease_factor=0.500000
rprop_delta_min=0.000000
rprop_delta_max=50.000000
rprop_delta_zero=0.100000
cascade_output_stagnation_epochs=12
cascade_candidate_change_fraction=0.010000
cascade_candidate_stagnation_epochs=12
cascade_max_out_epochs=150
cascade_min_out_epochs=50
cascade_max_cand_epochs=150
cascade_min_cand_epochs=50
cascade_num_candidate_groups=2
bit_fail_limit=1.00000000000000005551e-01
cascade_candidate_limit=1.00000000000000000000e+03
cascade_weight_multiplier=4.00000000000000022204e-01
cascade_activation_functions_count=10
cascade_activation_functions=3 5 7 8 10 11 14 15 16 17 
cascade_activation_steepnesses_count=4
cascade_activation_steepnesses=2.50000000000000000000e-01 5.00000000000000000000e-01 7.50000000000000000000e-01 1.00000000000000000000e+00 
layer_sizes=19 11 2 
scale_included=0
neurons (num_inputs, activation_function, activation_steepness)=(0, 0, 0.00000000000000000000e+00) (0, 0, 0.00000000000000000000e+00) (0, 0, 0.00000000000000000000e+00) (0, 0, 0.00000000000000000000e+00) (0, 0, 0.00000000000000000000e+00) (0, 0, 0.00000000000000000000e+00) (0, 0, 0.00000000000000000000e+00) (0, 0, 0.00000000000000000000e+00) (0, 0, 0.00000000000000000000e+00) (0, 0, 0.00000000000000000000e+00) (0, 0, 0.00000000000000000000e+00) (0, 0, 0.00000000000000000000e+00) (0, 0, 0.00000000000000000000e+00) (0, 0, 0.00000000000000000000e+00) (0, 0, 0.00000000000000000000e+00) (0, 0, 0.00000000000000000000e+00) (0, 0, 0.00000000000000000000e+00) (0, 0, 0.00000000000000000000e+00) (0, 0, 0.00000000000000000000e+00) (19, 6, 5.00000000000000000000e-01) (19, 6, 5.00000000000000000000e-01) (19, 6, 5.00000000000000000000e-01) (19, 6, 5.00000000000000000000e-01) (19, 6, 5.00000000000000000000e-01) (19, 6, 5.00000000000000000000e-01) (19, 6, 5.00000000000000000000e-01) (19, 6, 5.00000000000000000000e-01) (19, 6, 5.00000000000000000000e-01) (19, 6, 5.00000000000000000000e-01) (0, 6, 0.00000000000000000000e+00) (11, 6, 5.00000000000000000000e-01) (0, 6, 0.00000000000000000000e+00) 
connections (connected_to_neuron, weight)=(0, 9.19862981541771773664e+00) (1, 9.42161351429095073051e-01) (2, 8.20456042872538593436e-01) (3, 8.42630937682261049737e-01) (4, 7.67974413918128262502e-01) (5, 3.54973457076014442535e+00) (6, 1.60064647533319531769e-01) (7, 1.53475287406292726367e+00) (8, 1.08383750850794946530e+00) (9, 4.56196299150579847037e+01) (10, 8.33716302405592801783e-01) (11, 1.31401456075728106931e+00) (12, 1.39687105745221784581e+00) (13, -9.28871278733762517632e-01) (14, 2.15751416188977129806e+00) (15, -2.06881437190921158020e+00) (16, 3.84725667834824625047e+00) (17, 4.58942948420650331798e+00) (18, -6.31914816815342783585e-01) (0, -9.20730040897952295431e-01) (1, -5.63206459392151317922e-02) (2, -1.45007417630060725378e-01) (3, -9.79000265706620742545e-02) (4, -1.92307998519047312902e-01) (5, 1.37480471820133409722e+00) (6, -1.31671052002182320528e-01) (7, 8.77037091365616416905e-02) (8, -3.61227722201465676830e-03) (9, -2.94908013221674258908e-01) (10, 1.57742745239576181993e-02) (11, 7.22867095860858233092e-02) (12, -1.22564545152368975511e-01) (13, -1.13006116097186248837e-01) (14, 3.40883043993469192490e-01) (15, 1.37391094502630206620e+00) (16, 1.44824183448369758764e+00) (17, 1.49498314719337943579e+00) (18, 1.01580797036866038452e-01) (0, -1.56388495018297346562e+00) (1, -1.29836915376084938156e-01) (2, -5.29761075400291062132e-02) (3, -1.55190578045743599045e-01) (4, -1.63720107021230354416e-01) (5, 1.50137805037048277512e+00) (6, -3.80202121858225355888e-02) (7, -4.27466127018755748246e-02) (8, -1.03772469300551145599e-01) (9, 7.23406503567950859290e-02) (10, 1.45776166790829372899e-02) (11, -6.61543514235063134787e-02) (12, 2.28217407767529224805e-02) (13, 5.34864008084335457172e-02) (14, 9.51962339461818629616e-01) (15, 1.30118146972494064251e+00) (16, 1.49193805747828522890e+00) (17, 1.50114497106213096167e+00) (18, 2.97511831611385439700e-02) (0, -3.38602632315686662423e+01) (1, -1.69132881838541887509e-01) (2, -3.03973899263601410325e-01) (3, -2.36691550392370969602e-01) (4, -1.80391752201777333386e-01) (5, 5.78145614112441119659e+00) (6, -1.30485334799607721745e-01) (7, 6.49860564907233928533e-02) (8, 2.59443787455928775998e-01) (9, 3.03095022169845074167e-01) (10, -7.96732821367472643370e-02) (11, 7.81505480179074119018e-02) (12, 9.19670720654559431528e-02) (13, 5.98261228634276512328e-02) (14, 3.55967848598847824704e+00) (15, 6.56407371568375541671e+00) (16, 5.68238272716560555153e+00) (17, 5.79705778329734933152e+00) (18, 1.05382498837471749731e-01) (0, -1.58264880299862231716e+00) (1, -7.62097794772410158659e-02) (2, -1.79112825191142410741e-01) (3, -2.47559908425929203757e-01) (4, -1.10411714410903430417e-01) (5, 1.44179446757658702438e+00) (6, -5.44946763454302735008e-02) (7, -8.99229488394878984092e-02) (8, -7.12379722685852617703e-02) (9, 2.36577350669176754427e-02) (10, -4.84287774071117185781e-02) (11, -1.36489691601165918922e-01) (12, -1.47727135634222739302e-01) (13, 1.31101292107373035289e-01) (14, 1.22228435527201129140e+00) (15, 1.30687294589118896404e+00) (16, 1.48798399363823352637e+00) (17, 1.42682829279446221626e+00) (18, -4.60760490828533708640e-03) (0, -3.22296738406796601240e+00) (1, -3.02189362549592666074e-01) (2, -1.51793555670788032907e-01) (3, -2.83888236933757476255e-01) (4, -2.32988515251686373331e-01) (5, -5.21087172235663764752e+00) (6, 1.03538221028882726493e+00) (7, 1.94973082131309394249e+00) (8, 1.84907509116756174627e+00) (9, -3.50451022339255899851e+01) (10, 1.55903789209752696721e+00) (11, 1.33188264417380919369e+00) (12, 1.78564453402018030737e+00) (13, -3.76105372809208637896e-01) (14, 2.63538124165781262320e-01) (15, -4.74739686277194650188e+00) (16, -5.19979226984908216025e+00) (17, -5.89754274758255725430e+00) (18, -3.82365968091918861926e-01) (0, -2.79092828009116153964e+01) (1, -1.61882031360095823835e-01) (2, -2.86368511268322911700e-01) (3, -3.32976754405920949420e-01) (4, -2.38438877859538683746e-01) (5, 5.55764579815581338806e+00) (6, -2.67050538762409438165e-02) (7, 4.65086397580897065174e-02) (8, 1.07048982561603472918e-01) (9, 4.67910020438525517394e-02) (10, -1.03949742444215981196e-01) (11, 1.24297700752161982551e-01) (12, 1.78355348181825579257e-01) (13, 2.83521668664654891145e-01) (14, 3.51441648494261960067e+00) (15, 5.80912591546794132569e+00) (16, 5.15361004591344595838e+00) (17, 5.04373827067999247475e+00) (18, 2.40196582740251976529e-02) (0, -1.65053241900874603232e+00) (1, -6.47824760608073035861e-01) (2, -7.45285917155142474400e-01) (3, -5.89755740098353187228e-01) (4, -6.92363400093908953892e-01) (5, 1.75489732505798956552e+00) (6, -3.38175432833533351484e-01) (7, -2.14261219660294166545e+00) (8, -2.35192972541587419499e+00) (9, -7.95383855752096247116e-01) (10, -3.68469380897828768795e+00) (11, -2.72717347516097685656e+00) (12, -2.16941633172645254035e+00) (13, -3.78414452347324736792e-01) (14, 4.26556890696558088649e+00) (15, 3.37656605830530942569e+00) (16, -2.60120488398438709510e-02) (17, -9.55873024994677078503e-01) (18, 1.01608778360964949194e-01) (0, 1.35441503347092428999e-01) (1, -2.66135062673296174385e-01) (2, -1.70235331752505270053e-01) (3, -2.42976169684138265659e-01) (4, -9.23071537401344149876e-02) (5, -8.82219369432858435687e+00) (6, 5.47932349449323341517e-01) (7, 3.49332909045658723812e-01) (8, 2.82174964995307364646e-01) (9, 9.27832759821580421722e-01) (10, 5.07122638843704787170e-01) (11, 5.34446431137930444422e-01) (12, 2.28183835505132381893e-01) (13, 4.99614646750584145973e-01) (14, 2.37979204918072451136e+00) (15, -5.13500655100378722295e+00) (16, -5.70423442435396932382e+00) (17, -5.89106164110955266011e+00) (18, -1.20289772742632264380e-01) (0, 6.76717189371524341368e+01) (1, 9.18703731360857367427e-01) (2, 9.59992852273409247310e-01) (3, 9.58019074263994574459e-01) (4, 8.88530265751307002375e-01) (5, 3.56315223581794704444e+00) (6, 5.40479546965385963808e-03) (7, 7.08360769440325555024e-01) (8, 7.18386057937352662250e-01) (9, 3.62035788828333471301e+00) (10, 2.74042044543716500904e-01) (11, 4.33310402197984723127e-01) (12, 5.54879447705146189307e-01) (13, -1.24605948587132719929e+00) (14, 2.57162097385210541844e+00) (15, -1.27502098520647821900e+00) (16, 3.63709786971106430187e+00) (17, 4.52764584262973546203e+00) (18, -1.12495919410146694162e+00) (19, 9.02655847133937760951e-01) (20, 5.40072714432924372296e-01) (21, 4.82086586346478718212e-01) (22, 7.35142766623780530288e-01) (23, 4.96801056066302315628e-01) (24, -5.17793516011128884813e-01) (25, 8.46414634687318812034e-01) (26, 5.15388047070104771130e-01) (27, -5.60628746597124361095e-01) (28, 9.21178929157992820720e-01) (29, 5.36648610674058668124e-01) 
