FANN_FLO_2.1
num_layers=3
learning_rate=0.700000
connection_rate=1.000000
network_type=0
learning_momentum=0.000000
training_algorithm=2
train_error_function=1
train_stop_function=1
cascade_output_change_fraction=0.010000
quickprop_decay=-0.000100
quickprop_mu=1.750000
rprop_increase_factor=1.200000
rprop_decrease_factor=0.500000
rprop_delta_min=0.000000
rprop_delta_max=50.000000
rprop_delta_zero=0.100000
cascade_output_stagnation_epochs=12
cascade_candidate_change_fraction=0.010000
cascade_candidate_stagnation_epochs=12
cascade_max_out_epochs=150
cascade_min_out_epochs=50
cascade_max_cand_epochs=150
cascade_min_cand_epochs=50
cascade_num_candidate_groups=2
bit_fail_limit=1.00000000000000005551e-01
cascade_candidate_limit=1.00000000000000000000e+03
cascade_weight_multiplier=4.00000000000000022204e-01
cascade_activation_functions_count=10
cascade_activation_functions=3 5 7 8 10 11 14 15 16 17 
cascade_activation_steepnesses_count=4
cascade_activation_steepnesses=2.50000000000000000000e-01 5.00000000000000000000e-01 7.50000000000000000000e-01 1.00000000000000000000e+00 
layer_sizes=19 11 2 
scale_included=0
neurons (num_inputs, activation_function, activation_steepness)=(0, 0, 0.00000000000000000000e+00) (0, 0, 0.00000000000000000000e+00) (0, 0, 0.00000000000000000000e+00) (0, 0, 0.00000000000000000000e+00) (0, 0, 0.00000000000000000000e+00) (0, 0, 0.00000000000000000000e+00) (0, 0, 0.00000000000000000000e+00) (0, 0, 0.00000000000000000000e+00) (0, 0, 0.00000000000000000000e+00) (0, 0, 0.00000000000000000000e+00) (0, 0, 0.00000000000000000000e+00) (0, 0, 0.00000000000000000000e+00) (0, 0, 0.00000000000000000000e+00) (0, 0, 0.00000000000000000000e+00) (0, 0, 0.00000000000000000000e+00) (0, 0, 0.00000000000000000000e+00) (0, 0, 0.00000000000000000000e+00) (0, 0, 0.00000000000000000000e+00) (0, 0, 0.00000000000000000000e+00) (19, 6, 5.00000000000000000000e-01) (19, 6, 5.00000000000000000000e-01) (19, 6, 5.00000000000000000000e-01) (19, 6, 5.00000000000000000000e-01) (19, 6, 5.00000000000000000000e-01) (19, 6, 5.00000000000000000000e-01) (19, 6, 5.00000000000000000000e-01) (19, 6, 5.00000000000000000000e-01) (19, 6, 5.00000000000000000000e-01) (19, 6, 5.00000000000000000000e-01) (0, 6, 0.00000000000000000000e+00) (11, 6, 5.00000000000000000000e-01) (0, 6, 0.00000000000000000000e+00) 
connections (connected_to_neuron, weight)=(0, 2.54575923873098055594e+01) (1, 2.78297471138184870920e-01) (2, 1.45178566011136128688e-01) (3, 2.00726511212533070827e-01) (4, 2.44915979238694209164e-01) (5, -4.79093772574752119198e+00) (6, -9.91761896956508959278e-01) (7, -1.44997054251096013644e+00) (8, -2.12390866777981157654e+00) (9, -8.14575641804639927201e-01) (10, -1.91911508412868969664e+00) (11, -1.22787028420187604993e+00) (12, -1.49063939860900140921e+00) (13, -1.88706892005870818796e-01) (14, -2.93987429488704687941e+00) (15, -4.77603795723716295640e+00) (16, -5.04911219901306473901e+00) (17, -4.97003026213887100226e+00) (18, -3.21989783120719130771e-01) (0, 2.63183667764465099026e+01) (1, 1.05854906163673059827e-01) (2, 7.09794536452100222057e-02) (3, 2.06169426463107319236e-01) (4, 1.39507412932376367865e-01) (5, -4.98540150722236674596e+00) (6, -6.65340777957473816784e-01) (7, -5.51851253342637182442e-01) (8, -3.21817799983733054958e-01) (9, -5.75874206401027821656e-01) (10, -3.86273955079918407396e-01) (11, -7.69291002413186597586e-01) (12, -6.70906129038462917258e-01) (13, -2.06192763954872043675e-01) (14, -2.88891109143318125518e+00) (15, -5.02286827826543724740e+00) (16, -4.97694803065996627112e+00) (17, -5.04460675477272868505e+00) (18, -3.46315576350248788273e-01) (0, 9.36458306080747249212e+00) (1, 1.55844296176778834839e-01) (2, 1.79989832301485103150e-01) (3, 2.84600655396330559643e-01) (4, 2.70990739424574633709e-01) (5, -2.73361170023405497531e+00) (6, 1.52885503228669866749e-01) (7, -7.58915109931705300639e-01) (8, -3.35786407821550281216e-01) (9, 2.42418526643432996615e-01) (10, -4.90290496365018590996e-01) (11, -6.25422063777216430402e-01) (12, -6.96644000391194895272e-01) (13, -9.37161338746503647101e-01) (14, -2.14925976450088040970e-01) (15, -2.78760277192331473728e+00) (16, -2.73954008188939068802e+00) (17, -2.65375773855817875813e+00) (18, -1.68448880310081233747e-01) (0, 2.45548006745293623254e+00) (1, 2.03834487331621483364e+00) (2, 2.19979278577081993618e+00) (3, 2.12913203073255852260e+00) (4, 2.03364376557581261196e+00) (5, 1.67694992612584570679e+02) (6, 3.93131638412840433983e-01) (7, 1.81849822657500426182e+00) (8, 4.40614884188803390686e+00) (9, 5.60031848913676366664e+00) (10, 7.10554066751752255726e-01) (11, 9.19854419494356756459e-01) (12, 1.40027161838816716077e+00) (13, 1.41166291666327214926e-01) (14, 5.31415392396795471797e+00) (15, 7.08924766527090355339e+00) (16, 5.59797561965103014359e+01) (17, 4.32544921668397108760e+01) (18, -5.73598781361402121348e+00) (0, 3.55722488527952052095e+00) (1, 4.56204791782655716403e-01) (2, 5.45194720147409883637e-01) (3, 5.89840104101457929353e-01) (4, 4.69011427132644653781e-01) (5, -5.89448565566054227816e+00) (6, 1.60438422127752433610e+00) (7, 1.91350705050567571064e+00) (8, 1.95913445509210104589e+00) (9, 1.69302996703448949134e+00) (10, 1.90016967525004920603e+00) (11, 1.84589435482255415089e+00) (12, 1.91603825794880555655e+00) (13, 4.07789346954701537040e-01) (14, -4.03885141223433663527e+00) (15, -5.89712289353689911309e+00) (16, -6.90490456660043161463e+00) (17, -6.92990225770533019301e+00) (18, -2.53130743739420460692e-01) (0, 1.09328867843469734744e+00) (1, 1.73971101066418304404e-01) (2, 8.90136951416212185428e-02) (3, 8.86978352277952297733e-02) (4, 8.42710131614881619022e-02) (5, -2.75697957871689114384e+00) (6, 7.61262032266926506885e-03) (7, -8.77609666137053878732e-02) (8, 1.08071915355530151492e-01) (9, 1.26678245442214343353e-01) (10, 1.25650593573957664040e-01) (11, 9.41063714392500680339e-03) (12, 1.19595000355297867434e-01) (13, -1.77258260302094183825e-01) (14, 2.71956730222976006406e-01) (15, -2.53103018757547504336e+00) (16, -5.27168202427458165715e+00) (17, -7.50247875262474739344e+00) (18, -8.61458249714852908330e-02) (0, -8.25748737326500337197e-01) (1, -3.03187417832447188293e-02) (2, 3.14665389212535201446e-02) (3, -9.80495075729922033192e-02) (4, -7.66254785505367380649e-02) (5, 3.39694011226252978730e+00) (6, -7.73752788518760198366e-02) (7, 4.74212576532388602191e-02) (8, 6.27756263814120002431e-03) (9, -1.92300938145113314848e-01) (10, 2.54340758443465687899e-02) (11, 3.19140009270884178472e-02) (12, 2.03029589092854241550e-02) (13, -5.34537074835441175513e-02) (14, -1.00230976326081666627e+00) (15, 3.27683988997095188012e+00) (16, 8.45379363264963656910e-01) (17, 8.84776370567542325141e-01) (18, 7.21176586229095445413e-02) (0, 3.32271336118174644980e+01) (1, 1.21295835031237711488e-01) (2, 2.13462392939296141670e-01) (3, 2.70009453548160027747e-01) (4, 1.68880987120833436776e-01) (5, -6.39737807361522570204e+00) (6, -2.10390509568766725934e+00) (7, -1.68652766467712633691e+00) (8, -1.09286235764064043607e+00) (9, -3.15323367012291644329e+00) (10, -1.27164360658209596444e+00) (11, -1.37841663319758067630e+00) (12, -1.86297383177495246009e+00) (13, 4.80852009704848815108e-01) (14, -5.71295394849633275669e+00) (15, -6.36842268015131462988e+00) (16, -6.59960039971532186343e+00) (17, -6.55814158486896925382e+00) (18, 1.72227418986035907267e+00) (0, 5.92028626945810199089e+00) (1, 2.23509572706640569084e-01) (2, 1.30701013169706670158e-01) (3, 8.37341512362369533307e-02) (4, 7.71356488386997218853e-02) (5, 1.77756121513783625687e+02) (6, -4.16064729390682896959e-01) (7, -1.01281904836652536517e+00) (8, -9.48854385087858132053e-01) (9, 7.78675226573827816701e-01) (10, -9.90856144146594064459e-01) (11, -1.03764946824067294529e+00) (12, -1.02076133796389578734e+00) (13, 3.81667614371243413274e-01) (14, 1.37864744783019133045e-01) (15, 4.09904829857522940983e+01) (16, 1.49398963993385422100e+02) (17, 2.63881144437122316049e+02) (18, 4.68517556784538435899e-01) (0, 4.10782248338755167083e+01) (1, 8.42243372019004343798e-01) (2, 7.93303376551341532519e-01) (3, 7.93463370319079874804e-01) (4, 7.71937361474704375475e-01) (5, 1.77743396749138526047e+02) (6, 1.07270460354816063453e-01) (7, 2.03336105843664993742e+00) (8, 2.54877590801387432506e+00) (9, 3.78281007125305412941e+00) (10, 1.37662014461535275878e+00) (11, 2.65035738804531773027e+00) (12, 1.72191171486202310170e+00) (13, -3.40354126454269212410e-01) (14, 3.48730497688690688207e+00) (15, 4.08747143519694304814e+01) (16, 1.49278103290095913280e+02) (17, 2.63884325849938363717e+02) (18, -1.38954078993114804597e+00) (19, -4.49694795764008892203e-01) (20, -4.01522370236882808481e-01) (21, -1.83291853751732264355e-01) (22, 9.00851593309270060050e-02) (23, -8.71125536829185032062e-01) (24, 1.34690408900695252070e-01) (25, 5.25289962586792058552e-01) (26, -6.72814941560541779353e-01) (27, 1.06829551290291102639e+00) (28, 9.60634194990665712943e-01) (29, 5.83673761575781879785e-01) 
