FANN_FLO_2.1
num_layers=3
learning_rate=0.700000
connection_rate=1.000000
network_type=0
learning_momentum=0.000000
training_algorithm=2
train_error_function=1
train_stop_function=1
cascade_output_change_fraction=0.010000
quickprop_decay=-0.000100
quickprop_mu=1.750000
rprop_increase_factor=1.200000
rprop_decrease_factor=0.500000
rprop_delta_min=0.000000
rprop_delta_max=50.000000
rprop_delta_zero=0.100000
cascade_output_stagnation_epochs=12
cascade_candidate_change_fraction=0.010000
cascade_candidate_stagnation_epochs=12
cascade_max_out_epochs=150
cascade_min_out_epochs=50
cascade_max_cand_epochs=150
cascade_min_cand_epochs=50
cascade_num_candidate_groups=2
bit_fail_limit=1.00000000000000005551e-01
cascade_candidate_limit=1.00000000000000000000e+03
cascade_weight_multiplier=4.00000000000000022204e-01
cascade_activation_functions_count=10
cascade_activation_functions=3 5 7 8 10 11 14 15 16 17 
cascade_activation_steepnesses_count=4
cascade_activation_steepnesses=2.50000000000000000000e-01 5.00000000000000000000e-01 7.50000000000000000000e-01 1.00000000000000000000e+00 
layer_sizes=19 11 2 
scale_included=0
neurons (num_inputs, activation_function, activation_steepness)=(0, 0, 0.00000000000000000000e+00) (0, 0, 0.00000000000000000000e+00) (0, 0, 0.00000000000000000000e+00) (0, 0, 0.00000000000000000000e+00) (0, 0, 0.00000000000000000000e+00) (0, 0, 0.00000000000000000000e+00) (0, 0, 0.00000000000000000000e+00) (0, 0, 0.00000000000000000000e+00) (0, 0, 0.00000000000000000000e+00) (0, 0, 0.00000000000000000000e+00) (0, 0, 0.00000000000000000000e+00) (0, 0, 0.00000000000000000000e+00) (0, 0, 0.00000000000000000000e+00) (0, 0, 0.00000000000000000000e+00) (0, 0, 0.00000000000000000000e+00) (0, 0, 0.00000000000000000000e+00) (0, 0, 0.00000000000000000000e+00) (0, 0, 0.00000000000000000000e+00) (0, 0, 0.00000000000000000000e+00) (19, 6, 5.00000000000000000000e-01) (19, 6, 5.00000000000000000000e-01) (19, 6, 5.00000000000000000000e-01) (19, 6, 5.00000000000000000000e-01) (19, 6, 5.00000000000000000000e-01) (19, 6, 5.00000000000000000000e-01) (19, 6, 5.00000000000000000000e-01) (19, 6, 5.00000000000000000000e-01) (19, 6, 5.00000000000000000000e-01) (19, 6, 5.00000000000000000000e-01) (0, 6, 0.00000000000000000000e+00) (11, 6, 5.00000000000000000000e-01) (0, 6, 0.00000000000000000000e+00) 
connections (connected_to_neuron, weight)=(0, -2.61831231518322937735e-01) (1, 4.88070867600804370046e-01) (2, 4.22478474321728303398e-01) (3, 3.42837713303929259023e-01) (4, 4.29559044185047811393e-01) (5, -2.24453261782726398721e+00) (6, 6.07957280914165121288e+00) (7, 2.49619137619726361166e+00) (8, 2.61214757029579747183e+00) (9, 1.42529838016733823025e+00) (10, 1.73335441266179635100e+00) (11, 3.14482435594893550146e+00) (12, 3.17207189825883295597e+00) (13, 1.36618559882474011058e-01) (14, 4.36255156821435541303e+00) (15, -2.44858774600544037980e+00) (16, 3.80384424033777213126e+00) (17, 3.48653493544466730469e+00) (18, -1.23309803857149541395e-01) (0, 4.15026691109101564248e-01) (1, 4.32353505686907044203e-02) (2, 3.83655542329935581036e-02) (3, 3.27342943338955423343e-05) (4, 1.02815415878691918117e-01) (5, 5.33737705079258617502e+00) (6, -8.70246905258482417178e-02) (7, 1.10393097035178813781e-01) (8, 1.81905184533971107930e-02) (9, 9.05050345060614824799e-02) (10, -1.12948813456917901421e-01) (11, -5.55223234288589658630e-03) (12, 9.34889868246889382819e-02) (13, 2.83261227227082523772e-01) (14, -1.90786235802826653618e+00) (15, 1.67797152649836878169e+00) (16, -3.24304480293271357727e-01) (17, -1.40836569503160191630e+00) (18, 3.21837796071203330328e-01) (0, -4.27217975317878861929e-01) (1, 5.42950165555912023230e-01) (2, 4.89348304555850377451e-01) (3, 5.28718848810630692725e-01) (4, 4.98994474397139897714e-01) (5, -2.15323789249272534718e+00) (6, 7.15894632228099236926e-01) (7, 1.66215478765621482715e+00) (8, 1.35980938359307912400e+00) (9, 2.32422584601601300847e+00) (10, 1.88914433042883289637e+00) (11, 1.34643618827183497721e+00) (12, 1.39710451012094782897e+00) (13, 2.18856938197903472254e-01) (14, 4.58393003691018829926e+00) (15, -2.47572043567758903748e+00) (16, 2.97420160980158510000e+00) (17, -1.43605533405480945142e+00) (18, -4.28485231586446302376e-01) (0, 1.83996153905364745462e+00) (1, 3.71326017180284240204e-01) (2, 4.27184487679799773652e-01) (3, 3.47313667634328582245e-01) (4, 4.27746827700933196503e-01) (5, -3.82632064974012031655e-01) (6, 8.36944836362286004317e-01) (7, 5.08391513979421061364e-01) (8, 7.83222757951655301767e-01) (9, 2.05250466188920954735e+00) (10, 4.39708252298095181310e-01) (11, 7.36855856196378278256e-01) (12, 8.86511678848425743737e-01) (13, -1.26748726532186856142e-01) (14, 4.37100058603759222819e+00) (15, 7.05143528872261349250e+00) (16, 3.74311225261063285075e+00) (17, 3.50563959874999264699e+00) (18, -1.72860498741722018456e-01) (0, 5.20839355603348042045e-01) (1, 3.72094784846175363757e-01) (2, 4.12568663229811838367e-01) (3, 2.35079658200609553642e-01) (4, 2.36035359074938166923e-01) (5, -1.25269360910567417733e+00) (6, 7.99312026822623811206e-01) (7, 1.68801190396288713913e+00) (8, 1.74709956123595655519e+00) (9, 1.22800619791290932525e+00) (10, 2.00337962877484443425e+00) (11, 1.88534974584637593509e+00) (12, 1.46127044722565013757e+00) (13, 2.86340767994172795685e-01) (14, 4.59005986531530929540e+00) (15, -1.55077330100057197981e+00) (16, -1.55211558364466850612e+00) (17, 3.53866556993675773768e+00) (18, -3.94769849234570535668e-01) (0, 6.02470537114574877791e+00) (1, 9.58553738645280262176e-01) (2, 8.33941235891545895598e-01) (3, 9.23427559188569446746e-01) (4, 8.62176328650678280852e-01) (5, 8.45048751688560706441e+00) (6, 2.54244784946470225862e+00) (7, 7.54834610846135345419e-01) (8, 1.32570131593930962133e+00) (9, 2.69032554883635244281e+00) (10, 1.39468458871282563472e+00) (11, 7.24108293753909171286e-01) (12, 1.07203538007288767808e+00) (13, -2.89278883915932205628e-01) (14, 4.18162304909692661425e+00) (15, -2.61523406220405618683e+00) (16, 3.23855009123531534243e+00) (17, 5.79708163278662969020e+00) (18, -1.18599094444584118868e+00) (0, 2.89952760828793176806e-01) (1, -5.25361432649070758671e-01) (2, -5.36860144652301585211e-01) (3, -5.62312073029452963446e-01) (4, -5.49490555144721559699e-01) (5, 4.85765732736914834788e+00) (6, -5.78228449904327201914e-01) (7, -1.07835556570890234163e+00) (8, -1.05526198177718089077e+00) (9, -9.32059032132439679863e-01) (10, -1.04885235448339786402e+00) (11, -1.11252767986275613588e+00) (12, -1.02969553672586289217e+00) (13, 1.50951275046327632046e-01) (14, 1.66652020680194912217e+00) (15, 5.31487884750755767982e+00) (16, 5.03966457039664739170e+00) (17, 5.35245986476755586381e+00) (18, 4.81565515213560890739e-01) (0, 3.01669997903233557679e+01) (1, 3.08983994004193129879e-01) (2, 2.91840088841381850582e-01) (3, 3.42196037349167647701e-01) (4, 2.23218267139854986691e-01) (5, -8.66666658200670525503e+00) (6, 8.28880237543276221501e-01) (7, -2.61994796447481304025e-01) (8, -2.60842209695610949272e-01) (9, 2.57569743662401720585e-02) (10, -2.55448949919627354976e-01) (11, -3.87951409910111788548e-01) (12, -2.14784161463121570090e-01) (13, -4.17264925588191115668e-01) (14, -7.37374431285821607673e+00) (15, -7.54334379348322592307e+00) (16, -8.81237758139043414474e+00) (17, -8.57578169251876332169e+00) (18, 5.90622548396963154005e-01) (0, 4.97385252792095897689e+01) (1, 2.51936968822061069240e-01) (2, 3.46775025535404568533e-01) (3, 2.99604081023514157156e-01) (4, 3.86750966716587429861e-01) (5, -7.02111608512535845250e+00) (6, -2.95828005730460030787e-01) (7, -1.02313139293472876723e+00) (8, -8.71721178484762271310e-01) (9, -4.12884533719344748448e+00) (10, 3.12935130970994845878e-01) (11, -8.84655279858624354894e-01) (12, -9.42400465231742923145e-01) (13, 5.19369769475874765163e-01) (14, -6.17388667696879789304e+00) (15, -7.13226730383354023957e+00) (16, -6.85398211664371626028e+00) (17, -6.51880902350930924172e+00) (18, 1.10761998308151077275e+00) (0, -1.42567946440788273499e+00) (1, 1.93582781831878776579e-02) (2, 5.69803350846428066645e-02) (3, -8.99217790682653728140e-02) (4, 8.71410154978889683886e-02) (5, 2.17009144386012486905e+00) (6, 3.79554380480768283057e-01) (7, 3.65252326600658827616e+00) (8, 1.84294956034657020361e+00) (9, 2.59182226816581504636e+01) (10, 1.68924998893729222393e-01) (11, 1.95362755464322956911e+00) (12, 3.87596274634512605317e+00) (13, 4.06426332303257886736e+00) (14, -5.80408657968440433450e-01) (15, 1.22098085774582969520e+01) (16, 2.75884627275086913301e+00) (17, 8.29526487152568020589e-02) (18, 1.95827295382262844825e-01) (19, 3.45583046117923564644e-01) (20, 2.93981849748180812387e-01) (21, 3.67130881402010333936e-01) (22, 4.75757680477795874552e-01) (23, 3.86667901912830014322e-01) (24, 3.99469103164059147204e-01) (25, 1.11975537181814432941e+00) (26, -8.55955998766337655681e-01) (27, -9.33677474174388621897e-01) (28, -3.15310469891751377070e-02) (29, 8.14463926874442578629e-01) 
