FANN_FLO_2.1
num_layers=3
learning_rate=0.700000
connection_rate=1.000000
network_type=0
learning_momentum=0.000000
training_algorithm=2
train_error_function=1
train_stop_function=1
cascade_output_change_fraction=0.010000
quickprop_decay=-0.000100
quickprop_mu=1.750000
rprop_increase_factor=1.200000
rprop_decrease_factor=0.500000
rprop_delta_min=0.000000
rprop_delta_max=50.000000
rprop_delta_zero=0.100000
cascade_output_stagnation_epochs=12
cascade_candidate_change_fraction=0.010000
cascade_candidate_stagnation_epochs=12
cascade_max_out_epochs=150
cascade_min_out_epochs=50
cascade_max_cand_epochs=150
cascade_min_cand_epochs=50
cascade_num_candidate_groups=2
bit_fail_limit=1.00000000000000005551e-01
cascade_candidate_limit=1.00000000000000000000e+03
cascade_weight_multiplier=4.00000000000000022204e-01
cascade_activation_functions_count=10
cascade_activation_functions=3 5 7 8 10 11 14 15 16 17 
cascade_activation_steepnesses_count=4
cascade_activation_steepnesses=2.50000000000000000000e-01 5.00000000000000000000e-01 7.50000000000000000000e-01 1.00000000000000000000e+00 
layer_sizes=9 11 2 
scale_included=0
neurons (num_inputs, activation_function, activation_steepness)=(0, 0, 0.00000000000000000000e+00) (0, 0, 0.00000000000000000000e+00) (0, 0, 0.00000000000000000000e+00) (0, 0, 0.00000000000000000000e+00) (0, 0, 0.00000000000000000000e+00) (0, 0, 0.00000000000000000000e+00) (0, 0, 0.00000000000000000000e+00) (0, 0, 0.00000000000000000000e+00) (0, 0, 0.00000000000000000000e+00) (9, 6, 5.00000000000000000000e-01) (9, 6, 5.00000000000000000000e-01) (9, 6, 5.00000000000000000000e-01) (9, 6, 5.00000000000000000000e-01) (9, 6, 5.00000000000000000000e-01) (9, 6, 5.00000000000000000000e-01) (9, 6, 5.00000000000000000000e-01) (9, 6, 5.00000000000000000000e-01) (9, 6, 5.00000000000000000000e-01) (9, 6, 5.00000000000000000000e-01) (0, 6, 0.00000000000000000000e+00) (11, 6, 5.00000000000000000000e-01) (0, 6, 0.00000000000000000000e+00) 
connections (connected_to_neuron, weight)=(0, 1.96975716373664871961e-01) (1, -4.24920612655128523971e-02) (2, -1.06030552991434476318e-01) (3, -6.26133935234988864282e-02) (4, -1.00540562876268765868e-01) (5, -4.38824878996061418235e+00) (6, 1.08074885183363766927e+00) (7, 1.20540558144849055400e-01) (8, -1.23121151679630898290e-02) (0, -6.23382539099907373448e-01) (1, 1.43027952998047627048e-02) (2, -1.15503738156043922469e-01) (3, -4.65915524274939721328e-02) (4, 1.03211603253250891465e-02) (5, 2.14829192597171036994e+00) (6, 8.44623414142936165816e-03) (7, -2.53333823347833886341e-01) (8, -3.42664038230703765775e-02) (0, 3.92091374053846752901e-01) (1, 3.70442642276225586606e-01) (2, 3.68015690152583618833e-01) (3, 2.57542776321111333004e-01) (4, 2.29898011689124687207e-01) (5, 5.94522460227953164491e+00) (6, 5.48814986776590796325e-01) (7, 2.02444021722607947478e-01) (8, 9.31672294176028592538e-02) (0, 3.66288091196905529756e-01) (1, 2.82365458860895479631e-01) (2, 2.95433993294737184954e-01) (3, 3.09364500298998201799e-01) (4, 2.15542930021784234773e-01) (5, 6.07271253368006913576e+00) (6, 5.46008382868051977965e-01) (7, 2.19541170766883231291e-01) (8, 2.29069086215571010579e-01) (0, 5.03542860902465871931e+00) (1, 5.65244760890089459338e-01) (2, 5.38567778248869588609e-01) (3, 5.12047645230375936265e-01) (4, 5.38430501301371267076e-01) (5, -1.97177652829622207520e+00) (6, -2.83673387810817834165e+00) (7, 4.17154205697835150923e-02) (8, 3.21098777461786777376e-01) (0, -2.58970070356365722475e+00) (1, -4.47719692611855624165e-01) (2, -3.26631355458659400348e-01) (3, -4.48658055985135195698e-01) (4, -3.49246207052630541767e-01) (5, 2.15281740338514371302e+00) (6, 8.95511369384122346560e-01) (7, 4.11926478280888852535e-01) (8, -3.02825087734788223059e-02) (0, 3.36397736474167152743e-01) (1, 3.26038590078292389585e-01) (2, 4.07509891693530579282e-01) (3, 2.29703566436706169140e-01) (4, 3.98708789055285950376e-01) (5, 5.98625797828780381593e+00) (6, 5.44424039255857805664e-01) (7, 2.51296960881285891265e-01) (8, 1.60914587280825222004e-01) (0, 1.61941648444873770307e-01) (1, -8.08072197606223147082e-02) (2, 7.81046119163376767469e-02) (3, -3.02529591490881683002e-02) (4, -4.55880794098036459805e-02) (5, -6.25265444127371239347e+00) (6, 1.21075273999362797994e+00) (7, 1.44592693791192328234e-01) (8, -4.08808300250645267893e-02) (0, 1.16738741270048212995e-01) (1, -5.49961024604286238815e-02) (2, -9.01792043528999304192e-02) (3, 2.72636174340591024359e-03) (4, -5.43092855892623946334e-02) (5, -4.43667674055146310508e+00) (6, 1.11168321171193928976e+00) (7, 1.08316077635091059794e-01) (8, -4.09815469735737430979e-02) (0, -6.24711378877194301040e-01) (1, -3.28779845154693939335e-01) (2, -2.34143151557853812506e-01) (3, -2.88945524609497406132e-01) (4, -2.85999997175148290562e-01) (5, 1.98338569202802394997e+00) (6, 3.48323712339388968928e-01) (7, 1.11436099609003268218e-02) (8, -4.39643588329299145334e-02) (9, -1.58652364906896714558e-01) (10, 5.36929166486053599527e-01) (11, 4.37910439877279233922e-01) (12, 3.77033429651029539098e-01) (13, -2.48229518504301083226e-01) (14, 5.06792343515671261933e-01) (15, 3.67416384129293394079e-01) (16, -9.41688749186851414841e-02) (17, -8.38864293666973515062e-02) (18, 5.08599633212011736916e-01) (19, 3.23319872313935718910e-01) 
