FANN_FLO_2.1
num_layers=3
learning_rate=0.700000
connection_rate=1.000000
network_type=0
learning_momentum=0.000000
training_algorithm=2
train_error_function=1
train_stop_function=1
cascade_output_change_fraction=0.010000
quickprop_decay=-0.000100
quickprop_mu=1.750000
rprop_increase_factor=1.200000
rprop_decrease_factor=0.500000
rprop_delta_min=0.000000
rprop_delta_max=50.000000
rprop_delta_zero=0.100000
cascade_output_stagnation_epochs=12
cascade_candidate_change_fraction=0.010000
cascade_candidate_stagnation_epochs=12
cascade_max_out_epochs=150
cascade_min_out_epochs=50
cascade_max_cand_epochs=150
cascade_min_cand_epochs=50
cascade_num_candidate_groups=2
bit_fail_limit=1.00000000000000005551e-01
cascade_candidate_limit=1.00000000000000000000e+03
cascade_weight_multiplier=4.00000000000000022204e-01
cascade_activation_functions_count=10
cascade_activation_functions=3 5 7 8 10 11 14 15 16 17 
cascade_activation_steepnesses_count=4
cascade_activation_steepnesses=2.50000000000000000000e-01 5.00000000000000000000e-01 7.50000000000000000000e-01 1.00000000000000000000e+00 
layer_sizes=9 11 2 
scale_included=0
neurons (num_inputs, activation_function, activation_steepness)=(0, 0, 0.00000000000000000000e+00) (0, 0, 0.00000000000000000000e+00) (0, 0, 0.00000000000000000000e+00) (0, 0, 0.00000000000000000000e+00) (0, 0, 0.00000000000000000000e+00) (0, 0, 0.00000000000000000000e+00) (0, 0, 0.00000000000000000000e+00) (0, 0, 0.00000000000000000000e+00) (0, 0, 0.00000000000000000000e+00) (9, 6, 5.00000000000000000000e-01) (9, 6, 5.00000000000000000000e-01) (9, 6, 5.00000000000000000000e-01) (9, 6, 5.00000000000000000000e-01) (9, 6, 5.00000000000000000000e-01) (9, 6, 5.00000000000000000000e-01) (9, 6, 5.00000000000000000000e-01) (9, 6, 5.00000000000000000000e-01) (9, 6, 5.00000000000000000000e-01) (9, 6, 5.00000000000000000000e-01) (0, 6, 0.00000000000000000000e+00) (11, 6, 5.00000000000000000000e-01) (0, 6, 0.00000000000000000000e+00) 
connections (connected_to_neuron, weight)=(0, 7.03460575651640418471e+00) (1, 6.54251987138267598887e-01) (2, 8.34544124105449536266e-01) (3, 7.29847932258125164928e-01) (4, 6.83985361853118978281e-01) (5, -2.42253383792975096611e+00) (6, -3.56541288814705215060e+00) (7, -8.47720325496297166801e-01) (8, 4.38660936194225081763e-01) (0, 3.53752286573381369283e-01) (1, 2.83347126217641631651e-01) (2, 2.86436792584218780089e-01) (3, 2.25868653627195020706e-01) (4, 1.13791260989465375930e-01) (5, 1.14755403647815157342e+01) (6, 4.02534432338050862654e-01) (7, 1.11834471708054439265e-01) (8, 1.13733725601172480646e-01) (0, 1.87270310693006813985e-01) (1, 2.40506907097859823352e-01) (2, 2.18592924170060598499e-01) (3, 1.44476954929395162708e-01) (4, 2.99864773742719192828e-01) (5, 1.13985287273918558526e+01) (6, 9.32417836893784102159e-03) (7, 7.31292084212254722697e-02) (8, 2.63346114773883033244e-01) (0, -4.97251131889720754398e-01) (1, -2.45877881325337582785e-01) (2, -2.08732400811764889914e-01) (3, -2.98197933263632808387e-01) (4, -3.22088104463669810951e-01) (5, 1.77082698458912735084e+00) (6, 2.57796062527711700163e-01) (7, 3.49267539550548941629e-02) (8, -3.37110757353138723591e-02) (0, 3.19117220321641414937e-01) (1, 2.23864104719915052444e-01) (2, 3.02837919565000279754e-01) (3, 1.47284928830423017532e-01) (4, 1.41859118016519208938e-01) (5, 1.15237072209512163568e+01) (6, 2.53343763937307786538e-01) (7, 2.05230043863768474299e-01) (8, 2.54651748875314776210e-01) (0, -8.19095393453325937294e-01) (1, -3.08670168979225334471e-01) (2, -3.69935391707477745360e-01) (3, -2.38272382183132402922e-01) (4, -2.64213843507824175383e-01) (5, 1.80700209653280308153e+00) (6, 3.01046495184523532629e-01) (7, 9.22871610903937406034e-02) (8, -8.72382053532264056805e-02) (0, 1.48748821898888994308e-01) (1, 8.78437990768624332727e-02) (2, 1.79009952627010415771e-01) (3, 1.11294009767360785323e-01) (4, 3.89938066228104618371e-02) (5, -3.12961956173204614018e+00) (6, 1.00903085686340476812e+00) (7, 9.69365770954888489319e-02) (8, 1.49776598189694631902e-01) (0, 4.42426406029667595998e-01) (1, 2.56077807127080114835e-01) (2, 1.49851400135598333829e-01) (3, 3.21502636848530864988e-01) (4, 2.39486071942887457364e-01) (5, 1.14930281142388750482e+01) (6, 4.50062729047111198533e-01) (7, 2.06063704227919475276e-01) (8, 2.52040514091188494472e-01) (0, 3.98205183629002312795e-01) (1, 4.73484755013854508032e-01) (2, 4.27051157210738552283e-01) (3, 4.35764074777038101782e-01) (4, 4.08251539324195278358e-01) (5, 1.13642424444352556634e+01) (6, 1.54305375849227721652e+00) (7, 2.72110206228799278438e-01) (8, 2.37479930763960178641e-01) (0, 2.52104671874986141500e-01) (1, 2.38179911963506185657e-01) (2, 2.20337939552827322132e-01) (3, 1.76974770717187368518e-01) (4, 1.51163228891654455310e-01) (5, 1.15471305648480822015e+01) (6, 2.02946708921013740934e-01) (7, 2.01386155223364726741e-01) (8, 1.09685810261702570978e-01) (9, -3.63696012939570711975e-01) (10, 2.92509699607428674817e-01) (11, 2.06287036085661901197e-01) (12, 6.05570042907656147513e-01) (13, 3.11109464952636693980e-01) (14, 6.22435648560603960178e-01) (15, -4.15470133088996385062e-01) (16, 2.86123598361548547864e-01) (17, 2.46945241833266271314e-01) (18, 3.01153656432319727365e-01) (19, 2.60899269932246324899e-01) 
