FANN_FLO_2.1
num_layers=3
learning_rate=0.700000
connection_rate=1.000000
network_type=0
learning_momentum=0.000000
training_algorithm=2
train_error_function=1
train_stop_function=1
cascade_output_change_fraction=0.010000
quickprop_decay=-0.000100
quickprop_mu=1.750000
rprop_increase_factor=1.200000
rprop_decrease_factor=0.500000
rprop_delta_min=0.000000
rprop_delta_max=50.000000
rprop_delta_zero=0.100000
cascade_output_stagnation_epochs=12
cascade_candidate_change_fraction=0.010000
cascade_candidate_stagnation_epochs=12
cascade_max_out_epochs=150
cascade_min_out_epochs=50
cascade_max_cand_epochs=150
cascade_min_cand_epochs=50
cascade_num_candidate_groups=2
bit_fail_limit=1.00000000000000005551e-01
cascade_candidate_limit=1.00000000000000000000e+03
cascade_weight_multiplier=4.00000000000000022204e-01
cascade_activation_functions_count=10
cascade_activation_functions=3 5 7 8 10 11 14 15 16 17 
cascade_activation_steepnesses_count=4
cascade_activation_steepnesses=2.50000000000000000000e-01 5.00000000000000000000e-01 7.50000000000000000000e-01 1.00000000000000000000e+00 
layer_sizes=25 11 2 
scale_included=0
neurons (num_inputs, activation_function, activation_steepness)=(0, 0, 0.00000000000000000000e+00) (0, 0, 0.00000000000000000000e+00) (0, 0, 0.00000000000000000000e+00) (0, 0, 0.00000000000000000000e+00) (0, 0, 0.00000000000000000000e+00) (0, 0, 0.00000000000000000000e+00) (0, 0, 0.00000000000000000000e+00) (0, 0, 0.00000000000000000000e+00) (0, 0, 0.00000000000000000000e+00) (0, 0, 0.00000000000000000000e+00) (0, 0, 0.00000000000000000000e+00) (0, 0, 0.00000000000000000000e+00) (0, 0, 0.00000000000000000000e+00) (0, 0, 0.00000000000000000000e+00) (0, 0, 0.00000000000000000000e+00) (0, 0, 0.00000000000000000000e+00) (0, 0, 0.00000000000000000000e+00) (0, 0, 0.00000000000000000000e+00) (0, 0, 0.00000000000000000000e+00) (0, 0, 0.00000000000000000000e+00) (0, 0, 0.00000000000000000000e+00) (0, 0, 0.00000000000000000000e+00) (0, 0, 0.00000000000000000000e+00) (0, 0, 0.00000000000000000000e+00) (0, 0, 0.00000000000000000000e+00) (25, 6, 5.00000000000000000000e-01) (25, 6, 5.00000000000000000000e-01) (25, 6, 5.00000000000000000000e-01) (25, 6, 5.00000000000000000000e-01) (25, 6, 5.00000000000000000000e-01) (25, 6, 5.00000000000000000000e-01) (25, 6, 5.00000000000000000000e-01) (25, 6, 5.00000000000000000000e-01) (25, 6, 5.00000000000000000000e-01) (25, 6, 5.00000000000000000000e-01) (0, 6, 0.00000000000000000000e+00) (11, 6, 5.00000000000000000000e-01) (0, 6, 0.00000000000000000000e+00) 
connections (connected_to_neuron, weight)=(0, 2.66184583671153873752e+01) (1, 2.61152751462478738276e-01) (2, 2.77172475771923054744e-01) (3, 3.05797815041561116267e-01) (4, 1.81696831898708360820e-01) (5, 2.00310906318530046466e-01) (6, -3.58295449184058034664e-01) (7, -4.24764219709093460153e+00) (8, 8.16901897325366888047e-01) (9, -5.66972009067991589149e+00) (10, -2.50591572955474128914e-01) (11, -4.06092475750321657557e+00) (12, -1.45640724313532171630e-01) (13, -5.73644719950241799289e-01) (14, 1.91345354784215326838e-01) (15, -4.22465649655490516068e+00) (16, -2.71402810207366507189e-02) (17, -3.80803185399463950400e-01) (18, -3.02445370416968173366e-01) (19, -2.87632531756228770892e-01) (20, -4.25581729511777773212e+00) (21, -4.45002070558723783478e+00) (22, -2.71000038080909333438e-01) (23, -2.82351125692740623219e-01) (24, -5.99276037416969220573e-01) (0, -2.20212346469611630617e-01) (1, -1.11582676691681342840e-01) (2, -1.63565981013447048209e-01) (3, -8.98122888037266309258e-02) (4, -2.23213008416563191139e-01) (5, 3.42285824416537654002e+00) (6, -2.58185442466891297564e-02) (7, -1.71958717532207872036e-01) (8, -6.89009654406943727878e-01) (9, 3.76373159541593116373e+00) (10, -1.29177930950449652847e-02) (11, 4.28437589786730896324e-02) (12, 2.65320972046651970544e+00) (13, 1.63568878473486029046e-01) (14, -4.76244699966172635452e-02) (15, -1.46516243682905417112e-01) (16, 9.66106176335651267717e-02) (17, -2.96267718598774189298e-02) (18, -1.14066030356151967839e-01) (19, 3.70382331696320898917e-02) (20, -5.63665272050362098355e-02) (21, -8.77678532132340344374e-02) (22, 1.20851555185666523218e-01) (23, -2.73198846697687403040e-01) (24, 1.63985352686679825007e-01) (0, -5.58433685115403144472e-01) (1, -1.64083974508485136434e-01) (2, -1.04513714162549356534e-01) (3, -1.97520690111359809027e-01) (4, -7.33131264130681553626e-02) (5, 3.72570772164262509207e+00) (6, 8.13692657773613103878e-02) (7, 4.68190354600867109092e-01) (8, 1.24123418647579752960e-01) (9, 2.90908902211319686515e+00) (10, -1.15425323815583194542e-01) (11, 2.25758218929481474513e-01) (12, 7.72473935065862882254e+00) (13, -9.80052324875380076463e-02) (14, -5.73901634759693024534e-01) (15, 2.52952491386766065151e-01) (16, 1.36236696183893252199e-01) (17, 1.04702508975052441254e-01) (18, 6.30484074350881468218e-02) (19, -2.57778041566391509509e-02) (20, 1.48411253143986565650e-01) (21, 4.30917439041111016707e-01) (22, -8.79025949715918630822e-02) (23, 2.25777582690241090946e-01) (24, -2.81586969272068221581e-01) (0, -3.65221131087406891691e-01) (1, -1.83504307008393541256e-01) (2, -1.56866663432725261806e-01) (3, -2.07243529445536839306e-01) (4, -7.90425849324544738117e-02) (5, 3.66671956528381892682e+00) (6, 6.16038157535062011472e-02) (7, -1.16536103075103716908e-01) (8, 1.96315201067023936687e-01) (9, 2.94972650449277828955e+00) (10, 4.80461199587085413532e-02) (11, 1.26536446057917167929e-01) (12, 1.05927225377557725494e+01) (13, -2.80420797313459535527e-01) (14, -7.82085927534120095572e-01) (15, 2.37239515115073462681e-01) (16, -5.12769144111236280237e-02) (17, 9.62505751693937400271e-02) (18, 3.42880537041918731500e-01) (19, 1.00397644859950077589e-01) (20, 9.72070213894927065423e-02) (21, 4.41092848892523203830e-01) (22, -1.37230977107202944953e-01) (23, 1.67612081084341946191e-01) (24, 1.31172264408083022458e-01) (0, 2.49112661839815396903e+00) (1, 8.99301259487230941758e-01) (2, 7.67426936595995590196e-01) (3, 8.10347995429594569750e-01) (4, 7.87402334331829600877e-01) (5, -1.32829097123857020613e+00) (6, 8.60142441188256001716e-01) (7, 4.16865819940141779654e+00) (8, 4.21240486843287200713e+01) (9, -4.49320747928879455912e+01) (10, 7.68906909943746219582e-01) (11, -6.87058484627704690872e-01) (12, -8.91216757829558337001e-01) (13, 8.10842708363885722456e-01) (14, 2.97088513210225224626e-01) (15, 4.26304171606365855940e-01) (16, 8.47921821759579086297e-01) (17, 6.44423445680776585398e-01) (18, 5.83342856494492156827e+00) (19, 9.15762541723101453073e-01) (20, -3.66482209723220653252e-03) (21, 1.30872519409823073744e+01) (22, 9.08206022630450471311e-01) (23, 3.32055359200728128499e+00) (24, -1.65307516728052372734e+00) (0, 1.27153720720990959236e-01) (1, -1.13712008654620000403e-01) (2, -7.52229500408428397584e-02) (3, -1.77588987707640311164e-01) (4, -2.17742576807285842522e-01) (5, 3.77046577303658603242e+00) (6, -1.76327712341569388388e-02) (7, -1.71831480867989966344e-01) (8, -2.28999549740206892467e-01) (9, 3.65885624541915133179e+00) (10, -2.60471098739114038934e-02) (11, -2.15006546195648157171e-01) (12, 3.57227017282662684394e+00) (13, 9.36593821336947490730e-02) (14, -6.57783778127454032969e-01) (15, -2.09590491953574403761e-01) (16, 1.07328363580511277481e-02) (17, 1.47586201586893506210e-01) (18, 4.77486212425162828699e-02) (19, 8.91588431720394952729e-02) (20, -7.75294195757723764162e-02) (21, -7.76092487849144030410e-02) (22, 1.31058294635482946305e-02) (23, -3.64391626446488176017e-02) (24, 1.14855863910872588174e-01) (0, 6.91001281322407976404e+01) (1, 2.37833457597228181690e-01) (2, 1.96798654802771755268e-01) (3, 1.80488946445914455463e-01) (4, 1.98747138091059871723e-01) (5, -6.04228213492865262602e-01) (6, -5.91678619514481640707e-01) (7, -7.90074789461529647383e+00) (8, -7.15471180215241919775e-01) (9, 4.75475958725323977205e+00) (10, -8.95600836001149036569e-01) (11, -7.96629510565602849681e+00) (12, 4.79172635218377440669e-01) (13, -1.04688238938167188508e+00) (14, -3.14810837723214498318e-01) (15, -1.02626300570066550932e+01) (16, -1.43950385143800041465e-01) (17, -9.61418841726639050727e-01) (18, -1.52567817061659516398e+00) (19, 6.82157689086650004251e-02) (20, -8.95273856162545378368e+00) (21, -9.21637887750755879779e+00) (22, -6.61380661495479804657e-01) (23, 4.21855032832657350639e-01) (24, -1.77191401005055815254e-01) (0, 4.14154596594070198989e+01) (1, 2.51516516521546551477e-01) (2, 2.33139204993817517053e-01) (3, 1.83611597135636517297e-01) (4, 3.47755956664654808375e-01) (5, -5.70713501244087328956e+00) (6, -1.61119970032475912092e-01) (7, -1.60991915241220895361e+00) (8, 1.75181515679860511092e+00) (9, -6.20368489122010036141e+00) (10, -6.55155854873107762470e-02) (11, 4.34316008677740672539e-01) (12, -6.74784448474784426253e+00) (13, 2.30292203854411459130e-01) (14, 1.68853704391868954249e-02) (15, 4.31200922662019925369e-01) (16, -1.44753957746829049064e-02) (17, 4.75983604073088539810e-01) (18, 7.40083498827353136740e-01) (19, 2.24994659786260181589e-01) (20, -8.20494516856411282291e-01) (21, -1.55343229931463744364e+00) (22, -3.93973122203514700135e-02) (23, 6.73936200515403482925e-01) (24, -5.31369665051870887496e-01) (0, 1.26189666760993834949e+00) (1, 9.83748621901901210141e-02) (2, 6.09505250713261864659e-02) (3, 9.38434339723022425961e-02) (4, 4.96114939114484093663e-02) (5, 3.77137166056298489547e-01) (6, 1.05466911552059824930e-01) (7, 5.95697854938719226214e-02) (8, 6.86643846040586258717e-01) (9, -4.31904271608908707503e-01) (10, 1.92434234434906981104e-01) (11, 1.31765922335278840016e-01) (12, 3.65678718297645477531e-01) (13, -2.94459852108587515074e-02) (14, 6.00780733802890987150e-01) (15, 9.69089445643347840997e-02) (16, 1.08946905337403907033e-01) (17, 7.03240943882594334718e-03) (18, 1.10294845893530168990e-01) (19, 8.48062195299934817871e-02) (20, 3.48147525655666048583e-02) (21, -1.38691546276152433137e-01) (22, 5.64777164571913098401e-02) (23, 1.86633299307218059049e-01) (24, -1.99383809618411422804e+00) (0, 5.58477101903183736908e+00) (1, 7.72767388372075925140e-01) (2, 7.82476418761861691742e-01) (3, 6.64703355281007990385e-01) (4, 8.23337235598218808441e-01) (5, 1.04612806276776293402e+00) (6, 2.91079801645115665565e+00) (7, 5.52183872359737293323e+00) (8, 4.29127835627945208863e-01) (9, -1.92577617570866110874e+00) (10, 1.24733902000079832639e+00) (11, 6.20314986209005492235e-01) (12, 1.63206793539777628155e+01) (13, 2.30941438461141812510e+00) (14, 8.32530834837150068850e-01) (15, 1.12760550921975788441e+00) (16, 9.72540286078731330832e-01) (17, 2.21507538518495380231e+02) (18, 5.49097045744433476244e+00) (19, 9.79485455183595865591e-01) (20, 5.42229935205281732280e-01) (21, 4.80124144719688032978e+01) (22, 1.29505271073400130000e+00) (23, 5.55100929183715763315e+00) (24, -4.53267542225781827625e+00) (25, -8.32324267918684301826e-01) (26, 5.08711119837216396711e-01) (27, 2.35181858281415412382e-01) (28, 7.68043490957982938339e-02) (29, 1.16127085888571746075e+00) (30, 3.60080390292459973089e-01) (31, -6.90757304098360780387e-01) (32, -4.93431350688381564762e-01) (33, 5.38122781231022639936e-01) (34, 6.06257781791619376754e-01) (35, 9.31981993247876339126e-01) 
