FANN_FLO_2.1
num_layers=3
learning_rate=0.700000
connection_rate=1.000000
network_type=0
learning_momentum=0.000000
training_algorithm=2
train_error_function=1
train_stop_function=1
cascade_output_change_fraction=0.010000
quickprop_decay=-0.000100
quickprop_mu=1.750000
rprop_increase_factor=1.200000
rprop_decrease_factor=0.500000
rprop_delta_min=0.000000
rprop_delta_max=50.000000
rprop_delta_zero=0.100000
cascade_output_stagnation_epochs=12
cascade_candidate_change_fraction=0.010000
cascade_candidate_stagnation_epochs=12
cascade_max_out_epochs=150
cascade_min_out_epochs=50
cascade_max_cand_epochs=150
cascade_min_cand_epochs=50
cascade_num_candidate_groups=2
bit_fail_limit=1.00000000000000005551e-01
cascade_candidate_limit=1.00000000000000000000e+03
cascade_weight_multiplier=4.00000000000000022204e-01
cascade_activation_functions_count=10
cascade_activation_functions=3 5 7 8 10 11 14 15 16 17 
cascade_activation_steepnesses_count=4
cascade_activation_steepnesses=2.50000000000000000000e-01 5.00000000000000000000e-01 7.50000000000000000000e-01 1.00000000000000000000e+00 
layer_sizes=25 11 2 
scale_included=0
neurons (num_inputs, activation_function, activation_steepness)=(0, 0, 0.00000000000000000000e+00) (0, 0, 0.00000000000000000000e+00) (0, 0, 0.00000000000000000000e+00) (0, 0, 0.00000000000000000000e+00) (0, 0, 0.00000000000000000000e+00) (0, 0, 0.00000000000000000000e+00) (0, 0, 0.00000000000000000000e+00) (0, 0, 0.00000000000000000000e+00) (0, 0, 0.00000000000000000000e+00) (0, 0, 0.00000000000000000000e+00) (0, 0, 0.00000000000000000000e+00) (0, 0, 0.00000000000000000000e+00) (0, 0, 0.00000000000000000000e+00) (0, 0, 0.00000000000000000000e+00) (0, 0, 0.00000000000000000000e+00) (0, 0, 0.00000000000000000000e+00) (0, 0, 0.00000000000000000000e+00) (0, 0, 0.00000000000000000000e+00) (0, 0, 0.00000000000000000000e+00) (0, 0, 0.00000000000000000000e+00) (0, 0, 0.00000000000000000000e+00) (0, 0, 0.00000000000000000000e+00) (0, 0, 0.00000000000000000000e+00) (0, 0, 0.00000000000000000000e+00) (0, 0, 0.00000000000000000000e+00) (25, 6, 5.00000000000000000000e-01) (25, 6, 5.00000000000000000000e-01) (25, 6, 5.00000000000000000000e-01) (25, 6, 5.00000000000000000000e-01) (25, 6, 5.00000000000000000000e-01) (25, 6, 5.00000000000000000000e-01) (25, 6, 5.00000000000000000000e-01) (25, 6, 5.00000000000000000000e-01) (25, 6, 5.00000000000000000000e-01) (25, 6, 5.00000000000000000000e-01) (0, 6, 0.00000000000000000000e+00) (11, 6, 5.00000000000000000000e-01) (0, 6, 0.00000000000000000000e+00) 
connections (connected_to_neuron, weight)=(0, 1.32878095095410109217e+00) (1, 8.92292567533871650021e-02) (2, 8.26754429382702826778e-02) (3, 9.50783723039052286463e-02) (4, -1.84154502111056155023e-02) (5, 3.17861347107660577316e-02) (6, -2.50227405506937383706e+00) (7, 1.50382357230350233168e-01) (8, -2.07080531164876957551e-01) (9, 4.19721060044913746312e-02) (10, 1.08933721445430911623e-02) (11, -1.79042570808714396335e+00) (12, 6.24989688389294140158e-02) (13, -7.10566875235201650396e-02) (14, -2.75779463940960360702e-02) (15, -5.13653850106990939040e-01) (16, 7.64458792827671512748e-02) (17, -1.59587950648144616395e+00) (18, -2.31529708323244709511e-01) (19, -6.17081354860020154379e-03) (20, -1.18828179630110455922e-01) (21, 9.49520336311625440251e-02) (22, 3.20005210708487058957e-02) (23, 8.09035484429802484452e-03) (24, 3.38523614921664300903e-02) (0, 5.59458155374357724021e-01) (1, 1.41183768571584766782e-01) (2, 9.69076130401783086832e-02) (3, 6.62722486865215815177e-02) (4, 1.53275107206075733579e-01) (5, 3.59157300682489799559e-01) (6, -1.44921765171712579878e+00) (7, 5.03144577741718945774e-01) (8, 1.77262483177290958158e-01) (9, 2.53675133985558076688e-01) (10, 7.42973031118642990300e-01) (11, 7.65295189505761475068e-01) (12, 6.35419821385923705437e-02) (13, 4.82692753997744306016e-01) (14, 4.19936577378582781561e-02) (15, 2.11897512033456830727e-01) (16, 1.51909020469655486885e-01) (17, 7.04970352647398601498e-01) (18, 1.35188906302768252488e-01) (19, 1.81376303068795680096e-01) (20, 3.71061631712294559549e-01) (21, 1.03055958622295718019e-01) (22, 1.16410946972469286909e-01) (23, 2.83714904634352949042e-01) (24, 8.12734436133856347206e-02) (0, 1.65157196565780850506e+01) (1, 6.84364118702669221861e-01) (2, 6.79043554790277559263e-01) (3, 6.51126423008699717343e-01) (4, 5.22830904550809938414e-01) (5, 2.82090263777120542343e-01) (6, -1.38593755046253264140e+00) (7, 2.34205620959779770018e+00) (8, 1.02913245285360521741e+00) (9, 5.33142667673914871784e+00) (10, 8.40941490858935658537e+00) (11, 9.00648217764587144529e+00) (12, 4.79877000565039624203e-02) (13, 1.14039833334042892687e+01) (14, 8.50757074234380072930e-01) (15, -3.74468192739471350539e-02) (16, 1.17172381545885295751e+00) (17, 1.00416809181636565995e+01) (18, 7.98918887731172810973e-01) (19, 1.39131036663522356100e+00) (20, 5.98417893896027619505e-01) (21, 3.51515132567584265288e-01) (22, 8.44042770341263959288e-01) (23, 3.04301606928331169755e+00) (24, -4.79806921554950704945e+00) (0, 9.65126356520634764991e+00) (1, 3.65298319071655275270e-01) (2, 2.58403431087856294557e-01) (3, 1.82904254108791380906e-01) (4, 3.02211645454292354707e-01) (5, 7.83366372237745878238e+00) (6, -6.10792758814400649214e+00) (7, 1.26197102662079840840e+00) (8, 2.41328027250494958622e-01) (9, 5.64911483852050144705e-01) (10, 2.08407651382308536370e+01) (11, -2.32727124001702057043e+00) (12, 1.81764001819018555794e-01) (13, 1.56674032220089802792e+01) (14, 3.87242075521045236997e+00) (15, 9.05917556308272420296e-01) (16, 3.40610147962085552109e-01) (17, 1.28030244082109501136e+01) (18, 4.86015488286888452940e-01) (19, 1.22598605288128451041e-02) (20, 2.12515698786669382514e+00) (21, 5.47091527313263610577e-03) (22, 1.62290898953474177491e-01) (23, 6.09575881217318205074e-01) (24, 1.43059608933306353640e-01) (0, 4.28018375846593723821e+00) (1, 1.49259548738640779320e-01) (2, 2.73047279670876774649e-01) (3, 2.93050911381882939200e-01) (4, 2.80583854869050297598e-01) (5, -6.78361347993535979128e-01) (6, 4.65223025280679092219e+00) (7, 1.19598399678833344772e+00) (8, 2.92802375914341939112e-01) (9, 3.21498131384029806057e+00) (10, 4.93720787755347600978e+01) (11, 7.06887780028083057005e+00) (12, 1.08535244210578668556e-01) (13, 1.54608434200212965237e+01) (14, 2.80371486297961824974e-01) (15, -2.04922508518015689116e-01) (16, -2.08172747699430338297e-01) (17, 1.01252729922786421923e+01) (18, 1.90933555347640782074e-01) (19, 1.93334852692625708270e-01) (20, 2.19743952879521448063e-01) (21, 3.22940364413865033111e-01) (22, 9.06327476399123588280e-01) (23, 1.21198053576013409227e+00) (24, 2.86388955701552372357e-01) (0, -4.71882612132389667181e+01) (1, 1.27769089956334042091e-01) (2, 1.03494595457365862190e-01) (3, 1.31237119157364773292e-01) (4, 2.66352254618456685265e-01) (5, 6.95410692362177562664e-01) (6, -2.82325163142793567062e+00) (7, 1.73986587008158322121e+00) (8, 3.05265554678337158734e+00) (9, 2.01107024769570852385e+00) (10, 2.72347553153045529584e+00) (11, -1.89999347866289225450e+00) (12, 5.52658223349236310540e-01) (13, 3.20604538711997033573e+00) (14, 7.41592893879875147967e-01) (15, 1.74791790905100635767e-01) (16, 3.59744677316498784325e-01) (17, -1.42026160549183844140e+00) (18, 2.25259175905100583748e+00) (19, 1.64678633271081431566e+00) (20, 3.13289291944098957643e+00) (21, 1.04121830234621914890e+00) (22, 1.66627687716779027127e+00) (23, 1.62379487007496514650e+00) (24, -1.78814979539322432833e-01) (0, 2.43763728153305159196e+00) (1, 4.41937404759082039241e-02) (2, 1.13961237955823746493e-01) (3, 1.76102716017499799639e-01) (4, 1.66942763615384931475e-01) (5, -1.84990043386824676297e-01) (6, 2.00844862161884307739e+00) (7, 4.88703939668014494813e-02) (8, 1.14679335256960515665e-01) (9, 3.55728087809678008777e-03) (10, 1.15013036667079335262e-01) (11, 3.99583708748305266312e+00) (12, 5.27284900230880204663e-02) (13, 9.28610246131136435332e-02) (14, -5.80138077962920068603e-03) (15, -7.96872769766683641812e-01) (16, 1.60403229530811514136e-01) (17, 1.45997696650854802414e+01) (18, 4.07157135712979123543e-02) (19, 2.40512572892273533698e-02) (20, 6.58687633022935759008e-02) (21, 1.17819702103152276762e-01) (22, -1.03502673783018046133e-02) (23, -1.39228735236706369083e-02) (24, -2.36740516917369678285e-02) (0, 8.91343750224359254730e+00) (1, 3.97664532702744835668e-02) (2, 3.38852331679642890250e-02) (3, 1.34127430681544618229e-01) (4, 1.97200283471900356114e-01) (5, -4.06105460742956555359e-03) (6, -2.32220014804833452260e+00) (7, 4.60736964735111581559e-02) (8, -1.52518145737098625991e-01) (9, 1.57466418462669788259e-01) (10, -2.91153925382463707461e-01) (11, -1.63043930181833474080e+00) (12, -1.33775312563646532615e-03) (13, -2.70244374480799853799e-01) (14, 1.05436156691012770936e-02) (15, 7.70713012867776797732e-02) (16, 2.75083615879197808385e-02) (17, -1.97875655833374008985e+00) (18, -3.34118762096274057871e-02) (19, 9.79794093975965701970e-02) (20, -1.09247047830963173176e-01) (21, -5.15242376391852816009e-02) (22, 7.34686605593519587165e-02) (23, 1.18102904249694329319e-01) (24, 4.24912233010139236966e-02) (0, 1.61630391961146635538e+00) (1, 2.45750165811616572142e-01) (2, 2.77822024456102156797e-01) (3, 2.10302732220727622847e-01) (4, 2.72454447380143904844e-01) (5, 1.03805350979883706519e-01) (6, -8.41206616468487489158e+00) (7, 8.97796782831798284574e-02) (8, -5.51995340377434362544e-01) (9, 7.43993670375057841726e-02) (10, -7.67973272160739739434e-01) (11, 9.84470226878598198006e-02) (12, -1.44783166777759542132e-01) (13, -3.96603226461556879201e-01) (14, 1.28156859613754336991e-01) (15, 8.18522904015294905378e+00) (16, 1.35324992020309314844e-01) (17, -8.05559953740594969496e-02) (18, -9.63627243223077745160e-02) (19, 2.28470883732801166577e-01) (20, 1.02864073291812144206e-02) (21, 8.79706010752279304876e-02) (22, 4.63729187342807325223e-02) (23, 3.89435632674483139803e-02) (24, 1.13953738989867270348e-01) (0, 1.26030565577149888945e+00) (1, 9.04581479362625978657e-02) (2, 3.20836089185852976757e-02) (3, -6.02022487600854545181e-03) (4, 8.43471668295044801900e-02) (5, 7.77602609653075954599e-02) (6, -2.40736580271093725258e+00) (7, 6.93351279505236006706e-02) (8, -2.34487570082721058506e-02) (9, 1.29856187108141313269e-01) (10, 5.31903303063692711738e-02) (11, -1.80327326838817803001e+00) (12, 3.65229887089915036813e-02) (13, 7.42074525307248426820e-03) (14, 1.38438596348020304116e-01) (15, -6.25252736906285910834e-01) (16, 1.34289774479751350400e-01) (17, -1.57390921206549538880e+00) (18, -1.56030775283487493921e-01) (19, 1.31346145317213114367e-01) (20, -1.39874408336947225751e-01) (21, 1.52983422635763727238e-01) (22, 5.28158740395558434777e-02) (23, 1.08883392407860463136e-01) (24, 5.68670596697425090316e-02) (25, -5.72348764504734264236e-01) (26, 3.08334570897595861005e-01) (27, 7.43634186608912339800e-01) (28, 2.02868377218654416527e-01) (29, 2.14633958559240084485e-01) (30, 1.51127055739060800477e+00) (31, 1.07532827680242415447e+00) (32, -6.21842120705847878348e-01) (33, -5.22273216238645643372e-02) (34, -4.25227832700565078206e-01) (35, 5.49765252982723051645e-01) 
