FANN_FLO_2.1
num_layers=3
learning_rate=0.700000
connection_rate=1.000000
network_type=0
learning_momentum=0.000000
training_algorithm=2
train_error_function=1
train_stop_function=1
cascade_output_change_fraction=0.010000
quickprop_decay=-0.000100
quickprop_mu=1.750000
rprop_increase_factor=1.200000
rprop_decrease_factor=0.500000
rprop_delta_min=0.000000
rprop_delta_max=50.000000
rprop_delta_zero=0.100000
cascade_output_stagnation_epochs=12
cascade_candidate_change_fraction=0.010000
cascade_candidate_stagnation_epochs=12
cascade_max_out_epochs=150
cascade_min_out_epochs=50
cascade_max_cand_epochs=150
cascade_min_cand_epochs=50
cascade_num_candidate_groups=2
bit_fail_limit=1.00000000000000005551e-01
cascade_candidate_limit=1.00000000000000000000e+03
cascade_weight_multiplier=4.00000000000000022204e-01
cascade_activation_functions_count=10
cascade_activation_functions=3 5 7 8 10 11 14 15 16 17 
cascade_activation_steepnesses_count=4
cascade_activation_steepnesses=2.50000000000000000000e-01 5.00000000000000000000e-01 7.50000000000000000000e-01 1.00000000000000000000e+00 
layer_sizes=41 11 2 
scale_included=0
neurons (num_inputs, activation_function, activation_steepness)=(0, 0, 0.00000000000000000000e+00) (0, 0, 0.00000000000000000000e+00) (0, 0, 0.00000000000000000000e+00) (0, 0, 0.00000000000000000000e+00) (0, 0, 0.00000000000000000000e+00) (0, 0, 0.00000000000000000000e+00) (0, 0, 0.00000000000000000000e+00) (0, 0, 0.00000000000000000000e+00) (0, 0, 0.00000000000000000000e+00) (0, 0, 0.00000000000000000000e+00) (0, 0, 0.00000000000000000000e+00) (0, 0, 0.00000000000000000000e+00) (0, 0, 0.00000000000000000000e+00) (0, 0, 0.00000000000000000000e+00) (0, 0, 0.00000000000000000000e+00) (0, 0, 0.00000000000000000000e+00) (0, 0, 0.00000000000000000000e+00) (0, 0, 0.00000000000000000000e+00) (0, 0, 0.00000000000000000000e+00) (0, 0, 0.00000000000000000000e+00) (0, 0, 0.00000000000000000000e+00) (0, 0, 0.00000000000000000000e+00) (0, 0, 0.00000000000000000000e+00) (0, 0, 0.00000000000000000000e+00) (0, 0, 0.00000000000000000000e+00) (0, 0, 0.00000000000000000000e+00) (0, 0, 0.00000000000000000000e+00) (0, 0, 0.00000000000000000000e+00) (0, 0, 0.00000000000000000000e+00) (0, 0, 0.00000000000000000000e+00) (0, 0, 0.00000000000000000000e+00) (0, 0, 0.00000000000000000000e+00) (0, 0, 0.00000000000000000000e+00) (0, 0, 0.00000000000000000000e+00) (0, 0, 0.00000000000000000000e+00) (0, 0, 0.00000000000000000000e+00) (0, 0, 0.00000000000000000000e+00) (0, 0, 0.00000000000000000000e+00) (0, 0, 0.00000000000000000000e+00) (0, 0, 0.00000000000000000000e+00) (0, 0, 0.00000000000000000000e+00) (41, 6, 5.00000000000000000000e-01) (41, 6, 5.00000000000000000000e-01) (41, 6, 5.00000000000000000000e-01) (41, 6, 5.00000000000000000000e-01) (41, 6, 5.00000000000000000000e-01) (41, 6, 5.00000000000000000000e-01) (41, 6, 5.00000000000000000000e-01) (41, 6, 5.00000000000000000000e-01) (41, 6, 5.00000000000000000000e-01) (41, 6, 5.00000000000000000000e-01) (0, 6, 0.00000000000000000000e+00) (11, 6, 5.00000000000000000000e-01) (0, 6, 0.00000000000000000000e+00) 
connections (connected_to_neuron, weight)=(0, 2.06942318974239247709e+00) (1, 1.50269444768505427978e-01) (2, 3.06700516513711170241e-05) (3, 1.42787631337719350677e-01) (4, 1.46464665580562508618e-02) (5, -3.84136069045654393594e-01) (6, -6.85620746337013864391e-01) (7, -7.43777372491189248116e-01) (8, -3.12656391407993450304e-01) (9, -1.18101363252197111287e-01) (10, -6.10366244158961346322e-01) (11, -1.27575096084297720522e-02) (12, -9.03601235195512164644e-01) (13, 3.46204673951050617697e-02) (14, 2.06645259260932606660e-02) (15, -9.80142541701303104951e-01) (16, -5.96496121333539019993e-01) (17, -1.03451018082569667911e+00) (18, -8.45746218201762073319e-02) (19, -1.29502951893376727632e+00) (20, 1.19819169760362526089e-01) (21, -1.75061024805697768025e-01) (22, 2.26573238771217599918e-01) (23, -1.10765519122998790102e+00) (24, 1.67937903735803611971e-01) (25, -2.03633126666862862564e+00) (26, 8.31568316022927161990e-02) (27, -1.97144147701680338969e+00) (28, 9.77062143769546892491e-02) (29, -9.63206051055155110241e-01) (30, -2.71109530089942984965e-01) (31, -2.95021993123234405054e-01) (32, -5.75541775744431105544e-01) (33, -3.55191618012066778753e-01) (34, -7.62645525261732015743e-01) (35, -8.57105958987975480312e-01) (36, -2.34413472973759029472e-01) (37, -2.71110840965980648409e-01) (38, -1.40600847194673050922e+00) (39, -2.05975754083504936087e-01) (40, 1.79499287029334292365e-01) (0, -1.11234288399066443276e+01) (1, 9.29054689779198195065e-02) (2, 1.60302517189896236161e-02) (3, 5.91950488462364907138e-02) (4, 1.45287044085494282397e-01) (5, 1.95994431468952484687e-01) (6, 2.31672541151701466555e-01) (7, 7.47091492867070772199e-01) (8, 1.44593984487982690768e-01) (9, 1.27976559337555917395e-01) (10, -9.40751433124027355848e-03) (11, 1.01093389740606443006e-01) (12, 1.20076373079393172727e-01) (13, 6.94722189664396944098e-02) (14, 8.32228168010267915777e-02) (15, 5.74189855901217183209e-01) (16, 1.84295603568207622125e-01) (17, 8.89426707574242775278e-02) (18, -2.92023982301019002783e-02) (19, 1.09328564910063874560e-01) (20, 1.18506318647865094285e-01) (21, -8.59201781983201517967e-02) (22, -4.17021509898805528560e-02) (23, 2.10087171830299596076e-01) (24, -1.35983981078489132160e-03) (25, 3.38028101461939678440e-01) (26, -6.72929854542710786935e-02) (27, 1.24640891971450562536e-01) (28, 5.59629321220151756955e-02) (29, 8.59785384709810945880e-02) (30, 2.20428092758957361319e-01) (31, 2.07521753229682637265e-01) (32, 1.06304397116463611450e-01) (33, 7.57566418746840830600e-01) (34, 3.45852942096786852844e-01) (35, 1.39303179590563241952e+00) (36, 9.31966895775626358311e-02) (37, 2.97173963682349218107e-01) (38, 1.02771259807154874411e-01) (39, -9.70138997412162557010e-02) (40, -2.65151239229799218222e-01) (0, 4.22790389852248438274e+00) (1, 2.35036285173175402141e-01) (2, 2.42288501512286785777e-01) (3, 6.88779144995190495404e-02) (4, 1.64021374236819811321e-01) (5, -4.34025697332830251440e-01) (6, 2.07820069345571678543e-01) (7, 1.05067551755113797185e+00) (8, -6.85918348366771457592e-01) (9, 5.60204483210128070803e-03) (10, 3.93634966904370942054e-01) (11, -2.74395729135444133018e-01) (12, 1.37413751675524720142e+00) (13, -4.94054211823518885094e-01) (14, -1.32482543997567675520e-01) (15, 4.13232034738033271459e-01) (16, 2.17671267505953391908e-01) (17, 1.56341457533314520667e+00) (18, -6.64018628764145996124e-02) (19, 3.40341025537416719260e+00) (20, 8.65093937417464320383e-02) (21, -4.14710123031944766225e-01) (22, -1.42706752474007658726e-01) (23, 5.83598298519266833750e+00) (24, 2.37279746725850351763e-02) (25, 5.16020347444410543147e+00) (26, -2.46613282818400975094e-01) (27, 4.75241372265388939411e+00) (28, -2.82811104605301011361e-01) (29, 7.46920387771073812644e+00) (30, 5.68311994071999948552e-01) (31, 5.60269821818116131595e-01) (32, 3.03955111058160122595e-02) (33, 6.67542707506769472658e-01) (34, 4.89934814598412948783e+00) (35, 1.06265894197626309392e+00) (36, 9.25194345181956923074e-02) (37, 1.86497460761105876559e-01) (38, 3.69006554466362324263e-01) (39, -5.36892397459250367286e-02) (40, -2.31980022538116975594e-01) (0, -1.04710484069659534589e-01) (1, 1.27972318387474498502e-01) (2, 1.19046284413780623090e-01) (3, 1.93848385072197398893e-01) (4, 1.19752063012566023481e-01) (5, -3.98730864215865662969e-02) (6, -4.32577522816328041699e+00) (7, -1.47710406964053375667e+00) (8, -5.75030940348683836105e-02) (9, -8.76056586202000886487e-02) (10, -9.72270950985262283339e-01) (11, 1.78059283639169264879e-02) (12, -3.40992294160036790718e-01) (13, 2.20199129849497216016e-03) (14, -2.71978928895511895547e-01) (15, -8.13121109711335665615e-01) (16, -2.41323023291149379999e-01) (17, -2.94853761048832097025e-01) (18, -2.77991682217702193447e-02) (19, -3.06669375670095556430e-02) (20, -3.30343796002942502454e-01) (21, -5.95756348508152844268e-01) (22, 1.76071226001650420201e-02) (23, -6.22940145776826950663e-02) (24, 1.50170775437428211108e-01) (25, -1.00405644762365775513e+00) (26, 2.92569344428164415661e-02) (27, 2.15793928466930032273e-02) (28, 2.01534409308355422219e-02) (29, -1.58034659501389285197e-01) (30, 6.87992692060954702526e-02) (31, -1.82500834472934553299e-01) (32, -3.05567659731882657059e-01) (33, -2.15927484114949108651e-01) (34, -1.72574629430090054072e-01) (35, 1.21877309661216148839e+00) (36, 4.91868678674285686458e-03) (37, -1.42838704518251508047e-01) (38, -5.61638490471050189079e-01) (39, -4.22436723892602894459e-01) (40, -2.42874033069907596660e-01) (0, 5.39160239067114854805e-01) (1, 7.39317898757721747582e-02) (2, 1.12293942750241959594e-01) (3, 6.35576051779057488167e-02) (4, 1.74023664475229017379e-01) (5, 3.90363446845540917884e-01) (6, 4.29398647763621743589e-01) (7, 3.10964086977042530879e-01) (8, 2.19224579890779147640e-01) (9, 4.34125574436558359093e-01) (10, 3.82521150410019716848e-01) (11, 3.38043450437582188028e-02) (12, 5.29027657639054238459e-01) (13, 4.07993227540697334099e-01) (14, 4.10376724231171774449e-01) (15, 7.61602272383542056033e-01) (16, 3.42595459164036608701e-01) (17, 3.53058841206498497112e-01) (18, 3.69867793749306505990e-01) (19, 3.28552134769141301884e-01) (20, 3.26359814168599604578e-01) (21, 2.82672694355733500338e-01) (22, 6.95529029135970311426e-02) (23, 1.59120944035617895018e+00) (24, 2.39030324250596282187e-01) (25, 6.94596042134994107187e+00) (26, 3.32034037131853920766e-02) (27, 2.88401965473369048532e-01) (28, 1.80342428237753538145e-01) (29, 1.76816577685021814048e+00) (30, 3.99019036666848403438e-01) (31, 4.33388976425165939332e-01) (32, 4.78674237778638766994e-01) (33, 7.68696459791060049405e-02) (34, 1.90004993493593565823e+00) (35, -6.07760581174204006505e-02) (36, 3.91151416812030472414e-01) (37, 3.01737592062326309694e-01) (38, 4.30140708185100806293e-01) (39, 1.83421242892476826780e-01) (40, 1.05980203882561269113e-01) (0, 4.25096205966197260295e+00) (1, 2.13431121360538073040e-01) (2, 1.84968621980426378704e-01) (3, 9.17804665379502171429e-02) (4, 1.95118577729938097454e-01) (5, -4.80977834319395725071e-02) (6, 1.71394754501917045975e-01) (7, 8.37006905860753103177e-01) (8, -1.67263985685998955999e-01) (9, 9.21045372599270800729e-02) (10, 4.56652961069791474280e-01) (11, -3.91290808461787764649e-01) (12, 1.54850768639483460376e+00) (13, -4.14598832559582297641e-01) (14, -3.71611720190340111269e-01) (15, 3.50496678347557044653e-01) (16, 2.34728533592293481247e-01) (17, 1.38685019480660254310e+00) (18, 2.02614236767294786379e-01) (19, 3.03793378202402619692e+00) (20, 3.20834498634001041850e-01) (21, -3.63280963092655784230e-01) (22, -3.28704424853024479436e-01) (23, 5.52177220741628183021e+00) (24, 8.49615920379452188582e-02) (25, 5.21607134012575368587e+00) (26, -1.88452895838821049557e-01) (27, 4.66407829054167244465e+00) (28, -1.57612151751621354379e-01) (29, 4.24318627241933388206e+00) (30, 4.98597537275354052433e-01) (31, 6.24831056740363210977e-01) (32, 1.76757622078220516526e-01) (33, 7.40508366707914644778e-01) (34, 4.87050779785962539847e+00) (35, 1.04011826091213421819e+00) (36, 7.80266880756393110818e-02) (37, 3.92932620459337356156e-01) (38, -1.30107787603916669195e-01) (39, 3.42978703420346309194e-03) (40, -2.10743200529030338952e-01) (0, 3.83529536114074298681e+00) (1, 6.49377812791637198941e-02) (2, 1.19634601955490443848e-01) (3, 9.29636766362956779020e-02) (4, 3.50612138558200683858e-02) (5, -4.02559913207171216065e-01) (6, -3.73953548280529901593e-01) (7, -7.89783787530490166695e-01) (8, -2.10947684810719710002e-01) (9, -6.04237068400724566808e-02) (10, -5.67672979376532604867e-01) (11, -2.71841694010914319835e-02) (12, -9.20210456892365802339e-01) (13, 1.24633518541875265573e-01) (14, 1.09325291365365215301e-01) (15, -8.99799958343015293671e-01) (16, -2.90947553716839446558e-01) (17, -1.03259503888557979678e+00) (18, -1.41191839601638780000e-01) (19, -1.16634274441170115999e+00) (20, 1.28981290281431099087e-01) (21, -1.14480898010731621528e-01) (22, 1.64542416788446943521e-01) (23, -9.71070925592072420329e-01) (24, 1.28031729791330400881e-01) (25, -1.69246720314690235476e+00) (26, 1.65358081499772602285e-01) (27, -5.38489840519305484889e-01) (28, 4.37710364353641689927e-01) (29, -1.33856490837427544172e+00) (30, -4.11677831051406650786e-01) (31, -3.43774493058643881849e-01) (32, -4.19819091208791628222e-01) (33, -5.00013358698960130866e-01) (34, -8.69830811469278653014e-01) (35, -1.08067031511960398582e+00) (36, -5.88375249769978181380e-02) (37, -1.68871695124911402885e-01) (38, -2.35629238697191167873e+00) (39, -9.26601941598561434921e-02) (40, 2.17488247772284676307e-01) (0, 2.00012515707117888297e+00) (1, 2.76203935194782070062e-02) (2, 7.32360144305995719449e-02) (3, 1.38464417045193105560e-01) (4, 1.68662737791614864014e-01) (5, -2.60932272605231829754e-01) (6, -4.39227354733281172283e-01) (7, -6.29883520853348977120e-01) (8, -1.99237279460988264690e-01) (9, -5.51236469254835145803e-02) (10, -3.44623575000653714628e-01) (11, 1.12988092343646137627e-01) (12, -9.01612230647985901655e-01) (13, 1.51142185116830252145e-01) (14, 9.43830625712672871552e-02) (15, -9.31411117786870579316e-01) (16, -2.56237027250469817652e-01) (17, -9.72702697391019444062e-01) (18, -1.61565780069473252656e-01) (19, -1.20046495813297648958e+00) (20, 2.33551626921312122098e-01) (21, -5.97521216479867597893e-02) (22, 1.68263594366419355630e-01) (23, -9.71382817637883699824e-01) (24, 8.28358701502936167760e-02) (25, -1.33112892675566096834e+00) (26, 1.62017967712220101184e-01) (27, -5.25116107952472099818e-01) (28, 4.64781000963393337022e-02) (29, -8.13376648477303398899e-01) (30, -4.32439959773008475441e-01) (31, -2.82362919416377033954e-01) (32, -4.05871559627866640430e-01) (33, -3.14360450278295733284e-01) (34, -9.00646211652479489196e-01) (35, -5.40800255466613255528e-01) (36, -2.15143630173496927527e-02) (37, -2.64960886859702260399e-01) (38, -2.24884307148357320827e+00) (39, -9.60182166805790965336e-02) (40, 1.26699115952082858039e-01) (0, 4.74718520906008745186e-01) (1, 3.15713872320916091874e-02) (2, 1.53489447117593519332e-01) (3, 2.00620091439035169723e-01) (4, 1.57671487808969251754e-01) (5, 3.31311448885927117836e-01) (6, 4.34327579357516702085e-01) (7, 3.07119296816386555538e-01) (8, 3.96361246963552071865e-01) (9, 2.15340244565798033527e-01) (10, 3.66147270202481112111e-01) (11, 1.44215497287372429458e-01) (12, 4.52164093088177565516e-01) (13, 4.86569345294679878045e-01) (14, 2.30403382706570819538e-01) (15, 7.46359978906483645389e-01) (16, 2.86003054157804414981e-01) (17, 4.97172970451779883128e-01) (18, 2.35954604576561643992e-01) (19, 3.31391834156691655888e-01) (20, 2.74272626401570795984e-01) (21, 3.05816105038411722994e-01) (22, 1.68167844777373752529e-02) (23, 1.69212932777969427001e+00) (24, 1.95765023475210658832e-01) (25, 6.88157784217232304513e+00) (26, 2.56995970687630748142e-01) (27, 3.50845452819541381295e-01) (28, 1.97977099419193891539e-01) (29, 1.80458851751827653587e+00) (30, 4.70864843801953536495e-01) (31, 3.86581933170790481569e-01) (32, 4.72736572077726291408e-01) (33, 1.89910957481562669980e-01) (34, 3.39193972136479660051e+00) (35, -8.30659116604635233694e-02) (36, 4.45140708003131546633e-01) (37, 1.96921959957452596957e-01) (38, 4.67869098952421569315e-01) (39, 2.14547205626699238890e-01) (40, -2.69054906212229452689e-02) (0, 4.84162805984128752357e+00) (1, 2.92242059128094089360e-01) (2, 3.12493184225368869633e-01) (3, 2.65121878700065982670e-01) (4, 2.93956176953125369877e-01) (5, -1.02787213204981875414e+00) (6, -2.25861571085914736301e+00) (7, 1.19918541228676005517e+01) (8, -2.34879726123673426841e+00) (9, -1.17492511817761380311e-03) (10, -1.50314130568850679026e+00) (11, -1.11772121395836809832e+00) (12, -5.12395503033714838637e-01) (13, 4.41449000278784697837e-01) (14, 1.19842445424284751998e-01) (15, -2.71464521818965964783e-01) (16, -5.42067923095736967087e-02) (17, 7.23043688324671585121e-01) (18, -3.26696946413047362157e-01) (19, 1.59896279686990050450e+00) (20, 2.72042417910280179272e-02) (21, -3.60367177476196509645e-01) (22, 3.15915104499365606561e-01) (23, 7.72647251543493762682e+00) (24, 2.30923610808032281350e-01) (25, 7.68495694475766377707e+00) (26, 3.78981927098709980850e-01) (27, 8.76704453234734515377e+00) (28, -5.42168611746352072100e-02) (29, 8.11499075901212951756e-01) (30, 2.75624149796495521159e-01) (31, 4.36889660397100365596e-01) (32, -2.22431087243644548535e-01) (33, 4.04438437433431463575e+00) (34, 7.86763956898804206475e+00) (35, 4.67411654296604162084e+00) (36, 6.84661037967694702244e-02) (37, 5.09138305202471719291e-01) (38, 9.11577898035412670374e-01) (39, 3.18105570874942344961e-01) (40, 1.11313530754901759967e-01) (41, -3.29636493600891145039e-01) (42, 1.24654307745300885202e+00) (43, 7.23392922997299514520e-01) (44, -2.28819187910815936837e-02) (45, 2.80719191680609159167e-01) (46, 7.02618722438637099970e-01) (47, -5.15361491984079433948e-01) (48, -3.23892859999248827751e-01) (49, 2.62116835365950151537e-01) (50, 1.81613369584481987307e-01) (51, 2.81617474487119712201e-01) 
