FANN_FLO_2.1
num_layers=3
learning_rate=0.700000
connection_rate=1.000000
network_type=0
learning_momentum=0.000000
training_algorithm=2
train_error_function=1
train_stop_function=1
cascade_output_change_fraction=0.010000
quickprop_decay=-0.000100
quickprop_mu=1.750000
rprop_increase_factor=1.200000
rprop_decrease_factor=0.500000
rprop_delta_min=0.000000
rprop_delta_max=50.000000
rprop_delta_zero=0.100000
cascade_output_stagnation_epochs=12
cascade_candidate_change_fraction=0.010000
cascade_candidate_stagnation_epochs=12
cascade_max_out_epochs=150
cascade_min_out_epochs=50
cascade_max_cand_epochs=150
cascade_min_cand_epochs=50
cascade_num_candidate_groups=2
bit_fail_limit=1.00000000000000005551e-01
cascade_candidate_limit=1.00000000000000000000e+03
cascade_weight_multiplier=4.00000000000000022204e-01
cascade_activation_functions_count=10
cascade_activation_functions=3 5 7 8 10 11 14 15 16 17 
cascade_activation_steepnesses_count=4
cascade_activation_steepnesses=2.50000000000000000000e-01 5.00000000000000000000e-01 7.50000000000000000000e-01 1.00000000000000000000e+00 
layer_sizes=38 4 2 
scale_included=0
neurons (num_inputs, activation_function, activation_steepness)=(0, 0, 0.00000000000000000000e+00) (0, 0, 0.00000000000000000000e+00) (0, 0, 0.00000000000000000000e+00) (0, 0, 0.00000000000000000000e+00) (0, 0, 0.00000000000000000000e+00) (0, 0, 0.00000000000000000000e+00) (0, 0, 0.00000000000000000000e+00) (0, 0, 0.00000000000000000000e+00) (0, 0, 0.00000000000000000000e+00) (0, 0, 0.00000000000000000000e+00) (0, 0, 0.00000000000000000000e+00) (0, 0, 0.00000000000000000000e+00) (0, 0, 0.00000000000000000000e+00) (0, 0, 0.00000000000000000000e+00) (0, 0, 0.00000000000000000000e+00) (0, 0, 0.00000000000000000000e+00) (0, 0, 0.00000000000000000000e+00) (0, 0, 0.00000000000000000000e+00) (0, 0, 0.00000000000000000000e+00) (0, 0, 0.00000000000000000000e+00) (0, 0, 0.00000000000000000000e+00) (0, 0, 0.00000000000000000000e+00) (0, 0, 0.00000000000000000000e+00) (0, 0, 0.00000000000000000000e+00) (0, 0, 0.00000000000000000000e+00) (0, 0, 0.00000000000000000000e+00) (0, 0, 0.00000000000000000000e+00) (0, 0, 0.00000000000000000000e+00) (0, 0, 0.00000000000000000000e+00) (0, 0, 0.00000000000000000000e+00) (0, 0, 0.00000000000000000000e+00) (0, 0, 0.00000000000000000000e+00) (0, 0, 0.00000000000000000000e+00) (0, 0, 0.00000000000000000000e+00) (0, 0, 0.00000000000000000000e+00) (0, 0, 0.00000000000000000000e+00) (0, 0, 0.00000000000000000000e+00) (0, 0, 0.00000000000000000000e+00) (38, 6, 5.00000000000000000000e-01) (38, 6, 5.00000000000000000000e-01) (38, 6, 5.00000000000000000000e-01) (0, 6, 0.00000000000000000000e+00) (4, 4, 5.00000000000000000000e-01) (0, 4, 0.00000000000000000000e+00) 
connections (connected_to_neuron, weight)=(0, 6.54415680360720397601e-01) (1, -1.49616384872734808908e+00) (2, -1.91809851187805718853e-01) (3, -1.25498950067983616741e+00) (4, 2.36545808330276656761e+01) (5, -5.17358870255774760949e-01) (6, -7.10863197562772608507e-01) (7, 3.34356074557979443540e+00) (8, -2.29842505712092881609e+00) (9, -9.39917395054742477178e-01) (10, -2.29932414419920272408e+00) (11, -2.29905654801718339897e+00) (12, -2.29917702568332993351e+00) (13, -6.99089294192844334930e+00) (14, 7.12324771730854511276e+00) (15, -5.32040149921921567966e+00) (16, 4.67363495545041107704e+00) (17, -2.29930490473862825240e+00) (18, -2.29898576645347452185e+00) (19, -2.29880765088051042255e+00) (20, -2.29936833096549309019e+00) (21, -2.29835123801571672431e+00) (22, -4.98246246137795334441e-01) (23, -2.19041992698347232071e-01) (24, -5.79188168179964546489e-01) (25, -5.70647144652101867557e-01) (26, -6.19685251916606394396e-01) (27, -6.19762387856641283612e-01) (28, -1.06313408234627787552e-01) (29, -1.02229340686707512176e-01) (30, -2.35484753052319195632e-01) (31, -1.55047650904013206707e-01) (32, -5.39483644405157281021e-01) (33, 2.09810738110002770185e+00) (34, 5.42285630989994160700e-01) (35, -1.10185906327809868266e+00) (36, 6.11036235214585721209e-01) (37, 1.37604113665518790199e+00) (0, 1.37522013242604990158e-02) (1, 6.71694818566636819845e-01) (2, 9.42574459626980942772e-01) (3, 1.42388708141813635777e+00) (4, 1.50000000000000000000e+03) (5, 1.50000000000000000000e+03) (6, 1.50000000000000000000e+03) (7, 1.50000000000000000000e+03) (8, 2.13167678453470976763e+00) (9, 9.28856627294031511610e-01) (10, 2.12789391383956205672e+00) (11, 2.12992506457399466413e+00) (12, 2.12974183923110382821e+00) (13, 4.68625060759191658377e+00) (14, -3.87037094156045569093e+00) (15, 5.20557721830145769815e+00) (16, -4.56930295876109582309e+00) (17, 2.12727973878254816853e+00) (18, 2.12876588730871940669e+00) (19, 2.13060534758222308582e+00) (20, 2.12783726359300562336e+00) (21, 2.13118282641196010729e+00) (22, 1.09536905265415196453e+01) (23, 3.66827494721968738745e+00) (24, 1.18569172635605024624e+00) (25, 2.53323050530546423076e+00) (26, 1.32911521703760593383e+00) (27, 9.58372794777712977421e-01) (28, 6.81904530017708587764e+00) (29, 6.01891809276616029933e+00) (30, 4.07598079372836430423e+00) (31, 5.09239828243879255609e+00) (32, 1.20320266948712397692e+01) (33, 1.03607003327942659432e+00) (34, 3.06906621826859948854e+00) (35, 1.56634396083378413245e+00) (36, 6.77306279931126242744e-01) (37, -1.50778771063146699305e+00) (0, 7.81933385644161149663e-01) (1, -1.65796226163732018932e+00) (2, -5.09853667833329637915e-01) (3, -1.36142774971146907070e+00) (4, 2.36733818218210387840e+01) (5, -5.92666841544180700296e-01) (6, -1.44793693849368382276e-01) (7, 3.21965376996229490913e+00) (8, -2.50578294719041361205e+00) (9, -9.99954297608456332824e-01) (10, -2.50644580160602226115e+00) (11, -2.50495030930700401939e+00) (12, -2.50550477727740172895e+00) (13, -7.64774554641461001836e+00) (14, 7.82307807571899083143e+00) (15, -1.14666375948538945551e+01) (16, 1.34617111619645957177e+01) (17, -2.50686073178432700104e+00) (18, -2.50637302678732920569e+00) (19, -2.50593988153382829509e+00) (20, -2.50629170704759207666e+00) (21, -2.50558564609606637674e+00) (22, -5.30478709497628098113e-01) (23, -3.68396561156661916936e-01) (24, -7.06324291768079315368e-01) (25, -5.51844857597157734119e-01) (26, -6.86593310689685654147e-01) (27, -6.85456865504882495443e-01) (28, -2.37784539826561176767e-02) (29, -1.26829550155956954915e-01) (30, -2.17989560119710545916e-01) (31, -2.24941804484187740654e-01) (32, -6.28550629094256296803e-01) (33, 2.06695946523007645368e+00) (34, 3.47177294261033053679e-01) (35, -1.22491847063351744218e+00) (36, 1.01683156871301916269e+00) (37, 1.48219416287837035817e+00) (38, -9.14510801589554667146e+00) (39, 3.36217170081278471372e+00) (40, -3.44685532539560535170e+00) (41, -4.98767772866309799795e-01) 
