FANN_FLO_2.1
num_layers=3
learning_rate=0.700000
connection_rate=1.000000
network_type=0
learning_momentum=0.000000
training_algorithm=2
train_error_function=1
train_stop_function=1
cascade_output_change_fraction=0.010000
quickprop_decay=-0.000100
quickprop_mu=1.750000
rprop_increase_factor=1.200000
rprop_decrease_factor=0.500000
rprop_delta_min=0.000000
rprop_delta_max=50.000000
rprop_delta_zero=0.100000
cascade_output_stagnation_epochs=12
cascade_candidate_change_fraction=0.010000
cascade_candidate_stagnation_epochs=12
cascade_max_out_epochs=150
cascade_min_out_epochs=50
cascade_max_cand_epochs=150
cascade_min_cand_epochs=50
cascade_num_candidate_groups=2
bit_fail_limit=1.00000000000000005551e-01
cascade_candidate_limit=1.00000000000000000000e+03
cascade_weight_multiplier=4.00000000000000022204e-01
cascade_activation_functions_count=10
cascade_activation_functions=3 5 7 8 10 11 14 15 16 17 
cascade_activation_steepnesses_count=4
cascade_activation_steepnesses=2.50000000000000000000e-01 5.00000000000000000000e-01 7.50000000000000000000e-01 1.00000000000000000000e+00 
layer_sizes=9 4 2 
scale_included=0
neurons (num_inputs, activation_function, activation_steepness)=(0, 0, 0.00000000000000000000e+00) (0, 0, 0.00000000000000000000e+00) (0, 0, 0.00000000000000000000e+00) (0, 0, 0.00000000000000000000e+00) (0, 0, 0.00000000000000000000e+00) (0, 0, 0.00000000000000000000e+00) (0, 0, 0.00000000000000000000e+00) (0, 0, 0.00000000000000000000e+00) (0, 0, 0.00000000000000000000e+00) (9, 6, 5.00000000000000000000e-01) (9, 6, 5.00000000000000000000e-01) (9, 6, 5.00000000000000000000e-01) (0, 6, 0.00000000000000000000e+00) (4, 4, 5.00000000000000000000e-01) (0, 4, 0.00000000000000000000e+00) 
connections (connected_to_neuron, weight)=(0, 1.73626362384462762378e+00) (1, 8.19060612539164956125e-01) (2, 1.21343540303294417093e+00) (3, 1.09756424926106710416e+00) (4, 1.12276133797948118875e+00) (5, 1.17586391322200056742e+00) (6, 1.84917150176695121999e+00) (7, 1.41131409555897935348e+00) (8, -1.03006520834493242589e+00) (0, 8.05566049973447273480e-01) (1, 1.32598383952293730204e+00) (2, 1.23174444001748284450e+00) (3, 1.63848367427174856914e+00) (4, 1.55222161953036597026e+00) (5, 1.61575864349191000713e+00) (6, 3.46384555278595018812e-01) (7, 1.48735829408315023414e+00) (8, -1.44137971805867470820e+00) (0, -5.21952301864477430371e+00) (1, -1.43036575211898364657e+00) (2, -1.25253812023756894156e+00) (3, -1.17238567197082477200e+00) (4, -1.17540372335670428861e+00) (5, -1.14072857224700885403e+00) (6, -1.04304923426107198914e+00) (7, -9.96263663440732583076e-01) (8, 3.12245268960756261478e+00) (9, 6.32459104798400684189e+00) (10, 4.17208876627072378085e+00) (11, -1.74468573757352167775e+01) (12, -9.09528389244552148973e-01) 
