FANN_FLO_2.1
num_layers=3
learning_rate=0.700000
connection_rate=1.000000
network_type=0
learning_momentum=0.000000
training_algorithm=2
train_error_function=1
train_stop_function=1
cascade_output_change_fraction=0.010000
quickprop_decay=-0.000100
quickprop_mu=1.750000
rprop_increase_factor=1.200000
rprop_decrease_factor=0.500000
rprop_delta_min=0.000000
rprop_delta_max=50.000000
rprop_delta_zero=0.100000
cascade_output_stagnation_epochs=12
cascade_candidate_change_fraction=0.010000
cascade_candidate_stagnation_epochs=12
cascade_max_out_epochs=150
cascade_min_out_epochs=50
cascade_max_cand_epochs=150
cascade_min_cand_epochs=50
cascade_num_candidate_groups=2
bit_fail_limit=1.00000000000000005551e-01
cascade_candidate_limit=1.00000000000000000000e+03
cascade_weight_multiplier=4.00000000000000022204e-01
cascade_activation_functions_count=10
cascade_activation_functions=3 5 7 8 10 11 14 15 16 17 
cascade_activation_steepnesses_count=4
cascade_activation_steepnesses=2.50000000000000000000e-01 5.00000000000000000000e-01 7.50000000000000000000e-01 1.00000000000000000000e+00 
layer_sizes=50 11 2 
scale_included=0
neurons (num_inputs, activation_function, activation_steepness)=(0, 0, 0.00000000000000000000e+00) (0, 0, 0.00000000000000000000e+00) (0, 0, 0.00000000000000000000e+00) (0, 0, 0.00000000000000000000e+00) (0, 0, 0.00000000000000000000e+00) (0, 0, 0.00000000000000000000e+00) (0, 0, 0.00000000000000000000e+00) (0, 0, 0.00000000000000000000e+00) (0, 0, 0.00000000000000000000e+00) (0, 0, 0.00000000000000000000e+00) (0, 0, 0.00000000000000000000e+00) (0, 0, 0.00000000000000000000e+00) (0, 0, 0.00000000000000000000e+00) (0, 0, 0.00000000000000000000e+00) (0, 0, 0.00000000000000000000e+00) (0, 0, 0.00000000000000000000e+00) (0, 0, 0.00000000000000000000e+00) (0, 0, 0.00000000000000000000e+00) (0, 0, 0.00000000000000000000e+00) (0, 0, 0.00000000000000000000e+00) (0, 0, 0.00000000000000000000e+00) (0, 0, 0.00000000000000000000e+00) (0, 0, 0.00000000000000000000e+00) (0, 0, 0.00000000000000000000e+00) (0, 0, 0.00000000000000000000e+00) (0, 0, 0.00000000000000000000e+00) (0, 0, 0.00000000000000000000e+00) (0, 0, 0.00000000000000000000e+00) (0, 0, 0.00000000000000000000e+00) (0, 0, 0.00000000000000000000e+00) (0, 0, 0.00000000000000000000e+00) (0, 0, 0.00000000000000000000e+00) (0, 0, 0.00000000000000000000e+00) (0, 0, 0.00000000000000000000e+00) (0, 0, 0.00000000000000000000e+00) (0, 0, 0.00000000000000000000e+00) (0, 0, 0.00000000000000000000e+00) (0, 0, 0.00000000000000000000e+00) (0, 0, 0.00000000000000000000e+00) (0, 0, 0.00000000000000000000e+00) (0, 0, 0.00000000000000000000e+00) (0, 0, 0.00000000000000000000e+00) (0, 0, 0.00000000000000000000e+00) (0, 0, 0.00000000000000000000e+00) (0, 0, 0.00000000000000000000e+00) (0, 0, 0.00000000000000000000e+00) (0, 0, 0.00000000000000000000e+00) (0, 0, 0.00000000000000000000e+00) (0, 0, 0.00000000000000000000e+00) (0, 0, 0.00000000000000000000e+00) (50, 6, 5.00000000000000000000e-01) (50, 6, 5.00000000000000000000e-01) (50, 6, 5.00000000000000000000e-01) (50, 6, 5.00000000000000000000e-01) (50, 6, 5.00000000000000000000e-01) (50, 6, 5.00000000000000000000e-01) (50, 6, 5.00000000000000000000e-01) (50, 6, 5.00000000000000000000e-01) (50, 6, 5.00000000000000000000e-01) (50, 6, 5.00000000000000000000e-01) (0, 6, 0.00000000000000000000e+00) (11, 6, 5.00000000000000000000e-01) (0, 6, 0.00000000000000000000e+00) 
connections (connected_to_neuron, weight)=(0, 6.36218054305747600097e+01) (1, 2.23067584850511396732e-01) (2, 1.90801120766124626682e-01) (3, 3.28960950889314263090e-01) (4, 3.13423018374169859435e-01) (5, 4.09827990854516210906e-01) (6, -2.90763038162080433846e-01) (7, 1.25910987029894494427e+00) (8, -9.26459735919411997429e+00) (9, 3.87032592849463397133e-01) (10, 1.84634312872905909098e-01) (11, -6.56804962174813877773e-01) (12, 1.14673133153475603763e+00) (13, 2.09734600312956098733e+00) (14, 7.09284266537394819663e-02) (15, -1.10470403783912513029e-01) (16, 1.04632506878890474411e+00) (17, 2.20131891813704516636e-01) (18, -3.79152674717874782484e-01) (19, -1.21823451068138799425e-01) (20, -5.17687066326296685403e-01) (21, 1.80843768091849266266e-01) (22, 1.46715929068338035712e+00) (23, 2.20121526043818738216e+00) (24, 2.03775223381158232527e+00) (25, 1.00120451974941460094e+00) (26, 5.73778562986734352869e-01) (27, 8.29943960050151030572e-01) (28, 9.48699797656063714690e-01) (29, 1.61100344606376411072e+00) (30, 2.19155152811219089415e+00) (31, 2.01755170536470274101e+00) (32, 2.06187381266918423606e+00) (33, 2.07873731372745629287e+00) (34, 1.16625279141046284126e-01) (35, 1.35590551974711104322e+00) (36, -6.88334293606959884970e-02) (37, -5.59057991599920811598e-02) (38, -2.39275950336877124558e-01) (39, 4.95398188878406642299e-01) (40, -2.33199262113725526435e-02) (41, -2.52063955156344499109e-01) (42, 1.43815978614981215822e-01) (43, -4.05500556706735043599e-02) (44, 1.06617007964239562945e+00) (45, 3.07523145333387336320e-02) (46, 1.53043601800667428137e+00) (47, 5.54448079098714408097e-01) (48, 2.45294042731779210476e-01) (49, 2.44287740288172017245e-01) (0, 3.97565237741110244496e-01) (1, -7.43915348087888644857e-02) (2, -8.93025158678632663412e-02) (3, 5.43035727390313652241e-03) (4, -7.00365810429196961051e-02) (5, 1.82016464529761501367e-01) (6, -6.97719602798589244586e-01) (7, -2.77282444335711086847e-02) (8, 1.47643930036713544318e+00) (9, 5.34606353477145995745e-02) (10, 1.26985093182291302583e+03) (11, -1.55941425687690510271e-01) (12, 9.55748511481458173922e-02) (13, 6.80519151078685796685e-02) (14, 2.20298894921303306527e-01) (15, 5.00653732677144511221e-02) (16, 1.98351300322551271638e-01) (17, 2.57748615799710867336e-01) (18, 8.47262920111302858528e-02) (19, -7.70825456555804949810e-02) (20, 2.39937022013594042358e-01) (21, 1.46784043555933524372e-01) (22, -4.67744037130244302847e-02) (23, -1.75145093332871801262e-02) (24, -2.06075389988476104230e-02) (25, 7.04799240347361438674e-02) (26, 7.02544677896575764375e-02) (27, 2.56935445259838801668e-02) (28, 8.28268851473498157745e-02) (29, 6.43202501560592998509e-02) (30, -6.38020924326936217374e-02) (31, 4.30975006318909670266e-02) (32, -4.70320052578619782896e-03) (33, 6.19265488221668741753e-02) (34, 9.53480688798607894929e-02) (35, 2.64957434368304545202e-01) (36, 2.27576843770699643876e-01) (37, 8.53446679409132213934e-02) (38, 1.91556881161205727615e-01) (39, 1.27330687685691723576e-01) (40, 1.17898164534844029916e-01) (41, 1.07569757094101894901e-01) (42, 1.62974263187210727244e-01) (43, 2.13962888256760158656e-01) (44, 1.23031040328768881409e-01) (45, 2.44226171687382843933e-02) (46, 1.12121310075705027387e-01) (47, -3.77591113311321474599e-02) (48, 2.76705799532335171287e-02) (49, -1.40298867729902326795e-01) (0, 8.77137865965927510103e+00) (1, 5.95050064429257119514e-01) (2, 5.74952823623630981942e-01) (3, 4.95882680222011484883e-01) (4, 5.28448884889099135265e-01) (5, 1.32672038952995507977e+00) (6, -2.46789458506592396247e-01) (7, 2.12917876317083898385e+00) (8, -3.60483364105661197030e+00) (9, 2.08905443447853933492e+00) (10, -8.04476338191343787187e-01) (11, 3.21274745244491816143e-02) (12, 2.22774123377346500163e+00) (13, 7.52277702934044967265e+00) (14, 8.18660951415795978825e-01) (15, 9.75908166853698411103e-01) (16, 4.92910181163527472137e+00) (17, 9.88500005956836513832e-01) (18, 1.10637166098148509441e+00) (19, 7.74801079335740050524e-01) (20, 4.39615628387710399849e-01) (21, 2.36161429378231840781e-01) (22, 3.62067664021743951253e+01) (23, 5.65141442995665332916e+00) (24, 9.84843032770571547019e+00) (25, 1.98512649315708666897e+00) (26, 1.35559340593623556259e+00) (27, 1.44881539264046321769e+00) (28, 1.73828551627479588326e+00) (29, 1.03960952948782789917e+01) (30, 5.87393714481358042434e+00) (31, 8.32854191960031542408e+00) (32, 2.06453123789654107156e+01) (33, 6.97440762266111224932e+00) (34, 2.47004979101328597801e-01) (35, 1.91055147734623531619e+00) (36, 8.29894049075783755143e+02) (37, 8.42720401791575568495e+00) (38, 1.31456311805593739628e+00) (39, 5.23269093463087244800e+01) (40, 1.93496122781952051284e-01) (41, 7.61540484359597313890e-01) (42, 1.33003403725293262161e-01) (43, 7.10672780611332627343e-02) (44, 3.02562566104713788206e+01) (45, 2.96475607883650182917e-01) (46, 5.87981026581436481138e+01) (47, 2.29175290264680597829e+00) (48, 3.21061172321378485162e-01) (49, -1.84390447635113186031e+00) (0, -6.06125922008403072994e+00) (1, -1.11767231303579392399e-01) (2, -6.06774229587379448914e-02) (3, -1.78421295064812940323e-01) (4, -1.36139816421396275814e-01) (5, -4.79877478897955123127e-02) (6, 2.82453897841855594564e-01) (7, -4.41864602401820405486e-01) (8, -8.51008065750922249038e+00) (9, -3.24066445801438507424e-01) (10, 1.67248783740835560430e+00) (11, 1.71640531182479456618e+01) (12, -1.89140827688174928412e+00) (13, -1.77008968271307476350e+00) (14, -1.20746475665652009887e-03) (15, -9.75455129106495288926e-02) (16, -1.49946552884671269190e+00) (17, 2.37996907779829749985e-02) (18, -4.52652853546622949144e-02) (19, -1.08066010552315974746e-01) (20, -2.46659638133349123912e-01) (21, -1.29944888849940959341e-01) (22, -1.30558168616775871484e+00) (23, -1.63700761585672651677e+01) (24, -1.82884167191686342058e+00) (25, -1.87745743504564877036e+00) (26, -5.95606042149134595753e-01) (27, -1.39061451599303143034e+00) (28, -1.88389162196802129046e+00) (29, -1.83635001483597837257e+00) (30, -1.90204770188316785173e+00) (31, -2.02539202961804720715e+00) (32, -1.93603557945004278729e+00) (33, -1.92266746486591810772e+00) (34, 1.18530245143677867570e-01) (35, -1.25878243691283198125e+00) (36, 4.19004481648462198673e-02) (37, -6.01507108930628350829e-02) (38, -6.17591129223601043030e-01) (39, -2.01688721578421222003e-02) (40, 1.59080328290163885985e-01) (41, 1.42204213580027050146e-01) (42, 1.49985048734435244544e-01) (43, 1.86889482701147580102e-01) (44, -3.00208290509713038308e-01) (45, -3.05311641166247871304e-01) (46, -4.80117739017782929611e-01) (47, 1.24331221287048293567e-01) (48, -4.04688317751697501645e-01) (49, -2.72874501544626890670e-01) (0, 3.34719472311571508705e-01) (1, -4.60756802883301036511e-02) (2, -3.82237965192947781734e-02) (3, -9.90361506071255059958e-02) (4, -1.50073462161080140032e-01) (5, 8.23929744523184265370e-02) (6, -2.68322385412040786967e-01) (7, -9.77189048218332634299e-02) (8, 1.59961263155420940762e+00) (9, 3.57464249506111858556e-02) (10, 4.79563367978725096918e+00) (11, -5.09805679677023704244e+00) (12, -1.16421790464000252108e-01) (13, 6.60773092023567154563e-02) (14, 2.98134156959461771308e-01) (15, 1.09655368302960382065e-01) (16, 2.87512652924328315773e-01) (17, 2.29826608412348587507e-01) (18, 7.09911064838227717777e-02) (19, -3.99735310727461212732e-02) (20, 1.13416772463990747633e-01) (21, 2.25214457696184311430e-01) (22, 6.00675489997977360423e-02) (23, -7.96624208774555225832e-02) (24, 2.72383002499812822139e-02) (25, 4.32470627019191575235e-02) (26, 8.09776322698195355487e-02) (27, -1.12749975576780618602e-02) (28, 1.34354234126894178658e-01) (29, -6.04974321588770680425e-02) (30, 1.99950728115460543352e-03) (31, 7.66801958642568254332e-02) (32, 6.06863769369153094324e-02) (33, -8.98550537157781319120e-03) (34, 2.33058234191534541235e-01) (35, 2.35627762434873821995e-01) (36, 9.97868697722448932952e-02) (37, 3.65896714649564525068e-02) (38, 1.51000269479833498787e-01) (39, 1.47044406343091071943e-01) (40, 1.73476187400046999443e-01) (41, 1.60704651251911689869e-01) (42, 1.23739460352205732363e-01) (43, 2.21128441037070938568e-01) (44, 9.61880706588797568246e-02) (45, -5.00494150798067999331e-02) (46, 2.97347393294211503889e-01) (47, 9.11424093993838113636e-02) (48, -3.40464426206265767180e-03) (49, -1.00645466997202906456e-01) (0, 2.07307708687035630035e+00) (1, 1.70020912714620137107e-01) (2, 2.11827245481630482837e-01) (3, 2.45634590216299242282e-01) (4, 2.39002463348528343401e-01) (5, 1.63270912084732685798e+02) (6, -1.94674158729883250984e-01) (7, -6.61596881415949522598e-01) (8, -5.95663009198590120974e+00) (9, -1.33549693461513263593e+00) (10, -1.40273128258190382667e+01) (11, -1.76450407691974553437e+00) (12, 6.41827520015947605714e+00) (13, 8.36705783562282334742e+00) (14, -1.17529464425645246983e+00) (15, -1.10594166697476703476e+00) (16, 1.07894406078118549885e+01) (17, -1.17866266879325043426e+00) (18, -1.11194893653850090942e+00) (19, 8.88810770759783763673e-01) (20, 2.22472503012056410654e+00) (21, 7.88108383083694974403e+00) (22, 8.33280769247629393703e+00) (23, 8.57360244151652395317e+00) (24, 7.52417966328231191397e+00) (25, 4.88232814769325784710e+00) (26, 3.50497130959836278308e+00) (27, 2.14774766223168462886e+01) (28, 2.12235197974415186195e+01) (29, 7.92506529223438072052e+00) (30, 7.81473695546900426478e+00) (31, 8.83283465633479103474e+00) (32, 8.27582851753928672167e+00) (33, 8.33882452897731951680e+00) (34, 4.59011808692942082644e+01) (35, 8.99724502773917755860e+00) (36, 5.45648365550502489896e+02) (37, 8.35790808367320181560e+00) (38, 2.72832021244116473824e+00) (39, 1.81680090035158592343e+01) (40, 1.25535935319976807989e+01) (41, 9.41162304865518706265e+01) (42, 1.46761713762438823494e+01) (43, 2.46032239333054221220e+01) (44, 5.76402310031360585185e+01) (45, 1.49055456594811369664e-01) (46, 8.84770405083799360568e+00) (47, 4.90207275530322803547e+01) (48, 9.80101369661180221726e+00) (49, 1.76952693568866559204e+00) (0, 7.49622003928972802100e+00) (1, 8.90377300218753719996e-02) (2, 2.27458282037179299051e-01) (3, 1.67568302376668309961e-01) (4, 2.34428881330888100321e-01) (5, 5.88116470241545563624e-01) (6, 8.06719501336040534234e-01) (7, 2.22655966711114011725e-01) (8, -8.71467502193172904867e+00) (9, 2.95037365418213071155e-01) (10, 8.52932501869099572722e-03) (11, -9.03972432036078910045e-01) (12, 1.52073265591695605536e+00) (13, 5.88669467034870774746e-01) (14, 3.31408077228606823272e-01) (15, 3.16066140340472256920e-01) (16, 3.08315498959561617998e-01) (17, 3.16292306809930812150e-01) (18, 3.52605475630891673777e-01) (19, 1.83654294834358244870e-01) (20, 6.88567037498518663696e-01) (21, 1.99606749805047528623e-01) (22, 4.72540254889416533324e-01) (23, 7.02259348719365128488e-01) (24, 8.36569800157969334364e-01) (25, 6.87987436157411313964e-01) (26, 4.01896315624458710936e-01) (27, 5.42606363462515672857e-01) (28, 5.92015672783337443263e-01) (29, 6.88224998974403034957e-01) (30, 7.18691983902867925771e-01) (31, 5.46424280705628762078e-01) (32, 6.89509176999283268650e-01) (33, 5.40000605601219985097e-01) (34, 1.03407758367314167591e-01) (35, 1.21217350467120943414e+00) (36, -5.91645317501946044203e-01) (37, 6.45933302899142969267e-01) (38, 8.63653069133054951401e-01) (39, -7.63074130806429606899e-01) (40, 1.82635806454289950640e-01) (41, 1.79072758683113814060e-01) (42, 2.22013832553605766629e-01) (43, 1.63456958854093670208e-01) (44, 5.47529901744044034118e-01) (45, 4.26151389252181489464e-01) (46, 2.09911777212332284481e-01) (47, 8.35999875651171731050e-01) (48, -1.18404507693964433646e-01) (49, 2.44819927015269583892e-01) (0, -3.41669554987798440582e-01) (1, 3.18113537440186111560e-02) (2, -6.16882098903769743314e-02) (3, 3.21314157853012788424e-02) (4, -1.88254145970463519777e-02) (5, -2.62079095428382410904e-02) (6, 6.49056939249811448711e-01) (7, 1.01547124712159958504e-01) (8, -2.33877835219863002003e-02) (9, 5.14810616836820916786e-02) (10, 1.26985093182291302583e+03) (11, -1.16666108175629834598e-01) (12, 3.78200723436408703382e-01) (13, 4.54885315038914325031e-03) (14, 9.55262163136218200865e-02) (15, 1.56940730463805827588e-01) (16, 8.17449553480769919300e-02) (17, 9.97897822286830243899e-02) (18, 1.67240661135998891496e-01) (19, 1.94194729686531758484e-01) (20, 1.56926207245602078455e-01) (21, 2.98824624510255452969e-02) (22, 6.42063516375730898578e-03) (23, 6.16233148628452243045e-02) (24, 8.65851916028989448959e-02) (25, 5.74503909519195124500e-02) (26, 9.68219824501607984057e-02) (27, 3.12717611721548202630e-02) (28, 1.35652923263235553053e-01) (29, 5.36119727410917720767e-02) (30, 6.79982503144729300004e-02) (31, -1.01819238662004124540e-02) (32, 3.53556785777733792453e-02) (33, 1.14032672170780065291e-02) (34, 4.84006406666821209495e-02) (35, 1.59507515864307780618e-01) (36, 2.87410498341816797452e-02) (37, 1.19306173520606309535e-01) (38, 1.16643123605638540652e-01) (39, 2.77684183193043256088e-02) (40, 7.88304753112014783278e-02) (41, 8.36617247686119724914e-02) (42, 9.22195657501170135140e-02) (43, 4.45408183400535298557e-02) (44, 7.32403354471177908680e-02) (45, 1.51460877059999193817e-01) (46, 5.58436669142103325747e-02) (47, 1.13997970042381602251e-01) (48, 6.42446613630488511798e-03) (49, -4.93924984441798220480e-01) (0, -1.24893755794369676337e+00) (1, -7.70287988296871062310e-02) (2, -1.79672939292314821913e-02) (3, -8.25183493605974871521e-02) (4, 1.17445503402578338425e-01) (5, 6.12384508756468326496e-01) (6, 1.32628822025274639707e+00) (7, 2.83778618883374522675e-01) (8, -4.63585556745124272027e+00) (9, 3.56551275633992803549e-01) (10, -2.44740056600438160572e+00) (11, 4.32260565347841119177e+00) (12, 9.73513981724968391340e-01) (13, 3.24102111358926137097e-01) (14, 6.91383577154748740767e-01) (15, 5.35115999011193665957e-01) (16, 4.94016293139010298496e-01) (17, 6.42941523388720681531e-01) (18, 5.46569147434282642806e-01) (19, 4.25327713845575550167e-01) (20, 5.78485683298119113260e-01) (21, 3.01800722524775799638e-01) (22, 3.32728332427121853421e-01) (23, 1.65127824579231474722e-01) (24, 4.72062428000959655172e-01) (25, 3.37154755615816648096e-01) (26, 3.26623746219508515054e-01) (27, 1.74780564703014867911e-01) (28, 4.85509635558858232418e-01) (29, 3.05925517195623997146e-01) (30, 3.46005586692851363484e-01) (31, 2.39933062961637771915e-01) (32, 3.44070592013785592211e-01) (33, 2.31318314502254068765e-01) (34, 4.12603843335061504227e-01) (35, 8.89011574348694266767e-01) (36, 6.95501684257730845573e-01) (37, 6.00588187063350154027e-01) (38, 6.86788849441608562074e-01) (39, 6.78019279282771725192e-01) (40, 4.69380544461475757156e-01) (41, 4.59837919893444246888e-01) (42, 4.73583101497566827387e-01) (43, 4.84748170163882330375e-01) (44, 4.87808976786841097528e-01) (45, 2.68913911509854219872e-01) (46, 4.24829647230348494968e-01) (47, 6.22278462226532269597e-01) (48, 4.52979622753744759489e-01) (49, 2.12030123891293942329e-01) (0, 6.34564784478381653798e+01) (1, 2.62628393652045100115e-01) (2, 1.50772074641786824056e-01) (3, 1.86962815405927518242e-01) (4, 2.00003164293371143989e-01) (5, -9.48086499754611788937e-02) (6, -6.36662588223738667992e-01) (7, 2.55303951747384028081e+00) (8, -1.12191070644261863265e+01) (9, 1.55401138334366817340e+00) (10, 2.44457117965396347747e-01) (11, -6.27286877422712607633e-01) (12, 2.53856565213235541023e+00) (13, 3.64390922765792035776e+00) (14, 3.48180615560620021487e-01) (15, 1.78250450524567394250e-01) (16, 1.74921283951975659043e+00) (17, 2.82208944728268684710e-01) (18, -2.37678555525280943428e-01) (19, 6.61941478898162988243e-02) (20, -1.83712725056324244211e-01) (21, 5.18451659368818873475e-01) (22, 1.60282946323513231235e+00) (23, 3.63396007733946424523e+00) (24, 3.23875130047433534841e+00) (25, 1.82564549769026185366e+00) (26, 1.76755961904795322326e+00) (27, 1.52606260558073958400e+00) (28, 2.50701824320110944200e+00) (29, 2.26099849707202427140e+00) (30, 2.38999812234615616191e+00) (31, 3.58421445506151714611e+00) (32, 2.94916794953920602396e+00) (33, 3.59781932474690968604e+00) (34, 1.07548913618009209237e-01) (35, 1.98537237128040766621e+00) (36, 2.03620886367775533188e-01) (37, 1.06510311557400177973e-01) (38, 1.29835210839095410718e-01) (39, 1.40908485228024771274e+00) (40, 2.37352046639301927922e-01) (41, 5.25164255910869418043e-03) (42, 1.98426684725219570904e-01) (43, -3.84333906078977022291e-03) (44, 1.38351958172017841520e+00) (45, 5.64100845879504514402e-02) (46, 2.42765670326958105107e+00) (47, 9.35582173398756711258e-01) (48, 3.44590049209345106185e-01) (49, -3.35285668081733934098e-01) (50, -1.23745344089681763577e+00) (51, 1.75800740955306206148e-01) (52, 1.44673572486450874308e+00) (53, 5.20683373837009244589e-01) (54, 3.38812054687855190860e-01) (55, 1.00720415006642083355e+00) (56, -4.88000603761255591362e-01) (57, 9.63821348649759213068e-01) (58, -3.00160130625114762726e-01) (59, -5.69828639786044921500e-01) (60, 6.32028456962618445658e-01) 
