FANN_FLO_2.1
num_layers=3
learning_rate=0.700000
connection_rate=1.000000
network_type=0
learning_momentum=0.000000
training_algorithm=2
train_error_function=1
train_stop_function=1
cascade_output_change_fraction=0.010000
quickprop_decay=-0.000100
quickprop_mu=1.750000
rprop_increase_factor=1.200000
rprop_decrease_factor=0.500000
rprop_delta_min=0.000000
rprop_delta_max=50.000000
rprop_delta_zero=0.100000
cascade_output_stagnation_epochs=12
cascade_candidate_change_fraction=0.010000
cascade_candidate_stagnation_epochs=12
cascade_max_out_epochs=150
cascade_min_out_epochs=50
cascade_max_cand_epochs=150
cascade_min_cand_epochs=50
cascade_num_candidate_groups=2
bit_fail_limit=1.00000000000000005551e-01
cascade_candidate_limit=1.00000000000000000000e+03
cascade_weight_multiplier=4.00000000000000022204e-01
cascade_activation_functions_count=10
cascade_activation_functions=3 5 7 8 10 11 14 15 16 17 
cascade_activation_steepnesses_count=4
cascade_activation_steepnesses=2.50000000000000000000e-01 5.00000000000000000000e-01 7.50000000000000000000e-01 1.00000000000000000000e+00 
layer_sizes=50 11 2 
scale_included=0
neurons (num_inputs, activation_function, activation_steepness)=(0, 0, 0.00000000000000000000e+00) (0, 0, 0.00000000000000000000e+00) (0, 0, 0.00000000000000000000e+00) (0, 0, 0.00000000000000000000e+00) (0, 0, 0.00000000000000000000e+00) (0, 0, 0.00000000000000000000e+00) (0, 0, 0.00000000000000000000e+00) (0, 0, 0.00000000000000000000e+00) (0, 0, 0.00000000000000000000e+00) (0, 0, 0.00000000000000000000e+00) (0, 0, 0.00000000000000000000e+00) (0, 0, 0.00000000000000000000e+00) (0, 0, 0.00000000000000000000e+00) (0, 0, 0.00000000000000000000e+00) (0, 0, 0.00000000000000000000e+00) (0, 0, 0.00000000000000000000e+00) (0, 0, 0.00000000000000000000e+00) (0, 0, 0.00000000000000000000e+00) (0, 0, 0.00000000000000000000e+00) (0, 0, 0.00000000000000000000e+00) (0, 0, 0.00000000000000000000e+00) (0, 0, 0.00000000000000000000e+00) (0, 0, 0.00000000000000000000e+00) (0, 0, 0.00000000000000000000e+00) (0, 0, 0.00000000000000000000e+00) (0, 0, 0.00000000000000000000e+00) (0, 0, 0.00000000000000000000e+00) (0, 0, 0.00000000000000000000e+00) (0, 0, 0.00000000000000000000e+00) (0, 0, 0.00000000000000000000e+00) (0, 0, 0.00000000000000000000e+00) (0, 0, 0.00000000000000000000e+00) (0, 0, 0.00000000000000000000e+00) (0, 0, 0.00000000000000000000e+00) (0, 0, 0.00000000000000000000e+00) (0, 0, 0.00000000000000000000e+00) (0, 0, 0.00000000000000000000e+00) (0, 0, 0.00000000000000000000e+00) (0, 0, 0.00000000000000000000e+00) (0, 0, 0.00000000000000000000e+00) (0, 0, 0.00000000000000000000e+00) (0, 0, 0.00000000000000000000e+00) (0, 0, 0.00000000000000000000e+00) (0, 0, 0.00000000000000000000e+00) (0, 0, 0.00000000000000000000e+00) (0, 0, 0.00000000000000000000e+00) (0, 0, 0.00000000000000000000e+00) (0, 0, 0.00000000000000000000e+00) (0, 0, 0.00000000000000000000e+00) (0, 0, 0.00000000000000000000e+00) (50, 6, 5.00000000000000000000e-01) (50, 6, 5.00000000000000000000e-01) (50, 6, 5.00000000000000000000e-01) (50, 6, 5.00000000000000000000e-01) (50, 6, 5.00000000000000000000e-01) (50, 6, 5.00000000000000000000e-01) (50, 6, 5.00000000000000000000e-01) (50, 6, 5.00000000000000000000e-01) (50, 6, 5.00000000000000000000e-01) (50, 6, 5.00000000000000000000e-01) (0, 6, 0.00000000000000000000e+00) (11, 6, 5.00000000000000000000e-01) (0, 6, 0.00000000000000000000e+00) 
connections (connected_to_neuron, weight)=(0, 3.63575745890653223569e+01) (1, 2.66350190541042530779e-01) (2, 2.40931063344967416606e-01) (3, 2.50210321894180964808e-01) (4, 3.28002493283048368600e-01) (5, -2.92236782756151447504e-01) (6, -3.28195693181613901146e-01) (7, 6.13209473646184943796e-01) (8, -7.99463780421902647788e+00) (9, 9.05724507226609354404e-01) (10, 1.27520180585920760163e-03) (11, -7.35585531595678410177e-01) (12, 3.28141920810889886617e-01) (13, 1.36163699522578651724e+00) (14, -3.89354207852999012474e-01) (15, -4.32229575315315694972e-01) (16, -5.68916816578838968610e-01) (17, -3.56213522436399254723e-01) (18, -4.49928279964196486951e-01) (19, 4.73507073567530842317e-02) (20, -6.94617013635384084047e-01) (21, -7.50077232338403399048e-01) (22, 5.22815035214451856449e-02) (23, 2.18507640719896301107e+00) (24, 1.23451480984364003746e+00) (25, 3.21968729502625838901e-01) (26, 5.17257787993196105347e-01) (27, 5.54682606494701024857e-01) (28, -2.56881624614646621174e-02) (29, 1.02356780716216211324e+00) (30, 1.61779971862939486726e+00) (31, 1.42306802040289537281e+00) (32, 1.53582033348136381967e+00) (33, 1.38950698972937702891e+00) (34, -5.47303616036675766310e-01) (35, 4.02238515404612861914e-01) (36, -3.61822209295721120004e-01) (37, -4.01443325528647587674e-01) (38, -3.59256298230257675730e-01) (39, -3.45689953980328923411e-01) (40, -3.61039034473343956044e-01) (41, -6.74186026967947604760e-01) (42, -2.25764867978445249452e-01) (43, -4.29905078455376621349e-01) (44, -5.83225423053150615615e-01) (45, -4.27240284928380037455e-02) (46, -7.67135723608635688997e-01) (47, -3.78621249938402515411e-01) (48, -3.11148820345814647315e-01) (49, 1.14357060911871810660e+00) (0, 9.53810744065089544108e+00) (1, 4.73395166597482930371e-01) (2, 3.72585167787191529065e-01) (3, 3.88250117800352234632e-01) (4, 4.75113508901712666699e-01) (5, -1.20154682785520683375e+00) (6, -1.02427554847864277221e+00) (7, 9.08258949951776095588e+00) (8, -7.46845211525312091538e+00) (9, 1.16076378142484362144e+01) (10, -1.34272653484553305958e-01) (11, -1.06775657378381749751e+00) (12, -2.35413578822558777759e+00) (13, 7.63537927690923368118e+00) (14, 5.35554331207659384262e-01) (15, 1.52812762304959859350e+00) (16, 2.85988471819743272917e+00) (17, 8.31289131930760261113e-01) (18, 1.74947221297830024511e+00) (19, 1.35328889908855609647e+00) (20, 8.61224255813898498246e-01) (21, 6.29895742324049767724e-01) (22, 1.22845375309777509187e+01) (23, 2.91369276468020181881e+01) (24, 1.29245554027873836844e+01) (25, 7.48186910495131307641e+00) (26, -1.67952519531295174637e+00) (27, 8.23020123220509347561e+00) (28, -1.98193452302653128072e+00) (29, 1.70167833303417275204e+01) (30, 2.12210212921204117720e+01) (31, 7.15729040149087669676e+00) (32, 1.22929214608686585564e+01) (33, 7.06942544068739664453e+00) (34, -1.04764086433087344474e+00) (35, -2.30487335030167983518e+00) (36, 1.37398546341164440321e-01) (37, 3.75313167428194649489e-01) (38, -1.44547822464386555019e+00) (39, -2.63694184065035142073e-01) (40, -9.86411932632967447532e-01) (41, 6.11718540710567901253e-02) (42, -1.39279107385472844527e+00) (43, -1.05224957938256125090e+00) (44, 1.24267291718981862103e-01) (45, 1.27959567624873465225e-02) (46, 2.34832236980967584694e-01) (47, -9.36091036408086329956e-01) (48, -5.07226555953142366207e-01) (49, 1.61154254846774458443e+00) (0, -1.23938895029469864362e+00) (1, -3.53340048491861333235e-02) (2, -1.42863861113777884659e-01) (3, 9.22091415525377183782e-03) (4, -8.40755243003287744408e-02) (5, 6.25716326806914246994e-01) (6, 3.17797278926181425707e-01) (7, 1.92671884529697773347e-01) (8, -9.65912355195318178547e-02) (9, 3.09952173522533326600e-02) (10, 4.40440960776342538274e-01) (11, 3.85620979491801851857e-01) (12, 6.92364040218566345608e-01) (13, 4.03127184542909633436e-01) (14, 2.65435599471356642454e-01) (15, 3.29507818654671491565e-01) (16, 2.77115926145340141229e-01) (17, 3.80202971362536779054e-01) (18, 3.22364928389159255406e-01) (19, 1.49349074928759428804e-01) (20, 2.04408196438211370305e-01) (21, 1.61898596324803134561e-01) (22, 4.05604793578634825746e-01) (23, 5.90447385496017274065e-01) (24, 3.75693657220541654684e-01) (25, 2.16274197343407442728e-01) (26, 2.71199351226107165935e-01) (27, 1.91427254332694890548e-01) (28, 3.28542571643773761991e-01) (29, 4.06986428117744158950e-01) (30, 4.97021456047117726751e-01) (31, 4.80396707205840711730e-01) (32, 4.66166272672452031145e-01) (33, 4.93187379852999985275e-01) (34, 4.32843163185924806324e-01) (35, 5.07662129129815120621e-01) (36, 7.47804017285767064216e-01) (37, 8.40557266935271552022e-01) (38, 6.64721629371116673468e-01) (39, 5.66009318376661463290e-01) (40, 4.08588933266162745994e-01) (41, 4.39960716526621609113e-01) (42, 3.11671360004693531742e-01) (43, 3.74845543792706792363e-01) (44, 6.94313832631832217324e-01) (45, 2.44401268675895816385e-01) (46, 3.85786704870279495427e-01) (47, 8.49752229862066554844e-01) (48, 7.44400007005778935332e-02) (49, -6.00832843890474976867e-01) (0, 1.00865244409984295970e+01) (1, 6.94050496790202253727e-01) (2, 5.82227310511858830999e-01) (3, 5.61767122123034368109e-01) (4, 6.23376822445185663213e-01) (5, 1.29750794216063014552e+00) (6, -2.23204510762240793120e-01) (7, 1.54833469182359273475e+00) (8, -5.79971524779028957397e+00) (9, 2.23937878360356590335e+00) (10, 7.89718419686384447143e-03) (11, -1.16268560526653663700e+00) (12, 6.51133344096418653635e+00) (13, 7.52827694693168059104e+00) (14, -9.24498791048229962009e-01) (15, -4.82582232082385431671e-01) (16, 1.89326492151199210490e+00) (17, -6.69363416208403005925e-01) (18, 4.54616811179949342758e-01) (19, 5.85407466547858801320e-01) (20, -3.03240957111415188052e-01) (21, -1.45596859421297852855e+00) (22, 8.58597179890054107432e+00) (23, 1.02177231661912575333e+01) (24, 1.44518104619598855010e+01) (25, 6.27321785442664703325e-01) (26, 5.50041499006086276324e+00) (27, 5.15485049279011675605e-03) (28, 5.68809944669235445502e+00) (29, 8.25529068774220675664e+00) (30, 1.49413800787750705723e+01) (31, 7.90431611152778046403e+00) (32, 8.83635564212878499291e+00) (33, 7.86240888555575345720e+00) (34, -7.94780568575379209317e-02) (35, 3.54701799835906816938e+00) (36, 7.47168560396162551029e+00) (37, 2.58340275396758167759e+00) (38, 2.02335122249854393317e+00) (39, 3.18504368503180756989e+00) (40, 6.68889244520369935509e-02) (41, 4.13893189523744930991e-01) (42, 1.60842005906084273281e-01) (43, -5.17934220340188627985e-02) (44, 1.22131868228665974030e+00) (45, 1.78562884615832584423e-01) (46, 3.88946409964003314563e-01) (47, 5.34145402051738038551e+00) (48, -4.68676058534487960383e-01) (49, -2.93324865449946625695e-01) (0, 3.48639985468146775816e+01) (1, 2.59377318549023350158e-01) (2, 3.41146822202075150621e-01) (3, 3.94984948563445237291e-01) (4, 3.63890553939211991441e-01) (5, 4.31468121760641074025e-02) (6, -1.19456493169113941999e-01) (7, 1.32010016964729026689e+00) (8, -9.29464206920871482964e+00) (9, 1.44829624681370838779e+00) (10, -5.57830939014658869213e-02) (11, -6.74188770568655781901e-01) (12, 5.33835396463119060684e-01) (13, 2.26312248331734222617e+00) (14, 9.43034294519548565994e-02) (15, -8.17919682471892339759e-02) (16, -2.05543080460500238171e-01) (17, 1.22645659121559599813e-02) (18, -8.97700346421521494511e-02) (19, 3.52850520154061264577e-01) (20, -4.99862648610743753874e-01) (21, -2.23707175597574886572e-01) (22, 1.99980808652029029560e+00) (23, 2.71263288277734604392e+00) (24, 2.20894991881365809760e+00) (25, 1.00844879338132509261e+00) (26, 8.49270184884907464173e-01) (27, 9.76244293768001814016e-01) (28, 7.64431498449377300197e-01) (29, 2.25090725869767371847e+00) (30, 2.32775235929570101234e+00) (31, 2.41428436436800186726e+00) (32, 2.50482247042783434665e+00) (33, 2.33750030882431092394e+00) (34, -1.05438829125744079618e-01) (35, 7.68840567953079978558e-01) (36, -3.06862849785702929140e+00) (37, 1.20396212787357376195e-01) (38, -6.16687988724675881236e-02) (39, -1.53445141734822820823e+00) (40, -1.41707114842507031494e-01) (41, -3.65583069576023156344e-01) (42, 6.79882919414079717191e-02) (43, -2.11581677666860312748e-01) (44, -2.59873274303736689905e-01) (45, 1.71677304772169969649e-01) (46, -5.57562237807501026587e-01) (47, 1.77649468755249097252e-02) (48, -1.85916279644515070046e-01) (49, 6.28790957566074393270e-01) (0, 3.48834406992899488387e+01) (1, 3.33090060488515471437e-01) (2, 3.92994687990480096040e-01) (3, 3.20828640000157483403e-01) (4, 3.29985902742677084110e-01) (5, 3.38321409322216215543e-01) (6, -2.97035861552426450061e-01) (7, 1.35702108389258024879e+00) (8, -9.62440009591948530954e+00) (9, 1.40219078999165525090e+00) (10, -4.26247459212182669419e-02) (11, -8.10546155842221227594e-01) (12, 7.30549117696027372482e-01) (13, 2.54233382116796491346e+00) (14, 2.20503850768781650693e-01) (15, 6.69197660957660811487e-02) (16, -6.39316374913784374323e-02) (17, 4.49872787283962849436e-01) (18, 6.27739182141241053303e-02) (19, 4.80804510748619573501e-01) (20, -4.08141333187571009322e-01) (21, -2.00689593927902920623e-01) (22, 2.14209078093279092769e+00) (23, 2.90109155839782495434e+00) (24, 2.65522791348512354759e+00) (25, 1.57945863881237147375e+00) (26, 2.86056672172390002995e-01) (27, 1.02186183393431351263e+00) (28, 1.06579322507557550104e+00) (29, 2.36568292059532447880e+00) (30, 2.46753452261333761086e+00) (31, 2.56574280725969217087e+00) (32, 2.39260553045931390059e+00) (33, 2.49366129665286573314e+00) (34, -2.03008240415597590589e-01) (35, 1.06788451837864895033e+00) (36, -3.82170827555527836683e-01) (37, -2.14335867981227634615e+00) (38, 4.70758256877632064175e-01) (39, -1.25995539061011857171e-03) (40, -7.07381724068996686761e-02) (41, -5.06587694929240384134e-01) (42, 7.64236876781966140149e-02) (43, -2.08126371681351840515e-01) (44, 3.83688313073503095563e-01) (45, -1.85671067404560491410e-01) (46, -5.73729658793393770821e-01) (47, 5.43128126887604367745e-01) (48, -1.26229527321271239870e-01) (49, 3.75137869841710880348e-01) (0, 9.16825865719947330490e+00) (1, 1.51395260103974360621e-01) (2, 1.62948711522850925304e-01) (3, 7.24474366093021820978e-02) (4, 6.49589288318495883257e-02) (5, -6.14185431415213756168e-01) (6, -1.23204350131380768046e-02) (7, 8.72088553777738972883e-01) (8, -7.94568497009873997428e+00) (9, 3.49577147838799728863e-01) (10, 6.39350172090387913748e-01) (11, -5.45711731941713296123e-01) (12, -4.06379539781742016302e-01) (13, 1.34957278148260056971e-01) (14, -9.75141199487501164622e-02) (15, -1.20359156075930825991e-01) (16, -1.55810219111794989733e-01) (17, -1.68795016566472659558e-02) (18, -1.15781135674850488293e-01) (19, 4.31428697546689179920e-02) (20, 2.17450729746800595910e-02) (21, -8.00569110209586572505e-04) (22, -5.24170900251505478273e-01) (23, 5.23417335708641462411e-01) (24, 1.58546257186800126915e-01) (25, -1.48313483444816405360e-02) (26, 5.51050986382048829659e-02) (27, 5.90758873279699295300e-02) (28, -9.34875772660716530815e-02) (29, -3.55841122409711330121e-01) (30, 1.25362821843591959459e-01) (31, 1.28201713217670792977e-01) (32, 1.31519382971504256163e-01) (33, 1.45942496042177821680e-01) (34, -1.28641858046633167367e-01) (35, -7.18921126247280550814e-01) (36, -4.49958767746184651326e-01) (37, -5.18254515220031519718e-01) (38, -6.82438500151929083870e-01) (39, -6.76318155306413926198e-01) (40, -8.82659036733868807012e-02) (41, -8.85501249929461914379e-02) (42, -1.33586863196727578806e-01) (43, -8.76884530475644796699e-02) (44, -6.49494562380905304799e-01) (45, 9.67772469354554076837e-01) (46, -1.27315907398071304080e-01) (47, -2.14753413061479991875e-01) (48, -2.95623024817928577168e-02) (49, 1.59779588435159186632e-01) (0, 3.31335598979875989301e+00) (1, 8.15892794880401783786e-02) (2, 6.30988606962700759873e-02) (3, -2.72580629435040626418e-02) (4, 8.24853608164322210650e-02) (5, -2.95467280284252509226e-01) (6, 2.99045484510278847257e-01) (7, -2.07545748276007524513e-01) (8, -5.62870430363898832660e-01) (9, -5.24675358819894945006e-03) (10, 5.84736986527360835808e-01) (11, -6.36688667724644274948e-01) (12, -9.91902627692823994632e-03) (13, 3.91329314210502390847e-02) (14, -1.84644020636919176104e-02) (15, -1.33162922016659884816e-01) (16, -8.35918730295193423974e-02) (17, -1.36350376217494906328e-01) (18, -1.30051441455087291033e-01) (19, 1.84353050952956176722e-01) (20, -1.99592681136123370478e-02) (21, 1.38764320253424514040e-02) (22, -1.26072994802386872948e-01) (23, 1.02108057552147066249e-01) (24, 8.21904662712441835826e-02) (25, 1.14383842152042183860e-01) (26, -4.08757354739641785152e-03) (27, 1.21710983050102531516e-02) (28, 1.19725493923279798641e-02) (29, -2.49871919304005159213e-02) (30, -9.31247072390066488179e-02) (31, -4.11062228407084520598e-02) (32, -1.57520549168394356776e-02) (33, -6.45862714133780824177e-02) (34, -1.83114262877984684819e-01) (35, 3.27758683777654435954e-02) (36, 6.35989198496839380770e-02) (37, -6.74043740203982971737e-02) (38, -5.63284888225693350372e-02) (39, -5.85314368632720016805e-02) (40, -9.37607036745326388738e-02) (41, -1.41999260067899896187e-01) (42, -1.16509870241690276921e-02) (43, -3.66098313543449654928e-02) (44, -8.22826669289152268227e-02) (45, 4.12216435402821754219e-02) (46, -1.19194022051998776979e-01) (47, 7.98531601353386494280e-02) (48, -3.33081265825264982716e-01) (49, -4.90212547652557117939e-01) (0, 1.73568735857505940245e+00) (1, 2.88610171963811987239e-02) (2, -3.38802847574108251250e-02) (3, -1.44742055566107835629e-01) (4, -1.20070936859643581651e-01) (5, -5.18541033569732245923e-01) (6, -2.57374607366549143506e-02) (7, -1.58860773640034397269e-01) (8, 3.34325351860657304925e+00) (9, -2.48583565174639670170e-01) (10, -5.54746056789734917625e-02) (11, -8.47472514855540870471e-01) (12, -3.21857436911461791684e-01) (13, -2.01513713433447899659e-01) (14, -2.09286149673197391374e-01) (15, -1.95566401957652735710e-01) (16, -1.65072429120169283934e-01) (17, -2.74476236962678143971e-01) (18, -1.84709941670222782539e-01) (19, -1.78450118353170650298e-01) (20, -8.80920278730141920187e-02) (21, -4.05310326821833669109e-02) (22, -1.65133020953925485630e-01) (23, -6.01873338235781152328e-01) (24, -1.97081286457253146427e-01) (25, -1.26768069330680022144e-01) (26, -6.15112604230490106483e-02) (27, -7.06576496450733448906e-02) (28, -8.39998354313023637419e-02) (29, -2.44057444104930465478e-01) (30, -2.30402364828013045406e-01) (31, -2.60801286328912584889e-01) (32, -2.64881874415525575550e-01) (33, -2.55895776291021059823e-01) (34, -3.10579498219093474987e-01) (35, -4.66184246497450341384e-02) (36, -5.81566011017439321584e-01) (37, -7.20419435000864027963e-01) (38, -2.73236114175979427632e-01) (39, -5.43644185143936364835e-02) (40, -3.84364666908654450950e-01) (41, -3.87500959845158698958e-01) (42, -2.77513696749889016147e-01) (43, -3.89699537624976444228e-01) (44, -2.81603414357599890483e-01) (45, -5.46945568288198791240e-02) (46, -2.90843801086511311027e-01) (47, -7.67291130379152752639e-01) (48, -1.05294891250926572757e-01) (49, -1.69916747404827400691e-01) (0, 2.20238113860918227616e+00) (1, 1.23833092531907995593e-01) (2, 2.65465701601255377184e-01) (3, 2.73414666435468634020e-01) (4, 2.31389562270391313525e-01) (5, 7.23394616389216871255e+00) (6, -4.63749032057035326382e-01) (7, 3.75838091093246839947e-01) (8, -4.54241283183294530801e+00) (9, 4.03052513944831547477e-01) (10, -7.49132984302374738128e-01) (11, 7.16376569472910729175e-01) (12, 5.23344502089671870237e+00) (13, 7.54682171753708708195e+00) (14, 2.11298527675933489611e-01) (15, 1.14188503688429976446e-01) (16, 2.45412736039880202688e-01) (17, 1.22853957328080229394e-01) (18, 3.57171989525158883882e-01) (19, 2.90428192799351458930e+00) (20, 5.07944054476539785803e-01) (21, 6.58561666960855052189e-01) (22, 5.84849494944972292387e+00) (23, 1.04097966250635511898e+01) (24, 1.12206006842880228191e+01) (25, 6.08253863881504930333e-01) (26, 1.61073451808757610593e+01) (27, 6.31645228286254578620e-01) (28, 2.65615730086862988912e+01) (29, 7.27575514265213563192e+00) (30, 1.52408589984752023128e+01) (31, 7.25053481315640979687e+00) (32, 7.31469405895800139916e+00) (33, 7.53644387696316719882e+00) (34, 1.43493307110029943985e+00) (35, 7.85091514783645028075e+00) (36, 3.12430522032875801486e+00) (37, 3.92422608271922079837e+00) (38, 4.81856537106231641587e+00) (39, 5.35039818850665049865e+00) (40, 1.40615865530106831649e+00) (41, 1.32233682588904111199e+00) (42, 1.54396336875813200429e+00) (43, 1.38718674698247390609e+00) (44, 5.37588395886879499841e+00) (45, -1.64651148525913504361e-01) (46, 1.29608659797413006132e+00) (47, 4.31763873321955937712e+00) (48, 1.11742738768126326221e+00) (49, 4.98347160980451286960e-02) (50, -6.27614921449457963121e-01) (51, 1.14044266624797385745e+00) (52, 6.08000452764555054941e-01) (53, 8.71792109387924285535e-01) (54, -6.39453481264419032470e-01) (55, -6.58327925764131127728e-01) (56, -7.47337922711496016603e-01) (57, 3.89938712026930034416e-01) (58, 2.85545441525851595443e-01) (59, 4.20502064505784867166e-01) (60, 2.47946149894179429518e-01) 
