FANN_FLO_2.1
num_layers=3
learning_rate=0.700000
connection_rate=1.000000
network_type=0
learning_momentum=0.000000
training_algorithm=2
train_error_function=1
train_stop_function=1
cascade_output_change_fraction=0.010000
quickprop_decay=-0.000100
quickprop_mu=1.750000
rprop_increase_factor=1.200000
rprop_decrease_factor=0.500000
rprop_delta_min=0.000000
rprop_delta_max=50.000000
rprop_delta_zero=0.100000
cascade_output_stagnation_epochs=12
cascade_candidate_change_fraction=0.010000
cascade_candidate_stagnation_epochs=12
cascade_max_out_epochs=150
cascade_min_out_epochs=50
cascade_max_cand_epochs=150
cascade_min_cand_epochs=50
cascade_num_candidate_groups=2
bit_fail_limit=1.00000000000000005551e-01
cascade_candidate_limit=1.00000000000000000000e+03
cascade_weight_multiplier=4.00000000000000022204e-01
cascade_activation_functions_count=10
cascade_activation_functions=3 5 7 8 10 11 14 15 16 17 
cascade_activation_steepnesses_count=4
cascade_activation_steepnesses=2.50000000000000000000e-01 5.00000000000000000000e-01 7.50000000000000000000e-01 1.00000000000000000000e+00 
layer_sizes=38 4 2 
scale_included=0
neurons (num_inputs, activation_function, activation_steepness)=(0, 0, 0.00000000000000000000e+00) (0, 0, 0.00000000000000000000e+00) (0, 0, 0.00000000000000000000e+00) (0, 0, 0.00000000000000000000e+00) (0, 0, 0.00000000000000000000e+00) (0, 0, 0.00000000000000000000e+00) (0, 0, 0.00000000000000000000e+00) (0, 0, 0.00000000000000000000e+00) (0, 0, 0.00000000000000000000e+00) (0, 0, 0.00000000000000000000e+00) (0, 0, 0.00000000000000000000e+00) (0, 0, 0.00000000000000000000e+00) (0, 0, 0.00000000000000000000e+00) (0, 0, 0.00000000000000000000e+00) (0, 0, 0.00000000000000000000e+00) (0, 0, 0.00000000000000000000e+00) (0, 0, 0.00000000000000000000e+00) (0, 0, 0.00000000000000000000e+00) (0, 0, 0.00000000000000000000e+00) (0, 0, 0.00000000000000000000e+00) (0, 0, 0.00000000000000000000e+00) (0, 0, 0.00000000000000000000e+00) (0, 0, 0.00000000000000000000e+00) (0, 0, 0.00000000000000000000e+00) (0, 0, 0.00000000000000000000e+00) (0, 0, 0.00000000000000000000e+00) (0, 0, 0.00000000000000000000e+00) (0, 0, 0.00000000000000000000e+00) (0, 0, 0.00000000000000000000e+00) (0, 0, 0.00000000000000000000e+00) (0, 0, 0.00000000000000000000e+00) (0, 0, 0.00000000000000000000e+00) (0, 0, 0.00000000000000000000e+00) (0, 0, 0.00000000000000000000e+00) (0, 0, 0.00000000000000000000e+00) (0, 0, 0.00000000000000000000e+00) (0, 0, 0.00000000000000000000e+00) (0, 0, 0.00000000000000000000e+00) (38, 6, 5.00000000000000000000e-01) (38, 6, 5.00000000000000000000e-01) (38, 6, 5.00000000000000000000e-01) (0, 6, 0.00000000000000000000e+00) (4, 4, 5.00000000000000000000e-01) (0, 4, 0.00000000000000000000e+00) 
connections (connected_to_neuron, weight)=(0, -6.14000219468668131939e-02) (1, 2.17177780870759606913e+00) (2, -1.49940355653461032670e-01) (3, 1.00351016124929981466e+00) (4, 1.50000000000000000000e+03) (5, -7.81749101611381203014e+00) (6, 6.09604422441754767448e+00) (7, 1.87161330374530479048e+01) (8, 3.34990274181902947248e+00) (9, 2.92064909550628648560e+00) (10, 2.42410763599309309058e+00) (11, 1.83569103825462387469e+00) (12, 1.51225966669811984211e+00) (13, 2.06919460948426126023e+00) (14, -4.85259675750189856114e-01) (15, 1.85608476709122216519e+00) (16, 4.05340039097173907012e-02) (17, 2.16142203971214508229e+00) (18, 1.98266223252580608971e+00) (19, 1.86654095445127521380e+00) (20, 1.96289519627690345338e+00) (21, 1.81556206428660371621e+00) (22, 1.14941966191543221143e+00) (23, -1.54020306679209872947e+00) (24, 1.23645566552012375894e+00) (25, 1.19284898722069798715e+00) (26, 3.15530632958190171422e+00) (27, 1.67941294824864884028e+00) (28, -1.63023033991079557836e+00) (29, -1.08818425571224919324e+00) (30, -9.69482259001725799052e-01) (31, -1.49253385088518086832e+00) (32, -3.79555115145731569726e+00) (33, -1.00667408807555300854e+01) (34, -1.13576274170544389008e+00) (35, 7.49725113013755661839e-01) (36, -5.03331636897157763677e-01) (37, -1.04509079762528322988e+00) (0, -2.04993329055526629645e+00) (1, 4.21759042161602160093e+00) (2, 3.36117686852984087764e+00) (3, 9.94693090828325843233e+00) (4, 1.50000000000000000000e+03) (5, 1.99600042713755883028e+01) (6, -4.81362581964471036855e+00) (7, 6.00888826011352961132e+00) (8, 1.48702039078182846055e+01) (9, 4.67428337875878874286e+00) (10, 1.50103884905243010195e+01) (11, 1.51315015894455449086e+01) (12, 1.50902216888395095395e+01) (13, 1.52789373166863455822e+01) (14, -9.86087281650035590852e-02) (15, 1.40361695928468481753e+01) (16, 1.42010773410981561149e+00) (17, 1.49897242626239801666e+01) (18, 1.51008866781700117343e+01) (19, 1.51977525505948385387e+01) (20, 1.49696884747634140211e+01) (21, 1.50750334166810340264e+01) (22, 5.25216056349926496694e+00) (23, 9.25023541206640431689e-01) (24, 8.67862507835051388838e+00) (25, 5.74697882528820791492e+00) (26, 4.99565115278226024031e+00) (27, 8.12339602733377041943e+00) (28, 8.96433942086560575646e-01) (29, 6.10326264171335286512e-01) (30, 1.07455417523327123597e+00) (31, 7.15039311552724821119e-01) (32, -3.09656921620037017817e+00) (33, -1.08387952741129112155e+00) (34, -1.41544032562232269257e+00) (35, 7.80530327044012572912e+00) (36, -6.45119490117935523443e+00) (37, -6.79064445379101666589e+00) (0, 5.75796960607144137079e-01) (1, -2.64049363030561634602e+00) (2, -2.08852626812656289035e-01) (3, 4.64072644007650314535e+00) (4, -1.50000000000000000000e+03) (5, 1.89038211844975911902e+00) (6, -4.94348543896042968981e+00) (7, 8.65096162449392203087e+00) (8, -4.07229305726866996906e-01) (9, 6.12743211519812036592e-01) (10, -6.07089512266435482601e-01) (11, -8.90104111479116610894e-01) (12, -9.49730818663643283628e-01) (13, -2.33288176803347502286e+00) (14, 3.23054496298245474861e+00) (15, -1.64629359282472131909e+00) (16, 2.04066158985943202353e+00) (17, -5.49287385967003105591e-01) (18, -7.10850919328225194782e-01) (19, -7.73009543428942680343e-01) (20, -7.22429676343021798246e-01) (21, -8.26407427789329851464e-01) (22, -8.87956558742074908430e-01) (23, -1.04380639051482382307e+00) (24, 3.26421704646677657280e+00) (25, 1.41700291368229058797e+00) (26, 1.08734698273302132776e+00) (27, 3.06850936329443602091e+00) (28, -1.12710834292307793270e+00) (29, -1.17685552291809081282e+00) (30, -1.49703595038891679181e+00) (31, -1.17282275154224868707e+00) (32, 1.50000000000000000000e+03) (33, 1.50000000000000000000e+03) (34, 1.05653281389899689202e+03) (35, 6.46896559964419526345e-01) (36, -1.18600440452174060724e+00) (37, 1.64722287565858849234e+00) (38, 4.82111580834447739363e+00) (39, 9.95120409751589996006e+00) (40, -1.04631757533413729533e+01) (41, -1.05067350301007889080e+00) 
