FANN_FLO_2.1
num_layers=3
learning_rate=0.700000
connection_rate=1.000000
network_type=0
learning_momentum=0.000000
training_algorithm=2
train_error_function=1
train_stop_function=1
cascade_output_change_fraction=0.010000
quickprop_decay=-0.000100
quickprop_mu=1.750000
rprop_increase_factor=1.200000
rprop_decrease_factor=0.500000
rprop_delta_min=0.000000
rprop_delta_max=50.000000
rprop_delta_zero=0.100000
cascade_output_stagnation_epochs=12
cascade_candidate_change_fraction=0.010000
cascade_candidate_stagnation_epochs=12
cascade_max_out_epochs=150
cascade_min_out_epochs=50
cascade_max_cand_epochs=150
cascade_min_cand_epochs=50
cascade_num_candidate_groups=2
bit_fail_limit=1.00000000000000005551e-01
cascade_candidate_limit=1.00000000000000000000e+03
cascade_weight_multiplier=4.00000000000000022204e-01
cascade_activation_functions_count=10
cascade_activation_functions=3 5 7 8 10 11 14 15 16 17 
cascade_activation_steepnesses_count=4
cascade_activation_steepnesses=2.50000000000000000000e-01 5.00000000000000000000e-01 7.50000000000000000000e-01 1.00000000000000000000e+00 
layer_sizes=38 4 2 
scale_included=0
neurons (num_inputs, activation_function, activation_steepness)=(0, 0, 0.00000000000000000000e+00) (0, 0, 0.00000000000000000000e+00) (0, 0, 0.00000000000000000000e+00) (0, 0, 0.00000000000000000000e+00) (0, 0, 0.00000000000000000000e+00) (0, 0, 0.00000000000000000000e+00) (0, 0, 0.00000000000000000000e+00) (0, 0, 0.00000000000000000000e+00) (0, 0, 0.00000000000000000000e+00) (0, 0, 0.00000000000000000000e+00) (0, 0, 0.00000000000000000000e+00) (0, 0, 0.00000000000000000000e+00) (0, 0, 0.00000000000000000000e+00) (0, 0, 0.00000000000000000000e+00) (0, 0, 0.00000000000000000000e+00) (0, 0, 0.00000000000000000000e+00) (0, 0, 0.00000000000000000000e+00) (0, 0, 0.00000000000000000000e+00) (0, 0, 0.00000000000000000000e+00) (0, 0, 0.00000000000000000000e+00) (0, 0, 0.00000000000000000000e+00) (0, 0, 0.00000000000000000000e+00) (0, 0, 0.00000000000000000000e+00) (0, 0, 0.00000000000000000000e+00) (0, 0, 0.00000000000000000000e+00) (0, 0, 0.00000000000000000000e+00) (0, 0, 0.00000000000000000000e+00) (0, 0, 0.00000000000000000000e+00) (0, 0, 0.00000000000000000000e+00) (0, 0, 0.00000000000000000000e+00) (0, 0, 0.00000000000000000000e+00) (0, 0, 0.00000000000000000000e+00) (0, 0, 0.00000000000000000000e+00) (0, 0, 0.00000000000000000000e+00) (0, 0, 0.00000000000000000000e+00) (0, 0, 0.00000000000000000000e+00) (0, 0, 0.00000000000000000000e+00) (0, 0, 0.00000000000000000000e+00) (38, 6, 5.00000000000000000000e-01) (38, 6, 5.00000000000000000000e-01) (38, 6, 5.00000000000000000000e-01) (0, 6, 0.00000000000000000000e+00) (4, 4, 5.00000000000000000000e-01) (0, 4, 0.00000000000000000000e+00) 
connections (connected_to_neuron, weight)=(0, 5.07005858888877058988e-01) (1, -1.06562692467632902371e+00) (2, -2.61944965330461854158e-01) (3, -8.85706273696454160493e-01) (4, 2.33775713105410929415e+01) (5, -2.97069148921143499908e-01) (6, -4.75666535817932556451e-01) (7, 1.95241226024353253798e+00) (8, -1.64991450509319470541e+00) (9, -6.66507840285864516794e-01) (10, -1.64967185109151648348e+00) (11, -1.65063555718395660321e+00) (12, -1.65016266207179129744e+00) (13, -4.77968778575277308818e+00) (14, 4.76834103752626159434e+00) (15, -3.44879015384374376652e+00) (16, 2.79994096131414638151e+00) (17, -1.64987880212909843181e+00) (18, -1.64981331243524609320e+00) (19, -1.65011855324921508092e+00) (20, -1.64928930299148168714e+00) (21, -1.65007546757384004898e+00) (22, -3.69057552875292405048e-01) (23, -8.94451782825517738296e-02) (24, -6.85400801712615415084e-01) (25, -4.95884482005792770476e-01) (26, -6.30227513755674317864e-01) (27, -6.45413261179211827923e-01) (28, -2.44866056985588831374e-01) (29, -7.35662401440656532614e-02) (30, -2.46915385625240429990e-01) (31, -1.88041559107046230004e-01) (32, -3.12990218263109520880e-01) (33, 1.73563879336233939377e+00) (34, 1.00880962652899114351e-01) (35, -8.60735155604196888746e-01) (36, 4.01456431170571614864e-01) (37, 9.69316462103032794317e-01) (0, 5.73163591047776366239e-01) (1, -1.10005490435629171841e+00) (2, -2.42163807956085358475e-01) (3, -1.01545059966871931145e+00) (4, 2.33250446279258127902e+01) (5, -5.02076194754524807173e-01) (6, -7.44221734827129388634e-01) (7, 3.19165505941138105683e+00) (8, -1.72519530972953161196e+00) (9, -6.90529234288478011017e-01) (10, -1.72595693698367225188e+00) (11, -1.72584763818940634117e+00) (12, -1.72562385172796495247e+00) (13, -3.89837723597763297079e+00) (14, 3.37824486443807048275e+00) (15, -5.25604158994738401844e+00) (16, 5.36710396938855627269e+00) (17, -1.72549980917641643252e+00) (18, -1.72520132851877727731e+00) (19, -1.72527348534639934918e+00) (20, -1.72639069036842607296e+00) (21, -1.72532265977944021529e+00) (22, -4.49001850999762808225e-01) (23, -1.31516801536276789486e-01) (24, -7.19875866470351621906e-01) (25, -7.79616517114941842692e-01) (26, -7.34352501622962838823e-01) (27, -6.84586208585980626751e-01) (28, -1.47397360450967684908e-01) (29, -2.71728022641868571796e-01) (30, -2.03590386114005095219e-01) (31, -2.24415144569610702785e-01) (32, -4.23411168020208561469e-01) (33, 1.79874495024796332565e+00) (34, 3.49627501604633128540e-01) (35, -1.02468265886814013932e+00) (36, 6.35600020501967399866e-01) (37, 1.00575181287885784265e+00) (0, -3.19332556424449742760e-01) (1, 4.99221051358296141753e-01) (2, 6.79608487189659382643e-01) (3, 9.00912366207799686357e-01) (4, 1.50000000000000000000e+03) (5, 1.08743347082486849331e+02) (6, 1.50000000000000000000e+03) (7, 1.50000000000000000000e+03) (8, 1.54308584311284469059e+00) (9, 6.49993630308125625028e-01) (10, 1.54213753944364762027e+00) (11, 1.53962626614929809499e+00) (12, 1.54158563621250865872e+00) (13, 6.62074626274195399134e+00) (14, -7.57651855697382892174e+00) (15, 5.44570743902036991102e+00) (16, -5.90980609100000542355e+00) (17, 1.54287081561776351357e+00) (18, 1.54337736753307108728e+00) (19, 1.54282465200060947552e+00) (20, 1.54146829617993219586e+00) (21, 1.54280480861881885701e+00) (22, 9.79265045890733709655e+00) (23, 2.87195100320411889072e+00) (24, 4.49124087754689982344e-01) (25, 9.57719032971869554949e-01) (26, 5.51524308293590781460e-01) (27, 6.04691868990692604768e-01) (28, 1.77457189861740949333e+00) (29, 2.11301939689022955093e+00) (30, 1.59607584066207053297e+00) (31, 1.71218422212147469708e+00) (32, 1.15503225796732333919e+01) (33, 9.97808789948146390714e+00) (34, 1.03859486668842997403e+01) (35, 6.34317324578997698836e-01) (36, -4.13555492049186637638e-02) (37, -9.55170496714857875098e-01) (38, -8.65415862197996155203e+00) (39, -8.62668815250516907156e+00) (40, 2.87979432468488161234e+00) (41, -5.05036396138372700726e-01) 
