FANN_FLO_2.1
num_layers=3
learning_rate=0.700000
connection_rate=1.000000
network_type=0
learning_momentum=0.000000
training_algorithm=2
train_error_function=1
train_stop_function=1
cascade_output_change_fraction=0.010000
quickprop_decay=-0.000100
quickprop_mu=1.750000
rprop_increase_factor=1.200000
rprop_decrease_factor=0.500000
rprop_delta_min=0.000000
rprop_delta_max=50.000000
rprop_delta_zero=0.100000
cascade_output_stagnation_epochs=12
cascade_candidate_change_fraction=0.010000
cascade_candidate_stagnation_epochs=12
cascade_max_out_epochs=150
cascade_min_out_epochs=50
cascade_max_cand_epochs=150
cascade_min_cand_epochs=50
cascade_num_candidate_groups=2
bit_fail_limit=1.00000000000000005551e-01
cascade_candidate_limit=1.00000000000000000000e+03
cascade_weight_multiplier=4.00000000000000022204e-01
cascade_activation_functions_count=10
cascade_activation_functions=3 5 7 8 10 11 14 15 16 17 
cascade_activation_steepnesses_count=4
cascade_activation_steepnesses=2.50000000000000000000e-01 5.00000000000000000000e-01 7.50000000000000000000e-01 1.00000000000000000000e+00 
layer_sizes=50 11 2 
scale_included=0
neurons (num_inputs, activation_function, activation_steepness)=(0, 0, 0.00000000000000000000e+00) (0, 0, 0.00000000000000000000e+00) (0, 0, 0.00000000000000000000e+00) (0, 0, 0.00000000000000000000e+00) (0, 0, 0.00000000000000000000e+00) (0, 0, 0.00000000000000000000e+00) (0, 0, 0.00000000000000000000e+00) (0, 0, 0.00000000000000000000e+00) (0, 0, 0.00000000000000000000e+00) (0, 0, 0.00000000000000000000e+00) (0, 0, 0.00000000000000000000e+00) (0, 0, 0.00000000000000000000e+00) (0, 0, 0.00000000000000000000e+00) (0, 0, 0.00000000000000000000e+00) (0, 0, 0.00000000000000000000e+00) (0, 0, 0.00000000000000000000e+00) (0, 0, 0.00000000000000000000e+00) (0, 0, 0.00000000000000000000e+00) (0, 0, 0.00000000000000000000e+00) (0, 0, 0.00000000000000000000e+00) (0, 0, 0.00000000000000000000e+00) (0, 0, 0.00000000000000000000e+00) (0, 0, 0.00000000000000000000e+00) (0, 0, 0.00000000000000000000e+00) (0, 0, 0.00000000000000000000e+00) (0, 0, 0.00000000000000000000e+00) (0, 0, 0.00000000000000000000e+00) (0, 0, 0.00000000000000000000e+00) (0, 0, 0.00000000000000000000e+00) (0, 0, 0.00000000000000000000e+00) (0, 0, 0.00000000000000000000e+00) (0, 0, 0.00000000000000000000e+00) (0, 0, 0.00000000000000000000e+00) (0, 0, 0.00000000000000000000e+00) (0, 0, 0.00000000000000000000e+00) (0, 0, 0.00000000000000000000e+00) (0, 0, 0.00000000000000000000e+00) (0, 0, 0.00000000000000000000e+00) (0, 0, 0.00000000000000000000e+00) (0, 0, 0.00000000000000000000e+00) (0, 0, 0.00000000000000000000e+00) (0, 0, 0.00000000000000000000e+00) (0, 0, 0.00000000000000000000e+00) (0, 0, 0.00000000000000000000e+00) (0, 0, 0.00000000000000000000e+00) (0, 0, 0.00000000000000000000e+00) (0, 0, 0.00000000000000000000e+00) (0, 0, 0.00000000000000000000e+00) (0, 0, 0.00000000000000000000e+00) (0, 0, 0.00000000000000000000e+00) (50, 6, 5.00000000000000000000e-01) (50, 6, 5.00000000000000000000e-01) (50, 6, 5.00000000000000000000e-01) (50, 6, 5.00000000000000000000e-01) (50, 6, 5.00000000000000000000e-01) (50, 6, 5.00000000000000000000e-01) (50, 6, 5.00000000000000000000e-01) (50, 6, 5.00000000000000000000e-01) (50, 6, 5.00000000000000000000e-01) (50, 6, 5.00000000000000000000e-01) (0, 6, 0.00000000000000000000e+00) (11, 6, 5.00000000000000000000e-01) (0, 6, 0.00000000000000000000e+00) 
connections (connected_to_neuron, weight)=(0, 2.70167889242721379617e+01) (1, 3.55033409507554242879e-01) (2, 2.77804997475426307396e-01) (3, 4.00657792301457593709e-01) (4, 3.35470516891759107381e-01) (5, -8.50930891394016120088e-01) (6, -7.71386895481687040466e-01) (7, -1.32099959863130433924e+00) (8, -6.84395993425205428906e+00) (9, 4.86440977984035183290e-01) (10, -5.95493169597219740297e+00) (11, 7.08244743983217905914e-01) (12, 5.25140227491135869187e-01) (13, 1.52292137383459458277e+00) (14, -4.14425256224925153692e-01) (15, -4.14470822079858913778e-01) (16, -5.82149130900041056336e-01) (17, -4.31546626003810884775e-01) (18, -4.75013958332185015632e-01) (19, -2.96462777163266300029e-01) (20, -9.31283704414748725320e-01) (21, -8.18524510469098909304e-01) (22, 1.47039097089105008642e+00) (23, 1.69535999369673739956e+00) (24, 1.31171828192596784390e+00) (25, 2.83708582360942651590e-01) (26, 3.76552540132964519426e-01) (27, 1.60381706872837537237e-01) (28, 4.98493856754781139440e-01) (29, 1.40751691986086924224e+00) (30, 1.41399358042077416542e+00) (31, 1.54203911421483130795e+00) (32, 1.56004143917159554533e+00) (33, 1.37240317126931010705e+00) (34, -7.04773132489023179659e-01) (35, 7.02471614593085158518e-01) (36, -4.33694704678714426649e+00) (37, -4.92746520100074114623e+00) (38, -4.79130058906393685447e+00) (39, -5.11556698864919212610e+00) (40, -6.22704941694297131605e-01) (41, -7.47339792576827255388e-01) (42, -9.17733521091683601689e-01) (43, -7.38240568043110556573e-01) (44, -4.84523912692114144818e+00) (45, -1.66769785464303543776e+00) (46, -1.19303305856333108359e+00) (47, -1.67341025121384401331e+00) (48, -2.35170274383969601928e+00) (49, 5.04518546916632004695e-01) (0, 3.96221636127586540610e+00) (1, 1.69409559200928094835e-01) (2, 9.16921449773021139673e-03) (3, 7.08660717117036015322e-02) (4, 7.21620257007325321963e-02) (5, -1.15607048612205609572e+00) (6, 6.54669350480412970406e-01) (7, -3.62076261715314817735e-01) (8, 4.36521430527087805906e-01) (9, -5.62936569471586323310e-01) (10, 1.20740977323159892620e+00) (11, 2.43740411937719975155e-01) (12, 1.30699259457400768225e-01) (13, 1.19087671987435916865e-01) (14, -4.84877335603634718186e-01) (15, -4.93648243468779224230e-01) (16, -5.22844702192743149283e-01) (17, -4.65107875871326015282e-01) (18, -5.77781420592875627484e-01) (19, -3.46698973471327664964e-01) (20, -3.92982789306734636714e-01) (21, -3.43431448764328794976e-01) (22, 1.27999573594666377074e-01) (23, 1.14687877570855648046e-01) (24, 1.40207498151643461526e-01) (25, -1.43494366530346750821e-01) (26, -1.26523534838288292947e-01) (27, -1.82217098289303332248e-02) (28, -1.99585476821974028283e-01) (29, 1.59070645484742673181e-01) (30, 1.32155489345750193353e-01) (31, 1.18667079093363173059e-01) (32, 1.44795887188933797285e-01) (33, 1.30961137301206287376e-01) (34, -5.71522024030839514985e-01) (35, -8.96288174831668671416e-02) (36, 1.72854551944480822057e-01) (37, 9.76363676835961813438e-02) (38, 1.62722031521899651585e-01) (39, 2.09842472180939737525e-01) (40, -5.62761183636354411775e-01) (41, -5.77852270438193094115e-01) (42, -5.76816085989442894899e-01) (43, -5.75099379998328608110e-01) (44, 1.49499404466987506623e-01) (45, 1.97653777287477877556e-01) (46, -6.45398572258495950571e-01) (47, 2.60720200159540393958e-01) (48, -1.26166062298647152495e+00) (49, 3.32274769748331201893e-03) (0, 1.10938057392648079258e+03) (1, 6.85324292903734866300e-01) (2, 6.82129111414744082609e-01) (3, 5.71222726529433066922e-01) (4, 6.65139433270289126554e-01) (5, 5.25882982526951536784e-01) (6, -1.33193169094408658815e+00) (7, 2.92911102440456758700e+01) (8, -3.07554589923099861437e+01) (9, 3.53419099698585341685e+01) (10, 8.59998195171326074160e+00) (11, -2.85894263874567222672e+00) (12, -2.92466468152027969651e+00) (13, 1.46131170430942097482e+03) (14, -1.69689256849316327802e+00) (15, -4.74359366603997523182e-01) (16, -6.08756168616446380337e-02) (17, -1.30084702494986781396e+00) (18, 1.94756578227604548736e+00) (19, 1.50000000000000000000e+03) (20, 2.38498311527214706951e-01) (21, -1.08248350721939681773e-01) (22, 4.52494200574532214887e+01) (23, 1.50000000000000000000e+03) (24, 9.28776384323534443865e+02) (25, -9.68444214231241162771e-01) (26, 2.90464157567432899043e+01) (27, 2.92526673412302606891e+01) (28, -1.22238476616745650460e+00) (29, 3.04012936083958216216e+01) (30, 2.89154177584316073535e+02) (31, 5.48684400147068629394e+01) (32, 1.50000000000000000000e+03) (33, 1.50000000000000000000e+03) (34, 9.94425028716760528447e-02) (35, -3.12987850353430863137e+00) (36, 1.32054657544039088179e+02) (37, 6.21390930801251144544e+01) (38, -2.50482729594139374996e+00) (39, 6.52112996636908093251e+01) (40, 2.82645295177233260575e-02) (41, 1.04375894190896232772e+02) (42, -2.36799430550495293435e-01) (43, 1.16751255894801300728e-01) (44, 2.81135503777353035204e+00) (45, -1.06141712449491731896e+00) (46, 1.49319547538543080378e+01) (47, 1.50000000000000000000e+03) (48, -1.59032458913167001890e-01) (49, 1.82654208341951052041e+00) (0, -4.71625115431071595395e+00) (1, -2.32343717941937630278e-02) (2, -7.12715282568630731364e-02) (3, -1.53062694472997945505e-01) (4, -1.67710673762291234690e-01) (5, 1.15041183856641660022e+00) (6, -5.52722585775737226821e-03) (7, -3.88226526018889517289e-01) (8, 2.42152363387062630196e+00) (9, -4.53341651938064874039e-02) (10, 1.45497786658179517616e+00) (11, -8.21151459938133210237e-01) (12, 7.40545646776486488072e-01) (13, 3.73570653435758293082e-01) (14, 2.65991417561730447705e-01) (15, 4.19159150270214220235e-01) (16, 2.10220427802933762518e-01) (17, 3.82153073450630931251e-01) (18, 5.34533281788779762733e-02) (19, 2.18080662259628882405e-01) (20, 2.85446813484613426404e-01) (21, 1.93288222389361524778e-01) (22, 2.74999868498083999135e-01) (23, 5.19157207378560636712e-01) (24, 4.17196443375810022136e-01) (25, 3.27834927905897077771e-01) (26, 1.72971055156288466836e-01) (27, 1.27496919881142894981e-01) (28, 3.14377430930361967398e-01) (29, 4.28879267553699317084e-01) (30, 4.41970013094676150711e-01) (31, 4.22407928528658105360e-01) (32, 3.94448396059428996185e-01) (33, 5.26824001355788884560e-01) (34, 4.07355428498261840087e-01) (35, 1.27556384782592746596e+00) (36, 2.04154135740663045251e-01) (37, 8.92605609551257006551e-01) (38, 4.69453077856413103497e-01) (39, 4.08839964218601858992e-01) (40, 3.14803461070776835484e-01) (41, 6.04655750209193043609e-01) (42, 4.67433946026353686065e-01) (43, 5.64589671207638699180e-01) (44, 7.79871261714853214464e-01) (45, -6.50223896287280278550e-01) (46, 7.20627628697250610657e-01) (47, 1.95879290426231222888e+00) (48, -1.34455181793903533194e-01) (49, -2.09128217100234742309e-01) (0, -5.10758590204704177040e+00) (1, -4.03748865430302514290e-02) (2, -2.10647548739858678224e-02) (3, -7.47772048418472862208e-02) (4, -3.99140830342716926293e-02) (5, 8.41065330651064591017e-01) (6, 4.40818588802409927485e-01) (7, -4.88547873686935862914e-01) (8, 2.36801513416917375210e+00) (9, -1.74781303588967540374e-02) (10, 5.92070041803895441568e-01) (11, -4.24537442211953330862e-01) (12, 9.45472429236206446390e-01) (13, 4.87226918574038825316e-01) (14, 3.78908735044605926578e-01) (15, 2.32117006439432282949e-01) (16, 2.88674434911710742213e-01) (17, 2.40177911676477950920e-01) (18, 6.01305519645540242912e-02) (19, 1.21488466095896321950e-01) (20, 1.14219234412678075086e-01) (21, 2.14404837822183003126e-01) (22, 4.03083159561273274285e-01) (23, 5.57876465056460713043e-01) (24, 5.43196083503459936637e-01) (25, 3.13541111601517263896e-01) (26, 1.61492659143911421182e-01) (27, 1.69838438568730765166e-01) (28, 3.05647425403757111440e-01) (29, 4.02108419827476026853e-01) (30, 4.72084432562455136306e-01) (31, 4.51550065721954774212e-01) (32, 4.64230908381227824755e-01) (33, 4.37850376661835460901e-01) (34, 3.02769215571792260633e-01) (35, 1.06875230410841792761e+00) (36, 4.46995901233811832043e-01) (37, 3.05703047364005053854e-01) (38, 3.42111087448535577948e-01) (39, 6.01587564518012762882e-01) (40, 3.25543484178414832542e-01) (41, 2.77372443503444032764e-01) (42, 4.22038785742326727490e-01) (43, 3.17552955513851375979e-01) (44, 9.74400039100899312272e-02) (45, -4.59717259144187095909e-01) (46, 1.35147278316582464264e-01) (47, 3.89805740785720611363e-01) (48, 7.14673709960663306601e-03) (49, -3.48865901479772588800e-01) (0, 7.35381506212161362157e+00) (1, 1.76480674301253748215e-01) (2, 1.80461027775870752610e-01) (3, 1.60421245847808313645e-01) (4, 2.31845312868224517899e-01) (5, 2.51318192756208091954e-01) (6, -6.48865166885917554751e-01) (7, 1.25094379979942105230e+00) (8, -3.42718080644527856027e-01) (9, 4.37094732884882763990e-01) (10, -2.09612282209928491028e+00) (11, -1.34934287366779925854e+00) (12, -2.85650827577278942915e-01) (13, 4.64329182225489189850e-01) (14, -2.12300031648521986272e-01) (15, -1.61075906403703589254e-01) (16, -1.90759703399135428781e-02) (17, -2.26331333331107609208e-01) (18, 9.42055610337519666597e-02) (19, -5.07333701303067874377e-01) (20, -3.06653548167697242999e-01) (21, -4.78086290820356252240e-01) (22, 5.38896491523567444659e-01) (23, 3.83423504423030359067e-01) (24, 3.09850129384764749751e-01) (25, 4.34346193653446399630e-01) (26, 3.54833882853292870152e-01) (27, 2.72320494059318074509e-01) (28, 2.61737238071435729392e-01) (29, 3.59507297749187992864e-01) (30, 3.75544104229770359105e-01) (31, 4.70559385987007805507e-01) (32, 3.46789325424993855052e-01) (33, 3.73857889634787776689e-01) (34, -3.51397275736808401003e-01) (35, -2.95321535418947150875e-02) (36, 3.51710252597671280128e+00) (37, 2.59513889076265247269e+00) (38, 1.19658796005186651712e+00) (39, 1.38728677738861705393e+00) (40, -4.00858623175562700514e-01) (41, -3.92587548392807572650e-01) (42, -3.53259649699394717715e-01) (43, -4.68227501945000512684e-01) (44, 1.07920416325396995028e+00) (45, 1.19640884695562754736e+00) (46, 5.29516973649148070535e-01) (47, -2.40240674287693373873e-03) (48, 1.25673274273482710184e-01) (49, -9.40730140724638230765e-01) (0, 1.10968971880853382572e+03) (1, 3.88180997820521622721e-01) (2, 4.19959281237746395732e-01) (3, 4.52997837813521653239e-01) (4, 3.94596864135886349345e-01) (5, 1.49992521260789180815e+03) (6, -1.12169066443590415005e+00) (7, -1.59410625114013781989e+00) (8, -1.30116678616321564732e+02) (9, 2.16741793779105629270e+00) (10, -1.96802788545242313134e+00) (11, -2.50736031639393797121e+00) (12, 1.49503733131837793735e+03) (13, 1.46131170430942097482e+03) (14, -5.10904743173711040072e-01) (15, -2.12204166219057716036e-01) (16, 1.23523720416892146545e+00) (17, -7.04246234050502684099e-01) (18, 4.79873620182874438544e-01) (19, 1.50000000000000000000e+03) (20, -1.93259414159581699444e-01) (21, -1.55818220709759236442e+00) (22, 1.36632548613882221389e+02) (23, 1.50000000000000000000e+03) (24, 1.40692342636279954604e+03) (25, 1.30613639265133940626e+02) (26, 3.88369234593296183689e-02) (27, -9.64365480781094852603e-01) (28, 1.29345486322523726130e+02) (29, 1.60792178809705376352e+02) (30, 6.63404068578863416406e+02) (31, 1.22374218862580528366e+03) (32, 1.50000000000000000000e+03) (33, 1.50000000000000000000e+03) (34, -2.82516766569122397545e-02) (35, 1.50000000000000000000e+03) (36, 7.39124263673670839125e+02) (37, 1.32230243155408032862e+02) (38, 5.57205686902384286441e+02) (39, 1.54270420858475517889e+02) (40, 2.70169416287583397107e-01) (41, 9.49189950209146204863e-01) (42, -4.77948930251637260636e-01) (43, 3.82909874961207985500e-01) (44, 1.27482907232698480016e+02) (45, -7.41381348281104468612e-01) (46, 2.49894091787828642737e+00) (47, 1.50000000000000000000e+03) (48, -1.52956737879058457530e+00) (49, 1.53403068853769353197e+00) (0, -6.52825082137442436192e+00) (1, -4.50910676834428147952e-02) (2, -7.36332286712966938014e-02) (3, -1.11697682422146130077e-01) (4, -1.41668219683016034099e-02) (5, 9.93924992267416818059e-01) (6, 1.12725979881768648139e-01) (7, -5.20173354313092417556e-01) (8, 3.23933055250650792090e+00) (9, -2.39708829412658530611e-01) (10, -8.97846357972199471398e-01) (11, 8.75474473883617432257e-01) (12, 4.56314679968752356931e-01) (13, 2.43058526051475903840e-01) (14, 1.23713673296838064242e-01) (15, 1.41693020889960080710e-01) (16, 1.45613528238241779489e-01) (17, 1.55915526012067040540e-01) (18, 4.56980415474068757398e-01) (19, 3.28463462361038627257e-01) (20, 1.62421727163226975454e-01) (21, 1.42797543914198771242e-01) (22, 2.62112070870417324109e-01) (23, 1.80780209764765359415e-01) (24, 2.41204124031422828534e-01) (25, 1.48432943187592203405e-01) (26, 1.60261374912592985398e-01) (27, 2.65555781278548730384e-01) (28, 8.23883183739073793328e-02) (29, 2.66065643511886662509e-01) (30, 2.49577058249230376852e-01) (31, 2.47357941807415993019e-01) (32, 2.81748316774311335919e-01) (33, 2.41155153753015466522e-01) (34, 6.70850038828065486918e-01) (35, 4.57777187444906086267e-01) (36, 1.33422874145340070173e-01) (37, 1.66712025535354940731e-01) (38, 3.30165960887358611586e-01) (39, 8.71137030916205590270e-02) (40, 7.00242047531413946970e-01) (41, 6.01839550164021797052e-01) (42, 5.23900021428552742364e-01) (43, 6.07334251522973378457e-01) (44, 3.47928172229403476212e-01) (45, -6.32347108017151771087e-01) (46, 5.95600968197560476369e-01) (47, -1.21876001608806641685e-01) (48, 2.70369414261306950653e-01) (49, -4.52210278049547803603e-02) (0, 3.36832764037174214877e+01) (1, 3.60915967276591809210e-01) (2, 2.92277620187301190313e-01) (3, 3.02354493191737683233e-01) (4, 2.47176081886784138053e-01) (5, -6.34545515385208758197e-01) (6, -4.29696446162919909462e-01) (7, 2.54283081612213135436e-01) (8, -6.55796607551807042569e+00) (9, 8.88198540746453546468e-01) (10, -1.65810687473917428569e+00) (11, -9.36431192584764593434e-01) (12, -1.37294805910376599423e-01) (13, 1.20541786726023003595e+00) (14, -6.19578783233736163361e-01) (15, -5.70259487368927397988e-01) (16, -1.39272846429305774407e+00) (17, -6.85718492592653050544e-01) (18, -7.93165213637184063344e-01) (19, -5.44239863865394912779e-01) (20, -1.45231879298739086082e+00) (21, -8.90734690841833431918e-01) (22, -4.64266123189435997443e-01) (23, 1.65721799171576122944e+00) (24, 1.55697584107436881595e+00) (25, -2.86421851599821919443e-01) (26, -2.43262056105233076542e-01) (27, -3.85662916770670161082e-01) (28, -2.30920614370705323815e-01) (29, 8.40496681104166643017e-01) (30, 7.88798784595538649000e-01) (31, 1.68948628868845851514e+00) (32, 1.59866892105385693945e+00) (33, 6.97862314451386356318e-01) (34, -3.38643480989455403218e-01) (35, -2.40891608228689269033e-01) (36, -7.34402941908177897545e+00) (37, -2.09797834133150340463e+00) (38, -1.20256480928538045383e+00) (39, -2.41782056191315186666e+00) (40, -4.83913956125418764920e-01) (41, -6.48262839471673513181e-01) (42, -5.82817630450207624371e-01) (43, -4.09845257053855882567e-01) (44, 5.96112622751320375691e-01) (45, -6.15769111536821789343e-01) (46, -1.53633572615287716800e+00) (47, -1.93241348806846069408e-01) (48, -2.76870202934885423218e+00) (49, 5.61286839168627538221e-01) (0, 2.95159340954538222945e+01) (1, 3.47467371397205293526e-01) (2, 3.43508490495868734627e-01) (3, 3.00394081645198873787e-01) (4, 2.33586953156179305546e-01) (5, -1.37310376520556509661e+00) (6, -7.96540466627857823845e-01) (7, -1.38634530979513215243e+00) (8, -2.88835213882994557011e+00) (9, -1.59061962962779257502e+00) (10, 3.05553329498606141001e-01) (11, -3.21935198736645400430e+00) (12, -1.74397713004596144337e+00) (13, -1.13042076586040129982e+00) (14, -1.92496225721765790162e+00) (15, -1.91200440492575052254e+00) (16, -2.42312994169832407465e+00) (17, -1.89998458188867780372e+00) (18, -1.92615471813637717524e+00) (19, -1.98629296535239796562e+00) (20, -1.95381733816512581647e+00) (21, -1.74265741721529932029e+00) (22, -1.66789685252534991555e+00) (23, -8.18165180043192497017e-01) (24, -1.13186928960482635631e+00) (25, -9.18375480737285587729e-01) (26, -8.98646020372022347189e-01) (27, -7.88870780431483509254e-01) (28, -1.07910976612210363079e+00) (29, -1.43622334881816682284e+00) (30, -1.07579641303093764826e+00) (31, -1.12965996930661982667e+00) (32, -1.14042145212178214209e+00) (33, -1.08260592097058405692e+00) (34, -1.38019148575366457088e+00) (35, -1.79231972963622543382e+00) (36, -1.66642801486867742078e+00) (37, -1.78061632932333302470e+00) (38, -1.18979264775081494676e+00) (39, -1.31136825332059081539e+00) (40, -1.26699109307956758741e+00) (41, -2.15726300721801411697e+00) (42, -1.10280541351576411024e+00) (43, -1.28685566126962624978e+00) (44, -1.21192084678918265972e+00) (45, -6.40576935291875648737e-01) (46, -1.73784773000087722217e+00) (47, -1.21886351438559348281e+00) (48, -1.45677060138507941112e+00) (49, 2.31468654635241399831e+00) (50, -2.25630109267441980592e-01) (51, 9.49140716025881125972e-01) (52, 8.40856395633862274686e-01) (53, 2.40679266398719560183e-01) (54, 3.81595045475631777787e-01) (55, 5.51223376134115761182e-01) (56, 6.68798549695483801614e-01) (57, 6.92792700184586829337e-01) (58, -2.89701341789235899959e-01) (59, -1.54517201686577987374e+00) (60, 3.68035172337968674583e-01) 
