FANN_FLO_2.1
num_layers=3
learning_rate=0.700000
connection_rate=1.000000
network_type=0
learning_momentum=0.000000
training_algorithm=2
train_error_function=1
train_stop_function=1
cascade_output_change_fraction=0.010000
quickprop_decay=-0.000100
quickprop_mu=1.750000
rprop_increase_factor=1.200000
rprop_decrease_factor=0.500000
rprop_delta_min=0.000000
rprop_delta_max=50.000000
rprop_delta_zero=0.100000
cascade_output_stagnation_epochs=12
cascade_candidate_change_fraction=0.010000
cascade_candidate_stagnation_epochs=12
cascade_max_out_epochs=150
cascade_min_out_epochs=50
cascade_max_cand_epochs=150
cascade_min_cand_epochs=50
cascade_num_candidate_groups=2
bit_fail_limit=1.00000000000000005551e-01
cascade_candidate_limit=1.00000000000000000000e+03
cascade_weight_multiplier=4.00000000000000022204e-01
cascade_activation_functions_count=10
cascade_activation_functions=3 5 7 8 10 11 14 15 16 17 
cascade_activation_steepnesses_count=4
cascade_activation_steepnesses=2.50000000000000000000e-01 5.00000000000000000000e-01 7.50000000000000000000e-01 1.00000000000000000000e+00 
layer_sizes=9 4 2 
scale_included=0
neurons (num_inputs, activation_function, activation_steepness)=(0, 0, 0.00000000000000000000e+00) (0, 0, 0.00000000000000000000e+00) (0, 0, 0.00000000000000000000e+00) (0, 0, 0.00000000000000000000e+00) (0, 0, 0.00000000000000000000e+00) (0, 0, 0.00000000000000000000e+00) (0, 0, 0.00000000000000000000e+00) (0, 0, 0.00000000000000000000e+00) (0, 0, 0.00000000000000000000e+00) (9, 6, 5.00000000000000000000e-01) (9, 6, 5.00000000000000000000e-01) (9, 6, 5.00000000000000000000e-01) (0, 6, 0.00000000000000000000e+00) (4, 4, 5.00000000000000000000e-01) (0, 4, 0.00000000000000000000e+00) 
connections (connected_to_neuron, weight)=(0, 1.92525265307050985619e+00) (1, 1.08737310247415419617e+00) (2, 1.06390881763690825501e+00) (3, 1.10492780284875746766e+00) (4, 9.81148409116209596625e-01) (5, 9.83120659756601900092e-01) (6, 5.68600646352303562558e-01) (7, 9.72687380827415237761e-01) (8, -6.26097581862665952812e-01) (0, 5.01788643627166575101e+00) (1, 2.00869139073074531865e+00) (2, 1.86917847929180380717e+00) (3, 1.94766565946520020525e+00) (4, 1.99604380665004899065e+00) (5, 1.93530503449619462053e+00) (6, 1.72624091550556868491e+00) (7, 1.76091799186671793542e+00) (8, -3.24412540355340883735e+00) (0, 1.65316389713099298753e+00) (1, 6.80002365516365836484e-01) (2, 9.23281394612672889899e-01) (3, 7.43011147038878272397e-01) (4, 7.70308032886923621518e-01) (5, 9.64709949415805789741e-01) (6, 3.36205534982217280060e-01) (7, 7.45507510800518247152e-01) (8, -6.18712460922457241352e-01) (9, 3.53472544146267342313e+00) (10, 1.48547252893861685408e+01) (11, 2.54909193217269791631e+00) (12, -1.70397015487886416274e+00) 
