FANN_FLO_2.1
num_layers=3
learning_rate=0.700000
connection_rate=1.000000
network_type=0
learning_momentum=0.000000
training_algorithm=2
train_error_function=1
train_stop_function=1
cascade_output_change_fraction=0.010000
quickprop_decay=-0.000100
quickprop_mu=1.750000
rprop_increase_factor=1.200000
rprop_decrease_factor=0.500000
rprop_delta_min=0.000000
rprop_delta_max=50.000000
rprop_delta_zero=0.100000
cascade_output_stagnation_epochs=12
cascade_candidate_change_fraction=0.010000
cascade_candidate_stagnation_epochs=12
cascade_max_out_epochs=150
cascade_min_out_epochs=50
cascade_max_cand_epochs=150
cascade_min_cand_epochs=50
cascade_num_candidate_groups=2
bit_fail_limit=1.00000000000000005551e-01
cascade_candidate_limit=1.00000000000000000000e+03
cascade_weight_multiplier=4.00000000000000022204e-01
cascade_activation_functions_count=10
cascade_activation_functions=3 5 7 8 10 11 14 15 16 17 
cascade_activation_steepnesses_count=4
cascade_activation_steepnesses=2.50000000000000000000e-01 5.00000000000000000000e-01 7.50000000000000000000e-01 1.00000000000000000000e+00 
layer_sizes=9 4 2 
scale_included=0
neurons (num_inputs, activation_function, activation_steepness)=(0, 0, 0.00000000000000000000e+00) (0, 0, 0.00000000000000000000e+00) (0, 0, 0.00000000000000000000e+00) (0, 0, 0.00000000000000000000e+00) (0, 0, 0.00000000000000000000e+00) (0, 0, 0.00000000000000000000e+00) (0, 0, 0.00000000000000000000e+00) (0, 0, 0.00000000000000000000e+00) (0, 0, 0.00000000000000000000e+00) (9, 6, 5.00000000000000000000e-01) (9, 6, 5.00000000000000000000e-01) (9, 6, 5.00000000000000000000e-01) (0, 6, 0.00000000000000000000e+00) (4, 4, 5.00000000000000000000e-01) (0, 4, 0.00000000000000000000e+00) 
connections (connected_to_neuron, weight)=(0, 1.57936467265288227324e+00) (1, 8.45355596740218095952e-01) (2, 9.98022991975538897869e-01) (3, 9.63236639122779902955e-01) (4, 9.82254931947225684574e-01) (5, 1.01206015031575469187e+00) (6, 8.11814033750318242433e-01) (7, 8.24758340504428866247e-01) (8, -1.26191600848180018879e+00) (0, 7.73124729301465696274e-01) (1, 6.58123692650766201062e-01) (2, 5.89293639205978991846e-01) (3, 7.04605947832877776982e-01) (4, 3.03628636739756707641e-01) (5, 5.76720516227768542628e-01) (6, 3.83705851154327870489e-01) (7, 4.79812191025602907679e-01) (8, -4.48316826226968667690e-01) (0, 9.07940802033675997684e-01) (1, 1.88165512428799552858e+00) (2, 1.95028616645671970531e+00) (3, 8.75005254426181489080e-01) (4, 1.64883439590621683202e+00) (5, 1.51903232227238516039e+00) (6, 6.38582051115036630762e-01) (7, 1.38464597959640722813e-01) (8, -2.49903302410663208377e+00) (9, 3.76936059884357845817e+01) (10, 1.57864062945750815992e+00) (11, 1.21430855419697425468e+00) (12, -9.60686527538383350233e-01) 
